{"learner":{"attributes":{"best_iteration":"72","best_score":"0.8017611212675197","scikit_learn":"{\"_estimator_type\": \"classifier\"}"},"feature_names":["open","high","low","close","volume","vader_compound","vader_pos","vader_neg","vader_neu","sentiment_label","finbert_score","finbert_label","fng_value","fng_classification","social_score","social_votes","quote_asset_volume","num_trades","taker_buy_base_volume","taker_buy_quote_volume","EMA_9","EMA_21","MACD","MACD_signal","BB_upper","BB_lower","BB_pct_b","RSI_14","Stoch_K","Stoch_D","ROC_10","ATR_14","high_low_spread","OBV","taker_buy_ratio","hour","day_of_week","close_lag_1","close_lag_3","close_lag_7","return_1d","price_above_ma1","return_2d","price_above_ma2","return_3d","price_above_ma3","return_5d","price_above_ma5","return_7d","price_above_ma7","return_14d","price_above_ma14","return_21d","price_above_ma21","return_30d","price_above_ma30","volatility_5d","vol_ratio_5d","close_zscore_5d","volatility_7d","vol_ratio_7d","close_zscore_7d","volatility_14d","vol_ratio_14d","close_zscore_14d","volatility_21d","vol_ratio_21d","close_zscore_21d","volatility_30d","vol_ratio_30d","close_zscore_30d","ema_cross","macd_cross","macd_hist","macd_hist_change","price_vs_ema9","price_vs_ema21","ema_gap","bb_width","bb_squeeze","bb_breakout_up","bb_breakout_down","rsi_overbought","rsi_oversold","rsi_bullish","rsi_change_3d","rsi_change_7d","stoch_cross","stoch_overbought","stoch_oversold","atr_ratio","high_volatility","atr_change","volume_spike","obv_change","obv_trend","buy_pressure","buy_pressure_trend","sentiment_ma3","sentiment_ma7","sentiment_ma14","sentiment_trend","sentiment_momentum","sentiment_pos","sentiment_neg","sentiment_strong_pos","sentiment_strong_neg","vader_pos_change","vader_neg_change","finbert_ma3","finbert_ma7","finbert_trend","fng_extreme_fear","fng_fear","fng_greed","fng_extreme_greed","fng_change_3d","fng_change_7d","fng_ma7","social_spike","social_trend","social_votes_spike","is_weekend","is_monday","is_friday","month","quarter","target_lag_1","target_lag_2","target_lag_3","target_lag_5","target_lag_7","target_lag_14","higher_high","lower_low","doji","bullish_candle","candle_body","bull_confluence","bear_confluence","sentiment_tech_agree"],"feature_types":["float","float","float","float","float","float","float","float","float","float","float","float","float","float","float","float","float","float","float","float","float","float","float","float","float","float","float","float","float","float","float","float","float","float","float","float","float","float","float","float","float","float","float","float","float","float","float","float","float","float","float","float","float","float","float","float","float","float","float","float","float","float","float","float","float","float","float","float","float","float","float","float","float","float","float","float","float","float","float","float","float","float","float","float","float","float","float","float","float","float","float","float","float","float","float","float","float","float","float","float","float","float","float","float","float","float","float","float","float","float","float","float","float","float","float","float","float","float","float","float","float","float","float","float","float","float","float","float","float","float","float","float","float","float","float","float","float","float","float","float","float"],"gradient_booster":{"model":{"cats":{"enc":[],"feature_segments":[],"sorted_idx":[]},"gbtree_model_param":{"num_parallel_tree":"1","num_trees":"133"},"iteration_indptr":[0,1,2,3,4,5,6,7,8,9,10,11,12,13,14,15,16,17,18,19,20,21,22,23,24,25,26,27,28,29,30,31,32,33,34,35,36,37,38,39,40,41,42,43,44,45,46,47,48,49,50,51,52,53,54,55,56,57,58,59,60,61,62,63,64,65,66,67,68,69,70,71,72,73,74,75,76,77,78,79,80,81,82,83,84,85,86,87,88,89,90,91,92,93,94,95,96,97,98,99,100,101,102,103,104,105,106,107,108,109,110,111,112,113,114,115,116,117,118,119,120,121,122,123,124,125,126,127,128,129,130,131,132,133],"tree_info":[0,0,0,0,0,0,0,0,0,0,0,0,0,0,0,0,0,0,0,0,0,0,0,0,0,0,0,0,0,0,0,0,0,0,0,0,0,0,0,0,0,0,0,0,0,0,0,0,0,0,0,0,0,0,0,0,0,0,0,0,0,0,0,0,0,0,0,0,0,0,0,0,0,0,0,0,0,0,0,0,0,0,0,0,0,0,0,0,0,0,0,0,0,0,0,0,0,0,0,0,0,0,0,0,0,0,0,0,0,0,0,0,0,0,0,0,0,0,0,0,0,0,0,0,0,0,0,0,0,0,0,0,0],"trees":[{"base_weights":[1.0595175E-2,-7.771097E-1,8.56304E-1,-4.7561037E-3,-3.521674E-2,4.323074E-2,1.4765653E-2],"categories":[],"categories_nodes":[],"categories_segments":[],"categories_sizes":[],"default_left":[0,0,0,0,0,0,0],"id":0,"left_children":[1,3,5,-1,-1,-1,-1],"loss_changes":[6.3607806E2,1.11125275E2,9.2365234E1,0E0,0E0,0E0,0E0],"parents":[2147483647,0,0,1,1,2,2],"right_children":[2,4,6,-1,-1,-1,-1],"split_conditions":[1E0,-5.6526256E-1,1.473201E-1,-4.7561037E-3,-3.521674E-2,4.323074E-2,1.4765653E-2],"split_indices":[127,40,40,0,0,0,0],"split_type":[0,0,0,0,0,0,0],"sum_hessian":[9.328517E2,4.8145975E2,4.5139197E2,1.8540042E2,2.9605933E2,1.7420552E2,2.7718643E2],"tree_param":{"num_deleted":"0","num_feature":"141","num_nodes":"7","size_leaf_vector":"1"}},{"base_weights":[1.3926271E-2,-7.742125E-1,8.4756666E-1,-1.5594141E-2,-4.248966E-2,4.448839E-2,1.609223E-2],"categories":[],"categories_nodes":[],"categories_segments":[],"categories_sizes":[],"default_left":[0,0,0,0,0,0,0],"id":1,"left_children":[1,3,5,-1,-1,-1,-1],"loss_changes":[6.340503E2,7.727591E1,8.810193E1,0E0,0E0,0E0,0E0],"parents":[2147483647,0,0,1,1,2,2],"right_children":[2,4,6,-1,-1,-1,-1],"split_conditions":[1E0,1E0,1E0,-1.5594141E-2,-4.248966E-2,4.448839E-2,1.609223E-2],"split_indices":[127,43,43,0,0,0,0],"split_type":[0,0,0,0,0,0,0],"sum_hessian":[9.430139E2,4.831726E2,4.5984134E2,3.457025E2,1.3747008E2,1.5181465E2,3.080267E2],"tree_param":{"num_deleted":"0","num_feature":"141","num_nodes":"7","size_leaf_vector":"1"}},{"base_weights":[-0E0,-7.5434494E-1,8.072407E-1,-5.8871917E-3,-3.355064E-2,4.3595742E-2,1.4065251E-2],"categories":[],"categories_nodes":[],"categories_segments":[],"categories_sizes":[],"default_left":[0,0,0,0,0,0,0],"id":2,"left_children":[1,3,5,-1,-1,-1,-1],"loss_changes":[5.8723596E2,9.250238E1,9.671716E1,0E0,0E0,0E0,0E0],"parents":[2147483647,0,0,1,1,2,2],"right_children":[2,4,6,-1,-1,-1,-1],"split_conditions":[1E0,-5.447189E-1,7.4606925E-2,-5.8871917E-3,-3.355064E-2,4.3595742E-2,1.4065251E-2],"split_indices":[127,40,40,0,0,0,0],"split_type":[0,0,0,0,0,0,0],"sum_hessian":[9.418554E2,4.859859E2,4.558695E2,1.8901746E2,2.9696844E2,1.5711336E2,2.9875613E2],"tree_param":{"num_deleted":"0","num_feature":"141","num_nodes":"7","size_leaf_vector":"1"}},{"base_weights":[-9.776336E-3,-7.4337095E-1,7.716582E-1,-6.330496E-3,-3.226504E-2,3.9292093E-2,1.3266339E-2],"categories":[],"categories_nodes":[],"categories_segments":[],"categories_sizes":[],"default_left":[0,0,0,0,0,0,0],"id":3,"left_children":[1,3,5,-1,-1,-1,-1],"loss_changes":[5.5231665E2,8.025873E1,7.743921E1,0E0,0E0,0E0,0E0],"parents":[2147483647,0,0,1,1,2,2],"right_children":[2,4,6,-1,-1,-1,-1],"split_conditions":[1E0,-5.6526256E-1,1.473201E-1,-6.330496E-3,-3.226504E-2,3.9292093E-2,1.3266339E-2],"split_indices":[127,40,40,0,0,0,0],"split_type":[0,0,0,0,0,0,0],"sum_hessian":[9.409007E2,4.872405E2,4.536602E2,1.842056E2,3.030349E2,1.7292262E2,2.8073758E2],"tree_param":{"num_deleted":"0","num_feature":"141","num_nodes":"7","size_leaf_vector":"1"}},{"base_weights":[-0E0,-7.0740926E-1,7.5651646E-1,-1.3913619E-2,-4.2631827E-2,4.087991E-2,1.289867E-2],"categories":[],"categories_nodes":[],"categories_segments":[],"categories_sizes":[],"default_left":[0,0,0,0,0,0,0],"id":4,"left_children":[1,3,5,-1,-1,-1,-1],"loss_changes":[5.148559E2,8.342613E1,8.7109985E1,0E0,0E0,0E0,0E0],"parents":[2147483647,0,0,1,1,2,2],"right_children":[2,4,6,-1,-1,-1,-1],"split_conditions":[1E0,1.3582964E-1,8.519229E-2,-1.3913619E-2,-4.2631827E-2,4.087991E-2,1.289867E-2],"split_indices":[127,40,40,0,0,0,0],"split_type":[0,0,0,0,0,0,0],"sum_hessian":[9.3874097E2,4.853179E2,4.5342307E2,3.6221353E2,1.2310438E2,1.5894879E2,2.944743E2],"tree_param":{"num_deleted":"0","num_feature":"141","num_nodes":"7","size_leaf_vector":"1"}},{"base_weights":[-0E0,-2.95479E-1,3.298557E-1,-2.1181766E-2,2.1273969E-2,-1.939884E-2,2.2738762E-2],"categories":[],"categories_nodes":[],"categories_segments":[],"categories_sizes":[],"default_left":[0,0,0,0,0,0,0],"id":5,"left_children":[1,3,5,-1,-1,-1,-1],"loss_changes":[9.597912E1,2.0296889E2,1.8739905E2,0E0,0E0,0E0,0E0],"parents":[2147483647,0,0,1,1,2,2],"right_children":[2,4,6,-1,-1,-1,-1],"split_conditions":[1E0,1E0,1E0,-2.1181766E-2,2.1273969E-2,-1.939884E-2,2.2738762E-2],"split_indices":[128,127,127,0,0,0,0],"split_type":[0,0,0,0,0,0,0],"sum_hessian":[9.402926E2,4.930257E2,4.4726694E2,3.5501443E2,1.3801125E2,1.3145908E2,3.1580786E2],"tree_param":{"num_deleted":"0","num_feature":"141","num_nodes":"7","size_leaf_vector":"1"}},{"base_weights":[-7.6470274E-4,-6.874515E-1,7.2603655E-1,-9.619304E-3,-3.4139946E-2,3.85758E-2,1.195255E-2],"categories":[],"categories_nodes":[],"categories_segments":[],"categories_sizes":[],"default_left":[0,0,0,0,0,0,0],"id":6,"left_children":[1,3,5,-1,-1,-1,-1],"loss_changes":[4.7763632E2,7.6271484E1,8.013925E1,0E0,0E0,0E0,0E0],"parents":[2147483647,0,0,1,1,2,2],"right_children":[2,4,6,-1,-1,-1,-1],"split_conditions":[1E0,-2.540332E-1,1.3151114E-1,-9.619304E-3,-3.4139946E-2,3.85758E-2,1.195255E-2],"split_indices":[127,40,40,0,0,0,0],"split_type":[0,0,0,0,0,0,0],"sum_hessian":[9.333949E2,4.820197E2,4.5137518E2,2.6446646E2,2.1755327E2,1.66834E2,2.845412E2],"tree_param":{"num_deleted":"0","num_feature":"141","num_nodes":"7","size_leaf_vector":"1"}},{"base_weights":[-0E0,-6.541095E-1,6.9688004E-1,-4.172317E-3,-2.8761908E-2,2.8185245E-2,8.377153E-3],"categories":[],"categories_nodes":[],"categories_segments":[],"categories_sizes":[],"default_left":[0,0,0,0,0,0,0],"id":7,"left_children":[1,3,5,-1,-1,-1,-1],"loss_changes":[4.399599E2,7.123489E1,4.1772476E1,0E0,0E0,0E0,0E0],"parents":[2147483647,0,0,1,1,2,2],"right_children":[2,4,6,-1,-1,-1,-1],"split_conditions":[1E0,-5.521845E-1,5.9514123E-1,-4.172317E-3,-2.8761908E-2,2.8185245E-2,8.377153E-3],"split_indices":[127,5,5,0,0,0,0],"split_type":[0,0,0,0,0,0,0],"sum_hessian":[9.407248E2,4.8645554E2,4.5426926E2,1.7827354E2,3.0818198E2,2.8993604E2,1.6433325E2],"tree_param":{"num_deleted":"0","num_feature":"141","num_nodes":"7","size_leaf_vector":"1"}},{"base_weights":[-0E0,-6.3863313E-1,6.717177E-1,-4.428865E-3,-2.7875116E-2,3.6557313E-2,1.2263806E-2],"categories":[],"categories_nodes":[],"categories_segments":[],"categories_sizes":[],"default_left":[0,0,0,0,0,0,0],"id":8,"left_children":[1,3,5,-1,-1,-1,-1],"loss_changes":[4.1537488E2,6.417218E1,6.449335E1,0E0,0E0,0E0,0E0],"parents":[2147483647,0,0,1,1,2,2],"right_children":[2,4,6,-1,-1,-1,-1],"split_conditions":[1E0,-5.540832E-1,1E0,-4.428865E-3,-2.7875116E-2,3.6557313E-2,1.2263806E-2],"split_indices":[127,10,43,0,0,0,0],"split_type":[0,0,0,0,0,0,0],"sum_hessian":[9.431279E2,4.8291077E2,4.6021716E2,1.7711772E2,3.0579306E2,1.4917184E2,3.1104532E2],"tree_param":{"num_deleted":"0","num_feature":"141","num_nodes":"7","size_leaf_vector":"1"}},{"base_weights":[5.972929E-3,-2.7261966E-1,3.2147554E-1,-1.8942975E-2,1.7860794E-2,-1.4650945E-2,2.0311777E-2],"categories":[],"categories_nodes":[],"categories_segments":[],"categories_sizes":[],"default_left":[0,0,0,0,0,0,0],"id":9,"left_children":[1,3,5,-1,-1,-1,-1],"loss_changes":[8.573676E1,1.526124E2,1.27692184E2,0E0,0E0,0E0,0E0],"parents":[2147483647,0,0,1,1,2,2],"right_children":[2,4,6,-1,-1,-1,-1],"split_conditions":[1E0,1E0,1E0,-1.8942975E-2,1.7860794E-2,-1.4650945E-2,2.0311777E-2],"split_indices":[128,127,127,0,0,0,0],"split_type":[0,0,0,0,0,0,0],"sum_hessian":[9.286129E2,4.887724E2,4.3984048E2,3.511965E2,1.3757588E2,1.2874849E2,3.11092E2],"tree_param":{"num_deleted":"0","num_feature":"141","num_nodes":"7","size_leaf_vector":"1"}},{"base_weights":[-0E0,-6.036782E-1,6.492733E-1,-7.8039444E-3,-3.19826E-2,3.0836593E-2,7.626519E-3],"categories":[],"categories_nodes":[],"categories_segments":[],"categories_sizes":[],"default_left":[0,0,0,0,0,0,0],"id":10,"left_children":[1,3,5,-1,-1,-1,-1],"loss_changes":[3.7373163E2,7.345561E1,6.3597458E1,0E0,0E0,0E0,0E0],"parents":[2147483647,0,0,1,1,2,2],"right_children":[2,4,6,-1,-1,-1,-1],"split_conditions":[1E0,-2.0653182E-1,3.8488016E-1,-7.8039444E-3,-3.19826E-2,3.0836593E-2,7.626519E-3],"split_indices":[127,40,40,0,0,0,0],"split_type":[0,0,0,0,0,0,0],"sum_hessian":[9.274124E2,4.7918954E2,4.4822287E2,2.7453146E2,2.0465807E2,2.2981277E2,2.1841011E2],"tree_param":{"num_deleted":"0","num_feature":"141","num_nodes":"7","size_leaf_vector":"1"}},{"base_weights":[5.8087236E-3,3.547833E-1,-6.146865E-2,1.5531259E-2,-7.37976E-4,1.2899161E-2,-3.2075306E-3],"categories":[],"categories_nodes":[],"categories_segments":[],"categories_sizes":[],"default_left":[0,0,0,0,0,0,0],"id":11,"left_children":[1,3,5,-1,-1,-1,-1],"loss_changes":[2.5097992E1,1.1498108E1,1.8153341E1,0E0,0E0,0E0,0E0],"parents":[2147483647,0,0,1,1,2,2],"right_children":[2,4,6,-1,-1,-1,-1],"split_conditions":[-1.0136976E0,5.5771923E-1,-5.669199E-1,1.5531259E-2,-7.37976E-4,1.2899161E-2,-3.2075306E-3],"split_indices":[23,58,3,0,0,0,0],"split_type":[0,0,0,0,0,0,0],"sum_hessian":[9.293888E2,1.5407872E2,7.7531006E2,1.1413982E2,3.9938908E1,5.5579716E1,7.1973035E2],"tree_param":{"num_deleted":"0","num_feature":"141","num_nodes":"7","size_leaf_vector":"1"}},{"base_weights":[2.0614943E-2,-5.646569E-1,6.6404444E-1,-5.875105E-3,-3.0463584E-2,3.502339E-2,1.0755064E-2],"categories":[],"categories_nodes":[],"categories_segments":[],"categories_sizes":[],"default_left":[0,0,0,0,0,0,0],"id":12,"left_children":[1,3,5,-1,-1,-1,-1],"loss_changes":[3.5923877E2,7.756712E1,6.600975E1,0E0,0E0,0E0,0E0],"parents":[2147483647,0,0,1,1,2,2],"right_children":[2,4,6,-1,-1,-1,-1],"split_conditions":[1E0,-2.540332E-1,1.473201E-1,-5.875105E-3,-3.0463584E-2,3.502339E-2,1.0755064E-2],"split_indices":[127,40,40,0,0,0,0],"split_type":[0,0,0,0,0,0,0],"sum_hessian":[9.272928E2,4.835926E2,4.437002E2,2.65629E2,2.1796361E2,1.6742976E2,2.7627042E2],"tree_param":{"num_deleted":"0","num_feature":"141","num_nodes":"7","size_leaf_vector":"1"}},{"base_weights":[-1.3285481E-2,-2.852152E-1,2.8424013E-1,-1.7967794E-2,1.4331676E-2,-1.4832658E-2,1.9048188E-2],"categories":[],"categories_nodes":[],"categories_segments":[],"categories_sizes":[],"default_left":[0,0,0,0,0,0,0],"id":13,"left_children":[1,3,5,-1,-1,-1,-1],"loss_changes":[7.869012E1,1.1764902E2,1.2074038E2,0E0,0E0,0E0,0E0],"parents":[2147483647,0,0,1,1,2,2],"right_children":[2,4,6,-1,-1,-1,-1],"split_conditions":[1E0,1E0,1E0,-1.7967794E-2,1.4331676E-2,-1.4832658E-2,1.9048188E-2],"split_indices":[128,127,127,0,0,0,0],"split_type":[0,0,0,0,0,0,0],"sum_hessian":[9.2626996E2,4.8891577E2,4.373542E2,3.524351E2,1.364807E2,1.3046465E2,3.0688953E2],"tree_param":{"num_deleted":"0","num_feature":"141","num_nodes":"7","size_leaf_vector":"1"}},{"base_weights":[-9.999764E-3,3.5658187E-1,-8.91036E-2,1.5000394E-2,-1.0252441E-3,1.3536425E-2,-4.0272037E-3],"categories":[],"categories_nodes":[],"categories_segments":[],"categories_sizes":[],"default_left":[0,0,0,0,0,0,0],"id":14,"left_children":[1,3,5,-1,-1,-1,-1],"loss_changes":[2.8571672E1,1.0489721E1,1.9369415E1,0E0,0E0,0E0,0E0],"parents":[2147483647,0,0,1,1,2,2],"right_children":[2,4,6,-1,-1,-1,-1],"split_conditions":[-1.0030223E0,6.337672E-1,-5.6925774E-1,1.5000394E-2,-1.0252441E-3,1.3536425E-2,-4.0272037E-3],"split_indices":[23,98,3,0,0,0,0],"split_type":[0,0,0,0,0,0,0],"sum_hessian":[9.189596E2,1.5434514E2,7.6461444E2,1.1958629E2,3.4758854E1,4.8847145E1,7.157673E2],"tree_param":{"num_deleted":"0","num_feature":"141","num_nodes":"7","size_leaf_vector":"1"}},{"base_weights":[9.526043E-3,-5.4569966E-1,6.138329E-1,-6.228005E-3,-3.0339666E-2,3.291303E-2,8.545067E-3],"categories":[],"categories_nodes":[],"categories_segments":[],"categories_sizes":[],"default_left":[0,0,0,0,0,0,0],"id":15,"left_children":[1,3,5,-1,-1,-1,-1],"loss_changes":[3.2079715E2,7.345184E1,6.868796E1,0E0,0E0,0E0,0E0],"parents":[2147483647,0,0,1,1,2,2],"right_children":[2,4,6,-1,-1,-1,-1],"split_conditions":[1E0,-2.0653182E-1,1.8556255E-1,-6.228005E-3,-3.0339666E-2,3.291303E-2,8.545067E-3],"split_indices":[127,40,40,0,0,0,0],"split_type":[0,0,0,0,0,0,0],"sum_hessian":[9.283849E2,4.8165164E2,4.4673322E2,2.790806E2,2.0257103E2,1.8072499E2,2.6600824E2],"tree_param":{"num_deleted":"0","num_feature":"141","num_nodes":"7","size_leaf_vector":"1"}},{"base_weights":[8.9583846E-5,-2.6571217E-1,2.9330528E-1,-2.5632633E-3,-2.0860083E-2,2.3914635E-2,3.933482E-3],"categories":[],"categories_nodes":[],"categories_segments":[],"categories_sizes":[],"default_left":[0,0,0,0,0,0,0],"id":16,"left_children":[1,3,5,-1,-1,-1,-1],"loss_changes":[7.487874E1,3.6525444E1,3.6048256E1,0E0,0E0,0E0,0E0],"parents":[2147483647,0,0,1,1,2,2],"right_children":[2,4,6,-1,-1,-1,-1],"split_conditions":[1E0,9.757066E-2,1E0,-2.5632633E-3,-2.0860083E-2,2.3914635E-2,3.933482E-3],"split_indices":[128,40,45,0,0,0,0],"split_type":[0,0,0,0,0,0,0],"sum_hessian":[9.118238E2,4.7350244E2,4.3832135E2,3.3728076E2,1.3622168E2,1.0267591E2,3.3564545E2],"tree_param":{"num_deleted":"0","num_feature":"141","num_nodes":"7","size_leaf_vector":"1"}},{"base_weights":[-0E0,-5.5461806E-1,5.78729E-1,-3.913331E-3,-2.4278041E-2,2.4182681E-2,5.752248E-3],"categories":[],"categories_nodes":[],"categories_segments":[],"categories_sizes":[],"default_left":[0,0,0,0,0,0,0],"id":17,"left_children":[1,3,5,-1,-1,-1,-1],"loss_changes":[3.0189154E2,4.695732E1,3.5973846E1,0E0,0E0,0E0,0E0],"parents":[2147483647,0,0,1,1,2,2],"right_children":[2,4,6,-1,-1,-1,-1],"split_conditions":[1E0,-5.521845E-1,5.9514123E-1,-3.913331E-3,-2.4278041E-2,2.4182681E-2,5.752248E-3],"split_indices":[127,5,5,0,0,0,0],"split_type":[0,0,0,0,0,0,0],"sum_hessian":[9.1289636E2,4.671828E2,4.4571356E2,1.7369768E2,2.934851E2,2.8222318E2,1.634904E2],"tree_param":{"num_deleted":"0","num_feature":"141","num_nodes":"7","size_leaf_vector":"1"}},{"base_weights":[1.1991683E-2,-5.290873E-1,5.8581823E-1,-1.073951E-3,-2.3847766E-2,2.4501784E-2,6.0092853E-3],"categories":[],"categories_nodes":[],"categories_segments":[],"categories_sizes":[],"default_left":[0,0,0,0,0,0,0],"id":18,"left_children":[1,3,5,-1,-1,-1,-1],"loss_changes":[2.9454373E2,5.7826538E1,3.6682648E1,0E0,0E0,0E0,0E0],"parents":[2147483647,0,0,1,1,2,2],"right_children":[2,4,6,-1,-1,-1,-1],"split_conditions":[1E0,-1.8463123E0,6.014587E-1,-1.073951E-3,-2.3847766E-2,2.4501784E-2,6.0092853E-3],"split_indices":[127,5,5,0,0,0,0],"split_type":[0,0,0,0,0,0,0],"sum_hessian":[9.203041E2,4.713404E2,4.4896368E2,1.634885E2,3.078519E2,2.823321E2,1.6663159E2],"tree_param":{"num_deleted":"0","num_feature":"141","num_nodes":"7","size_leaf_vector":"1"}},{"base_weights":[-0E0,-5.157303E-1,5.496021E-1,-8.828076E-3,-3.4485463E-2,3.2638445E-2,8.395483E-3],"categories":[],"categories_nodes":[],"categories_segments":[],"categories_sizes":[],"default_left":[0,0,0,0,0,0,0],"id":19,"left_children":[1,3,5,-1,-1,-1,-1],"loss_changes":[2.647471E2,6.503687E1,6.2426926E1,0E0,0E0,0E0,0E0],"parents":[2147483647,0,0,1,1,2,2],"right_children":[2,4,6,-1,-1,-1,-1],"split_conditions":[1E0,1.13582574E-1,7.4606925E-2,-8.828076E-3,-3.4485463E-2,3.2638445E-2,8.395483E-3],"split_indices":[127,40,40,0,0,0,0],"split_type":[0,0,0,0,0,0,0],"sum_hessian":[9.0493964E2,4.6625967E2,4.3867993E2,3.473253E2,1.18934395E2,1.4510265E2,2.9357727E2],"tree_param":{"num_deleted":"0","num_feature":"141","num_nodes":"7","size_leaf_vector":"1"}},{"base_weights":[5.8728643E-3,-2.2747673E-1,2.6469174E-1,-1.8715762E-3,-1.9565936E-2,2.595857E-2,1.6618766E-3],"categories":[],"categories_nodes":[],"categories_segments":[],"categories_sizes":[],"default_left":[0,0,0,0,0,0,0],"id":20,"left_children":[1,3,5,-1,-1,-1,-1],"loss_changes":[5.8097073E1,3.3089954E1,5.477671E1,0E0,0E0,0E0,0E0],"parents":[2147483647,0,0,1,1,2,2],"right_children":[2,4,6,-1,-1,-1,-1],"split_conditions":[1E0,-6.224263E-3,1.373605E-1,-1.8715762E-3,-1.9565936E-2,2.595857E-2,1.6618766E-3],"split_indices":[128,58,42,0,0,0,0],"split_type":[0,0,0,0,0,0,0],"sum_hessian":[9.074096E2,4.7180063E2,4.3560898E2,3.440706E2,1.2773002E2,1.08782166E2,3.268268E2],"tree_param":{"num_deleted":"0","num_feature":"141","num_nodes":"7","size_leaf_vector":"1"}},{"base_weights":[-3.79903E-3,-4.9051702E-1,5.171091E-1,-8.897E-3,-3.4817807E-2,3.0203998E-2,7.456774E-3],"categories":[],"categories_nodes":[],"categories_segments":[],"categories_sizes":[],"default_left":[0,0,0,0,0,0,0],"id":21,"left_children":[1,3,5,-1,-1,-1,-1],"loss_changes":[2.3796217E2,6.1529083E1,5.6064682E1,0E0,0E0,0E0,0E0],"parents":[2147483647,0,0,1,1,2,2],"right_children":[2,4,6,-1,-1,-1,-1],"split_conditions":[1E0,1.8169446E-1,1.13582574E-1,-8.897E-3,-3.4817807E-2,3.0203998E-2,7.456774E-3],"split_indices":[127,40,40,0,0,0,0],"split_type":[0,0,0,0,0,0,0],"sum_hessian":[9.087533E2,4.7267242E2,4.3608087E2,3.68745E2,1.03927444E2,1.5302266E2,2.830582E2],"tree_param":{"num_deleted":"0","num_feature":"141","num_nodes":"7","size_leaf_vector":"1"}},{"base_weights":[-1.5386935E-2,1.14722E-1,-1.8927224E-1,-8.069254E-3,2.9579654E-2,-3.235434E-2,5.5363746E-3],"categories":[],"categories_nodes":[],"categories_segments":[],"categories_sizes":[],"default_left":[0,0,0,0,0,0,0],"id":22,"left_children":[1,3,5,-1,-1,-1,-1],"loss_changes":[2.2559456E1,1.7519409E2,1.3787343E2,0E0,0E0,0E0,0E0],"parents":[2147483647,0,0,1,1,2,2],"right_children":[2,4,6,-1,-1,-1,-1],"split_conditions":[1.3582964E-1,1E0,1E0,-8.069254E-3,2.9579654E-2,-3.235434E-2,5.5363746E-3],"split_indices":[40,127,127,0,0,0,0],"split_type":[0,0,0,0,0,0,0],"sum_hessian":[9.0919336E2,5.1171707E2,3.9747626E2,3.5396924E2,1.5774783E2,1.1887562E2,2.7860065E2],"tree_param":{"num_deleted":"0","num_feature":"141","num_nodes":"7","size_leaf_vector":"1"}},{"base_weights":[-0E0,-4.714556E-1,4.9308318E-1,-8.820094E-3,-3.460061E-2,2.9894713E-2,7.280574E-3],"categories":[],"categories_nodes":[],"categories_segments":[],"categories_sizes":[],"default_left":[0,0,0,0,0,0,0],"id":23,"left_children":[1,3,5,-1,-1,-1,-1],"loss_changes":[2.1737158E2,5.6580963E1,5.442031E1,0E0,0E0,0E0,0E0],"parents":[2147483647,0,0,1,1,2,2],"right_children":[2,4,6,-1,-1,-1,-1],"split_conditions":[1E0,2.1784425E-1,7.4606925E-2,-8.820094E-3,-3.460061E-2,2.9894713E-2,7.280574E-3],"split_indices":[127,40,40,0,0,0,0],"split_type":[0,0,0,0,0,0,0],"sum_hessian":[9.0409326E2,4.6443866E2,4.3965463E2,3.710792E2,9.335947E1,1.4432257E2,2.9533206E2],"tree_param":{"num_deleted":"0","num_feature":"141","num_nodes":"7","size_leaf_vector":"1"}},{"base_weights":[-6.5097264E-3,-4.541565E-1,4.7423568E-1,-1.1590808E-3,-2.1178318E-2,2.977907E-2,7.0197126E-3],"categories":[],"categories_nodes":[],"categories_segments":[],"categories_sizes":[],"default_left":[0,0,0,0,0,0,0],"id":24,"left_children":[1,3,5,-1,-1,-1,-1],"loss_changes":[2.0118622E2,4.631942E1,5.306672E1,0E0,0E0,0E0,0E0],"parents":[2147483647,0,0,1,1,2,2],"right_children":[2,4,6,-1,-1,-1,-1],"split_conditions":[1E0,-5.521845E-1,1E0,-1.1590808E-3,-2.1178318E-2,2.977907E-2,7.0197126E-3],"split_indices":[127,5,136,0,0,0,0],"split_type":[0,0,0,0,0,0,0],"sum_hessian":[9.032045E2,4.7080975E2,4.3239478E2,1.7691309E2,2.9389667E2,1.3486066E2,2.9753412E2],"tree_param":{"num_deleted":"0","num_feature":"141","num_nodes":"7","size_leaf_vector":"1"}},{"base_weights":[5.2428977E-3,-4.4738692E-1,4.9348822E-1,-7.979374E-3,-3.3192813E-2,2.9780278E-2,7.629044E-3],"categories":[],"categories_nodes":[],"categories_segments":[],"categories_sizes":[],"default_left":[0,0,0,0,0,0,0],"id":25,"left_children":[1,3,5,-1,-1,-1,-1],"loss_changes":[2.0475659E2,5.543931E1,5.0818756E1,0E0,0E0,0E0,0E0],"parents":[2147483647,0,0,1,1,2,2],"right_children":[2,4,6,-1,-1,-1,-1],"split_conditions":[1E0,2.0189236E-1,7.4606925E-2,-7.979374E-3,-3.3192813E-2,2.9780278E-2,7.629044E-3],"split_indices":[127,40,40,0,0,0,0],"split_type":[0,0,0,0,0,0,0],"sum_hessian":[8.9431287E2,4.613082E2,4.330047E2,3.6440793E2,9.6900276E1,1.383808E2,2.946239E2],"tree_param":{"num_deleted":"0","num_feature":"141","num_nodes":"7","size_leaf_vector":"1"}},{"base_weights":[-0E0,-4.2188564E-1,4.4995195E-1,4.9042355E-5,-2.0860752E-2,2.7819993E-2,7.002423E-3],"categories":[],"categories_nodes":[],"categories_segments":[],"categories_sizes":[],"default_left":[0,0,0,0,0,0,0],"id":26,"left_children":[1,3,5,-1,-1,-1,-1],"loss_changes":[1.7581512E2,5.457811E1,4.3865883E1,0E0,0E0,0E0,0E0],"parents":[2147483647,0,0,1,1,2,2],"right_children":[2,4,6,-1,-1,-1,-1],"split_conditions":[1E0,-5.521845E-1,1E0,4.9042355E-5,-2.0860752E-2,2.7819993E-2,7.002423E-3],"split_indices":[127,5,43,0,0,0,0],"split_type":[0,0,0,0,0,0,0],"sum_hessian":[8.927752E2,4.6263293E2,4.301423E2,1.7313834E2,2.894946E2,1.318586E2,2.982837E2],"tree_param":{"num_deleted":"0","num_feature":"141","num_nodes":"7","size_leaf_vector":"1"}},{"base_weights":[-9.547058E-3,3.0877337E-1,-7.81807E-2,1.4399838E-2,-2.0448635E-4,-9.795835E-3,5.8690635E-3],"categories":[],"categories_nodes":[],"categories_segments":[],"categories_sizes":[],"default_left":[0,0,0,0,0,0,0],"id":27,"left_children":[1,3,5,-1,-1,-1,-1],"loss_changes":[2.1112694E1,9.994392E0,5.171232E1,0E0,0E0,0E0,0E0],"parents":[2147483647,0,0,1,1,2,2],"right_children":[2,4,6,-1,-1,-1,-1],"split_conditions":[-1.0136976E0,1.9774067E0,1E0,1.4399838E-2,-2.0448635E-4,-9.795835E-3,5.8690635E-3],"split_indices":[23,65,128,0,0,0,0],"split_type":[0,0,0,0,0,0,0],"sum_hessian":[8.9119147E2,1.4837305E2,7.428184E2,1.0265691E2,4.571614E1,3.9687845E2,3.4594E2],"tree_param":{"num_deleted":"0","num_feature":"141","num_nodes":"7","size_leaf_vector":"1"}},{"base_weights":[7.744626E-4,-4.2163384E-1,4.627398E-1,-7.1741682E-3,-2.8822629E-2,2.7579008E-2,7.240279E-3],"categories":[],"categories_nodes":[],"categories_segments":[],"categories_sizes":[],"default_left":[0,0,0,0,0,0,0],"id":28,"left_children":[1,3,5,-1,-1,-1,-1],"loss_changes":[1.8021796E2,4.537294E1,4.252086E1,0E0,0E0,0E0,0E0],"parents":[2147483647,0,0,1,1,2,2],"right_children":[2,4,6,-1,-1,-1,-1],"split_conditions":[1E0,1.13582574E-1,8.227056E-2,-7.1741682E-3,-2.8822629E-2,2.7579008E-2,7.240279E-3],"split_indices":[127,40,40,0,0,0,0],"split_type":[0,0,0,0,0,0,0],"sum_hessian":[8.896865E2,4.617862E2,4.2790036E2,3.4762772E2,1.1415848E2,1.3753024E2,2.9037012E2],"tree_param":{"num_deleted":"0","num_feature":"141","num_nodes":"7","size_leaf_vector":"1"}},{"base_weights":[-0E0,-2.2076985E-1,2.3792243E-1,-1.2689468E-3,-1.7136907E-2,1.7557692E-2,1.3837994E-3],"categories":[],"categories_nodes":[],"categories_segments":[],"categories_sizes":[],"default_left":[0,0,0,0,0,0,0],"id":29,"left_children":[1,3,5,-1,-1,-1,-1],"loss_changes":[4.961866E1,2.8472284E1,2.8277815E1,0E0,0E0,0E0,0E0],"parents":[2147483647,0,0,1,1,2,2],"right_children":[2,4,6,-1,-1,-1,-1],"split_conditions":[1E0,-1.2844136E-1,2.5756288E-1,-1.2689468E-3,-1.7136907E-2,1.7557692E-2,1.3837994E-3],"split_indices":[128,58,58,0,0,0,0],"split_type":[0,0,0,0,0,0,0],"sum_hessian":[8.877599E2,4.588402E2,4.2891968E2,3.083604E2,1.5047978E2,1.4835556E2,2.8056412E2],"tree_param":{"num_deleted":"0","num_feature":"141","num_nodes":"7","size_leaf_vector":"1"}},{"base_weights":[6.709232E-3,-3.944636E-1,4.4612363E-1,-0E0,-1.9964734E-2,2.7395396E-2,6.6082347E-3],"categories":[],"categories_nodes":[],"categories_segments":[],"categories_sizes":[],"default_left":[0,0,0,0,0,0,0],"id":30,"left_children":[1,3,5,-1,-1,-1,-1],"loss_changes":[1.620492E2,4.806846E1,4.413845E1,0E0,0E0,0E0,0E0],"parents":[2147483647,0,0,1,1,2,2],"right_children":[2,4,6,-1,-1,-1,-1],"split_conditions":[1E0,-5.6526256E-1,8.227056E-2,-0E0,-1.9964734E-2,2.7395396E-2,6.6082347E-3],"split_indices":[127,40,40,0,0,0,0],"split_type":[0,0,0,0,0,0,0],"sum_hessian":[8.840651E2,4.5905634E2,4.250088E2,1.8378827E2,2.752681E2,1.36177E2,2.888318E2],"tree_param":{"num_deleted":"0","num_feature":"141","num_nodes":"7","size_leaf_vector":"1"}},{"base_weights":[3.6612176E-3,-3.9495286E-1,4.2907357E-1,-6.915175E-3,-3.0508988E-2,2.2670776E-2,3.1091976E-3],"categories":[],"categories_nodes":[],"categories_segments":[],"categories_sizes":[],"default_left":[0,0,0,0,0,0,0],"id":31,"left_children":[1,3,5,-1,-1,-1,-1],"loss_changes":[1.560927E2,4.6835594E1,4.4022713E1,0E0,0E0,0E0,0E0],"parents":[2147483647,0,0,1,1,2,2],"right_children":[2,4,6,-1,-1,-1,-1],"split_conditions":[1E0,2.0189236E-1,3.8488016E-1,-6.915175E-3,-3.0508988E-2,2.2670776E-2,3.1091976E-3],"split_indices":[127,40,40,0,0,0,0],"split_type":[0,0,0,0,0,0,0],"sum_hessian":[8.8494543E2,4.5364297E2,4.3130246E2,3.6199588E2,9.164709E1,2.1421304E2,2.1708942E2],"tree_param":{"num_deleted":"0","num_feature":"141","num_nodes":"7","size_leaf_vector":"1"}},{"base_weights":[-1.4540064E-2,-2.1894465E-1,2.0223272E-1,9.3782856E-4,-1.3547486E-2,1.9914674E-2,1.7731552E-3],"categories":[],"categories_nodes":[],"categories_segments":[],"categories_sizes":[],"default_left":[0,0,0,0,0,0,0],"id":32,"left_children":[1,3,5,-1,-1,-1,-1],"loss_changes":[4.1475327E1,2.8336363E1,2.801645E1,0E0,0E0,0E0,0E0],"parents":[2147483647,0,0,1,1,2,2],"right_children":[2,4,6,-1,-1,-1,-1],"split_conditions":[1E0,-3.3917958E-1,1E0,9.3782856E-4,-1.3547486E-2,1.9914674E-2,1.7731552E-3],"split_indices":[128,28,45,0,0,0,0],"split_type":[0,0,0,0,0,0,0],"sum_hessian":[8.7590704E2,4.57386E2,4.1852103E2,2.1182716E2,2.4555884E2,9.382299E1,3.2469803E2],"tree_param":{"num_deleted":"0","num_feature":"141","num_nodes":"7","size_leaf_vector":"1"}},{"base_weights":[9.590086E-3,-1.7257492E-1,2.157429E-1,-1.1221476E-2,9.2865825E-3,-9.260328E-3,1.3471667E-2],"categories":[],"categories_nodes":[],"categories_segments":[],"categories_sizes":[],"default_left":[0,0,0,0,0,0,0],"id":33,"left_children":[1,3,5,-1,-1,-1,-1],"loss_changes":[3.5723427E1,4.6412914E1,5.3261284E1,0E0,0E0,0E0,0E0],"parents":[2147483647,0,0,1,1,2,2],"right_children":[2,4,6,-1,-1,-1,-1],"split_conditions":[1E0,1E0,1E0,-1.1221476E-2,9.2865825E-3,-9.260328E-3,1.3471667E-2],"split_indices":[128,127,127,0,0,0,0],"split_type":[0,0,0,0,0,0,0],"sum_hessian":[8.839731E2,4.6249048E2,4.214826E2,3.3343118E2,1.2905928E2,1.23103455E2,2.9837915E2],"tree_param":{"num_deleted":"0","num_feature":"141","num_nodes":"7","size_leaf_vector":"1"}},{"base_weights":[-5.4682344E-3,-1.9174767E-1,1.945814E-1,1.4681082E-3,-1.232374E-2,2.066928E-2,8.677231E-4],"categories":[],"categories_nodes":[],"categories_segments":[],"categories_sizes":[],"default_left":[0,0,0,0,0,0,0],"id":34,"left_children":[1,3,5,-1,-1,-1,-1],"loss_changes":[3.499698E1,2.5932358E1,3.4206207E1,0E0,0E0,0E0,0E0],"parents":[2147483647,0,0,1,1,2,2],"right_children":[2,4,6,-1,-1,-1,-1],"split_conditions":[1E0,-3.5550964E-1,1.15751535E-1,1.4681082E-3,-1.232374E-2,2.066928E-2,8.677231E-4],"split_indices":[128,28,42,0,0,0,0],"split_type":[0,0,0,0,0,0,0],"sum_hessian":[8.7445996E2,4.6008905E2,4.143709E2,2.1051077E2,2.495783E2,9.905742E1,3.153135E2],"tree_param":{"num_deleted":"0","num_feature":"141","num_nodes":"7","size_leaf_vector":"1"}},{"base_weights":[1.5151255E-3,-3.655128E-1,4.0458122E-1,-6.180443E-3,-3.0532248E-2,2.4501666E-2,5.1241117E-3],"categories":[],"categories_nodes":[],"categories_segments":[],"categories_sizes":[],"default_left":[0,0,0,0,0,0,0],"id":35,"left_children":[1,3,5,-1,-1,-1,-1],"loss_changes":[1.3608064E2,4.8276573E1,4.004386E1,0E0,0E0,0E0,0E0],"parents":[2147483647,0,0,1,1,2,2],"right_children":[2,4,6,-1,-1,-1,-1],"split_conditions":[1E0,2.1784425E-1,1.473201E-1,-6.180443E-3,-3.0532248E-2,2.4501666E-2,5.1241117E-3],"split_indices":[127,40,40,0,0,0,0],"split_type":[0,0,0,0,0,0,0],"sum_hessian":[8.821508E2,4.5830896E2,4.238419E2,3.7169492E2,8.661406E1,1.509426E2,2.728993E2],"tree_param":{"num_deleted":"0","num_feature":"141","num_nodes":"7","size_leaf_vector":"1"}},{"base_weights":[6.0822787E-3,-3.53614E-1,3.954804E-1,3.8271563E-4,-1.8600393E-2,2.1401592E-2,2.278692E-3],"categories":[],"categories_nodes":[],"categories_segments":[],"categories_sizes":[],"default_left":[0,0,0,0,0,0,0],"id":36,"left_children":[1,3,5,-1,-1,-1,-1],"loss_changes":[1.27775314E2,4.5406635E1,4.1341194E1,0E0,0E0,0E0,0E0],"parents":[2147483647,0,0,1,1,2,2],"right_children":[2,4,6,-1,-1,-1,-1],"split_conditions":[1E0,-5.6526256E-1,3.8488016E-1,3.8271563E-4,-1.8600393E-2,2.1401592E-2,2.278692E-3],"split_indices":[127,40,40,0,0,0,0],"split_type":[0,0,0,0,0,0,0],"sum_hessian":[8.7384973E2,4.5073645E2,4.2311328E2,1.8160411E2,2.6913232E2,2.1067024E2,2.1244302E2],"tree_param":{"num_deleted":"0","num_feature":"141","num_nodes":"7","size_leaf_vector":"1"}},{"base_weights":[-1.3655767E-2,-3.7324977E-1,3.63424E-1,1.4808438E-4,-1.8915601E-2,2.4770986E-2,4.9100923E-3],"categories":[],"categories_nodes":[],"categories_segments":[],"categories_sizes":[],"default_left":[0,0,0,0,0,0,0],"id":37,"left_children":[1,3,5,-1,-1,-1,-1],"loss_changes":[1.2234121E2,4.4699707E1,3.8335133E1,0E0,0E0,0E0,0E0],"parents":[2147483647,0,0,1,1,2,2],"right_children":[2,4,6,-1,-1,-1,-1],"split_conditions":[1E0,-5.521845E-1,1E0,1.4808438E-4,-1.8915601E-2,2.4770986E-2,4.9100923E-3],"split_indices":[127,5,136,0,0,0,0],"split_type":[0,0,0,0,0,0,0],"sum_hessian":[8.64312E2,4.46204E2,4.18108E2,1.7228015E2,2.7392386E2,1.22871925E2,2.9523608E2],"tree_param":{"num_deleted":"0","num_feature":"141","num_nodes":"7","size_leaf_vector":"1"}},{"base_weights":[4.9951687E-3,-1.6452412E-1,1.9546157E-1,-1.067112E-2,8.900927E-3,-7.6838415E-3,1.2181056E-2],"categories":[],"categories_nodes":[],"categories_segments":[],"categories_sizes":[],"default_left":[0,0,0,0,0,0,0],"id":38,"left_children":[1,3,5,-1,-1,-1,-1],"loss_changes":[3.0262264E1,4.1254612E1,4.1160522E1,0E0,0E0,0E0,0E0],"parents":[2147483647,0,0,1,1,2,2],"right_children":[2,4,6,-1,-1,-1,-1],"split_conditions":[1E0,1E0,1E0,-1.067112E-2,8.900927E-3,-7.6838415E-3,1.2181056E-2],"split_indices":[128,127,127,0,0,0,0],"split_type":[0,0,0,0,0,0,0],"sum_hessian":[8.6544305E2,4.5048053E2,4.1496252E2,3.2586688E2,1.24613655E2,1.24818794E2,2.901437E2],"tree_param":{"num_deleted":"0","num_feature":"141","num_nodes":"7","size_leaf_vector":"1"}},{"base_weights":[8.190403E-3,-3.1575516E-1,3.5893252E-1,-4.478467E-3,-2.816633E-2,2.3150936E-2,3.8991906E-3],"categories":[],"categories_nodes":[],"categories_segments":[],"categories_sizes":[],"default_left":[0,0,0,0,0,0,0],"id":39,"left_children":[1,3,5,-1,-1,-1,-1],"loss_changes":[1.0203895E2,4.625192E1,3.860556E1,0E0,0E0,0E0,0E0],"parents":[2147483647,0,0,1,1,2,2],"right_children":[2,4,6,-1,-1,-1,-1],"split_conditions":[1E0,1.8556255E-1,1.473201E-1,-4.478467E-3,-2.816633E-2,2.3150936E-2,3.8991906E-3],"split_indices":[127,40,40,0,0,0,0],"split_type":[0,0,0,0,0,0,0],"sum_hessian":[8.5631647E2,4.4125858E2,4.150579E2,3.5207224E2,8.918633E1,1.4512924E2,2.6992865E2],"tree_param":{"num_deleted":"0","num_feature":"141","num_nodes":"7","size_leaf_vector":"1"}},{"base_weights":[-0E0,-1.7208293E-1,1.9033852E-1,-1.0371803E-2,7.281347E-3,-7.5433603E-3,1.1724369E-2],"categories":[],"categories_nodes":[],"categories_segments":[],"categories_sizes":[],"default_left":[0,0,0,0,0,0,0],"id":40,"left_children":[1,3,5,-1,-1,-1,-1],"loss_changes":[3.0624645E1,3.3895794E1,3.8335564E1,0E0,0E0,0E0,0E0],"parents":[2147483647,0,0,1,1,2,2],"right_children":[2,4,6,-1,-1,-1,-1],"split_conditions":[1E0,1E0,1E0,-1.0371803E-2,7.281347E-3,-7.5433603E-3,1.1724369E-2],"split_indices":[128,127,127,0,0,0,0],"split_type":[0,0,0,0,0,0,0],"sum_hessian":[8.646803E2,4.506721E2,4.140082E2,3.2575262E2,1.24919464E2,1.21905365E2,2.9210284E2],"tree_param":{"num_deleted":"0","num_feature":"141","num_nodes":"7","size_leaf_vector":"1"}},{"base_weights":[7.516731E-3,-2.9058826E-1,3.3154738E-1,2.1134997E-3,-1.6731469E-2,1.8737884E-2,1.5297219E-3],"categories":[],"categories_nodes":[],"categories_segments":[],"categories_sizes":[],"default_left":[0,0,0,0,0,0,0],"id":41,"left_children":[1,3,5,-1,-1,-1,-1],"loss_changes":[8.704408E1,4.42863E1,3.291889E1,0E0,0E0,0E0,0E0],"parents":[2147483647,0,0,1,1,2,2],"right_children":[2,4,6,-1,-1,-1,-1],"split_conditions":[1E0,-5.6526256E-1,3.8488016E-1,2.1134997E-3,-1.6731469E-2,1.8737884E-2,1.5297219E-3],"split_indices":[127,40,40,0,0,0,0],"split_type":[0,0,0,0,0,0,0],"sum_hessian":[8.564966E2,4.4184952E2,4.1464703E2,1.8034894E2,2.6150058E2,2.0048318E2,2.1416385E2],"tree_param":{"num_deleted":"0","num_feature":"141","num_nodes":"7","size_leaf_vector":"1"}},{"base_weights":[-2.3094097E-3,-3.155393E-1,3.2855186E-1,-4.8776926E-3,-2.8166369E-2,2.6317604E-2,5.4225065E-3],"categories":[],"categories_nodes":[],"categories_segments":[],"categories_sizes":[],"default_left":[0,0,0,0,0,0,0],"id":42,"left_children":[1,3,5,-1,-1,-1,-1],"loss_changes":[9.3539E1,4.317627E1,3.4052727E1,0E0,0E0,0E0,0E0],"parents":[2147483647,0,0,1,1,2,2],"right_children":[2,4,6,-1,-1,-1,-1],"split_conditions":[1E0,2.1309908E-1,-1.4576177E-1,-4.8776926E-3,-2.8166369E-2,2.6317604E-2,5.4225065E-3],"split_indices":[127,40,40,0,0,0,0],"split_type":[0,0,0,0,0,0,0],"sum_hessian":[8.6040845E2,4.4638824E2,4.140202E2,3.6237927E2,8.4008965E1,8.365071E1,3.3036948E2],"tree_param":{"num_deleted":"0","num_feature":"141","num_nodes":"7","size_leaf_vector":"1"}},{"base_weights":[-1.4483824E-2,-3.1604338E-1,3.0765408E-1,-1.7440794E-3,-2.0727098E-2,2.6610311E-2,5.1402105E-3],"categories":[],"categories_nodes":[],"categories_segments":[],"categories_sizes":[],"default_left":[0,0,0,0,0,0,0],"id":43,"left_children":[1,3,5,-1,-1,-1,-1],"loss_changes":[8.6992966E1,4.206947E1,3.2880325E1,0E0,0E0,0E0,0E0],"parents":[2147483647,0,0,1,1,2,2],"right_children":[2,4,6,-1,-1,-1,-1],"split_conditions":[1E0,-2.0653182E-1,-1.9085369E-1,-1.7440794E-3,-2.0727098E-2,2.6610311E-2,5.1402105E-3],"split_indices":[127,40,40,0,0,0,0],"split_type":[0,0,0,0,0,0,0],"sum_hessian":[8.5231335E2,4.4470895E2,4.076044E2,2.6603116E2,1.7867778E2,7.310949E1,3.344949E2],"tree_param":{"num_deleted":"0","num_feature":"141","num_nodes":"7","size_leaf_vector":"1"}},{"base_weights":[6.7981947E-3,-2.697985E-1,3.1272653E-1,-3.1750908E-3,-2.1424344E-2,2.2602553E-2,3.732507E-3],"categories":[],"categories_nodes":[],"categories_segments":[],"categories_sizes":[],"default_left":[0,0,0,0,0,0,0],"id":44,"left_children":[1,3,5,-1,-1,-1,-1],"loss_changes":[7.571775E1,3.2180645E1,3.364462E1,0E0,0E0,0E0,0E0],"parents":[2147483647,0,0,1,1,2,2],"right_children":[2,4,6,-1,-1,-1,-1],"split_conditions":[1E0,1E0,1E0,-3.1750908E-3,-2.1424344E-2,2.2602553E-2,3.732507E-3],"split_indices":[127,136,136,0,0,0,0],"split_type":[0,0,0,0,0,0,0],"sum_hessian":[8.475057E2,4.405753E2,4.069304E2,3.2604004E2,1.14535225E2,1.1793647E2,2.8899393E2],"tree_param":{"num_deleted":"0","num_feature":"141","num_nodes":"7","size_leaf_vector":"1"}},{"base_weights":[-9.987841E-3,2.8759578E-1,-7.42224E-2,-0E0,1.50495935E-2,-1.0834891E-2,7.2472366E-3],"categories":[],"categories_nodes":[],"categories_segments":[],"categories_sizes":[],"default_left":[0,0,0,0,0,0,0],"id":45,"left_children":[1,3,5,-1,-1,-1,-1],"loss_changes":[1.7633005E1,9.108053E0,6.4996376E1,0E0,0E0,0E0,0E0],"parents":[2147483647,0,0,1,1,2,2],"right_children":[2,4,6,-1,-1,-1,-1],"split_conditions":[-1.0136976E0,1E0,1E0,-0E0,1.50495935E-2,-1.0834891E-2,7.2472366E-3],"split_indices":[23,127,127,0,0,0,0],"split_type":[0,0,0,0,0,0,0],"sum_hessian":[8.426447E2,1.3941505E2,7.032297E2,6.1298496E1,7.811656E1,3.746642E2,3.2856543E2],"tree_param":{"num_deleted":"0","num_feature":"141","num_nodes":"7","size_leaf_vector":"1"}},{"base_weights":[-1.6032373E-4,-2.5684166E-1,2.729258E-1,-3.2629746E-3,-2.6853316E-2,2.030341E-2,2.0453047E-3],"categories":[],"categories_nodes":[],"categories_segments":[],"categories_sizes":[],"default_left":[0,0,0,0,0,0,0],"id":46,"left_children":[1,3,5,-1,-1,-1,-1],"loss_changes":[6.3210518E1,4.274276E1,3.3427715E1,0E0,0E0,0E0,0E0],"parents":[2147483647,0,0,1,1,2,2],"right_children":[2,4,6,-1,-1,-1,-1],"split_conditions":[1E0,2.1784425E-1,1.2588076E-1,-3.2629746E-3,-2.6853316E-2,2.030341E-2,2.0453047E-3],"split_indices":[127,40,40,0,0,0,0],"split_type":[0,0,0,0,0,0,0],"sum_hessian":[8.52324E2,4.4472433E2,4.075996E2,3.6538214E2,7.93422E1,1.3317258E2,2.7442703E2],"tree_param":{"num_deleted":"0","num_feature":"141","num_nodes":"7","size_leaf_vector":"1"}},{"base_weights":[-2.0320371E-3,-2.8052887E-1,2.907962E-1,-4.3107867E-3,-2.6483135E-2,2.1724137E-2,2.8893198E-3],"categories":[],"categories_nodes":[],"categories_segments":[],"categories_sizes":[],"default_left":[0,0,0,0,0,0,0],"id":47,"left_children":[1,3,5,-1,-1,-1,-1],"loss_changes":[7.253946E1,3.6753853E1,3.4057453E1,0E0,0E0,0E0,0E0],"parents":[2147483647,0,0,1,1,2,2],"right_children":[2,4,6,-1,-1,-1,-1],"split_conditions":[1E0,2.1784425E-1,7.4606925E-2,-4.3107867E-3,-2.6483135E-2,2.1724137E-2,2.8893198E-3],"split_indices":[127,40,40,0,0,0,0],"split_type":[0,0,0,0,0,0,0],"sum_hessian":[8.4294763E2,4.3699374E2,4.0595386E2,3.605269E2,7.6466866E1,1.21777725E2,2.8417615E2],"tree_param":{"num_deleted":"0","num_feature":"141","num_nodes":"7","size_leaf_vector":"1"}},{"base_weights":[6.9064577E-3,-2.5192738E-1,2.902607E-1,-3.5479786E-3,-2.4775712E-2,2.4396712E-2,5.106156E-3],"categories":[],"categories_nodes":[],"categories_segments":[],"categories_sizes":[],"default_left":[0,0,0,0,0,0,0],"id":48,"left_children":[1,3,5,-1,-1,-1,-1],"loss_changes":[6.555847E1,3.4152275E1,2.6279087E1,0E0,0E0,0E0,0E0],"parents":[2147483647,0,0,1,1,2,2],"right_children":[2,4,6,-1,-1,-1,-1],"split_conditions":[1E0,2.0189236E-1,-1.9085369E-1,-3.5479786E-3,-2.4775712E-2,2.4396712E-2,5.106156E-3],"split_indices":[127,40,40,0,0,0,0],"split_type":[0,0,0,0,0,0,0],"sum_hessian":[8.4378326E2,4.360859E2,4.0769736E2,3.5841882E2,7.7667076E1,7.1212975E1,3.3648438E2],"tree_param":{"num_deleted":"0","num_feature":"141","num_nodes":"7","size_leaf_vector":"1"}},{"base_weights":[1.4897675E-2,-2.3842604E-1,2.968138E-1,2.8559153E-3,-1.5117805E-2,1.9827003E-2,2.630251E-3],"categories":[],"categories_nodes":[],"categories_segments":[],"categories_sizes":[],"default_left":[0,0,0,0,0,0,0],"id":49,"left_children":[1,3,5,-1,-1,-1,-1],"loss_changes":[6.3724785E1,4.0681206E1,3.0271767E1,0E0,0E0,0E0,0E0],"parents":[2147483647,0,0,1,1,2,2],"right_children":[2,4,6,-1,-1,-1,-1],"split_conditions":[1E0,-5.447189E-1,1.8556255E-1,2.8559153E-3,-1.5117805E-2,1.9827003E-2,2.630251E-3],"split_indices":[127,40,40,0,0,0,0],"split_type":[0,0,0,0,0,0,0],"sum_hessian":[8.4148395E2,4.3836032E2,4.0312366E2,1.8700598E2,2.5135432E2,1.4333354E2,2.597901E2],"tree_param":{"num_deleted":"0","num_feature":"141","num_nodes":"7","size_leaf_vector":"1"}},{"base_weights":[-0E0,-1.6755535E-1,1.7713419E-1,2.7975743E-3,-1.0414197E-2,2.0694364E-2,2.1167722E-4],"categories":[],"categories_nodes":[],"categories_segments":[],"categories_sizes":[],"default_left":[0,0,0,0,0,0,0],"id":50,"left_children":[1,3,5,-1,-1,-1,-1],"loss_changes":[2.7004227E1,2.1887257E1,3.5418262E1,0E0,0E0,0E0,0E0],"parents":[2147483647,0,0,1,1,2,2],"right_children":[2,4,6,-1,-1,-1,-1],"split_conditions":[1E0,-4.0452266E-1,1.15751535E-1,2.7975743E-3,-1.0414197E-2,2.0694364E-2,2.1167722E-4],"split_indices":[128,30,42,0,0,0,0],"split_type":[0,0,0,0,0,0,0],"sum_hessian":[8.377184E2,4.3496545E2,4.0275293E2,1.6824373E2,2.6672174E2,9.528755E1,3.0746536E2],"tree_param":{"num_deleted":"0","num_feature":"141","num_nodes":"7","size_leaf_vector":"1"}},{"base_weights":[1.3403799E-2,-2.3594834E-1,2.8921077E-1,2.103563E-3,-1.4251494E-2,1.7219923E-2,7.484785E-4],"categories":[],"categories_nodes":[],"categories_segments":[],"categories_sizes":[],"default_left":[0,0,0,0,0,0,0],"id":51,"left_children":[1,3,5,-1,-1,-1,-1],"loss_changes":[6.0606823E1,3.32715E1,2.9101337E1,0E0,0E0,0E0,0E0],"parents":[2147483647,0,0,1,1,2,2],"right_children":[2,4,6,-1,-1,-1,-1],"split_conditions":[1E0,-5.6526256E-1,3.8488016E-1,2.103563E-3,-1.4251494E-2,1.7219923E-2,7.484785E-4],"split_indices":[127,40,40,0,0,0,0],"split_type":[0,0,0,0,0,0,0],"sum_hessian":[8.296914E2,4.3076456E2,3.9892685E2,1.8105618E2,2.4970839E2,1.8898447E2,2.0994237E2],"tree_param":{"num_deleted":"0","num_feature":"141","num_nodes":"7","size_leaf_vector":"1"}},{"base_weights":[4.9869874E-3,-2.219668E-1,2.5408456E-1,-2.617452E-3,-2.473422E-2,2.50387E-2,3.584825E-3],"categories":[],"categories_nodes":[],"categories_segments":[],"categories_sizes":[],"default_left":[0,0,0,0,0,0,0],"id":52,"left_children":[1,3,5,-1,-1,-1,-1],"loss_changes":[5.037456E1,3.5775818E1,3.2282333E1,0E0,0E0,0E0,0E0],"parents":[2147483647,0,0,1,1,2,2],"right_children":[2,4,6,-1,-1,-1,-1],"split_conditions":[1E0,2.1784425E-1,-1.9085369E-1,-2.617452E-3,-2.473422E-2,2.50387E-2,3.584825E-3],"split_indices":[127,40,40,0,0,0,0],"split_type":[0,0,0,0,0,0,0],"sum_hessian":[8.3508966E2,4.31366E2,4.0372366E2,3.5744788E2,7.39181E1,7.1067314E1,3.3265634E2],"tree_param":{"num_deleted":"0","num_feature":"141","num_nodes":"7","size_leaf_vector":"1"}},{"base_weights":[-0E0,-2.2669153E-1,2.410979E-1,2.3725326E-3,-1.3737876E-2,2.2659432E-2,3.3209661E-3],"categories":[],"categories_nodes":[],"categories_segments":[],"categories_sizes":[],"default_left":[0,0,0,0,0,0,0],"id":53,"left_children":[1,3,5,-1,-1,-1,-1],"loss_changes":[4.8627598E1,3.2418446E1,2.744249E1,0E0,0E0,0E0,0E0],"parents":[2147483647,0,0,1,1,2,2],"right_children":[2,4,6,-1,-1,-1,-1],"split_conditions":[1E0,-5.6526256E-1,-1.4576177E-1,2.3725326E-3,-1.3737876E-2,2.2659432E-2,3.3209661E-3],"split_indices":[127,40,40,0,0,0,0],"split_type":[0,0,0,0,0,0,0],"sum_hessian":[8.345681E2,4.3432968E2,4.0023843E2,1.7903062E2,2.5529906E2,7.578582E1,3.2445264E2],"tree_param":{"num_deleted":"0","num_feature":"141","num_nodes":"7","size_leaf_vector":"1"}},{"base_weights":[1.9661859E-3,1.2038224E-1,-1.2851164E-1,-6.2085995E-3,4.979454E-3,8.414932E-3,-5.8429097E-3],"categories":[],"categories_nodes":[],"categories_segments":[],"categories_sizes":[],"default_left":[0,0,0,0,0,0,0],"id":54,"left_children":[1,3,5,-1,-1,-1,-1],"loss_changes":[1.4344751E1,7.5472426E0,1.1621132E1,0E0,0E0,0E0,0E0],"parents":[2147483647,0,0,1,1,2,2],"right_children":[2,4,6,-1,-1,-1,-1],"split_conditions":[4.858095E-2,-6.249862E-1,-5.386576E-1,-6.2085995E-3,4.979454E-3,8.414932E-3,-5.8429097E-3],"split_indices":[50,63,21,0,0,0,0],"split_type":[0,0,0,0,0,0,0],"sum_hessian":[8.330025E2,4.4800626E2,3.8499625E2,4.237342E1,4.0563284E2,4.367683E1,3.4131943E2],"tree_param":{"num_deleted":"0","num_feature":"141","num_nodes":"7","size_leaf_vector":"1"}},{"base_weights":[-8.924543E-3,-1.5290372E-1,1.4327978E-1,1.0141853E-3,-1.223075E-2,-5.788341E-3,8.88417E-3],"categories":[],"categories_nodes":[],"categories_segments":[],"categories_sizes":[],"default_left":[0,0,0,0,0,0,0],"id":55,"left_children":[1,3,5,-1,-1,-1,-1],"loss_changes":[1.9939543E1,2.2739456E1,2.1737469E1,0E0,0E0,0E0,0E0],"parents":[2147483647,0,0,1,1,2,2],"right_children":[2,4,6,-1,-1,-1,-1],"split_conditions":[1E0,-2.540332E-1,1E0,1.0141853E-3,-1.223075E-2,-5.788341E-3,8.88417E-3],"split_indices":[128,40,127,0,0,0,0],"split_type":[0,0,0,0,0,0,0],"sum_hessian":[8.2775195E2,4.3473468E2,3.9301727E2,2.4332477E2,1.914099E2,1.142769E2,2.787404E2],"tree_param":{"num_deleted":"0","num_feature":"141","num_nodes":"7","size_leaf_vector":"1"}},{"base_weights":[-0E0,-2.0178708E-1,2.182716E-1,-2.1103236E-3,-2.4197476E-2,1.849875E-2,1.5324255E-3],"categories":[],"categories_nodes":[],"categories_segments":[],"categories_sizes":[],"default_left":[0,0,0,0,0,0,0],"id":56,"left_children":[1,3,5,-1,-1,-1,-1],"loss_changes":[3.896982E1,3.486755E1,2.63881E1,0E0,0E0,0E0,0E0],"parents":[2147483647,0,0,1,1,2,2],"right_children":[2,4,6,-1,-1,-1,-1],"split_conditions":[1E0,2.2902767E-1,8.227056E-2,-2.1103236E-3,-2.4197476E-2,1.849875E-2,1.5324255E-3],"split_indices":[127,40,40,0,0,0,0],"split_type":[0,0,0,0,0,0,0],"sum_hessian":[8.237624E2,4.286148E2,3.9514758E2,3.5719214E2,7.1422646E1,1.11793205E2,2.833544E2],"tree_param":{"num_deleted":"0","num_feature":"141","num_nodes":"7","size_leaf_vector":"1"}},{"base_weights":[3.0629605E-3,-2.1346425E-1,2.4325572E-1,-2.2331055E-3,-1.8139966E-2,1.932121E-2,2.6143242E-3],"categories":[],"categories_nodes":[],"categories_segments":[],"categories_sizes":[],"default_left":[0,0,0,0,0,0,0],"id":57,"left_children":[1,3,5,-1,-1,-1,-1],"loss_changes":[4.5916187E1,2.3485125E1,2.4954498E1,0E0,0E0,0E0,0E0],"parents":[2147483647,0,0,1,1,2,2],"right_children":[2,4,6,-1,-1,-1,-1],"split_conditions":[1E0,1E0,1E0,-2.2331055E-3,-1.8139966E-2,1.932121E-2,2.6143242E-3],"split_indices":[127,136,43,0,0,0,0],"split_type":[0,0,0,0,0,0,0],"sum_hessian":[8.2471436E2,4.278822E2,3.9683215E2,3.20973E2,1.069092E2,1.0624869E2,2.9058347E2],"tree_param":{"num_deleted":"0","num_feature":"141","num_nodes":"7","size_leaf_vector":"1"}},{"base_weights":[-9.529929E-3,-2.3418243E-1,2.2045262E-1,-3.4156195E-3,-2.3340732E-2,2.1920307E-2,3.6360545E-3],"categories":[],"categories_nodes":[],"categories_segments":[],"categories_sizes":[],"default_left":[0,0,0,0,0,0,0],"id":58,"left_children":[1,3,5,-1,-1,-1,-1],"loss_changes":[4.5335247E1,2.8321672E1,2.1080973E1,0E0,0E0,0E0,0E0],"parents":[2147483647,0,0,1,1,2,2],"right_children":[2,4,6,-1,-1,-1,-1],"split_conditions":[1E0,2.1784425E-1,-2.4346526E-1,-3.4156195E-3,-2.3340732E-2,2.1920307E-2,3.6360545E-3],"split_indices":[127,40,40,0,0,0,0],"split_type":[0,0,0,0,0,0,0],"sum_hessian":[8.2076404E2,4.2126315E2,3.995009E2,3.5010187E2,7.116128E1,5.9245533E1,3.4025534E2],"tree_param":{"num_deleted":"0","num_feature":"141","num_nodes":"7","size_leaf_vector":"1"}},{"base_weights":[-0E0,3.25808E-1,-4.955554E-2,1.8516386E-2,-0E0,-6.522792E-3,3.1146898E-3],"categories":[],"categories_nodes":[],"categories_segments":[],"categories_sizes":[],"default_left":[0,0,0,0,0,0,0],"id":59,"left_children":[1,3,5,-1,-1,-1,-1],"loss_changes":[1.5784235E1,1.1139482E1,1.9573233E1,0E0,0E0,0E0,0E0],"parents":[2147483647,0,0,1,1,2,2],"right_children":[2,4,6,-1,-1,-1,-1],"split_conditions":[-7.665404E-1,8.58428E-2,1E0,1.8516386E-2,-0E0,-6.522792E-3,3.1146898E-3],"split_indices":[27,60,128,0,0,0,0],"split_type":[0,0,0,0,0,0,0],"sum_hessian":[8.205811E2,1.0842743E2,7.121537E2,5.4844757E1,5.3582676E1,3.50334E2,3.6181967E2],"tree_param":{"num_deleted":"0","num_feature":"141","num_nodes":"7","size_leaf_vector":"1"}},{"base_weights":[1.974762E-2,1.8301545E-1,-5.7456262E-2,2.0536329E-3,1.4933984E-2,-7.4560223E-3,1.759415E-3],"categories":[],"categories_nodes":[],"categories_segments":[],"categories_sizes":[],"default_left":[0,0,0,0,0,0,0],"id":60,"left_children":[1,3,5,-1,-1,-1,-1],"loss_changes":[1.2021117E1,1.0193258E1,1.3721102E1,0E0,0E0,0E0,0E0],"parents":[2147483647,0,0,1,1,2,2],"right_children":[2,4,6,-1,-1,-1,-1],"split_conditions":[-3.1734416E-1,1E0,1E0,2.0536329E-3,1.4933984E-2,-7.4560223E-3,1.759415E-3],"split_indices":[64,128,128,0,0,0,0],"split_type":[0,0,0,0,0,0,0],"sum_hessian":[8.213317E2,2.734493E2,5.4788245E2,2.0824391E2,6.520539E1,2.1671188E2,3.3117056E2],"tree_param":{"num_deleted":"0","num_feature":"141","num_nodes":"7","size_leaf_vector":"1"}},{"base_weights":[1.7516299E-3,-1.9512014E-1,2.2167917E-1,-1.9817613E-3,-1.722032E-2,1.6742243E-2,2.717121E-3],"categories":[],"categories_nodes":[],"categories_segments":[],"categories_sizes":[],"default_left":[0,0,0,0,0,0,0],"id":61,"left_children":[1,3,5,-1,-1,-1,-1],"loss_changes":[3.823726E1,2.111559E1,1.75266E1,0E0,0E0,0E0,0E0],"parents":[2147483647,0,0,1,1,2,2],"right_children":[2,4,6,-1,-1,-1,-1],"split_conditions":[1E0,1E0,1E0,-1.9817613E-3,-1.722032E-2,1.6742243E-2,2.717121E-3],"split_indices":[127,136,43,0,0,0,0],"split_type":[0,0,0,0,0,0,0],"sum_hessian":[8.200708E2,4.2629694E2,3.9377383E2,3.236699E2,1.0262705E2,1.0459669E2,2.8917715E2],"tree_param":{"num_deleted":"0","num_feature":"141","num_nodes":"7","size_leaf_vector":"1"}},{"base_weights":[-1.0791062E-2,-2.1697257E-1,2.0621268E-1,-3.3898675E-3,-2.3186047E-2,1.428618E-2,-3.154766E-4],"categories":[],"categories_nodes":[],"categories_segments":[],"categories_sizes":[],"default_left":[0,0,0,0,0,0,0],"id":62,"left_children":[1,3,5,-1,-1,-1,-1],"loss_changes":[3.92069E1,2.5503216E1,2.5058474E1,0E0,0E0,0E0,0E0],"parents":[2147483647,0,0,1,1,2,2],"right_children":[2,4,6,-1,-1,-1,-1],"split_conditions":[1E0,2.8252727E-1,3.8488016E-1,-3.3898675E-3,-2.3186047E-2,1.428618E-2,-3.154766E-4],"split_indices":[127,40,40,0,0,0,0],"split_type":[0,0,0,0,0,0,0],"sum_hessian":[8.163077E2,4.251533E2,3.911544E2,3.6362817E2,6.152512E1,1.813284E2,2.0982597E2],"tree_param":{"num_deleted":"0","num_feature":"141","num_nodes":"7","size_leaf_vector":"1"}},{"base_weights":[1.4733605E-3,-1.9367903E-1,2.2002919E-1,-2.657219E-3,-2.1154575E-2,2.2623502E-2,3.2443171E-3],"categories":[],"categories_nodes":[],"categories_segments":[],"categories_sizes":[],"default_left":[0,0,0,0,0,0,0],"id":63,"left_children":[1,3,5,-1,-1,-1,-1],"loss_changes":[3.7276306E1,2.3465425E1,2.4052734E1,0E0,0E0,0E0,0E0],"parents":[2147483647,0,0,1,1,2,2],"right_children":[2,4,6,-1,-1,-1,-1],"split_conditions":[1E0,2.2902767E-1,-1.9085369E-1,-2.657219E-3,-2.1154575E-2,2.2623502E-2,3.2443171E-3],"split_indices":[127,40,40,0,0,0,0],"split_type":[0,0,0,0,0,0,0],"sum_hessian":[8.104602E2,4.2168658E2,3.8877362E2,3.555622E2,6.612438E1,6.170414E1,3.2706946E2],"tree_param":{"num_deleted":"0","num_feature":"141","num_nodes":"7","size_leaf_vector":"1"}},{"base_weights":[-0E0,-1.3055716E-1,1.4677037E-1,3.2428824E-4,-1.1678375E-2,1.8108102E-2,-0E0],"categories":[],"categories_nodes":[],"categories_segments":[],"categories_sizes":[],"default_left":[0,0,0,0,0,0,0],"id":64,"left_children":[1,3,5,-1,-1,-1,-1],"loss_changes":[1.7212877E1,1.761703E1,2.654094E1,0E0,0E0,0E0,0E0],"parents":[2147483647,0,0,1,1,2,2],"right_children":[2,4,6,-1,-1,-1,-1],"split_conditions":[1E0,-1.6327133E-2,1.15751535E-1,3.2428824E-4,-1.1678375E-2,1.8108102E-2,-0E0],"split_indices":[128,76,42,0,0,0,0],"split_type":[0,0,0,0,0,0,0],"sum_hessian":[8.086044E2,4.2312848E2,3.854759E2,2.661425E2,1.5698598E2,8.88012E1,2.9667468E2],"tree_param":{"num_deleted":"0","num_feature":"141","num_nodes":"7","size_leaf_vector":"1"}},{"base_weights":[-0E0,-2.0631021E-1,2.1481164E-1,9.340261E-4,-1.2210948E-2,9.872004E-3,-6.3126055E-3],"categories":[],"categories_nodes":[],"categories_segments":[],"categories_sizes":[],"default_left":[0,0,0,0,0,0,0],"id":65,"left_children":[1,3,5,-1,-1,-1,-1],"loss_changes":[3.900809E1,2.1782429E1,2.0458088E1,0E0,0E0,0E0,0E0],"parents":[2147483647,0,0,1,1,2,2],"right_children":[2,4,6,-1,-1,-1,-1],"split_conditions":[1E0,-5.02471E-1,7.9591405E-1,9.340261E-4,-1.2210948E-2,9.872004E-3,-6.3126055E-3],"split_indices":[127,5,58,0,0,0,0],"split_type":[0,0,0,0,0,0,0],"sum_hessian":[8.1970984E2,4.2333902E2,3.9637085E2,1.8483055E2,2.3850847E2,3.2173294E2,7.463791E1],"tree_param":{"num_deleted":"0","num_feature":"141","num_nodes":"7","size_leaf_vector":"1"}},{"base_weights":[-0E0,-1.8437038E-1,2.0577608E-1,1.5266875E-3,-1.0887151E-2,1.830471E-2,1.5799269E-3],"categories":[],"categories_nodes":[],"categories_segments":[],"categories_sizes":[],"default_left":[0,0,0,0,0,0,0],"id":66,"left_children":[1,3,5,-1,-1,-1,-1],"loss_changes":[3.350231E1,1.935682E1,2.442314E1,0E0,0E0,0E0,0E0],"parents":[2147483647,0,0,1,1,2,2],"right_children":[2,4,6,-1,-1,-1,-1],"split_conditions":[1E0,-5.521845E-1,1E0,1.5266875E-3,-1.0887151E-2,1.830471E-2,1.5799269E-3],"split_indices":[127,5,43,0,0,0,0],"split_type":[0,0,0,0,0,0,0],"sum_hessian":[8.165943E2,4.2533057E2,3.9126373E2,1.739201E2,2.5141048E2,1.0208981E2,2.8917392E2],"tree_param":{"num_deleted":"0","num_feature":"141","num_nodes":"7","size_leaf_vector":"1"}},{"base_weights":[-7.907232E-3,-2.0743676E-1,1.9535954E-1,-2.8436224E-3,-1.623859E-2,8.7991785E-3,-5.168067E-3],"categories":[],"categories_nodes":[],"categories_segments":[],"categories_sizes":[],"default_left":[0,0,0,0,0,0,0],"id":67,"left_children":[1,3,5,-1,-1,-1,-1],"loss_changes":[3.5211113E1,1.5809879E1,1.5233183E1,0E0,0E0,0E0,0E0],"parents":[2147483647,0,0,1,1,2,2],"right_children":[2,4,6,-1,-1,-1,-1],"split_conditions":[1E0,1E0,7.9591405E-1,-2.8436224E-3,-1.623859E-2,8.7991785E-3,-5.168067E-3],"split_indices":[127,136,58,0,0,0,0],"split_type":[0,0,0,0,0,0,0],"sum_hessian":[8.05155E2,4.1316412E2,3.919909E2,3.1512616E2,9.8037964E1,3.1973166E2,7.225925E1],"tree_param":{"num_deleted":"0","num_feature":"141","num_nodes":"7","size_leaf_vector":"1"}},{"base_weights":[7.806215E-3,-1.5790008E-1,1.9500364E-1,-1.0317551E-2,3.308835E-3,1.675383E-2,1.748237E-3],"categories":[],"categories_nodes":[],"categories_segments":[],"categories_sizes":[],"default_left":[0,0,0,0,0,0,0],"id":68,"left_children":[1,3,5,-1,-1,-1,-1],"loss_changes":[2.7319918E1,2.2601238E1,1.9440708E1,0E0,0E0,0E0,0E0],"parents":[2147483647,0,0,1,1,2,2],"right_children":[2,4,6,-1,-1,-1,-1],"split_conditions":[1E0,2.1697624E-1,1E0,-1.0317551E-2,3.308835E-3,1.675383E-2,1.748237E-3],"split_indices":[127,7,43,0,0,0,0],"split_type":[0,0,0,0,0,0,0],"sum_hessian":[8.075286E2,4.20822E2,3.8670667E2,2.5712604E2,1.6369594E2,9.979727E1,2.869094E2],"tree_param":{"num_deleted":"0","num_feature":"141","num_nodes":"7","size_leaf_vector":"1"}},{"base_weights":[-1.0249407E-2,-1.3500565E-1,1.2096198E-1,5.105651E-3,-8.249785E-3,1.8403579E-2,-5.259685E-4],"categories":[],"categories_nodes":[],"categories_segments":[],"categories_sizes":[],"default_left":[0,0,0,0,0,0,0],"id":69,"left_children":[1,3,5,-1,-1,-1,-1],"loss_changes":[1.4648213E1,1.9386658E1,2.9859873E1,0E0,0E0,0E0,0E0],"parents":[2147483647,0,0,1,1,2,2],"right_children":[2,4,6,-1,-1,-1,-1],"split_conditions":[1E0,-6.085278E-1,1.15751535E-1,5.105651E-3,-8.249785E-3,1.8403579E-2,-5.259685E-4],"split_indices":[128,58,42,0,0,0,0],"split_type":[0,0,0,0,0,0,0],"sum_hessian":[8.0099475E2,4.213848E2,3.7960992E2,1.2316763E2,2.9821716E2,8.629052E1,2.933194E2],"tree_param":{"num_deleted":"0","num_feature":"141","num_nodes":"7","size_leaf_vector":"1"}},{"base_weights":[9.532438E-3,-1.3940807E-1,1.778077E-1,-1.0242135E-3,-2.1795388E-2,1.6284322E-2,7.938893E-4],"categories":[],"categories_nodes":[],"categories_segments":[],"categories_sizes":[],"default_left":[0,0,0,0,0,0,0],"id":70,"left_children":[1,3,5,-1,-1,-1,-1],"loss_changes":[2.2007536E1,2.6591969E1,2.1303387E1,0E0,0E0,0E0,0E0],"parents":[2147483647,0,0,1,1,2,2],"right_children":[2,4,6,-1,-1,-1,-1],"split_conditions":[1E0,2.8252727E-1,8.519229E-2,-1.0242135E-3,-2.1795388E-2,1.6284322E-2,7.938893E-4],"split_indices":[127,40,40,0,0,0,0],"split_type":[0,0,0,0,0,0,0],"sum_hessian":[7.9757983E2,4.1471323E2,3.828666E2,3.5763916E2,5.7074066E1,1.0643299E2,2.7643362E2],"tree_param":{"num_deleted":"0","num_feature":"141","num_nodes":"7","size_leaf_vector":"1"}},{"base_weights":[1.9925045E-2,-1.5260978E-1,2.1159185E-1,-8.7007997E-4,-1.5682265E-2,1.6371785E-2,2.7101617E-3],"categories":[],"categories_nodes":[],"categories_segments":[],"categories_sizes":[],"default_left":[0,0,0,0,0,0,0],"id":71,"left_children":[1,3,5,-1,-1,-1,-1],"loss_changes":[2.8779963E1,1.9237907E1,1.5868555E1,0E0,0E0,0E0,0E0],"parents":[2147483647,0,0,1,1,2,2],"right_children":[2,4,6,-1,-1,-1,-1],"split_conditions":[1E0,1E0,1E0,-8.7007997E-4,-1.5682265E-2,1.6371785E-2,2.7101617E-3],"split_indices":[127,43,43,0,0,0,0],"split_type":[0,0,0,0,0,0,0],"sum_hessian":[7.994993E2,4.1356073E2,3.859386E2,3.163562E2,9.7204544E1,9.653379E1,2.8940482E2],"tree_param":{"num_deleted":"0","num_feature":"141","num_nodes":"7","size_leaf_vector":"1"}},{"base_weights":[-0E0,-1.5513071E-1,1.7627725E-1,-1.7238124E-3,-2.1915615E-2,1.9902688E-2,2.5583634E-3],"categories":[],"categories_nodes":[],"categories_segments":[],"categories_sizes":[],"default_left":[0,0,0,0,0,0,0],"id":72,"left_children":[1,3,5,-1,-1,-1,-1],"loss_changes":[2.3883863E1,2.4417803E1,1.7687628E1,0E0,0E0,0E0,0E0],"parents":[2147483647,0,0,1,1,2,2],"right_children":[2,4,6,-1,-1,-1,-1],"split_conditions":[1E0,2.8252727E-1,-2.4346526E-1,-1.7238124E-3,-2.1915615E-2,1.9902688E-2,2.5583634E-3],"split_indices":[127,40,40,0,0,0,0],"split_type":[0,0,0,0,0,0,0],"sum_hessian":[7.961252E2,4.165261E2,3.7959906E2,3.6208954E2,5.4436565E1,5.3265327E1,3.2633374E2],"tree_param":{"num_deleted":"0","num_feature":"141","num_nodes":"7","size_leaf_vector":"1"}},{"base_weights":[-8.6881975E-3,-1.5497772E-1,1.4146863E-1,-0E0,-1.12814205E-2,7.5462605E-3,-7.6104323E-3],"categories":[],"categories_nodes":[],"categories_segments":[],"categories_sizes":[],"default_left":[0,0,0,0,0,0,0],"id":73,"left_children":[1,3,5,-1,-1,-1,-1],"loss_changes":[1.9263256E1,1.3996847E1,1.8031319E1,0E0,0E0,0E0,0E0],"parents":[2147483647,0,0,1,1,2,2],"right_children":[2,4,6,-1,-1,-1,-1],"split_conditions":[1E0,-1.5706536E-1,7.9591405E-1,-0E0,-1.12814205E-2,7.5462605E-3,-7.6104323E-3],"split_indices":[127,5,58,0,0,0,0],"split_type":[0,0,0,0,0,0,0],"sum_hessian":[7.943707E2,4.1166727E2,3.8270346E2,2.4771776E2,1.6394951E2,3.0835004E2,7.435342E1],"tree_param":{"num_deleted":"0","num_feature":"141","num_nodes":"7","size_leaf_vector":"1"}},{"base_weights":[5.0560334E-3,5.1704127E-2,-3.5667583E-1,-2.7390472E-3,7.640502E-3,-1.6205668E-2,-1.5015305E-3],"categories":[],"categories_nodes":[],"categories_segments":[],"categories_sizes":[],"default_left":[0,0,0,0,0,0,0],"id":74,"left_children":[1,3,5,-1,-1,-1,-1],"loss_changes":[1.49650135E1,2.2195263E1,4.0336056E0,0E0,0E0,0E0,0E0],"parents":[2147483647,0,0,1,1,2,2],"right_children":[2,4,6,-1,-1,-1,-1],"split_conditions":[8.137902E-1,1E0,1.92E-1,-2.7390472E-3,7.640502E-3,-1.6205668E-2,-1.5015305E-3],"split_indices":[58,128,92,0,0,0,0],"split_type":[0,0,0,0,0,0,0],"sum_hessian":[7.958096E2,7.147896E2,8.1019966E1,4.1022153E2,3.0456808E2,4.42588E1,3.6761166E1],"tree_param":{"num_deleted":"0","num_feature":"141","num_nodes":"7","size_leaf_vector":"1"}},{"base_weights":[1.121704E-2,-1.3348868E-1,1.7621526E-1,-1.0283631E-3,-1.9281046E-2,1.5759222E-2,1.0526491E-3],"categories":[],"categories_nodes":[],"categories_segments":[],"categories_sizes":[],"default_left":[0,0,0,0,0,0,0],"id":75,"left_children":[1,3,5,-1,-1,-1,-1],"loss_changes":[2.093677E1,2.17686E1,1.8893639E1,0E0,0E0,0E0,0E0],"parents":[2147483647,0,0,1,1,2,2],"right_children":[2,4,6,-1,-1,-1,-1],"split_conditions":[1E0,2.2902767E-1,8.519229E-2,-1.0283631E-3,-1.9281046E-2,1.5759222E-2,1.0526491E-3],"split_indices":[127,40,40,0,0,0,0],"split_type":[0,0,0,0,0,0,0],"sum_hessian":[7.944315E2,4.1469003E2,3.7974152E2,3.534398E2,6.1250233E1,1.0323667E2,2.7650482E2],"tree_param":{"num_deleted":"0","num_feature":"141","num_nodes":"7","size_leaf_vector":"1"}},{"base_weights":[-0E0,-1.4069812E-1,1.4698909E-1,1.8948416E-3,-8.955563E-3,1.3691427E-2,9.896447E-4],"categories":[],"categories_nodes":[],"categories_segments":[],"categories_sizes":[],"default_left":[0,0,0,0,0,0,0],"id":76,"left_children":[1,3,5,-1,-1,-1,-1],"loss_changes":[1.8064398E1,1.4524009E1,1.3730433E1,0E0,0E0,0E0,0E0],"parents":[2147483647,0,0,1,1,2,2],"right_children":[2,4,6,-1,-1,-1,-1],"split_conditions":[1E0,-5.521845E-1,1E0,1.8948416E-3,-8.955563E-3,1.3691427E-2,9.896447E-4],"split_indices":[127,5,136,0,0,0,0],"split_type":[0,0,0,0,0,0,0],"sum_hessian":[7.884313E2,4.0671515E2,3.8171613E2,1.6736125E2,2.3935391E2,9.5595604E1,2.8612054E2],"tree_param":{"num_deleted":"0","num_feature":"141","num_nodes":"7","size_leaf_vector":"1"}},{"base_weights":[3.632541E-3,2.8985783E-1,-5.087268E-2,1.3176224E-2,-2.231046E-3,1.2003552E-2,-2.6880093E-3],"categories":[],"categories_nodes":[],"categories_segments":[],"categories_sizes":[],"default_left":[0,0,0,0,0,0,0],"id":77,"left_children":[1,3,5,-1,-1,-1,-1],"loss_changes":[1.5012349E1,9.231467E0,1.2523046E1,0E0,0E0,0E0,0E0],"parents":[2147483647,0,0,1,1,2,2],"right_children":[2,4,6,-1,-1,-1,-1],"split_conditions":[-1.0136976E0,1.1891033E-1,-5.6925774E-1,1.3176224E-2,-2.231046E-3,1.2003552E-2,-2.6880093E-3],"split_indices":[23,100,3,0,0,0,0],"split_type":[0,0,0,0,0,0,0],"sum_hessian":[7.9185077E2,1.3201222E2,6.5983856E2,1.00152405E2,3.1859818E1,4.1954933E1,6.178836E2],"tree_param":{"num_deleted":"0","num_feature":"141","num_nodes":"7","size_leaf_vector":"1"}},{"base_weights":[-7.151272E-3,-1.4212786E-1,1.3269016E-1,-1.3416241E-3,-1.564181E-2,1.432286E-2,2.816053E-4],"categories":[],"categories_nodes":[],"categories_segments":[],"categories_sizes":[],"default_left":[0,0,0,0,0,0,0],"id":78,"left_children":[1,3,5,-1,-1,-1,-1],"loss_changes":[1.6521605E1,1.568606E1,1.6312119E1,0E0,0E0,0E0,0E0],"parents":[2147483647,0,0,1,1,2,2],"right_children":[2,4,6,-1,-1,-1,-1],"split_conditions":[1E0,3.0950552E-1,1E0,-1.3416241E-3,-1.564181E-2,1.432286E-2,2.816053E-4],"split_indices":[127,10,136,0,0,0,0],"split_type":[0,0,0,0,0,0,0],"sum_hessian":[7.870423E2,4.105571E2,3.764852E2,3.3363943E2,7.691766E1,9.2305824E1,2.8417938E2],"tree_param":{"num_deleted":"0","num_feature":"141","num_nodes":"7","size_leaf_vector":"1"}},{"base_weights":[4.2785523E-3,-1.2220714E-1,1.5037456E-1,-7.505407E-4,-2.113483E-2,1.9066293E-2,1.6684466E-3],"categories":[],"categories_nodes":[],"categories_segments":[],"categories_sizes":[],"default_left":[0,0,0,0,0,0,0],"id":79,"left_children":[1,3,5,-1,-1,-1,-1],"loss_changes":[1.641658E1,2.457021E1,1.8248802E1,0E0,0E0,0E0,0E0],"parents":[2147483647,0,0,1,1,2,2],"right_children":[2,4,6,-1,-1,-1,-1],"split_conditions":[1E0,2.8252727E-1,-1.9085369E-1,-7.505407E-4,-2.113483E-2,1.9066293E-2,1.6684466E-3],"split_indices":[127,40,40,0,0,0,0],"split_type":[0,0,0,0,0,0,0],"sum_hessian":[7.954238E2,4.1649396E2,3.7892987E2,3.631439E2,5.3350063E1,5.5314285E1,3.2361557E2],"tree_param":{"num_deleted":"0","num_feature":"141","num_nodes":"7","size_leaf_vector":"1"}},{"base_weights":[-0E0,-1.3049838E-1,1.3713636E-1,1.2967946E-3,-1.0249406E-2,7.2069247E-3,-6.5306392E-3],"categories":[],"categories_nodes":[],"categories_segments":[],"categories_sizes":[],"default_left":[0,0,0,0,0,0,0],"id":80,"left_children":[1,3,5,-1,-1,-1,-1],"loss_changes":[1.5741131E1,1.6785378E1,1.5227315E1,0E0,0E0,0E0,0E0],"parents":[2147483647,0,0,1,1,2,2],"right_children":[2,4,6,-1,-1,-1,-1],"split_conditions":[1E0,-3.1260648E-1,7.891658E-1,1.2967946E-3,-1.0249406E-2,7.2069247E-3,-6.5306392E-3],"split_indices":[127,5,58,0,0,0,0],"split_type":[0,0,0,0,0,0,0],"sum_hessian":[7.887997E2,4.0818823E2,3.8061145E2,2.1542824E2,1.9275998E2,3.045338E2,7.607762E1],"tree_param":{"num_deleted":"0","num_feature":"141","num_nodes":"7","size_leaf_vector":"1"}},{"base_weights":[-0E0,-1.3197614E-1,1.3988118E-1,2.2762525E-3,-8.254172E-3,1.3500956E-2,8.6509326E-4],"categories":[],"categories_nodes":[],"categories_segments":[],"categories_sizes":[],"default_left":[0,0,0,0,0,0,0],"id":81,"left_children":[1,3,5,-1,-1,-1,-1],"loss_changes":[1.6170158E1,1.3486965E1,1.3328638E1,0E0,0E0,0E0,0E0],"parents":[2147483647,0,0,1,1,2,2],"right_children":[2,4,6,-1,-1,-1,-1],"split_conditions":[1E0,-3.1754465E0,1E0,2.2762525E-3,-8.254172E-3,1.3500956E-2,8.6509326E-4],"split_indices":[127,10,136,0,0,0,0],"split_type":[0,0,0,0,0,0,0],"sum_hessian":[7.8636865E2,4.0783908E2,3.7852957E2,1.5580894E2,2.5203012E2,9.244979E1,2.8607977E2],"tree_param":{"num_deleted":"0","num_feature":"141","num_nodes":"7","size_leaf_vector":"1"}},{"base_weights":[-8.40677E-3,2.6012203E-1,-6.8170965E-2,1.3794463E-2,1.2754161E-4,5.002103E-4,-7.61697E-3],"categories":[],"categories_nodes":[],"categories_segments":[],"categories_sizes":[],"default_left":[0,0,0,0,0,0,0],"id":82,"left_children":[1,3,5,-1,-1,-1,-1],"loss_changes":[1.3997207E1,6.445793E0,1.1793952E1,0E0,0E0,0E0,0E0],"parents":[2147483647,0,0,1,1,2,2],"right_children":[2,4,6,-1,-1,-1,-1],"split_conditions":[-1.0136976E0,6.7318785E-1,3.4813875E-1,1.3794463E-2,1.2754161E-4,5.002103E-4,-7.61697E-3],"split_indices":[23,56,10,0,0,0,0],"split_type":[0,0,0,0,0,0,0],"sum_hessian":[7.861549E2,1.3217874E2,6.5397614E2,6.78225E1,6.435624E1,4.3750613E2,2.1647002E2],"tree_param":{"num_deleted":"0","num_feature":"141","num_nodes":"7","size_leaf_vector":"1"}},{"base_weights":[-5.391169E-3,-1.502765E-1,1.4322338E-1,-1.7353826E-3,-2.0865398E-2,6.2707784E-3,-1.2200797E-2],"categories":[],"categories_nodes":[],"categories_segments":[],"categories_sizes":[],"default_left":[0,0,0,0,0,0,0],"id":83,"left_children":[1,3,5,-1,-1,-1,-1],"loss_changes":[1.8852606E1,2.1669567E1,1.5200563E1,0E0,0E0,0E0,0E0],"parents":[2147483647,0,0,1,1,2,2],"right_children":[2,4,6,-1,-1,-1,-1],"split_conditions":[1E0,2.8252727E-1,9.863686E-1,-1.7353826E-3,-2.0865398E-2,6.2707784E-3,-1.2200797E-2],"split_indices":[127,40,61,0,0,0,0],"split_type":[0,0,0,0,0,0,0],"sum_hessian":[7.922213E2,4.1058115E2,3.8164017E2,3.5731406E2,5.326709E1,3.4957996E2,3.2060226E1],"tree_param":{"num_deleted":"0","num_feature":"141","num_nodes":"7","size_leaf_vector":"1"}},{"base_weights":[-5.2220505E-3,1.580361E-1,-8.285624E-2,2.4792224E-3,1.4697136E-2,7.989978E-3,-3.7004508E-3],"categories":[],"categories_nodes":[],"categories_segments":[],"categories_sizes":[],"default_left":[0,0,0,0,0,0,0],"id":84,"left_children":[1,3,5,-1,-1,-1,-1],"loss_changes":[1.1118041E1,6.5568485E0,8.5384245E0,0E0,0E0,0E0,0E0],"parents":[2147483647,0,0,1,1,2,2],"right_children":[2,4,6,-1,-1,-1,-1],"split_conditions":[-4.0452266E-1,3.081131E-1,-5.5289304E-1,2.4792224E-3,1.4697136E-2,7.989978E-3,-3.7004508E-3],"split_indices":[30,98,0,0,0,0,0],"split_type":[0,0,0,0,0,0,0],"sum_hessian":[7.821554E2,2.3918874E2,5.429667E2,2.0403244E2,3.5156296E1,4.436317E1,4.986035E2],"tree_param":{"num_deleted":"0","num_feature":"141","num_nodes":"7","size_leaf_vector":"1"}},{"base_weights":[-1.3161271E-2,-1.3269489E-1,1.10896416E-1,4.7153846E-4,-1.0494859E-2,9.477413E-3,-1.6168787E-3],"categories":[],"categories_nodes":[],"categories_segments":[],"categories_sizes":[],"default_left":[0,0,0,0,0,0,0],"id":85,"left_children":[1,3,5,-1,-1,-1,-1],"loss_changes":[1.2974709E1,1.4955059E1,1.4325226E1,0E0,0E0,0E0,0E0],"parents":[2147483647,0,0,1,1,2,2],"right_children":[2,4,6,-1,-1,-1,-1],"split_conditions":[1E0,-7.7216886E-3,3.5230303E-1,4.7153846E-4,-1.0494859E-2,9.477413E-3,-1.6168787E-3],"split_indices":[127,76,10,0,0,0,0],"split_type":[0,0,0,0,0,0,0],"sum_hessian":[7.764831E2,4.067069E2,3.6977618E2,2.329534E2,1.7375351E2,1.7312314E2,1.9665305E2],"tree_param":{"num_deleted":"0","num_feature":"141","num_nodes":"7","size_leaf_vector":"1"}},{"base_weights":[2.202888E-3,-1.2021203E-1,1.4390089E-1,-4.3758115E-4,-1.5598694E-2,1.8734867E-2,1.7947942E-3],"categories":[],"categories_nodes":[],"categories_segments":[],"categories_sizes":[],"default_left":[0,0,0,0,0,0,0],"id":86,"left_children":[1,3,5,-1,-1,-1,-1],"loss_changes":[1.5278453E1,1.786414E1,1.6004824E1,0E0,0E0,0E0,0E0],"parents":[2147483647,0,0,1,1,2,2],"right_children":[2,4,6,-1,-1,-1,-1],"split_conditions":[1E0,1.3582964E-1,-2.4346526E-1,-4.3758115E-4,-1.5598694E-2,1.8734867E-2,1.7947942E-3],"split_indices":[127,40,40,0,0,0,0],"split_type":[0,0,0,0,0,0,0],"sum_hessian":[7.850522E2,4.1100204E2,3.740501E2,3.3197778E2,7.902426E1,4.8796947E1,3.2525317E2],"tree_param":{"num_deleted":"0","num_feature":"141","num_nodes":"7","size_leaf_vector":"1"}},{"base_weights":[5.217122E-3,-9.430042E-2,1.2257164E-1,7.0132274E-4,-1.1136734E-2,1.5618476E-2,-0E0],"categories":[],"categories_nodes":[],"categories_segments":[],"categories_sizes":[],"default_left":[0,0,0,0,0,0,0],"id":87,"left_children":[1,3,5,-1,-1,-1,-1],"loss_changes":[1.0461552E1,1.5669111E1,1.9253563E1,0E0,0E0,0E0,0E0],"parents":[2147483647,0,0,1,1,2,2],"right_children":[2,4,6,-1,-1,-1,-1],"split_conditions":[1E0,-1.3963218E-1,1.15751535E-1,7.0132274E-4,-1.1136734E-2,1.5618476E-2,-0E0],"split_indices":[128,58,42,0,0,0,0],"split_type":[0,0,0,0,0,0,0],"sum_hessian":[7.803238E2,4.0988E2,3.704438E2,2.8100717E2,1.2887283E2,8.333324E1,2.8711053E2],"tree_param":{"num_deleted":"0","num_feature":"141","num_nodes":"7","size_leaf_vector":"1"}},{"base_weights":[-3.542608E-3,-1.2984225E-1,1.249947E-1,-1.4658904E-3,-1.8512325E-2,1.7459773E-2,1.1092481E-3],"categories":[],"categories_nodes":[],"categories_segments":[],"categories_sizes":[],"default_left":[0,0,0,0,0,0,0],"id":88,"left_children":[1,3,5,-1,-1,-1,-1],"loss_changes":[1.4172354E1,1.6823627E1,1.5873714E1,0E0,0E0,0E0,0E0],"parents":[2147483647,0,0,1,1,2,2],"right_children":[2,4,6,-1,-1,-1,-1],"split_conditions":[1E0,2.8252727E-1,-1.9085369E-1,-1.4658904E-3,-1.8512325E-2,1.7459773E-2,1.1092481E-3],"split_indices":[127,40,40,0,0,0,0],"split_type":[0,0,0,0,0,0,0],"sum_hessian":[7.7807904E2,4.0333057E2,3.7474844E2,3.5272742E2,5.0603146E1,5.3452606E1,3.2129584E2],"tree_param":{"num_deleted":"0","num_feature":"141","num_nodes":"7","size_leaf_vector":"1"}},{"base_weights":[-1.4510562E-3,-1.4256886E-1,1.4265585E-1,-1.5295915E-3,-1.8110277E-2,1.0486053E-2,-7.144064E-4],"categories":[],"categories_nodes":[],"categories_segments":[],"categories_sizes":[],"default_left":[0,0,0,0,0,0,0],"id":89,"left_children":[1,3,5,-1,-1,-1,-1],"loss_changes":[1.7570877E1,1.7790989E1,1.4736065E1,0E0,0E0,0E0,0E0],"parents":[2147483647,0,0,1,1,2,2],"right_children":[2,4,6,-1,-1,-1,-1],"split_conditions":[1E0,2.1784425E-1,3.5230303E-1,-1.5295915E-3,-1.8110277E-2,1.0486053E-2,-7.144064E-4],"split_indices":[127,40,10,0,0,0,0],"split_type":[0,0,0,0,0,0,0],"sum_hessian":[7.7842084E2,4.0304614E2,3.753747E2,3.429601E2,6.0086033E1,1.7600044E2,1.9937424E2],"tree_param":{"num_deleted":"0","num_feature":"141","num_nodes":"7","size_leaf_vector":"1"}},{"base_weights":[1.0856108E-2,-1.1042924E-1,1.5064213E-1,-9.975709E-4,-1.7760327E-2,8.186766E-3,-5.046152E-3],"categories":[],"categories_nodes":[],"categories_segments":[],"categories_sizes":[],"default_left":[0,0,0,0,0,0,0],"id":90,"left_children":[1,3,5,-1,-1,-1,-1],"loss_changes":[1.4834536E1,1.6021065E1,1.585745E1,0E0,0E0,0E0,0E0],"parents":[2147483647,0,0,1,1,2,2],"right_children":[2,4,6,-1,-1,-1,-1],"split_conditions":[1E0,2.8252727E-1,1.0659152E0,-9.975709E-4,-1.7760327E-2,8.186766E-3,-5.046152E-3],"split_indices":[127,40,40,0,0,0,0],"split_type":[0,0,0,0,0,0,0],"sum_hessian":[7.7839514E2,4.0659903E2,3.7179614E2,3.5756018E2,4.903884E1,2.7828247E2,9.3513664E1],"tree_param":{"num_deleted":"0","num_feature":"141","num_nodes":"7","size_leaf_vector":"1"}},{"base_weights":[-9.405871E-4,2.4873938E-1,-5.9063766E-2,2.1795756E-3,1.5979515E-2,6.4120754E-3,-3.6021874E-3],"categories":[],"categories_nodes":[],"categories_segments":[],"categories_sizes":[],"default_left":[0,0,0,0,0,0,0],"id":91,"left_children":[1,3,5,-1,-1,-1,-1],"loss_changes":[1.2620913E1,6.8958273E0,1.1527533E1,0E0,0E0,0E0,0E0],"parents":[2147483647,0,0,1,1,2,2],"right_children":[2,4,6,-1,-1,-1,-1],"split_conditions":[-5.8452106E-1,-4.6573466E-1,-1.0136976E0,2.1795756E-3,1.5979515E-2,6.4120754E-3,-3.6021874E-3],"split_indices":[67,98,23,0,0,0,0],"split_type":[0,0,0,0,0,0,0],"sum_hessian":[7.8036725E2,1.35822E2,6.445453E2,9.156123E1,4.426078E1,1.0505492E2,5.3949036E2],"tree_param":{"num_deleted":"0","num_feature":"141","num_nodes":"7","size_leaf_vector":"1"}},{"base_weights":[1.0494695E-3,-1.1828031E-1,1.4123648E-1,-0E0,-1.1812864E-2,1.6911034E-2,1.6546724E-4],"categories":[],"categories_nodes":[],"categories_segments":[],"categories_sizes":[],"default_left":[0,0,0,0,0,0,0],"id":92,"left_children":[1,3,5,-1,-1,-1,-1],"loss_changes":[1.4558982E1,1.5120996E1,2.1385895E1,0E0,0E0,0E0,0E0],"parents":[2147483647,0,0,1,1,2,2],"right_children":[2,4,6,-1,-1,-1,-1],"split_conditions":[1E0,-1.3963218E-1,1.15751535E-1,-0E0,-1.1812864E-2,1.6911034E-2,1.6546724E-4],"split_indices":[128,58,42,0,0,0,0],"split_type":[0,0,0,0,0,0,0],"sum_hessian":[7.7257886E2,4.069789E2,3.6559995E2,2.8073083E2,1.26248085E2,8.2654335E1,2.8294562E2],"tree_param":{"num_deleted":"0","num_feature":"141","num_nodes":"7","size_leaf_vector":"1"}},{"base_weights":[-0E0,2.1507475E-1,-5.7453386E-2,1.2214399E-2,-0E0,-5.925842E-3,2.165713E-3],"categories":[],"categories_nodes":[],"categories_segments":[],"categories_sizes":[],"default_left":[0,0,0,0,0,0,0],"id":93,"left_children":[1,3,5,-1,-1,-1,-1],"loss_changes":[1.0810532E1,7.9921417E0,1.2440222E1,0E0,0E0,0E0,0E0],"parents":[2147483647,0,0,1,1,2,2],"right_children":[2,4,6,-1,-1,-1,-1],"split_conditions":[-6.9015115E-1,-4.647832E-1,1E0,1.2214399E-2,-0E0,-5.925842E-3,2.165713E-3],"split_indices":[52,67,128,0,0,0,0],"split_type":[0,0,0,0,0,0,0],"sum_hessian":[7.731874E2,1.5233109E2,6.208563E2,8.525195E1,6.707913E1,3.1068942E2,3.101669E2],"tree_param":{"num_deleted":"0","num_feature":"141","num_nodes":"7","size_leaf_vector":"1"}},{"base_weights":[-2.6615532E-3,-1.1724907E-1,1.12758E-1,-1.1581037E-3,-1.8471137E-2,1.727549E-2,1.0114806E-3],"categories":[],"categories_nodes":[],"categories_segments":[],"categories_sizes":[],"default_left":[0,0,0,0,0,0,0],"id":94,"left_children":[1,3,5,-1,-1,-1,-1],"loss_changes":[1.165201E1,1.6695692E1,1.4589101E1,0E0,0E0,0E0,0E0],"parents":[2147483647,0,0,1,1,2,2],"right_children":[2,4,6,-1,-1,-1,-1],"split_conditions":[1E0,2.8252727E-1,-2.4346526E-1,-1.1581037E-3,-1.8471137E-2,1.727549E-2,1.0114806E-3],"split_indices":[127,40,40,0,0,0,0],"split_type":[0,0,0,0,0,0,0],"sum_hessian":[7.764907E2,4.0168954E2,3.7480118E2,3.5391956E2,4.7769997E1,4.733923E1,3.2746194E2],"tree_param":{"num_deleted":"0","num_feature":"141","num_nodes":"7","size_leaf_vector":"1"}},{"base_weights":[-1.464099E-2,2.1377945E-1,-6.738024E-2,1.16096195E-2,-0E0,-6.7131296E-3,1.7346224E-3],"categories":[],"categories_nodes":[],"categories_segments":[],"categories_sizes":[],"default_left":[0,0,0,0,0,0,0],"id":95,"left_children":[1,3,5,-1,-1,-1,-1],"loss_changes":[1.041496E1,6.6313143E0,1.3690248E1,0E0,0E0,0E0,0E0],"parents":[2147483647,0,0,1,1,2,2],"right_children":[2,4,6,-1,-1,-1,-1],"split_conditions":[-5.8452106E-1,3.8715366E-1,1E0,1.16096195E-2,-0E0,-6.7131296E-3,1.7346224E-3],"split_indices":[67,121,128,0,0,0,0],"split_type":[0,0,0,0,0,0,0],"sum_hessian":[7.665111E2,1.3157784E2,6.349333E2,7.883749E1,5.2740345E1,2.941402E2,3.407931E2],"tree_param":{"num_deleted":"0","num_feature":"141","num_nodes":"7","size_leaf_vector":"1"}},{"base_weights":[-3.4689005E-3,2.4450096E-1,-5.928268E-2,1.10662095E-2,-1.5293553E-3,-5.136061E-3,1.7941089E-3],"categories":[],"categories_nodes":[],"categories_segments":[],"categories_sizes":[],"default_left":[0,0,0,0,0,0,0],"id":96,"left_children":[1,3,5,-1,-1,-1,-1],"loss_changes":[1.1959866E1,6.4846754E0,9.528815E0,0E0,0E0,0E0,0E0],"parents":[2147483647,0,0,1,1,2,2],"right_children":[2,4,6,-1,-1,-1,-1],"split_conditions":[-1.0136976E0,6.9139075E-1,1E0,1.10662095E-2,-1.5293553E-3,-5.136061E-3,1.7941089E-3],"split_indices":[23,111,127,0,0,0,0],"split_type":[0,0,0,0,0,0,0],"sum_hessian":[7.724859E2,1.3026445E2,6.422215E2,9.935088E1,3.0913567E1,3.4589047E2,2.9633102E2],"tree_param":{"num_deleted":"0","num_feature":"141","num_nodes":"7","size_leaf_vector":"1"}},{"base_weights":[-1.729236E-2,3.2194671E-3,-1.4158102E-2,2.5979031E-3,-4.142701E-3],"categories":[],"categories_nodes":[],"categories_segments":[],"categories_sizes":[],"default_left":[0,0,0,0,0],"id":97,"left_children":[1,3,-1,-1,-1],"loss_changes":[1.0848727E1,9.467635E0,0E0,0E0,0E0],"parents":[2147483647,0,0,1,1],"right_children":[2,4,-1,-1,-1],"split_conditions":[9.863686E-1,2.5146556E-1,-1.4158102E-2,2.5979031E-3,-4.142701E-3],"split_indices":[61,23,0,0,0],"split_type":[0,0,0,0,0],"sum_hessian":[7.714926E2,7.353881E2,3.6104473E1,4.763249E2,2.5906323E2],"tree_param":{"num_deleted":"0","num_feature":"141","num_nodes":"5","size_leaf_vector":"1"}},{"base_weights":[-0E0,-1.1709985E-1,1.2798865E-1,-7.469065E-4,-1.8089695E-2,1.6315246E-2,1.6978742E-3],"categories":[],"categories_nodes":[],"categories_segments":[],"categories_sizes":[],"default_left":[0,0,0,0,0,0,0],"id":98,"left_children":[1,3,5,-1,-1,-1,-1],"loss_changes":[1.2937823E1,1.8403122E1,1.1810308E1,0E0,0E0,0E0,0E0],"parents":[2147483647,0,0,1,1,2,2],"right_children":[2,4,6,-1,-1,-1,-1],"split_conditions":[1E0,2.1784425E-1,-2.4346526E-1,-7.469065E-4,-1.8089695E-2,1.6315246E-2,1.6978742E-3],"split_indices":[127,40,40,0,0,0,0],"split_type":[0,0,0,0,0,0,0],"sum_hessian":[7.6317175E2,3.9234683E2,3.7082492E2,3.3658563E2,5.5761204E1,4.6633987E1,3.2419092E2],"tree_param":{"num_deleted":"0","num_feature":"141","num_nodes":"7","size_leaf_vector":"1"}},{"base_weights":[1.8457953E-2,-8.316585E-2,1.3719042E-1,3.0950836E-3,-7.3785544E-3,1.7661776E-2,1.6672582E-3],"categories":[],"categories_nodes":[],"categories_segments":[],"categories_sizes":[],"default_left":[0,0,0,0,0,0,0],"id":99,"left_children":[1,3,5,-1,-1,-1,-1],"loss_changes":[1.0606971E1,1.3687784E1,1.4289972E1,0E0,0E0,0E0,0E0],"parents":[2147483647,0,0,1,1,2,2],"right_children":[2,4,6,-1,-1,-1,-1],"split_conditions":[1E0,-5.6526256E-1,-1.9817358E-1,3.0950836E-3,-7.3785544E-3,1.7661776E-2,1.6672582E-3],"split_indices":[127,40,40,0,0,0,0],"split_type":[0,0,0,0,0,0,0],"sum_hessian":[7.658181E2,4.0069336E2,3.6512476E2,1.7739389E2,2.2329948E2,4.8696487E1,3.1642825E2],"tree_param":{"num_deleted":"0","num_feature":"141","num_nodes":"7","size_leaf_vector":"1"}},{"base_weights":[2.1170701E-3,2.580706E-1,-4.63196E-2,1.1879753E-2,-1.5167705E-3,1.0352588E-2,-2.426262E-3],"categories":[],"categories_nodes":[],"categories_segments":[],"categories_sizes":[],"default_left":[0,0,0,0,0,0,0],"id":100,"left_children":[1,3,5,-1,-1,-1,-1],"loss_changes":[1.1823732E1,7.27614E0,9.533839E0,0E0,0E0,0E0,0E0],"parents":[2147483647,0,0,1,1,2,2],"right_children":[2,4,6,-1,-1,-1,-1],"split_conditions":[-1.0136976E0,5.8368325E-1,-5.6925774E-1,1.1879753E-2,-1.5167705E-3,1.0352588E-2,-2.426262E-3],"split_indices":[23,98,3,0,0,0,0],"split_type":[0,0,0,0,0,0,0],"sum_hessian":[7.629125E2,1.27724236E2,6.3518823E2,9.541876E1,3.230547E1,4.046169E1,5.947265E2],"tree_param":{"num_deleted":"0","num_feature":"141","num_nodes":"7","size_leaf_vector":"1"}},{"base_weights":[-1.7330172E-2,-1.2510428E-1,8.9762576E-2,-0E0,-1.1049235E-2,5.9395856E-3,-6.1813635E-3],"categories":[],"categories_nodes":[],"categories_segments":[],"categories_sizes":[],"default_left":[0,0,0,0,0,0,0],"id":101,"left_children":[1,3,5,-1,-1,-1,-1],"loss_changes":[1.0087579E1,1.3506647E1,1.3194539E1,0E0,0E0,0E0,0E0],"parents":[2147483647,0,0,1,1,2,2],"right_children":[2,4,6,-1,-1,-1,-1],"split_conditions":[1E0,-2.0653182E-1,1.0845212E0,-0E0,-1.1049235E-2,5.9395856E-3,-6.1813635E-3],"split_indices":[127,40,40,0,0,0,0],"split_type":[0,0,0,0,0,0,0],"sum_hessian":[7.62441E2,3.9259375E2,3.6984723E2,2.5524416E2,1.373496E2,2.8051404E2,8.9333176E1],"tree_param":{"num_deleted":"0","num_feature":"141","num_nodes":"7","size_leaf_vector":"1"}},{"base_weights":[8.57702E-3,4.8876315E-2,-2.967926E-1,-1.825956E-3,6.017101E-3,-1.4567058E-2,-0E0],"categories":[],"categories_nodes":[],"categories_segments":[],"categories_sizes":[],"default_left":[0,0,0,0,0,0,0],"id":102,"left_children":[1,3,5,-1,-1,-1,-1],"loss_changes":[1.0655717E1,1.2583508E1,4.131831E0,0E0,0E0,0E0,0E0],"parents":[2147483647,0,0,1,1,2,2],"right_children":[2,4,6,-1,-1,-1,-1],"split_conditions":[8.137902E-1,1E0,1.968205E-1,-1.825956E-3,6.017101E-3,-1.4567058E-2,-0E0],"split_indices":[58,127,20,0,0,0,0],"split_type":[0,0,0,0,0,0,0],"sum_hessian":[7.608536E2,6.831976E2,7.7656006E1,3.843008E2,2.9889673E2,4.1629345E1,3.602666E1],"tree_param":{"num_deleted":"0","num_feature":"141","num_nodes":"7","size_leaf_vector":"1"}},{"base_weights":[-5.2582135E-4,2.8811539E-2,-1.3584345E-2,-2.544771E-3,5.298893E-3],"categories":[],"categories_nodes":[],"categories_segments":[],"categories_sizes":[],"default_left":[0,0,0,0,0],"id":103,"left_children":[1,3,-1,-1,-1],"loss_changes":[1.3853461E1,1.3216272E1,0E0,0E0,0E0],"parents":[2147483647,0,0,1,1],"right_children":[2,4,-1,-1,-1],"split_conditions":[9.356059E-1,1E0,-1.3584345E-2,-2.544771E-3,5.298893E-3],"split_indices":[61,128,0,0,0],"split_type":[0,0,0,0,0],"sum_hessian":[7.676215E2,7.176302E2,4.999131E1,3.9420078E2,3.234294E2],"tree_param":{"num_deleted":"0","num_feature":"141","num_nodes":"5","size_leaf_vector":"1"}},{"base_weights":[-4.037391E-3,1.682029E-2,-1.3631277E-2,-2.7385852E-3,4.6316646E-3],"categories":[],"categories_nodes":[],"categories_segments":[],"categories_sizes":[],"default_left":[0,0,0,0,0],"id":104,"left_children":[1,3,-1,-1,-1],"loss_changes":[1.085316E1,1.1949733E1,0E0,0E0,0E0],"parents":[2147483647,0,0,1,1],"right_children":[2,4,-1,-1,-1],"split_conditions":[9.863686E-1,1E0,-1.3631277E-2,-2.7385852E-3,4.6316646E-3],"split_indices":[61,127,0,0,0],"split_type":[0,0,0,0,0],"sum_hessian":[7.667602E2,7.2985596E2,3.690422E1,3.9686926E2,3.3298672E2],"tree_param":{"num_deleted":"0","num_feature":"141","num_nodes":"5","size_leaf_vector":"1"}},{"base_weights":[-0E0,1.7676522E-1,-6.041251E-2,1.2321529E-2,2.2965163E-4,-7.2043007E-3,1.4313702E-3],"categories":[],"categories_nodes":[],"categories_segments":[],"categories_sizes":[],"default_left":[0,0,0,0,0,0,0],"id":105,"left_children":[1,3,5,-1,-1,-1,-1],"loss_changes":[9.773605E0,7.920994E0,1.2533889E1,0E0,0E0,0E0,0E0],"parents":[2147483647,0,0,1,1,2,2],"right_children":[2,4,6,-1,-1,-1,-1],"split_conditions":[-5.6526256E-1,-3.362859E-1,1E0,1.2321529E-2,2.2965163E-4,-7.2043007E-3,1.4313702E-3],"split_indices":[40,23,127,0,0,0,0],"split_type":[0,0,0,0,0,0,0],"sum_hessian":[7.686923E2,1.9963768E2,5.690546E2,7.6158035E1,1.23479645E2,2.2424495E2,3.448097E2],"tree_param":{"num_deleted":"0","num_feature":"141","num_nodes":"7","size_leaf_vector":"1"}},{"base_weights":[9.662631E-3,2.9507595E-1,-2.4120623E-2,1.58543E-2,1.6543182E-3,2.3454896E-3,-4.6099974E-3],"categories":[],"categories_nodes":[],"categories_segments":[],"categories_sizes":[],"default_left":[0,0,0,0,0,0,0],"id":106,"left_children":[1,3,5,-1,-1,-1,-1],"loss_changes":[9.885281E0,4.6680517E0,1.0034172E1,0E0,0E0,0E0,0E0],"parents":[2147483647,0,0,1,1,2,2],"right_children":[2,4,6,-1,-1,-1,-1],"split_conditions":[-5.2153665E-1,-3.4155264E-2,4.858095E-2,1.58543E-2,1.6543182E-3,2.3454896E-3,-4.6099974E-3],"split_indices":[39,10,50,0,0,0,0],"split_type":[0,0,0,0,0,0,0],"sum_hessian":[7.6185077E2,8.600661E1,6.758442E2,3.6304005E1,4.97026E1,3.648249E2,3.1101932E2],"tree_param":{"num_deleted":"0","num_feature":"141","num_nodes":"7","size_leaf_vector":"1"}},{"base_weights":[-0E0,2.044468E-2,-1.3018248E-2,1.1585132E-2,-1.4295045E-4],"categories":[],"categories_nodes":[],"categories_segments":[],"categories_sizes":[],"default_left":[0,0,0,0,0],"id":107,"left_children":[1,3,-1,-1,-1],"loss_changes":[1.0119123E1,9.618695E0,0E0,0E0,0E0],"parents":[2147483647,0,0,1,1],"right_children":[2,4,-1,-1,-1],"split_conditions":[9.863686E-1,-5.628288E-1,-1.3018248E-2,1.1585132E-2,-1.4295045E-4],"split_indices":[61,3,0,0,0],"split_type":[0,0,0,0,0],"sum_hessian":[7.626555E2,7.2609454E2,3.656095E1,5.111989E1,6.749747E2],"tree_param":{"num_deleted":"0","num_feature":"141","num_nodes":"5","size_leaf_vector":"1"}},{"base_weights":[6.9132783E-3,2.3269668E-1,-3.580662E-2,1.4606276E-2,7.1840803E-4,-1.2730045E-2,-1.4578627E-4],"categories":[],"categories_nodes":[],"categories_segments":[],"categories_sizes":[],"default_left":[0,0,0,0,0,0,0],"id":108,"left_children":[1,3,5,-1,-1,-1,-1],"loss_changes":[9.452734E0,6.8618555E0,8.508174E0,0E0,0E0,0E0,0E0],"parents":[2147483647,0,0,1,1,2,2],"right_children":[2,4,6,-1,-1,-1,-1],"split_conditions":[-5.9248817E-1,2.1606436E-2,-6.4989334E-1,1.4606276E-2,7.1840803E-4,-1.2730045E-2,-1.4578627E-4],"split_indices":[67,119,29,0,0,0,0],"split_type":[0,0,0,0,0,0,0],"sum_hessian":[7.651611E2,1.2920705E2,6.3595404E2,5.109851E1,7.810854E1,3.7491425E1,5.984626E2],"tree_param":{"num_deleted":"0","num_feature":"141","num_nodes":"7","size_leaf_vector":"1"}},{"base_weights":[-2.6106946E-3,1.493075E-1,-8.523319E-2,1.4321732E-3,1.4376739E-2,-1.201303E-3,-1.3325014E-2],"categories":[],"categories_nodes":[],"categories_segments":[],"categories_sizes":[],"default_left":[0,0,0,0,0,0,0],"id":109,"left_children":[1,3,5,-1,-1,-1,-1],"loss_changes":[1.0784745E1,9.0402775E0,8.999615E0,0E0,0E0,0E0,0E0],"parents":[2147483647,0,0,1,1,2,2],"right_children":[2,4,6,-1,-1,-1,-1],"split_conditions":[-3.1734416E-1,7.2727275E-1,1.3333334E0,1.4321732E-3,1.4376739E-2,-1.201303E-3,-1.3325014E-2],"split_indices":[64,35,118,0,0,0,0],"split_type":[0,0,0,0,0,0,0],"sum_hessian":[7.6259564E2,2.5564865E2,5.0694702E2,2.037195E2,5.1929153E1,4.5903394E2,4.79131E1],"tree_param":{"num_deleted":"0","num_feature":"141","num_nodes":"7","size_leaf_vector":"1"}},{"base_weights":[-4.0536462E-3,2.593902E-1,-4.448599E-2,-0E0,1.5767477E-2,1.2046337E-3,-6.287316E-3],"categories":[],"categories_nodes":[],"categories_segments":[],"categories_sizes":[],"default_left":[0,0,0,0,0,0,0],"id":110,"left_children":[1,3,5,-1,-1,-1,-1],"loss_changes":[9.256853E0,6.961511E0,1.0706583E1,0E0,0E0,0E0,0E0],"parents":[2147483647,0,0,1,1,2,2],"right_children":[2,4,6,-1,-1,-1,-1],"split_conditions":[-1.0849378E0,-2.2307973E-1,3.2263362E-1,-0E0,1.5767477E-2,1.2046337E-3,-6.287316E-3],"split_indices":[120,63,10,0,0,0,0],"split_type":[0,0,0,0,0,0,0],"sum_hessian":[7.6029663E2,8.9097E1,6.7119965E2,4.8598343E1,4.0498653E1,4.31883E2,2.3931664E2],"tree_param":{"num_deleted":"0","num_feature":"141","num_nodes":"7","size_leaf_vector":"1"}},{"base_weights":[-0E0,1.0074837E-2,-2.4752771E-2,-3.918212E-3,2.5087867E-3],"categories":[],"categories_nodes":[],"categories_segments":[],"categories_sizes":[],"default_left":[0,0,0,0,0],"id":111,"left_children":[1,-1,3,-1,-1],"loss_changes":[9.009644E0,0E0,8.914373E0,0E0,0E0],"parents":[2147483647,0,0,2,2],"right_children":[2,-1,4,-1,-1],"split_conditions":[-5.610754E-1,1.0074837E-2,1E0,-3.918212E-3,2.5087867E-3],"split_indices":[37,0,128,0,0],"split_type":[0,0,0,0,0],"sum_hessian":[7.540679E2,5.707408E1,6.969938E2,3.671051E2,3.2988867E2],"tree_param":{"num_deleted":"0","num_feature":"141","num_nodes":"5","size_leaf_vector":"1"}},{"base_weights":[-0E0,-9.47558E-2,1.07774556E-1,-0E0,-1.0480205E-2,1.4730144E-2,-6.37394E-5],"categories":[],"categories_nodes":[],"categories_segments":[],"categories_sizes":[],"default_left":[0,0,0,0,0,0,0],"id":112,"left_children":[1,3,5,-1,-1,-1,-1],"loss_changes":[9.007001E0,9.924911E0,1.8427193E1,0E0,0E0,0E0,0E0],"parents":[2147483647,0,0,1,1,2,2],"right_children":[2,4,6,-1,-1,-1,-1],"split_conditions":[1E0,1.13582574E-1,1.373605E-1,-0E0,-1.0480205E-2,1.4730144E-2,-6.37394E-5],"split_indices":[128,40,42,0,0,0,0],"split_type":[0,0,0,0,0,0,0],"sum_hessian":[7.622533E2,4.0020337E2,3.620499E2,3.0024512E2,9.995825E1,8.496615E1,2.7708377E2],"tree_param":{"num_deleted":"0","num_feature":"141","num_nodes":"7","size_leaf_vector":"1"}},{"base_weights":[3.7221848E-3,-1.049378E-2,3.4405995E-2,4.0994505E-3,-2.269941E-3],"categories":[],"categories_nodes":[],"categories_segments":[],"categories_sizes":[],"default_left":[0,0,0,0,0],"id":113,"left_children":[1,-1,3,-1,-1],"loss_changes":[9.420865E0,0E0,8.897404E0,0E0,0E0],"parents":[2147483647,0,0,2,2],"right_children":[2,-1,4,-1,-1],"split_conditions":[-6.8043685E-1,-1.049378E-2,7.415628E-2,4.0994505E-3,-2.269941E-3],"split_indices":[63,0,26,0,0],"split_type":[0,0,0,0,0],"sum_hessian":[7.6333606E2,5.1394875E1,7.1194116E2,3.8436105E2,3.275801E2],"tree_param":{"num_deleted":"0","num_feature":"141","num_nodes":"5","size_leaf_vector":"1"}},{"base_weights":[7.344592E-3,2.4710444E-1,-3.6364358E-2,1.3655119E-2,-0E0,-0E0,-1.1027628E-2],"categories":[],"categories_nodes":[],"categories_segments":[],"categories_sizes":[],"default_left":[0,0,0,0,0,0,0],"id":114,"left_children":[1,3,5,-1,-1,-1,-1],"loss_changes":[1.0168443E1,8.2421E0,1.0008572E1,0E0,0E0,0E0,0E0],"parents":[2147483647,0,0,1,1,2,2],"right_children":[2,4,6,-1,-1,-1,-1],"split_conditions":[-1.0136976E0,4.253195E-1,4.361409E-1,1.3655119E-2,-0E0,-0E0,-1.1027628E-2],"split_indices":[23,15,6,0,0,0,0],"split_type":[0,0,0,0,0,0,0],"sum_hessian":[7.605993E2,1.2415971E2,6.364396E2,7.1230606E1,5.2929108E1,5.706376E2,6.580201E1],"tree_param":{"num_deleted":"0","num_feature":"141","num_nodes":"7","size_leaf_vector":"1"}},{"base_weights":[6.4132055E-3,2.783619E-1,-2.0827876E-2,-0E0,1.4393113E-2,7.165268E-4,-7.6948283E-3],"categories":[],"categories_nodes":[],"categories_segments":[],"categories_sizes":[],"default_left":[0,0,0,0,0,0,0],"id":115,"left_children":[1,3,5,-1,-1,-1,-1],"loss_changes":[8.054497E0,5.5263E0,9.124039E0,0E0,0E0,0E0,0E0],"parents":[2147483647,0,0,1,1,2,2],"right_children":[2,4,6,-1,-1,-1,-1],"split_conditions":[-1.2647499E0,-1.732341E-1,8.1817085E-1,-0E0,1.4393113E-2,7.165268E-4,-7.6948283E-3],"split_indices":[120,101,102,0,0,0,0],"split_type":[0,0,0,0,0,0,0],"sum_hessian":[7.640058E2,7.543333E1,6.8857245E2,3.1401695E1,4.403163E1,5.7064954E2,1.17922874E2],"tree_param":{"num_deleted":"0","num_feature":"141","num_nodes":"7","size_leaf_vector":"1"}},{"base_weights":[9.288196E-3,2.4229684E-1,-3.3200316E-2,1.16386125E-2,-2.50767E-3,7.4146097E-3,-2.483795E-3],"categories":[],"categories_nodes":[],"categories_segments":[],"categories_sizes":[],"default_left":[0,0,0,0,0,0,0],"id":116,"left_children":[1,3,5,-1,-1,-1,-1],"loss_changes":[9.651886E0,7.9037514E0,9.674356E0,0E0,0E0,0E0,0E0],"parents":[2147483647,0,0,1,1,2,2],"right_children":[2,4,6,-1,-1,-1,-1],"split_conditions":[-1.0136976E0,6.337672E-1,-6.4893705E-1,1.16386125E-2,-2.50767E-3,7.4146097E-3,-2.483795E-3],"split_indices":[23,98,28,0,0,0,0],"split_type":[0,0,0,0,0,0,0],"sum_hessian":[7.595874E2,1.24279755E2,6.353077E2,9.274404E1,3.1535717E1,8.3123505E1,5.5218414E2],"tree_param":{"num_deleted":"0","num_feature":"141","num_nodes":"7","size_leaf_vector":"1"}},{"base_weights":[-0E0,-1.0094849E-2,2.4841245E-2,7.57621E-3,-5.64272E-4],"categories":[],"categories_nodes":[],"categories_segments":[],"categories_sizes":[],"default_left":[0,0,0,0,0],"id":117,"left_children":[1,-1,3,-1,-1],"loss_changes":[9.047596E0,0E0,8.809114E0,0E0,0E0],"parents":[2147483647,0,0,2,2],"right_children":[2,-1,4,-1,-1],"split_conditions":[-6.660357E-1,-1.0094849E-2,-4.419791E-1,7.57621E-3,-5.64272E-4],"split_indices":[93,0,60,0,0],"split_type":[0,0,0,0,0],"sum_hessian":[7.610219E2,5.7075554E1,7.0394635E2,1.2191203E2,5.820343E2],"tree_param":{"num_deleted":"0","num_feature":"141","num_nodes":"5","size_leaf_vector":"1"}},{"base_weights":[-1.689605E-3,2.56261E-1,-4.154863E-2,-1.0531781E-4,1.330963E-2,-9.611755E-3,-3.1261513E-4],"categories":[],"categories_nodes":[],"categories_segments":[],"categories_sizes":[],"default_left":[0,0,0,0,0,0,0],"id":118,"left_children":[1,3,5,-1,-1,-1,-1],"loss_changes":[8.933157E0,6.5342245E0,6.4029655E0,0E0,0E0,0E0,0E0],"parents":[2147483647,0,0,1,1,2,2],"right_children":[2,4,6,-1,-1,-1,-1],"split_conditions":[-1.0985762E0,-4.49684E0,-6.660357E-1,-1.0531781E-4,1.330963E-2,-9.611755E-3,-3.1261513E-4],"split_indices":[40,10,63,0,0,0,0],"split_type":[0,0,0,0,0,0,0],"sum_hessian":[7.5862024E2,8.925879E1,6.6936145E2,3.1620413E1,5.7638374E1,5.6167988E1,6.131935E2],"tree_param":{"num_deleted":"0","num_feature":"141","num_nodes":"7","size_leaf_vector":"1"}},{"base_weights":[-2.2532924E-3,2.4780111E-2,-2.6254168E-1,7.674731E-3,-4.902282E-4,-1.4954974E-2,-0E0],"categories":[],"categories_nodes":[],"categories_segments":[],"categories_sizes":[],"default_left":[0,0,0,0,0,0,0],"id":119,"left_children":[1,3,5,-1,-1,-1,-1],"loss_changes":[7.690932E0,8.384053E0,5.1436634E0,0E0,0E0,0E0,0E0],"parents":[2147483647,0,0,1,1,2,2],"right_children":[2,4,6,-1,-1,-1,-1],"split_conditions":[8.137902E-1,-1.0136976E0,4.527009E-1,7.674731E-3,-4.902282E-4,-1.4954974E-2,-0E0],"split_indices":[58,23,119,0,0,0,0],"split_type":[0,0,0,0,0,0,0],"sum_hessian":[7.663868E2,6.8794507E2,7.844167E1,1.124666E2,5.754785E2,3.610194E1,4.233973E1],"tree_param":{"num_deleted":"0","num_feature":"141","num_nodes":"7","size_leaf_vector":"1"}},{"base_weights":[-1.2715887E-2,2.5898376E-1,-4.82804E-2,1.9405853E-2,-0E0,6.8447124E-3,-2.7223867E-3],"categories":[],"categories_nodes":[],"categories_segments":[],"categories_sizes":[],"default_left":[0,0,0,0,0,0,0],"id":120,"left_children":[1,3,5,-1,-1,-1,-1],"loss_changes":[8.539106E0,1.057387E1,8.82288E0,0E0,0E0,0E0,0E0],"parents":[2147483647,0,0,1,1,2,2],"right_children":[2,4,6,-1,-1,-1,-1],"split_conditions":[-8.537202E-1,-1.1407924E-1,-6.5296996E-1,1.9405853E-2,-0E0,6.8447124E-3,-2.7223867E-3],"split_indices":[27,60,58,0,0,0,0],"split_type":[0,0,0,0,0,0,0],"sum_hessian":[7.656519E2,7.663047E1,6.890215E2,3.0572765E1,4.6057705E1,7.830664E1,6.1071484E2],"tree_param":{"num_deleted":"0","num_feature":"141","num_nodes":"7","size_leaf_vector":"1"}},{"base_weights":[1.5261766E-3,-9.7132765E-2,1.1697087E-1,3.4216646E-5,-1.0495365E-2,1.4294987E-2,4.7061963E-5],"categories":[],"categories_nodes":[],"categories_segments":[],"categories_sizes":[],"default_left":[0,0,0,0,0,0,0],"id":121,"left_children":[1,3,5,-1,-1,-1,-1],"loss_changes":[1.0015598E1,1.2035929E1,1.5513132E1,0E0,0E0,0E0,0E0],"parents":[2147483647,0,0,1,1,2,2],"right_children":[2,4,6,-1,-1,-1,-1],"split_conditions":[1E0,-1.2844136E-1,1.15751535E-1,3.4216646E-5,-1.0495365E-2,1.4294987E-2,4.7061963E-5],"split_indices":[128,58,42,0,0,0,0],"split_type":[0,0,0,0,0,0,0],"sum_hessian":[7.627612E2,3.9865958E2,3.6410162E2,2.7954654E2,1.1911304E2,8.130816E1,2.8279346E2],"tree_param":{"num_deleted":"0","num_feature":"141","num_nodes":"7","size_leaf_vector":"1"}},{"base_weights":[7.22597E-3,2.3802006E-1,-3.5149314E-2,1.0593413E-2,-0E0,1.0349627E-2,-2.1532527E-3],"categories":[],"categories_nodes":[],"categories_segments":[],"categories_sizes":[],"default_left":[0,0,0,0,0,0,0],"id":122,"left_children":[1,3,5,-1,-1,-1,-1],"loss_changes":[9.601861E0,4.1821604E0,9.86829E0,0E0,0E0,0E0,0E0],"parents":[2147483647,0,0,1,1,2,2],"right_children":[2,4,6,-1,-1,-1,-1],"split_conditions":[-1.0136976E0,2.0277572E0,-5.669199E-1,1.0593413E-2,-0E0,1.0349627E-2,-2.1532527E-3],"split_indices":[23,65,3,0,0,0,0],"split_type":[0,0,0,0,0,0,0],"sum_hessian":[7.6564484E2,1.2602551E2,6.396193E2,8.748687E1,3.853864E1,4.5270115E1,5.943492E2],"tree_param":{"num_deleted":"0","num_feature":"141","num_nodes":"7","size_leaf_vector":"1"}},{"base_weights":[9.55494E-3,7.911011E-2,-1.2939142E-1,-2.0116575E-3,4.9055014E-3,-1.6820736E-2,3.8845654E-4],"categories":[],"categories_nodes":[],"categories_segments":[],"categories_sizes":[],"default_left":[0,0,0,0,0,0,0],"id":123,"left_children":[1,3,5,-1,-1,-1,-1],"loss_changes":[8.407963E0,7.2959976E0,1.8455961E1,0E0,0E0,0E0,0E0],"parents":[2147483647,0,0,1,1,2,2],"right_children":[2,4,6,-1,-1,-1,-1],"split_conditions":[3.766013E-1,-1.2660086E-1,1E0,-2.0116575E-3,4.9055014E-3,-1.6820736E-2,3.8845654E-4],"split_indices":[70,59,138,0,0,0,0],"split_type":[0,0,0,0,0,0,0],"sum_hessian":[7.617539E2,5.2211926E2,2.3963467E2,1.7537714E2,3.467421E2,6.2588295E1,1.7704639E2],"tree_param":{"num_deleted":"0","num_feature":"141","num_nodes":"7","size_leaf_vector":"1"}},{"base_weights":[-3.603665E-3,-1.0288832E-1,9.592443E-2,-8.714282E-4,-1.1669557E-2,5.133627E-3,-5.1210676E-3],"categories":[],"categories_nodes":[],"categories_segments":[],"categories_sizes":[],"default_left":[0,0,0,0,0,0,0],"id":124,"left_children":[1,3,5,-1,-1,-1,-1],"loss_changes":[8.722147E0,8.800222E0,8.443623E0,0E0,0E0,0E0,0E0],"parents":[2147483647,0,0,1,1,2,2],"right_children":[2,4,6,-1,-1,-1,-1],"split_conditions":[1E0,3.0950552E-1,8.0411553E-1,-8.714282E-4,-1.1669557E-2,5.133627E-3,-5.1210676E-3],"split_indices":[127,10,58,0,0,0,0],"split_type":[0,0,0,0,0,0,0],"sum_hessian":[7.6288367E2,3.958064E2,3.6707727E2,3.2365277E2,7.2153625E1,2.979275E2,6.914979E1],"tree_param":{"num_deleted":"0","num_feature":"141","num_nodes":"7","size_leaf_vector":"1"}},{"base_weights":[-4.5574545E-3,-1.14169665E-1,1.05831355E-1,1.070236E-3,-7.7207256E-3,5.36758E-3,-8.118418E-3],"categories":[],"categories_nodes":[],"categories_segments":[],"categories_sizes":[],"default_left":[0,0,0,0,0,0,0],"id":125,"left_children":[1,3,5,-1,-1,-1,-1],"loss_changes":[1.039399E1,9.681116E0,1.1202478E1,0E0,0E0,0E0,0E0],"parents":[2147483647,0,0,1,1,2,2],"right_children":[2,4,6,-1,-1,-1,-1],"split_conditions":[1E0,-3.5550964E-1,9.356059E-1,1.070236E-3,-7.7207256E-3,5.36758E-3,-8.118418E-3],"split_indices":[128,28,61,0,0,0,0],"split_type":[0,0,0,0,0,0,0],"sum_hessian":[7.500996E2,3.8892502E2,3.611746E2,1.7866534E2,2.1025966E2,3.123385E2,4.8836082E1],"tree_param":{"num_deleted":"0","num_feature":"141","num_nodes":"7","size_leaf_vector":"1"}},{"base_weights":[-9.786404E-3,1.5681353E-1,-7.48312E-2,1.4361645E-3,1.3942669E-2,-6.854382E-3,7.6284923E-4],"categories":[],"categories_nodes":[],"categories_segments":[],"categories_sizes":[],"default_left":[0,0,0,0,0,0,0],"id":126,"left_children":[1,3,5,-1,-1,-1,-1],"loss_changes":[9.35729E0,7.1462264E0,9.9497595E0,0E0,0E0,0E0,0E0],"parents":[2147483647,0,0,1,1,2,2],