{"learner":{"attributes":{"best_iteration":"23","best_score":"0.7949447020187386","scikit_learn":"{\"_estimator_type\": \"classifier\"}"},"feature_names":["open","high","low","close","volume","vader_compound","vader_pos","vader_neg","vader_neu","sentiment_label","finbert_score","finbert_label","fng_value","fng_classification","social_score","social_votes","quote_asset_volume","num_trades","taker_buy_base_volume","taker_buy_quote_volume","EMA_9","EMA_21","MACD","MACD_signal","BB_upper","BB_lower","BB_pct_b","RSI_14","Stoch_K","Stoch_D","ROC_10","ATR_14","high_low_spread","OBV","taker_buy_ratio","hour","day_of_week","close_lag_1","close_lag_3","close_lag_7","return_1d","price_above_ma1","return_2d","price_above_ma2","return_3d","price_above_ma3","return_5d","price_above_ma5","return_7d","price_above_ma7","return_14d","price_above_ma14","return_21d","price_above_ma21","return_30d","price_above_ma30","volatility_5d","vol_ratio_5d","close_zscore_5d","volatility_7d","vol_ratio_7d","close_zscore_7d","volatility_14d","vol_ratio_14d","close_zscore_14d","volatility_21d","vol_ratio_21d","close_zscore_21d","volatility_30d","vol_ratio_30d","close_zscore_30d","ema_cross","macd_cross","macd_hist","macd_hist_change","price_vs_ema9","price_vs_ema21","ema_gap","bb_width","bb_squeeze","bb_breakout_up","bb_breakout_down","rsi_overbought","rsi_oversold","rsi_bullish","rsi_change_3d","rsi_change_7d","stoch_cross","stoch_overbought","stoch_oversold","atr_ratio","high_volatility","atr_change","volume_spike","obv_change","obv_trend","buy_pressure","buy_pressure_trend","sentiment_ma3","sentiment_ma7","sentiment_ma14","sentiment_trend","sentiment_momentum","sentiment_pos","sentiment_neg","sentiment_strong_pos","sentiment_strong_neg","vader_pos_change","vader_neg_change","finbert_ma3","finbert_ma7","finbert_trend","fng_extreme_fear","fng_fear","fng_greed","fng_extreme_greed","fng_change_3d","fng_change_7d","fng_ma7","social_spike","social_trend","social_votes_spike","is_weekend","is_monday","is_friday","month","quarter","target_lag_1","target_lag_2","target_lag_3","target_lag_5","target_lag_7","target_lag_14","higher_high","lower_low","doji","bullish_candle","candle_body","bull_confluence","bear_confluence","sentiment_tech_agree"],"feature_types":["float","float","float","float","float","float","float","float","float","float","float","float","float","float","float","float","float","float","float","float","float","float","float","float","float","float","float","float","float","float","float","float","float","float","float","float","float","float","float","float","float","float","float","float","float","float","float","float","float","float","float","float","float","float","float","float","float","float","float","float","float","float","float","float","float","float","float","float","float","float","float","float","float","float","float","float","float","float","float","float","float","float","float","float","float","float","float","float","float","float","float","float","float","float","float","float","float","float","float","float","float","float","float","float","float","float","float","float","float","float","float","float","float","float","float","float","float","float","float","float","float","float","float","float","float","float","float","float","float","float","float","float","float","float","float","float","float","float","float","float","float"],"gradient_booster":{"model":{"cats":{"enc":[],"feature_segments":[],"sorted_idx":[]},"gbtree_model_param":{"num_parallel_tree":"1","num_trees":"84"},"iteration_indptr":[0,1,2,3,4,5,6,7,8,9,10,11,12,13,14,15,16,17,18,19,20,21,22,23,24,25,26,27,28,29,30,31,32,33,34,35,36,37,38,39,40,41,42,43,44,45,46,47,48,49,50,51,52,53,54,55,56,57,58,59,60,61,62,63,64,65,66,67,68,69,70,71,72,73,74,75,76,77,78,79,80,81,82,83,84],"tree_info":[0,0,0,0,0,0,0,0,0,0,0,0,0,0,0,0,0,0,0,0,0,0,0,0,0,0,0,0,0,0,0,0,0,0,0,0,0,0,0,0,0,0,0,0,0,0,0,0,0,0,0,0,0,0,0,0,0,0,0,0,0,0,0,0,0,0,0,0,0,0,0,0,0,0,0,0,0,0,0,0,0,0,0,0],"trees":[{"base_weights":[-8.351147E-3,-3.8290638E-1,3.6799735E-1,-1.0373494E-1,-8.515415E-1,9.6843165E-1,1.7361094E-1,3.7635933E-3,-1.26050385E-2,-1.5593021E-2,-3.3871274E-2,9.028014E-3,3.13078E-2,7.206661E-3,-7.4682194E-3],"categories":[],"categories_nodes":[],"categories_segments":[],"categories_sizes":[],"default_left":[0,0,0,0,0,0,0,0,0,0,0,0,0,0,0],"id":0,"left_children":[1,3,5,7,9,11,13,-1,-1,-1,-1,-1,-1,-1,-1],"loss_changes":[1.2513225E2,5.682206E1,4.984408E1,2.6387133E1,1.3303085E1,5.37352E0,1.3699816E1,0E0,0E0,0E0,0E0,0E0,0E0,0E0,0E0],"parents":[2147483647,0,0,1,1,2,2,3,3,4,4,5,5,6,6],"right_children":[2,4,6,8,10,12,14,-1,-1,-1,-1,-1,-1,-1,-1],"split_conditions":[1E0,-1.423003E-1,1E0,-5.262721E-1,3.9066E-2,-3.8335767E-1,2.975442E-1,3.7635933E-3,-1.26050385E-2,-1.5593021E-2,-3.3871274E-2,9.028014E-3,3.13078E-2,7.206661E-3,-7.4682194E-3],"split_indices":[128,61,45,42,42,4,33,0,0,0,0,0,0,0,0],"split_type":[0,0,0,0,0,0,0,0,0,0,0,0,0,0,0],"sum_hessian":[8.4747894E2,4.286095E2,4.1886945E2,2.759866E2,1.526229E2,9.43415E1,3.2452795E2,1.5929633E2,1.1669028E2,9.128599E1,6.1336906E1,2.2204824E1,7.213668E1,2.817052E2,4.2822742E1],"tree_param":{"num_deleted":"0","num_feature":"141","num_nodes":"15","size_leaf_vector":"1"}},{"base_weights":[-0E0,-3.5664684E-1,3.6391696E-1,-2.251642E-2,-6.8492985E-1,9.5597476E-1,1.7409487E-1,7.533672E-3,-5.2590533E-3,-4.256318E-3,-2.7635979E-2,3.14196E-2,1.4259945E-2,1.3760291E-2,-0E0],"categories":[],"categories_nodes":[],"categories_segments":[],"categories_sizes":[],"default_left":[0,0,0,0,0,0,0,0,0,0,0,0,0,0,0],"id":1,"left_children":[1,3,5,7,9,11,13,-1,-1,-1,-1,-1,-1,-1,-1],"loss_changes":[1.1542413E2,4.7427845E1,4.8035427E1,1.2918152E1,3.1383202E1,3.1991272E0,2.0734877E1,0E0,0E0,0E0,0E0,0E0,0E0,0E0,0E0],"parents":[2147483647,0,0,1,1,2,2,3,3,4,4,5,5,6,6],"right_children":[2,4,6,8,10,12,14,-1,-1,-1,-1,-1,-1,-1,-1],"split_conditions":[1E0,-3.4944E-1,1E0,-9.8873264E-1,-2.5510803E-1,4.5116782E-2,4.742892E-1,7.533672E-3,-5.2590533E-3,-4.256318E-3,-2.7635979E-2,3.14196E-2,1.4259945E-2,1.3760291E-2,-0E0],"split_indices":[128,44,45,40,42,76,42,0,0,0,0,0,0,0,0],"split_type":[0,0,0,0,0,0,0,0,0,0,0,0,0,0,0],"sum_hessian":[8.4776337E2,4.2864108E2,4.1912228E2,2.1924924E2,2.0939185E2,9.356491E1,3.2555737E2,7.160539E1,1.4764384E2,7.89007E1,1.3049115E2,6.085517E1,3.270974E1,1.19207855E2,2.0634952E2],"tree_param":{"num_deleted":"0","num_feature":"141","num_nodes":"15","size_leaf_vector":"1"}},{"base_weights":[-1.7154388E-2,-8.5489875E-1,8.473831E-1,-3.095972E-1,-3.5409167E-2,3.471208E-2,3.4253904E-1,-1.7628658E-3,-1.404522E-2,2.2521937E-2,5.8813337E-3],"categories":[],"categories_nodes":[],"categories_segments":[],"categories_sizes":[],"default_left":[0,0,0,0,0,0,0,0,0,0,0],"id":2,"left_children":[1,3,5,7,-1,-1,9,-1,-1,-1,-1],"loss_changes":[6.34488E2,9.11293E1,7.717645E1,8.43405E0,0E0,0E0,1.1705671E1,0E0,0E0,0E0,0E0],"parents":[2147483647,0,0,1,1,2,2,3,3,6,6],"right_children":[2,4,6,8,-1,-1,10,-1,-1,-1,-1],"split_conditions":[1E0,0E0,5E-1,-7.337759E-1,-3.5409167E-2,3.471208E-2,-6.3446355E-1,-1.7628658E-3,-1.404522E-2,2.2521937E-2,5.8813337E-3],"split_indices":[127,9,9,42,0,0,3,0,0,0,0],"split_type":[0,0,0,0,0,0,0,0,0,0,0],"sum_hessian":[8.533254E2,4.3512317E2,4.182022E2,1.8777002E2,2.4735315E2,2.3365909E2,1.845431E2,8.938602E1,9.8384E1,3.2795593E1,1.5174751E2],"tree_param":{"num_deleted":"0","num_feature":"141","num_nodes":"11","size_leaf_vector":"1"}},{"base_weights":[-0E0,-3.3885768E-1,3.4654218E-1,1.421972E-3,-7.947805E-1,9.8646206E-1,1.3532448E-1,-1.1717683E-2,2.8248074E-2,-3.486363E-2,7.822463E-3,5.6779425E-4,4.007516E-2,-3.3261135E-2,1.8285407E-2],"categories":[],"categories_nodes":[],"categories_segments":[],"categories_sizes":[],"default_left":[0,0,0,0,0,0,0,0,0,0,0,0,0,0,0],"id":3,"left_children":[1,3,5,7,9,11,13,-1,-1,-1,-1,-1,-1,-1,-1],"loss_changes":[1.0489847E2,7.264499E1,5.785086E1,1.1434998E2,9.588459E1,3.938623E1,2.2787125E2,0E0,0E0,0E0,0E0,0E0,0E0,0E0,0E0],"parents":[2147483647,0,0,1,1,2,2,3,3,4,4,5,5,6,6],"right_children":[2,4,6,8,10,12,14,-1,-1,-1,-1,-1,-1,-1,-1],"split_conditions":[1E0,-3.2629645E-1,1E0,1E0,1E0,1E0,1E0,-1.1717683E-2,2.8248074E-2,-3.486363E-2,7.822463E-3,5.6779425E-4,4.007516E-2,-3.3261135E-2,1.8285407E-2],"split_indices":[128,42,45,127,127,127,127,0,0,0,0,0,0,0,0],"split_type":[0,0,0,0,0,0,0,0,0,0,0,0,0,0,0],"sum_hessian":[8.5012946E2,4.3145856E2,4.1867093E2,2.4597598E2,1.8548257E2,9.632676E1,3.2234415E2,1.7339592E2,7.258006E1,1.3375781E2,5.1724754E1,3.2812244E1,6.3514515E1,8.699064E1,2.3535352E2],"tree_param":{"num_deleted":"0","num_feature":"141","num_nodes":"15","size_leaf_vector":"1"}},{"base_weights":[-0E0,-8.022099E-1,8.189807E-1,-2.5673845E-1,-3.3832353E-2,1.1908499E0,3.261552E-1,-0E0,-1.1902305E-2,3.543587E-2,1.6429283E-2,2.2244848E-2,5.3897025E-3],"categories":[],"categories_nodes":[],"categories_segments":[],"categories_sizes":[],"default_left":[0,0,0,0,0,0,0,0,0,0,0,0,0],"id":4,"left_children":[1,3,5,7,-1,9,11,-1,-1,-1,-1,-1,-1],"loss_changes":[5.734776E2,8.944064E1,7.5861145E1,9.221658E0,0E0,3.0099792E0,1.2260675E1,0E0,0E0,0E0,0E0,0E0,0E0],"parents":[2147483647,0,0,1,1,2,2,3,3,5,5,6,6],"right_children":[2,4,6,8,-1,10,12,-1,-1,-1,-1,-1,-1],"split_conditions":[1E0,0E0,5E-1,-7.001146E-1,-3.3832353E-2,7.5E-1,-6.3446355E-1,-0E0,-1.1902305E-2,3.543587E-2,1.6429283E-2,2.2244848E-2,5.3897025E-3],"split_indices":[127,9,9,85,0,35,3,0,0,0,0,0,0],"split_type":[0,0,0,0,0,0,0,0,0,0,0,0,0],"sum_hessian":[8.4933417E2,4.2838644E2,4.2094775E2,1.8395015E2,2.4443628E2,2.3286913E2,1.8807861E2,7.013583E1,1.1381432E2,2.0526828E2,2.7600838E1,3.355365E1,1.5452496E2],"tree_param":{"num_deleted":"0","num_feature":"141","num_nodes":"13","size_leaf_vector":"1"}},{"base_weights":[2.2025825E-2,-7.685185E-1,8.140245E-1,-2.6608485E-1,-1.1630474E0,3.5598528E-2,3.9089766E-1,5.9863706E-3,-1.3513549E-2,-1.3109377E-2,-3.4675036E-2,1.4184603E-2,-0E0],"categories":[],"categories_nodes":[],"categories_segments":[],"categories_sizes":[],"default_left":[0,0,0,0,0,0,0,0,0,0,0,0,0],"id":5,"left_children":[1,3,5,7,9,-1,11,-1,-1,-1,-1,-1,-1],"loss_changes":[5.495308E2,8.3528076E1,7.7824554E1,2.3402891E1,4.74765E0,0E0,1.1566441E1,0E0,0E0,0E0,0E0,0E0,0E0],"parents":[2147483647,0,0,1,1,2,2,3,3,4,4,6,6],"right_children":[2,4,6,8,10,-1,12,-1,-1,-1,-1,-1,-1],"split_conditions":[1E0,-4.1657817E-1,2.8195766E-1,-7.951106E-1,-6.3595456E-1,3.5598528E-2,1.5545194E0,5.9863706E-3,-1.3513549E-2,-1.3109377E-2,-3.4675036E-2,1.4184603E-2,-0E0],"split_indices":[127,40,40,58,56,0,40,0,0,0,0,0,0],"split_type":[0,0,0,0,0,0,0,0,0,0,0,0,0],"sum_hessian":[8.538198E2,4.2552014E2,4.282997E2,1.9376884E2,2.3175128E2,2.0296875E2,2.2533096E2,5.4752266E1,1.3901659E2,2.3880373E1,2.0787091E2,1.8088193E2,4.4449036E1],"tree_param":{"num_deleted":"0","num_feature":"141","num_nodes":"13","size_leaf_vector":"1"}},{"base_weights":[-2.0677587E-2,-7.6376367E-1,7.365654E-1,-2.841061E-1,-1.1361986E0,1.1032451E0,2.6646268E-1,-3.0224803E-3,-1.4153549E-2,-1.3428219E-2,-3.380832E-2,3.5886176E-2,2.378606E-2,-0E0,1.2157837E-2],"categories":[],"categories_nodes":[],"categories_segments":[],"categories_sizes":[],"default_left":[0,0,0,0,0,0,0,0,0,0,0,0,0,0,0],"id":6,"left_children":[1,3,5,7,9,11,13,-1,-1,-1,-1,-1,-1,-1,-1],"loss_changes":[4.8994446E2,7.5664795E1,7.1049194E1,7.4108505E0,3.8840637E0,4.6820984E0,1.0084338E1,0E0,0E0,0E0,0E0,0E0,0E0,0E0,0E0],"parents":[2147483647,0,0,1,1,2,2,3,3,4,4,5,5,6,6],"right_children":[2,4,6,8,10,12,14,-1,-1,-1,-1,-1,-1,-1,-1],"split_conditions":[1E0,-8.8199995E-2,4.5895433E-1,-1.796388E-1,-6.179846E-1,0E0,-1.09182045E-1,-3.0224803E-3,-1.4153549E-2,-1.3428219E-2,-3.380832E-2,3.5886176E-2,2.378606E-2,-0E0,1.2157837E-2],"split_indices":[127,10,10,76,62,43,69,0,0,0,0,0,0,0,0],"split_type":[0,0,0,0,0,0,0,0,0,0,0,0,0,0,0],"sum_hessian":[8.4610284E2,4.2897433E2,4.171285E2,1.944272E2,2.3454713E2,2.2741212E2,1.897164E2,1.1717866E2,7.724854E1,2.4352867E1,2.1019427E2,1.2557219E2,1.01839935E2,6.857577E1,1.21140625E2],"tree_param":{"num_deleted":"0","num_feature":"141","num_nodes":"15","size_leaf_vector":"1"}},{"base_weights":[-1.6039276E-2,8.617496E-2,-2.4644881E-1,1.8071613E-1,-9.983077E-2,1.869006E-3,-3.126843E-1,3.0946312E-3,1.5005749E-2,5.785805E-3,-9.447697E-3,-1.6027825E-2,-4.6280795E-3],"categories":[],"categories_nodes":[],"categories_segments":[],"categories_sizes":[],"default_left":[0,0,0,0,0,0,0,0,0,0,0,0,0],"id":7,"left_children":[1,3,5,7,9,-1,11,-1,-1,-1,-1,-1,-1],"loss_changes":[2.260041E1,1.1799332E1,7.238472E0,1.0571209E1,1.6650532E1,0E0,8.67417E0,0E0,0E0,0E0,0E0,0E0,0E0],"parents":[2147483647,0,0,1,1,2,2,3,3,4,4,6,6],"right_children":[2,4,6,8,10,-1,12,-1,-1,-1,-1,-1,-1],"split_conditions":[4.893222E-1,1E0,-8.4915406E-1,1E0,-6.544357E-1,1.869006E-3,-1.6959058E-1,3.0946312E-3,1.5005749E-2,5.785805E-3,-9.447697E-3,-1.6027825E-2,-4.6280795E-3],"split_indices":[0,113,85,124,37,0,85,0,0,0,0,0,0],"split_type":[0,0,0,0,0,0,0,0,0,0,0,0,0],"sum_hessian":[8.524009E2,5.836287E2,2.687722E2,3.974703E2,1.861584E2,3.932274E1,2.2944946E2,3.4104172E2,5.6428574E1,7.551098E1,1.1064742E2,7.397476E1,1.554747E2],"tree_param":{"num_deleted":"0","num_feature":"141","num_nodes":"13","size_leaf_vector":"1"}},{"base_weights":[-0E0,-3.0842844E-1,3.2585955E-1,-8.950457E-2,-8.2272494E-1,8.962867E-1,1.4300244E-1,-1.3975813E-2,2.5861595E-2,-3.3856183E-2,1.8789648E-3,1.6367651E-3,3.6239415E-2,-2.916108E-2,1.661494E-2],"categories":[],"categories_nodes":[],"categories_segments":[],"categories_sizes":[],"default_left":[0,0,0,0,0,0,0,0,0,0,0,0,0,0,0],"id":8,"left_children":[1,3,5,7,9,11,13,-1,-1,-1,-1,-1,-1,-1,-1],"loss_changes":[9.065057E1,5.0179195E1,4.474716E1,1.3609824E2,4.762976E1,2.9345695E1,1.7992224E2,0E0,0E0,0E0,0E0,0E0,0E0,0E0,0E0],"parents":[2147483647,0,0,1,1,2,2,3,3,4,4,5,5,6,6],"right_children":[2,4,6,8,10,12,14,-1,-1,-1,-1,-1,-1,-1,-1],"split_conditions":[1E0,-8.676578E-2,1E0,1E0,1E0,1E0,1E0,-1.3975813E-2,2.5861595E-2,-3.3856183E-2,1.8789648E-3,1.6367651E-3,3.6239415E-2,-2.916108E-2,1.661494E-2],"split_indices":[128,58,45,127,127,127,127,0,0,0,0,0,0,0,0],"split_type":[0,0,0,0,0,0,0,0,0,0,0,0,0,0,0],"sum_hessian":[8.5558514E2,4.3642612E2,4.1915906E2,3.138458E2,1.2258033E2,9.35679E1,3.2559116E2,2.2754395E2,8.630184E1,8.800602E1,3.457431E1,3.3047516E1,6.0520382E1,8.576389E1,2.3982726E2],"tree_param":{"num_deleted":"0","num_feature":"141","num_nodes":"15","size_leaf_vector":"1"}},{"base_weights":[-3.2254143E-3,-7.0099425E-1,6.954114E-1,-1.594713E-1,-1.0289102E0,1.0492176E0,2.56133E-1,6.0529867E-3,-1.1491769E-2,-2.4204852E-2,-3.6825377E-2,3.3114806E-2,1.8133437E-2,1.7797528E-2,2.172927E-3],"categories":[],"categories_nodes":[],"categories_segments":[],"categories_sizes":[],"default_left":[0,0,0,0,0,0,0,0,0,0,0,0,0,0,0],"id":9,"left_children":[1,3,5,7,9,11,13,-1,-1,-1,-1,-1,-1,-1,-1],"loss_changes":[4.2240112E2,7.449225E1,6.419754E1,1.9069016E1,7.6453247E0,6.550537E0,1.3493291E1,0E0,0E0,0E0,0E0,0E0,0E0,0E0,0E0],"parents":[2147483647,0,0,1,1,2,2,3,3,4,4,5,5,6,6],"right_children":[2,4,6,8,10,12,14,-1,-1,-1,-1,-1,-1,-1,-1],"split_conditions":[1E0,-5.006529E-1,5E-1,-9.779687E-2,2.0833002E-1,1.7990014E-1,-2.684073E-1,6.0529867E-3,-1.1491769E-2,-2.4204852E-2,-3.6825377E-2,3.3114806E-2,1.8133437E-2,1.7797528E-2,2.172927E-3],"split_indices":[127,5,9,33,40,40,33,0,0,0,0,0,0,0,0],"split_type":[0,0,0,0,0,0,0,0,0,0,0,0,0,0,0],"sum_hessian":[8.406526E2,4.2267584E2,4.1797675E2,1.6532474E2,2.573511E2,2.2433246E2,1.9364427E2,6.100641E1,1.0431834E2,1.7182721E2,8.552389E1,1.6356107E2,6.0771397E1,5.4398754E1,1.3924551E2],"tree_param":{"num_deleted":"0","num_feature":"141","num_nodes":"15","size_leaf_vector":"1"}},{"base_weights":[7.7232113E-3,-6.87409E-1,7.052941E-1,-0E0,-8.9873683E-1,1.038884E0,2.4893399E-1,1.225748E-2,-4.024388E-3,-2.9519746E-2,-1.2110817E-2,3.366878E-2,2.2985745E-2,1.7663281E-2,1.944652E-3],"categories":[],"categories_nodes":[],"categories_segments":[],"categories_sizes":[],"default_left":[0,0,0,0,0,0,0,0,0,0,0,0,0,0,0],"id":10,"left_children":[1,3,5,7,9,11,13,-1,-1,-1,-1,-1,-1,-1,-1],"loss_changes":[4.2155576E2,6.439751E1,6.356366E1,1.0339508E1,1.8437927E1,3.4737244E0,1.3138376E1,0E0,0E0,0E0,0E0,0E0,0E0,0E0,0E0],"parents":[2147483647,0,0,1,1,2,2,3,3,4,4,5,5,6,6],"right_children":[2,4,6,8,10,12,14,-1,-1,-1,-1,-1,-1,-1,-1],"split_conditions":[1E0,-6.904502E-1,4.5895433E-1,-1.9211124E-1,2.8355906E-2,0E0,-2.684073E-1,1.225748E-2,-4.024388E-3,-2.9519746E-2,-1.2110817E-2,3.366878E-2,2.2985745E-2,1.7663281E-2,1.944652E-3],"split_indices":[127,58,10,33,108,43,33,0,0,0,0,0,0,0,0],"split_type":[0,0,0,0,0,0,0,0,0,0,0,0,0,0,0],"sum_hessian":[8.434608E2,4.2040045E2,4.2306036E2,9.814804E1,3.222524E2,2.3735513E2,1.8570523E2,2.4747622E1,7.340042E1,2.4031207E2,8.194035E1,1.2690225E2,1.1045287E2,5.1811054E1,1.3389418E2],"tree_param":{"num_deleted":"0","num_feature":"141","num_nodes":"15","size_leaf_vector":"1"}},{"base_weights":[-9.998799E-3,-2.88291E-1,2.6991645E-1,-6.891481E-2,-6.506091E-1,7.9669267E-1,9.866182E-2,5.292874E-3,-7.0482492E-3,-5.293086E-3,-2.2441113E-2,2.580134E-2,7.0055886E-3,1.293167E-2,-0E0],"categories":[],"categories_nodes":[],"categories_segments":[],"categories_sizes":[],"default_left":[0,0,0,0,0,0,0,0,0,0,0,0,0,0,0],"id":11,"left_children":[1,3,5,7,9,11,13,-1,-1,-1,-1,-1,-1,-1,-1],"loss_changes":[6.9371025E1,3.4450527E1,3.838678E1,1.5208016E1,8.430992E0,3.6097107E0,1.2564741E1,0E0,0E0,0E0,0E0,0E0,0E0,0E0,0E0],"parents":[2147483647,0,0,1,1,2,2,3,3,4,4,5,5,6,6],"right_children":[2,4,6,8,10,12,14,-1,-1,-1,-1,-1,-1,-1,-1],"split_conditions":[1E0,-1.423003E-1,1E0,-7.572912E-1,-3.0144444E-1,5.185656E-1,-6.2025905E-1,5.292874E-3,-7.0482492E-3,-5.293086E-3,-2.2441113E-2,2.580134E-2,7.0055886E-3,1.293167E-2,-0E0],"split_indices":[128,61,45,85,42,21,2,0,0,0,0,0,0,0,0],"split_type":[0,0,0,0,0,0,0,0,0,0,0,0,0,0,0],"sum_hessian":[8.395818E2,4.2618658E2,4.133952E2,2.7385178E2,1.5233481E2,9.3164925E1,3.2023026E2,1.060558E2,1.6779599E2,4.21649E1,1.1016991E2,7.078367E1,2.2381256E1,6.154522E1,2.5868506E2],"tree_param":{"num_deleted":"0","num_feature":"141","num_nodes":"15","size_leaf_vector":"1"}},{"base_weights":[3.5100062E-3,-6.8137234E-1,6.945173E-1,-9.661524E-1,-1.7825818E-1,1.0345539E0,2.4797784E-1,-3.4574338E-3,-2.9472256E-2,5.135436E-3,-1.0002876E-2,3.0897245E-2,1.3271555E-2,1.8361954E-2,3.6386538E-3],"categories":[],"categories_nodes":[],"categories_segments":[],"categories_sizes":[],"default_left":[0,0,0,0,0,0,0,0,0,0,0,0,0,0,0],"id":12,"left_children":[1,3,5,7,9,11,13,-1,-1,-1,-1,-1,-1,-1,-1],"loss_changes":[4.1307675E2,5.9856293E1,6.3527283E1,1.2899353E1,1.3039883E1,3.0977783E0,9.729641E0,0E0,0E0,0E0,0E0,0E0,0E0,0E0,0E0],"parents":[2147483647,0,0,1,1,2,2,3,3,4,4,5,5,6,6],"right_children":[2,4,6,8,10,12,14,-1,-1,-1,-1,-1,-1,-1,-1],"split_conditions":[1E0,1.0811473E0,4.5895433E-1,-6.565898E-1,-7.951106E-1,7.5E-1,-6.6063136E-1,-3.4574338E-3,-2.9472256E-2,5.135436E-3,-1.0002876E-2,3.0897245E-2,1.3271555E-2,1.8361954E-2,3.6386538E-3],"split_indices":[127,7,10,58,58,35,0,0,0,0,0,0,0,0,0],"split_type":[0,0,0,0,0,0,0,0,0,0,0,0,0,0,0],"sum_hessian":[8.4670734E2,4.2314288E2,4.2356448E2,2.6381964E2,1.5932323E2,2.3334575E2,1.9021875E2,2.4189032E1,2.3963062E2,4.6319263E1,1.1300397E2,2.0557521E2,2.7770544E1,3.3906364E1,1.5631238E2],"tree_param":{"num_deleted":"0","num_feature":"141","num_nodes":"15","size_leaf_vector":"1"}},{"base_weights":[-2.732073E-5,-2.920814E-1,2.9539457E-1,-7.714124E-2,-6.5257394E-1,7.839621E-1,1.3747478E-1,3.9851493E-3,-7.685908E-3,-1.5074762E-2,-2.6064543E-2,2.5448333E-2,7.1846116E-3,6.728292E-3,-4.8863315E-3],"categories":[],"categories_nodes":[],"categories_segments":[],"categories_sizes":[],"default_left":[0,0,0,0,0,0,0,0,0,0,0,0,0,0,0],"id":13,"left_children":[1,3,5,7,9,11,13,-1,-1,-1,-1,-1,-1,-1,-1],"loss_changes":[7.7430786E1,3.4003387E1,3.2992577E1,1.4381293E1,3.2983322E0,3.4525604E0,1.2006484E1,0E0,0E0,0E0,0E0,0E0,0E0,0E0,0E0],"parents":[2147483647,0,0,1,1,2,2,3,3,4,4,5,5,6,6],"right_children":[2,4,6,8,10,12,14,-1,-1,-1,-1,-1,-1,-1,-1],"split_conditions":[1E0,-1.423003E-1,1E0,-7.350741E-2,4.1309607E-1,5.2236557E-1,8.761502E-2,3.9851493E-3,-7.685908E-3,-1.5074762E-2,-2.6064543E-2,2.5448333E-2,7.1846116E-3,6.728292E-3,-4.8863315E-3],"split_indices":[128,61,45,33,102,21,33,0,0,0,0,0,0,0,0],"split_type":[0,0,0,0,0,0,0,0,0,0,0,0,0,0,0],"sum_hessian":[8.486297E2,4.3175507E2,4.168746E2,2.7901862E2,1.5273647E2,9.2911606E1,3.23963E2,1.2470924E2,1.5430936E2,1.2102735E2,3.1709118E1,6.982767E1,2.3083939E1,2.5340195E2,7.056105E1],"tree_param":{"num_deleted":"0","num_feature":"141","num_nodes":"15","size_leaf_vector":"1"}},{"base_weights":[1.9669589E-2,-2.6013327E-1,3.1673956E-1,-4.8442222E-2,-7.281751E-1,7.019088E-1,2.0262136E-1,1.1415034E-2,-2.8466259E-3,-1.4517232E-2,-2.8027857E-2,1.3017023E-2,2.8532796E-2,1.0547396E-2,-0E0],"categories":[],"categories_nodes":[],"categories_segments":[],"categories_sizes":[],"default_left":[0,0,0,0,0,0,0,0,0,0,0,0,0,0,0],"id":14,"left_children":[1,3,5,7,9,11,13,-1,-1,-1,-1,-1,-1,-1,-1],"loss_changes":[7.4048386E1,4.3454964E1,1.847871E1,9.0706625E0,5.116165E0,4.525627E0,1.1573917E1,0E0,0E0,0E0,0E0,0E0,0E0,0E0,0E0],"parents":[2147483647,0,0,1,1,2,2,3,3,4,4,5,5,6,6],"right_children":[2,4,6,8,10,12,14,-1,-1,-1,-1,-1,-1,-1,-1],"split_conditions":[1E0,-8.676578E-2,-9.45366E-2,-8.957823E-1,1.1555897E-1,-9.1197E-2,9.653357E-2,1.1415034E-2,-2.8466259E-3,-1.4517232E-2,-2.8027857E-2,1.3017023E-2,2.8532796E-2,1.0547396E-2,-0E0],"split_indices":[128,58,58,58,102,74,59,0,0,0,0,0,0,0,0],"split_type":[0,0,0,0,0,0,0,0,0,0,0,0,0,0,0],"sum_hessian":[8.4058496E2,4.280897E2,4.124953E2,3.0252106E2,1.2556865E2,8.307868E1,3.294166E2,2.2134964E1,2.8038608E2,8.137917E1,4.418948E1,5.7493046E1,2.5585636E1,1.7238881E2,1.5702779E2],"tree_param":{"num_deleted":"0","num_feature":"141","num_nodes":"15","size_leaf_vector":"1"}},{"base_weights":[-1.0919623E-3,-6.5602213E-1,6.696207E-1,-9.426225E-1,-1.5224142E-1,2.8753271E-2,2.2840151E-1,-9.423918E-3,-2.7896957E-2,-2.5953804E-4,-1.1237121E-2,-7.482718E-4,1.1105124E-2],"categories":[],"categories_nodes":[],"categories_segments":[],"categories_sizes":[],"default_left":[0,0,0,0,0,0,0,0,0,0,0,0,0],"id":15,"left_children":[1,3,5,7,9,-1,11,-1,-1,-1,-1,-1,-1],"loss_changes":[3.839455E2,6.1599625E1,6.1937515E1,3.127884E0,6.0750794E0,0E0,1.0167317E1,0E0,0E0,0E0,0E0,0E0,0E0],"parents":[2147483647,0,0,1,1,2,2,3,3,4,4,6,6],"right_children":[2,4,6,8,10,-1,12,-1,-1,-1,-1,-1,-1],"split_conditions":[1E0,1.0811473E0,7.88628E-1,-9.224917E-1,-8.8855274E-2,2.8753271E-2,-8.9238435E-2,-9.423918E-3,-2.7896957E-2,-2.5953804E-4,-1.1237121E-2,-7.482718E-4,1.1105124E-2],"split_indices":[127,7,6,86,64,0,69,0,0,0,0,0,0],"split_type":[0,0,0,0,0,0,0,0,0,0,0,0,0],"sum_hessian":[8.474214E2,4.3101328E2,4.1640808E2,2.6850183E2,1.6251146E2,2.2792393E2,1.8848415E2,2.2644585E1,2.4585724E2,1.127605E2,4.975097E1,6.767331E1,1.20810844E2],"tree_param":{"num_deleted":"0","num_feature":"141","num_nodes":"13","size_leaf_vector":"1"}},{"base_weights":[2.1919867E-3,2.1347988E-1,-1.6540721E-1,1.21156125E-4,3.8791215E-1,-4.255583E-1,1.1603956E-1,9.976807E-3,-1.1184132E-2,1.4933989E-2,-0E0,-5.3390088E-3,-2.184535E-2,1.6141713E-2,-2.409091E-3],"categories":[],"categories_nodes":[],"categories_segments":[],"categories_sizes":[],"default_left":[0,0,0,0,0,0,0,0,0,0,0,0,0,0,0],"id":16,"left_children":[1,3,5,7,9,11,13,-1,-1,-1,-1,-1,-1,-1,-1],"loss_changes":[3.2115993E1,1.4012571E1,3.709481E1,3.0038382E1,1.2054127E1,1.9673733E1,2.4653986E1,0E0,0E0,0E0,0E0,0E0,0E0,0E0,0E0],"parents":[2147483647,0,0,1,1,2,2,3,3,4,4,5,5,6,6],"right_children":[2,4,6,8,10,12,14,-1,-1,-1,-1,-1,-1,-1,-1],"split_conditions":[-7.711653E-2,1E0,1E0,-4.1319355E-1,4.325452E-1,-2.2276126E-1,2.0910609E-1,9.976807E-3,-1.1184132E-2,1.4933989E-2,-0E0,-5.3390088E-3,-2.184535E-2,1.6141713E-2,-2.409091E-3],"split_indices":[33,128,128,42,38,42,42,0,0,0,0,0,0,0,0],"split_type":[0,0,0,0,0,0,0,0,0,0,0,0,0,0,0],"sum_hessian":[8.3163184E2,3.7504443E2,4.565874E2,1.7828789E2,1.9675656E2,2.4146721E2,2.1512018E2,9.8454834E1,7.9833046E1,1.4633194E2,5.0424614E1,1.5158768E2,8.987955E1,6.81719E1,1.4694829E2],"tree_param":{"num_deleted":"0","num_feature":"141","num_nodes":"15","size_leaf_vector":"1"}},{"base_weights":[9.139569E-3,-2.3534635E-1,2.6525113E-1,-3.083806E-2,-5.838914E-1,7.424931E-1,1.12450466E-1,3.0018245E-3,-1.0731131E-2,-9.612388E-3,-2.4274023E-2,2.524036E-2,9.471934E-3,6.7608273E-3,-8.610443E-3],"categories":[],"categories_nodes":[],"categories_segments":[],"categories_sizes":[],"default_left":[0,0,0,0,0,0,0,0,0,0,0,0,0,0,0],"id":17,"left_children":[1,3,5,7,9,11,13,-1,-1,-1,-1,-1,-1,-1,-1],"loss_changes":[5.5710377E1,3.0649275E1,3.099266E1,1.6742775E1,8.805298E0,3.5469704E0,1.9564955E1,0E0,0E0,0E0,0E0,0E0,0E0,0E0,0E0],"parents":[2147483647,0,0,1,1,2,2,3,3,4,4,5,5,6,6],"right_children":[2,4,6,8,10,12,14,-1,-1,-1,-1,-1,-1,-1,-1],"split_conditions":[1E0,-1.423003E-1,1E0,-3.6631638E-1,3.9066E-2,7.124346E-2,8.931467E-2,3.0018245E-3,-1.0731131E-2,-9.612388E-3,-2.4274023E-2,2.524036E-2,9.471934E-3,6.7608273E-3,-8.610443E-3],"split_indices":[128,61,45,42,42,27,33,0,0,0,0,0,0,0,0],"split_type":[0,0,0,0,0,0,0,0,0,0,0,0,0,0,0],"sum_hessian":[8.333196E2,4.206777E2,4.1264188E2,2.7352307E2,1.4715463E2,9.118472E1,3.2145715E2,1.9245268E2,8.107039E1,8.787308E1,5.9281563E1,5.823169E1,3.295303E1,2.5390501E2,6.7552155E1],"tree_param":{"num_deleted":"0","num_feature":"141","num_nodes":"15","size_leaf_vector":"1"}},{"base_weights":[7.962148E-3,-2.3257972E-1,2.6238847E-1,-5.7240784E-1,6.0414046E-1,-7.017021E-1,6.53624E-1,1.1423705E-3,-2.4423437E-2,2.3286657E-2,-3.2041646E-3,5.659042E-3,-2.700546E-2,3.2519203E-2,1.00593455E-2],"categories":[],"categories_nodes":[],"categories_segments":[],"categories_sizes":[],"default_left":[0,0,0,0,0,0,0,0,0,0,0,0,0,0,0],"id":18,"left_children":[1,3,5,7,9,11,13,-1,-1,-1,-1,-1,-1,-1,-1],"loss_changes":[5.478705E1,1.2916888E2,1.6583766E2,5.8789047E1,2.3395405E1,3.2502686E1,4.2982483E1,0E0,0E0,0E0,0E0,0E0,0E0,0E0,0E0],"parents":[2147483647,0,0,1,1,2,2,3,3,4,4,5,5,6,6],"right_children":[2,4,6,8,10,12,14,-1,-1,-1,-1,-1,-1,-1,-1],"split_conditions":[1E0,1E0,1E0,-6.8236524E-1,-1.9944644E-2,-5.1859593E-1,2.173507E-1,1.1423705E-3,-2.4423437E-2,2.3286657E-2,-3.2041646E-3,5.659042E-3,-2.700546E-2,3.2519203E-2,1.00593455E-2],"split_indices":[128,127,127,58,42,5,40,0,0,0,0,0,0,0,0],"split_type":[0,0,0,0,0,0,0,0,0,0,0,0,0,0,0],"sum_hessian":[8.381453E2,4.251153E2,4.1303003E2,3.0583383E2,1.19281456E2,1.1602885E2,2.970012E2,9.527455E1,2.105593E2,9.449512E1,2.4786343E1,2.2631866E1,9.339698E1,1.04411E2,1.925902E2],"tree_param":{"num_deleted":"0","num_feature":"141","num_nodes":"15","size_leaf_vector":"1"}},{"base_weights":[-0E0,-6.218981E-1,6.5039235E-1,-9.4186723E-1,-1.8877834E-1,2.9485894E-2,2.8101465E-1,-2.1227669E-2,-3.4248475E-2,4.7310963E-3,-1.0092148E-2,1.1760728E-2,-9.936597E-4],"categories":[],"categories_nodes":[],"categories_segments":[],"categories_sizes":[],"default_left":[0,0,0,0,0,0,0,0,0,0,0,0,0],"id":19,"left_children":[1,3,5,7,9,-1,11,-1,-1,-1,-1,-1,-1],"loss_changes":[3.4677448E2,5.822148E1,5.7214798E1,8.489212E0,1.4039722E1,0E0,1.1333815E1,0E0,0E0,0E0,0E0,0E0,0E0],"parents":[2147483647,0,0,1,1,2,2,3,3,4,4,6,6],"right_children":[2,4,6,8,10,-1,12,-1,-1,-1,-1,-1,-1],"split_conditions":[1E0,8.0736375E-1,2.9768804E-1,2.0833002E-1,-7.951106E-1,2.9485894E-2,1.2992024E0,-2.1227669E-2,-3.4248475E-2,4.7310963E-3,-1.0092148E-2,1.1760728E-2,-9.936597E-4],"split_indices":[127,7,40,40,58,0,40,0,0,0,0,0,0],"split_type":[0,0,0,0,0,0,0,0,0,0,0,0,0],"sum_hessian":[8.2980817E2,4.237872E2,4.0602097E2,2.367796E2,1.8700758E2,1.9074718E2,2.1527379E2,1.5174243E2,8.503717E1,5.3919243E1,1.3308833E2,1.573025E2,5.7971275E1],"tree_param":{"num_deleted":"0","num_feature":"141","num_nodes":"13","size_leaf_vector":"1"}},{"base_weights":[-2.6970237E-2,-6.329574E-1,5.827168E-1,-2.30181E-1,-9.661244E-1,9.282085E-1,2.0125459E-1,1.4883383E-3,-1.20544955E-2,-2.2498026E-2,-3.3325918E-2,3.0062053E-2,1.6760174E-2,8.231419E-3,-7.941176E-3],"categories":[],"categories_nodes":[],"categories_segments":[],"categories_sizes":[],"default_left":[0,0,0,0,0,0,0,0,0,0,0,0,0,0,0],"id":20,"left_children":[1,3,5,7,9,11,13,-1,-1,-1,-1,-1,-1,-1,-1],"loss_changes":[3.173549E2,5.5611694E1,5.3910446E1,1.36399145E1,4.029709E0,5.8250275E0,1.1319066E1,0E0,0E0,0E0,0E0,0E0,0E0,0E0,0E0],"parents":[2147483647,0,0,1,1,2,2,3,3,4,4,5,5,6,6],"right_children":[2,4,6,8,10,12,14,-1,-1,-1,-1,-1,-1,-1,-1],"split_conditions":[1E0,-1.2975745E-1,3.684255E-1,-9.552171E-2,1.9057441E-1,6.3822076E-2,2.9329446E-1,1.4883383E-3,-1.20544955E-2,-2.2498026E-2,-3.3325918E-2,3.0062053E-2,1.6760174E-2,8.231419E-3,-7.941176E-3],"split_indices":[127,5,40,33,40,40,33,0,0,0,0,0,0,0,0],"split_type":[0,0,0,0,0,0,0,0,0,0,0,0,0,0,0],"sum_hessian":[8.3066797E2,4.1891876E2,4.117492E2,1.9709682E2,2.2182195E2,2.086238E2,2.0312541E2,7.529264E1,1.2180418E2,1.3900587E2,8.281606E1,1.3822401E2,7.039978E1,1.7835318E2,2.4772238E1],"tree_param":{"num_deleted":"0","num_feature":"141","num_nodes":"15","size_leaf_vector":"1"}},{"base_weights":[-1.3789377E-2,-5.9187734E-1,5.8761954E-1,-1.4358604E-1,-8.94596E-1,8.90535E-1,2.0807695E-1,4.6634693E-3,-8.785503E-3,-2.0135924E-2,-3.359977E-2,1.2705706E-2,2.7384672E-2,1.8468473E-2,2.231919E-3],"categories":[],"categories_nodes":[],"categories_segments":[],"categories_sizes":[],"default_left":[0,0,0,0,0,0,0,0,0,0,0,0,0,0,0],"id":21,"left_children":[1,3,5,7,9,11,13,-1,-1,-1,-1,-1,-1,-1,-1],"loss_changes":[2.9789224E2,5.7248337E1,4.5828796E1,1.1835517E1,9.956253E0,4.00354E0,1.1611569E1,0E0,0E0,0E0,0E0,0E0,0E0,0E0,0E0],"parents":[2147483647,0,0,1,1,2,2,3,3,4,4,5,5,6,6],"right_children":[2,4,6,8,10,12,14,-1,-1,-1,-1,-1,-1,-1,-1],"split_conditions":[1E0,-4.8162746E-1,4.2475674E-1,-7.951106E-1,2.0833002E-1,-7.088455E-1,-6.570632E-1,4.6634693E-3,-8.785503E-3,-2.0135924E-2,-3.359977E-2,1.2705706E-2,2.7384672E-2,1.8468473E-2,2.231919E-3],"split_indices":[127,40,5,58,40,98,1,0,0,0,0,0,0,0,0],"split_type":[0,0,0,0,0,0,0,0,0,0,0,0,0,0,0],"sum_hessian":[8.28095E2,4.2475208E2,4.0334293E2,1.7780276E2,2.469493E2,2.1663033E2,1.867126E2,5.5943623E1,1.2185914E2,1.6501535E2,8.193395E1,4.034537E1,1.7628496E2,3.3172466E1,1.5354013E2],"tree_param":{"num_deleted":"0","num_feature":"141","num_nodes":"15","size_leaf_vector":"1"}},{"base_weights":[-0E0,1.7467795E-1,-1.4572568E-1,-4.0652248E-1,6.8250245E-1,-6.577887E-1,4.3466866E-1,1.8311937E-3,-2.1066098E-2,2.5271902E-2,1.0910487E-2,-8.295397E-3,-2.6522454E-2,2.3982268E-2,2.162138E-3],"categories":[],"categories_nodes":[],"categories_segments":[],"categories_sizes":[],"default_left":[0,0,0,0,0,0,0,0,0,0,0,0,0,0,0],"id":22,"left_children":[1,3,5,7,9,11,13,-1,-1,-1,-1,-1,-1,-1,-1],"loss_changes":[2.3076746E1,1.2002362E2,1.4128615E2,3.250213E1,1.0967163E1,2.2966736E1,3.0743988E1,0E0,0E0,0E0,0E0,0E0,0E0,0E0,0E0],"parents":[2147483647,0,0,1,1,2,2,3,3,4,4,5,5,6,6],"right_children":[2,4,6,8,10,12,14,-1,-1,-1,-1,-1,-1,-1,-1],"split_conditions":[-7.711653E-2,1E0,1E0,-5.079274E-1,4.2475674E-1,-1.3221751E-1,6.197804E-2,1.8311937E-3,-2.1066098E-2,2.5271902E-2,1.0910487E-2,-8.295397E-3,-2.6522454E-2,2.3982268E-2,2.162138E-3],"split_indices":[33,127,127,5,5,5,5,0,0,0,0,0,0,0,0],"split_type":[0,0,0,0,0,0,0,0,0,0,0,0,0,0,0],"sum_hessian":[8.2263416E2,3.7698502E2,4.4564917E2,1.7352676E2,2.0345825E2,2.391196E2,2.0652956E2,6.985138E1,1.03675385E2,1.0951271E2,9.394554E1,1.10931915E2,1.2818768E2,8.9941666E1,1.165879E2],"tree_param":{"num_deleted":"0","num_feature":"141","num_nodes":"15","size_leaf_vector":"1"}},{"base_weights":[8.298927E-4,-5.5825436E-1,5.810421E-1,-8.2421917E-1,-8.0168195E-2,8.2269996E-1,2.085612E-1,-1.8017707E-2,-2.7917515E-2,-0E0,-9.810573E-3,2.727444E-2,1.773441E-2,1.8697733E-2,1.9787885E-3],"categories":[],"categories_nodes":[],"categories_segments":[],"categories_sizes":[],"default_left":[0,0,0,0,0,0,0,0,0,0,0,0,0,0,0],"id":23,"left_children":[1,3,5,7,9,11,13,-1,-1,-1,-1,-1,-1,-1,-1],"loss_changes":[2.7899384E2,5.3103912E1,3.61438E1,5.1276703E0,5.819447E0,3.7381287E0,1.1541661E1,0E0,0E0,0E0,0E0,0E0,0E0,0E0,0E0],"parents":[2147483647,0,0,1,1,2,2,3,3,4,4,5,5,6,6],"right_children":[2,4,6,8,10,12,14,-1,-1,-1,-1,-1,-1,-1,-1],"split_conditions":[1E0,2.8355906E-2,4.8507437E-1,0E0,2.4474096E-1,0E0,-6.541318E-1,-1.8017707E-2,-2.7917515E-2,-0E0,-9.810573E-3,2.727444E-2,1.773441E-2,1.8697733E-2,1.9787885E-3],"split_indices":[127,108,5,136,27,136,0,0,0,0,0,0,0,0,0],"split_type":[0,0,0,0,0,0,0,0,0,0,0,0,0,0,0],"sum_hessian":[8.302423E2,4.2033795E2,4.0990436E2,2.6404224E2,1.5629572E2,2.4051976E2,1.693846E2,1.3768663E2,1.2635559E2,1.16193245E2,4.010248E1,1.24182045E2,1.1633772E2,3.1105467E1,1.3827913E2],"tree_param":{"num_deleted":"0","num_feature":"141","num_nodes":"15","size_leaf_vector":"1"}},{"base_weights":[-0E0,9.5694706E-2,-2.0186818E-1,-1.01077005E-1,1.7218441E-1,-3.536082E-1,-0E0,4.9330723E-3,-9.236885E-3,3.176847E-3,1.3172329E-2,-2.1572505E-5,-1.3841516E-2,5.1511675E-3,-5.9727165E-3],"categories":[],"categories_nodes":[],"categories_segments":[],"categories_sizes":[],"default_left":[0,0,0,0,0,0,0,0,0,0,0,0,0,0,0],"id":24,"left_children":[1,3,5,7,9,11,13,-1,-1,-1,-1,-1,-1,-1,-1],"loss_changes":[1.7772558E1,9.84012E0,1.00464525E1,1.2249351E1,7.8266478E0,6.8498096E0,6.5868063E0,0E0,0E0,0E0,0E0,0E0,0E0,0E0,0E0],"parents":[2147483647,0,0,1,1,2,2,3,3,4,4,5,5,6,6],"right_children":[2,4,6,8,10,12,14,-1,-1,-1,-1,-1,-1,-1,-1],"split_conditions":[4.872271E-1,-1.1198157E0,3.0778825E-1,-6.7332715E-1,1E0,-5.0158733E-1,4.1592947E-1,4.9330723E-3,-9.236885E-3,3.176847E-3,1.3172329E-2,-2.1572505E-5,-1.3841516E-2,5.1511675E-3,-5.9727165E-3],"split_indices":[3,118,4,1,124,92,110,0,0,0,0,0,0,0,0],"split_type":[0,0,0,0,0,0,0,0,0,0,0,0,0,0,0],"sum_hessian":[8.2285376E2,5.611177E2,2.617361E2,1.4594598E2,4.1517166E2,1.554865E2,1.0624962E2,6.0087555E1,8.585844E1,3.5711652E2,5.8055157E1,4.9780357E1,1.0570614E2,6.463237E1,4.1617245E1],"tree_param":{"num_deleted":"0","num_feature":"141","num_nodes":"15","size_leaf_vector":"1"}},{"base_weights":[-5.2914643E-3,-2.4326192E-1,2.3207772E-1,-5.474465E-1,4.935347E-1,-6.00066E-1,5.7558113E-1,4.3328167E-3,-2.0563656E-2,2.060602E-2,-4.422947E-3,4.2885896E-3,-2.369164E-2,2.4807408E-2,6.1102314E-3],"categories":[],"categories_nodes":[],"categories_segments":[],"categories_sizes":[],"default_left":[0,0,0,0,0,0,0,0,0,0,0,0,0,0,0],"id":25,"left_children":[1,3,5,7,9,11,13,-1,-1,-1,-1,-1,-1,-1,-1],"loss_changes":[4.97993E1,1.0057445E2,1.243804E2,4.1266808E1,2.2805168E1,2.569133E1,3.0528725E1,0E0,0E0,0E0,0E0,0E0,0E0,0E0,0E0],"parents":[2147483647,0,0,1,1,2,2,3,3,4,4,5,5,6,6],"right_children":[2,4,6,8,10,12,14,-1,-1,-1,-1,-1,-1,-1,-1],"split_conditions":[1E0,1E0,1E0,-7.951106E-1,1.03918076E-1,-5.1859593E-1,4.8507437E-1,4.3328167E-3,-2.0563656E-2,2.060602E-2,-4.422947E-3,4.2885896E-3,-2.369164E-2,2.4807408E-2,6.1102314E-3],"split_indices":[128,127,127,58,107,5,5,0,0,0,0,0,0,0,0],"split_type":[0,0,0,0,0,0,0,0,0,0,0,0,0,0,0],"sum_hessian":[8.232498E2,4.1720523E2,4.0604456E2,2.9893057E2,1.1827465E2,1.1515965E2,2.9088492E2,5.6611153E1,2.4231943E2,9.021447E1,2.806018E1,2.4622051E1,9.0537605E1,1.5180338E2,1.3908154E2],"tree_param":{"num_deleted":"0","num_feature":"141","num_nodes":"15","size_leaf_vector":"1"}},{"base_weights":[-1.7850779E-3,-5.203897E-1,5.333407E-1,-1.3703576E-1,-8.495146E-1,7.926653E-1,1.4948182E-1,5.515354E-3,-8.152579E-3,-8.949899E-3,-2.5496932E-2,7.6191262E-3,2.4470031E-2,1.5158937E-2,8.3577423E-4],"categories":[],"categories_nodes":[],"categories_segments":[],"categories_sizes":[],"default_left":[0,0,0,0,0,0,0,0,0,0,0,0,0,0,0],"id":26,"left_children":[1,3,5,7,9,11,13,-1,-1,-1,-1,-1,-1,-1,-1],"loss_changes":[2.342864E2,5.234281E1,3.910164E1,1.2600668E1,2.7810974E0,5.873459E0,8.622912E0,0E0,0E0,0E0,0E0,0E0,0E0,0E0,0E0],"parents":[2147483647,0,0,1,1,2,2,3,3,4,4,5,5,6,6],"right_children":[2,4,6,8,10,12,14,-1,-1,-1,-1,-1,-1,-1,-1],"split_conditions":[1E0,-1.2975745E-1,9.546445E-1,-7.951106E-1,-6.1949825E-1,-7.440626E-1,-6.541318E-1,5.515354E-3,-8.152579E-3,-8.949899E-3,-2.5496932E-2,7.6191262E-3,2.4470031E-2,1.5158937E-2,8.3577423E-4],"split_indices":[127,5,6,58,98,98,0,0,0,0,0,0,0,0,0],"split_type":[0,0,0,0,0,0,0,0,0,0,0,0,0,0,0],"sum_hessian":[8.130943E2,4.1576227E2,3.9733203E2,1.9913443E2,2.1662785E2,2.2969844E2,1.676336E2,5.54451E1,1.4368932E2,2.5133022E1,1.9149483E2,3.3560715E1,1.9613773E2,3.0474188E1,1.3715942E2],"tree_param":{"num_deleted":"0","num_feature":"141","num_nodes":"15","size_leaf_vector":"1"}},{"base_weights":[-3.7375672E-3,-5.177507E-1,5.1285857E-1,-7.8810024E-1,-9.256776E-2,7.650078E-1,1.9012359E-1,-4.7184905E-4,-2.4287902E-2,4.6309214E-3,-6.2845256E-3,2.6067225E-2,1.488606E-2,-2.891903E-3,1.1248676E-2],"categories":[],"categories_nodes":[],"categories_segments":[],"categories_sizes":[],"default_left":[0,0,0,0,0,0,0,0,0,0,0,0,0,0,0],"id":27,"left_children":[1,3,5,7,9,11,13,-1,-1,-1,-1,-1,-1,-1,-1],"loss_changes":[2.2771147E2,4.7643456E1,3.2788124E1,1.0605743E1,7.704125E0,5.7980347E0,1.435824E1,0E0,0E0,0E0,0E0,0E0,0E0,0E0,0E0],"parents":[2147483647,0,0,1,1,2,2,3,3,4,4,5,5,6,6],"right_children":[2,4,6,8,10,12,14,-1,-1,-1,-1,-1,-1,-1,-1],"split_conditions":[1E0,1.0135939E0,4.2475674E-1,-6.565898E-1,-7.951106E-1,0E0,-6.2015362E-2,-4.7184905E-4,-2.4287902E-2,4.6309214E-3,-6.2845256E-3,2.6067225E-2,1.488606E-2,-2.891903E-3,1.1248676E-2],"split_indices":[127,7,5,58,58,43,69,0,0,0,0,0,0,0,0],"split_type":[0,0,0,0,0,0,0,0,0,0,0,0,0,0,0],"sum_hessian":[8.257875E2,4.1676337E2,4.0902414E2,2.4819496E2,1.685684E2,2.2104175E2,1.879824E2,2.331467E1,2.2488028E2,4.8330357E1,1.20238045E2,1.2089162E2,1.0015012E2,7.26621E1,1.153203E2],"tree_param":{"num_deleted":"0","num_feature":"141","num_nodes":"15","size_leaf_vector":"1"}},{"base_weights":[-0E0,-2.129323E-1,2.2408825E-1,-5.5553634E-2,-2.1010162E-2,5.557682E-1,4.54162E-2,-1.1096432E-2,-0E0,2.020705E-2,6.9263233E-3,-5.8481423E-3,5.239448E-3],"categories":[],"categories_nodes":[],"categories_segments":[],"categories_sizes":[],"default_left":[0,0,0,0,0,0,0,0,0,0,0,0,0],"id":28,"left_children":[1,3,5,7,-1,9,11,-1,-1,-1,-1,-1,-1],"loss_changes":[4.17174E1,3.5509354E1,2.4141312E1,8.420999E0,0E0,5.235367E0,1.1580452E1,0E0,0E0,0E0,0E0,0E0,0E0],"parents":[2147483647,0,0,1,1,2,2,3,3,5,5,6,6],"right_children":[2,4,6,8,-1,10,12,-1,-1,-1,-1,-1,-1],"split_conditions":[1E0,-1.9944644E-2,2.2504307E-1,-5.0526315E-1,-2.1010162E-2,1.0651063E-1,1.773623E-1,-1.1096432E-2,-0E0,2.020705E-2,6.9263233E-3,-5.8481423E-3,5.239448E-3],"split_indices":[128,42,42,32,0,96,94,0,0,0,0,0,0],"split_type":[0,0,0,0,0,0,0,0,0,0,0,0,0],"sum_hessian":[8.1140625E2,4.1420078E2,3.972055E2,3.2686362E2,8.733715E1,1.299734E2,2.6723212E2,4.4710056E1,2.8215356E2,7.687117E1,5.310223E1,8.683828E1,1.8039383E2],"tree_param":{"num_deleted":"0","num_feature":"141","num_nodes":"13","size_leaf_vector":"1"}},{"base_weights":[1.4298582E-3,-4.9488607E-1,5.058982E-1,-1.4448528E-1,-7.858118E-1,7.7878743E-1,1.7627823E-1,1.6414034E-3,-6.789883E-3,-1.6706618E-2,-2.715178E-2,2.3661157E-2,7.732083E-3,1.5411787E-2,-0E0],"categories":[],"categories_nodes":[],"categories_segments":[],"categories_sizes":[],"default_left":[0,0,0,0,0,0,0,0,0,0,0,0,0,0,0],"id":29,"left_children":[1,3,5,7,9,11,13,-1,-1,-1,-1,-1,-1,-1,-1],"loss_changes":[2.1133548E2,4.117942E1,3.6078598E1,5.216957E0,4.6878815E0,3.4624786E0,1.4605141E1,0E0,0E0,0E0,0E0,0E0,0E0,0E0,0E0],"parents":[2147483647,0,0,1,1,2,2,3,3,4,4,5,5,6,6],"right_children":[2,4,6,8,10,12,14,-1,-1,-1,-1,-1,-1,-1,-1],"split_conditions":[1E0,-1.3221751E-1,4.2475674E-1,-1.9211124E-1,-7.0304886E-2,7.2079575E-1,-2.2065187E-1,1.6414034E-3,-6.789883E-3,-1.6706618E-2,-2.715178E-2,2.3661157E-2,7.732083E-3,1.5411787E-2,-0E0],"split_indices":[127,5,5,33,63,100,33,0,0,0,0,0,0,0,0],"split_type":[0,0,0,0,0,0,0,0,0,0,0,0,0,0,0],"sum_hessian":[8.1150885E2,4.0617865E2,4.053302E2,1.9189862E2,2.1428001E2,2.1350821E2,1.91822E2,5.16285E1,1.4027011E2,1.1553411E2,9.874591E1,1.8558153E2,2.792667E1,5.8782127E1,1.3303989E2],"tree_param":{"num_deleted":"0","num_feature":"141","num_nodes":"15","size_leaf_vector":"1"}},{"base_weights":[-0E0,1.7851295E-1,-1.5620649E-1,-1.0293049E-2,3.517398E-1,-3.2875064E-1,3.013236E-2,6.5581617E-3,-1.4858086E-2,-1.1194499E-3,1.2857024E-2,-1.1900131E-2,1.8950118E-3,1.3122543E-2,-3.8055496E-3],"categories":[],"categories_nodes":[],"categories_segments":[],"categories_sizes":[],"default_left":[0,0,0,0,0,0,0,0,0,0,0,0,0,0,0],"id":30,"left_children":[1,3,5,7,9,11,13,-1,-1,-1,-1,-1,-1,-1,-1],"loss_changes":[2.4802458E1,1.4387481E1,1.6416874E1,2.7456245E1,1.0095335E1,1.053771E1,1.9372726E1,0E0,0E0,0E0,0E0,0E0,0E0,0E0,0E0],"parents":[2147483647,0,0,1,1,2,2,3,3,4,4,5,5,6,6],"right_children":[2,4,6,8,10,12,14,-1,-1,-1,-1,-1,-1,-1,-1],"split_conditions":[-7.711653E-2,1E0,1E0,-1.871315E-1,-3.0258366E-1,9.494692E-1,1.16764136E-1,6.5581617E-3,-1.4858086E-2,-1.1194499E-3,1.2857024E-2,-1.1900131E-2,1.8950118E-3,1.3122543E-2,-3.8055496E-3],"split_indices":[33,128,128,58,46,57,58,0,0,0,0,0,0,0,0],"split_type":[0,0,0,0,0,0,0,0,0,0,0,0,0,0,0],"sum_hessian":[8.1205164E2,3.7146124E2,4.405904E2,1.7169536E2,1.9976587E2,2.351181E2,2.0547229E2,1.14576324E2,5.7119034E1,3.5288925E1,1.6447694E2,1.975827E2,3.75354E1,5.925413E1,1.4621815E2],"tree_param":{"num_deleted":"0","num_feature":"141","num_nodes":"15","size_leaf_vector":"1"}},{"base_weights":[1.5186044E-2,-4.8291147E-1,5.2861136E-1,-1.2713431E-1,-7.959009E-1,7.797151E-1,2.0972283E-1,-6.8734367E-3,1.0947753E-3,-1.813264E-2,-2.8593838E-2,8.896158E-3,2.4366003E-2,1.5204975E-2,3.16584E-3],"categories":[],"categories_nodes":[],"categories_segments":[],"categories_sizes":[],"default_left":[0,0,0,0,0,0,0,0,0,0,0,0,0,0,0],"id":31,"left_children":[1,3,5,7,9,11,13,-1,-1,-1,-1,-1,-1,-1,-1],"loss_changes":[2.1649832E2,4.5632027E1,3.1747108E1,5.395624E0,4.389023E0,5.555496E0,6.5023384E0,0E0,0E0,0E0,0E0,0E0,0E0,0E0,0E0],"parents":[2147483647,0,0,1,1,2,2,3,3,4,4,5,5,6,6],"right_children":[2,4,6,8,10,12,14,-1,-1,-1,-1,-1,-1,-1,-1],"split_conditions":[1E0,-1.2975745E-1,4.5895433E-1,6.666667E-1,3.0209506E-1,-7.088455E-1,1E0,-6.8734367E-3,1.0947753E-3,-1.813264E-2,-2.8593838E-2,8.896158E-3,2.4366003E-2,1.5204975E-2,3.16584E-3],"split_indices":[127,5,10,126,85,98,47,0,0,0,0,0,0,0,0],"split_type":[0,0,0,0,0,0,0,0,0,0,0,0,0,0,0],"sum_hessian":[8.1417773E2,4.1050095E2,4.0367676E2,1.994802E2,2.1102075E2,2.1703932E2,1.8663745E2,1.27209724E2,7.227048E1,1.3828127E2,7.273948E1,3.9156143E1,1.7788318E2,3.1858318E1,1.5477913E2],"tree_param":{"num_deleted":"0","num_feature":"141","num_nodes":"15","size_leaf_vector":"1"}},{"base_weights":[2.04595E-2,1.0876851E-1,-2.682122E-1,-3.9525604E-1,5.8718306E-1,-5.514677E-1,1.0491389E-1,-1.1021758E-3,-2.2709357E-2,2.717937E-2,1.0380099E-2,-1.9201105E-2,-0E0,1.3245799E-2,-5.9897755E-3],"categories":[],"categories_nodes":[],"categories_segments":[],"categories_sizes":[],"default_left":[0,0,0,0,0,0,0,0,0,0,0,0,0,0,0],"id":32,"left_children":[1,3,5,7,9,11,13,-1,-1,-1,-1,-1,-1,-1,-1],"loss_changes":[2.2294247E1,1.5816669E2,2.3109509E1,4.3865322E1,2.5602753E1,6.6561356E0,1.3404149E1,0E0,0E0,0E0,0E0,0E0,0E0,0E0,0E0],"parents":[2147483647,0,0,1,1,2,2,3,3,4,4,5,5,6,6],"right_children":[2,4,6,8,10,12,14,-1,-1,-1,-1,-1,-1,-1,-1],"split_conditions":[9.7475745E-2,1E0,1E0,-2.614812E-1,1.1078154E-1,6.034337E-1,7.920165E-1,-1.1021758E-3,-2.2709357E-2,2.717937E-2,1.0380099E-2,-1.9201105E-2,-0E0,1.3245799E-2,-5.9897755E-3],"split_indices":[33,127,127,40,40,93,6,0,0,0,0,0,0,0,0],"split_type":[0,0,0,0,0,0,0,0,0,0,0,0,0,0,0],"sum_hessian":[8.012618E2,6.2349194E2,1.777698E2,3.0102432E2,3.2246765E2,1.0428134E2,7.3488464E1,1.6615758E2,1.3486674E2,1.1093423E2,2.1153342E2,8.120276E1,2.3078585E1,3.76139E1,3.587456E1],"tree_param":{"num_deleted":"0","num_feature":"141","num_nodes":"15","size_leaf_vector":"1"}},{"base_weights":[3.7858023E-3,-4.5793235E-1,4.704154E-1,-1.2447744E-1,-6.983551E-1,7.592675E-1,1.2759064E-1,4.4960678E-3,-9.144007E-3,-1.4955097E-2,-2.6975924E-2,2.5110098E-2,5.961233E-3,1.4381455E-2,4.380916E-4],"categories":[],"categories_nodes":[],"categories_segments":[],"categories_sizes":[],"default_left":[0,0,0,0,0,0,0,0,0,0,0,0,0,0,0],"id":33,"left_children":[1,3,5,7,9,11,13,-1,-1,-1,-1,-1,-1,-1,-1],"loss_changes":[1.8225735E2,3.215177E1,4.0130455E1,1.2909848E1,7.9621964E0,1.2637573E1,9.140109E0,0E0,0E0,0E0,0E0,0E0,0E0,0E0,0E0],"parents":[2147483647,0,0,1,1,2,2,3,3,4,4,5,5,6,6],"right_children":[2,4,6,8,10,12,14,-1,-1,-1,-1,-1,-1,-1,-1],"split_conditions":[1E0,-4.6764576E-1,4.2475674E-1,-1.136501E0,1.9057441E-1,2.2396807E-1,-6.609382E-1,4.4960678E-3,-9.144007E-3,-1.4955097E-2,-2.6975924E-2,2.5110098E-2,5.961233E-3,1.4381455E-2,4.380916E-4],"split_indices":[127,5,5,40,40,40,37,0,0,0,0,0,0,0,0],"split_type":[0,0,0,0,0,0,0,0,0,0,0,0,0,0,0],"sum_hessian":[8.115724E2,4.048228E2,4.0674954E2,1.7758249E2,2.2724034E2,2.1312796E2,1.9362158E2,6.718722E1,1.1039527E2,1.4949107E2,7.774926E1,1.675616E2,4.5566364E1,3.4726215E1,1.5889537E2],"tree_param":{"num_deleted":"0","num_feature":"141","num_nodes":"15","size_leaf_vector":"1"}},{"base_weights":[1.1807241E-2,-1.7874926E-1,2.1520062E-1,-2.5074359E-2,-5.830587E-1,4.6750584E-1,-0E0,3.5959138E-3,-4.4440515E-3,-1.1438923E-2,-2.4232073E-2,2.1238457E-2,1.012247E-2,-7.856579E-3,4.6086037E-3],"categories":[],"categories_nodes":[],"categories_segments":[],"categories_sizes":[],"default_left":[0,0,0,0,0,0,0,0,0,0,0,0,0,0,0],"id":34,"left_children":[1,3,5,7,9,11,13,-1,-1,-1,-1,-1,-1,-1,-1],"loss_changes":[3.372078E1,2.618483E1,2.2235054E1,7.788604E0,3.9368057E0,4.8801346E0,1.2557815E1,0E0,0E0,0E0,0E0,0E0,0E0,0E0,0E0],"parents":[2147483647,0,0,1,1,2,2,3,3,4,4,5,5,6,6],"right_children":[2,4,6,8,10,12,14,-1,-1,-1,-1,-1,-1,-1,-1],"split_conditions":[1E0,-1.0320949E-1,3.8812143E-1,-6.6052186E-1,3.3491606E-1,-2.5510803E-1,-2.7451557E-1,3.5959138E-3,-4.4440515E-3,-1.1438923E-2,-2.4232073E-2,2.1238457E-2,1.012247E-2,-7.856579E-3,4.6086037E-3],"split_indices":[128,42,42,85,42,42,121,0,0,0,0,0,0,0,0],"split_type":[0,0,0,0,0,0,0,0,0,0,0,0,0,0,0],"sum_hessian":[8.0053033E2,4.0616226E2,3.9436804E2,3.0303674E2,1.0312551E2,1.7496442E2,2.1940364E2,1.303213E2,1.7271544E2,7.484951E1,2.8276E1,3.523065E1,1.3973376E2,7.553626E1,1.4386739E2],"tree_param":{"num_deleted":"0","num_feature":"141","num_nodes":"15","size_leaf_vector":"1"}},{"base_weights":[2.0014184E-2,1.0042949E-1,-1.3758864E-1,-7.8705154E-2,2.9718027E-1,-3.0545303E-1,7.375565E-2,4.0878477E-3,-9.602183E-3,2.2721093E-2,5.025004E-3,-1.5822165E-2,-0E0,7.2095348E-3,-4.5848526E-3],"categories":[],"categories_nodes":[],"categories_segments":[],"categories_sizes":[],"default_left":[0,0,0,0,0,0,0,0,0,0,0,0,0,0,0],"id":35,"left_children":[1,3,5,7,9,11,13,-1,-1,-1,-1,-1,-1,-1,-1],"loss_changes":[1.1557327E1,2.190039E1,1.159334E1,1.9594143E1,1.697609E1,1.2196253E1,7.223602E0,0E0,0E0,0E0,0E0,0E0,0E0,0E0,0E0],"parents":[2147483647,0,0,1,1,2,2,3,3,4,4,5,5,6,6],"right_children":[2,4,6,8,10,12,14,-1,-1,-1,-1,-1,-1,-1,-1],"split_conditions":[4.872271E-1,1E0,3.2284814E-1,-4.1319355E-1,-8.701211E-2,1E0,6.9431597E-1,4.0878477E-3,-9.602183E-3,2.2721093E-2,5.025004E-3,-1.5822165E-2,-0E0,7.2095348E-3,-4.5848526E-3],"split_indices":[3,128,4,42,42,128,74,0,0,0,0,0,0,0,0],"split_type":[0,0,0,0,0,0,0,0,0,0,0,0,0,0,0],"sum_hessian":[8.103263E2,5.499406E2,2.6038568E2,2.8149515E2,2.6844547E2,1.5171307E2,1.086726E2,1.4638419E2,1.3511096E2,4.2420177E1,2.2602528E2,7.7344795E1,7.4368286E1,6.844499E1,4.0227604E1],"tree_param":{"num_deleted":"0","num_feature":"141","num_nodes":"15","size_leaf_vector":"1"}},{"base_weights":[-0E0,-4.7087348E-1,4.8711157E-1,-1.6235828E-1,-7.300572E-1,7.306867E-1,1.9240336E-1,-8.765697E-3,1.7854795E-3,-1.5457608E-2,-2.6026558E-2,2.2079127E-2,6.3426592E-3,1.4665786E-3,1.2324895E-2],"categories":[],"categories_nodes":[],"categories_segments":[],"categories_sizes":[],"default_left":[0,0,0,0,0,0,0,0,0,0,0,0,0,0,0],"id":36,"left_children":[1,3,5,7,9,11,13,-1,-1,-1,-1,-1,-1,-1,-1],"loss_changes":[1.9212216E2,3.233776E1,2.7939674E1,8.566497E0,5.254318E0,2.720375E0,6.723298E0,0E0,0E0,0E0,0E0,0E0,0E0,0E0,0E0],"parents":[2147483647,0,0,1,1,2,2,3,3,4,4,5,5,6,6],"right_children":[2,4,6,8,10,12,14,-1,-1,-1,-1,-1,-1,-1,-1],"split_conditions":[1E0,-1.2975745E-1,5E-1,6.666667E-1,3.1265035E-1,7.5E-1,6.7691386E-1,-8.765697E-3,1.7854795E-3,-1.5457608E-2,-2.6026558E-2,2.2079127E-2,6.3426592E-3,1.4665786E-3,1.2324895E-2],"split_indices":[127,5,11,126,24,35,4,0,0,0,0,0,0,0,0],"split_type":[0,0,0,0,0,0,0,0,0,0,0,0,0,0,0],"sum_hessian":[8.040604E2,4.0840717E2,3.9565326E2,1.9498264E2,2.1342451E2,2.0750749E2,1.8814575E2,1.25262886E2,6.971976E1,1.2277512E2,9.064938E1,1.8308209E2,2.4425404E1,1.2982347E2,5.8322292E1],"tree_param":{"num_deleted":"0","num_feature":"141","num_nodes":"15","size_leaf_vector":"1"}},{"base_weights":[-3.7384033E-3,-4.5164073E-1,4.3832874E-1,-6.983539E-1,-6.768897E-2,7.007447E-1,1.1869535E-1,-1.545591E-4,-2.1531854E-2,6.268224E-3,-8.012915E-3,2.4398213E-2,1.3518077E-2,1.583835E-2,-0E0],"categories":[],"categories_nodes":[],"categories_segments":[],"categories_sizes":[],"default_left":[0,0,0,0,0,0,0,0,0,0,0,0,0,0,0],"id":37,"left_children":[1,3,5,7,9,11,13,-1,-1,-1,-1,-1,-1,-1,-1],"loss_changes":[1.6429492E2,3.7493874E1,3.309378E1,7.799019E0,1.3288847E1,5.5234146E0,1.1975155E1,0E0,0E0,0E0,0E0,0E0,0E0,0E0,0E0],"parents":[2147483647,0,0,1,1,2,2,3,3,4,4,5,5,6,6],"right_children":[2,4,6,8,10,12,14,-1,-1,-1,-1,-1,-1,-1,-1],"split_conditions":[1E0,1.0135939E0,4.5895433E-1,-6.506126E-1,-9.552171E-2,-2.398974E-2,-6.6063136E-1,-1.545591E-4,-2.1531854E-2,6.268224E-3,-8.012915E-3,2.4398213E-2,1.3518077E-2,1.583835E-2,-0E0],"split_indices":[127,7,10,58,33,10,0,0,0,0,0,0,0,0,0],"split_type":[0,0,0,0,0,0,0,0,0,0,0,0,0,0,0],"sum_hessian":[7.9429224E2,3.97782E2,3.9651022E2,2.3526941E2,1.625126E2,2.0974571E2,1.867645E2,2.2518063E1,2.1275136E2,6.3371563E1,9.9141045E1,1.08705864E2,1.01039856E2,3.4555695E1,1.522088E2],"tree_param":{"num_deleted":"0","num_feature":"141","num_nodes":"15","size_leaf_vector":"1"}},{"base_weights":[-0E0,-4.3980032E-1,4.4455153E-1,-1.906069E-2,-6.591542E-1,7.1650124E-1,1.5061381E-1,8.07365E-3,-5.8492157E-3,-1.1010735E-2,-2.22385E-2,7.5938716E-3,2.2210544E-2,1.5577505E-2,-0E0],"categories":[],"categories_nodes":[],"categories_segments":[],"categories_sizes":[],"default_left":[0,0,0,0,0,0,0,0,0,0,0,0,0,0,0],"id":38,"left_children":[1,3,5,7,9,11,13,-1,-1,-1,-1,-1,-1,-1,-1],"loss_changes":[1.6232707E2,3.6910828E1,3.1172714E1,1.1182365E1,6.936447E0,3.669304E0,1.5395348E1,0E0,0E0,0E0,0E0,0E0,0E0,0E0,0E0],"parents":[2147483647,0,0,1,1,2,2,3,3,4,4,5,5,6,6],"right_children":[2,4,6,8,10,12,14,-1,-1,-1,-1,-1,-1,-1,-1],"split_conditions":[1E0,-6.301761E-1,3.684255E-1,-7.951106E-1,-3.2044062E-1,-5.278207E-1,-2.6423886E-1,8.07365E-3,-5.8492157E-3,-1.1010735E-2,-2.22385E-2,7.5938716E-3,2.2210544E-2,1.5577505E-2,-0E0],"split_indices":[127,40,40,58,56,56,33,0,0,0,0,0,0,0,0],"split_type":[0,0,0,0,0,0,0,0,0,0,0,0,0,0,0],"sum_hessian":[7.9477075E2,4.024084E2,3.9236237E2,1.4416345E2,2.5824493E2,1.9524469E2,1.9711769E2,4.806447E1,9.609898E1,9.3299484E1,1.6494545E2,3.292169E1,1.62323E2,5.436692E1,1.4275076E2],"tree_param":{"num_deleted":"0","num_feature":"141","num_nodes":"15","size_leaf_vector":"1"}},{"base_weights":[-1.2698818E-2,-4.36472E-1,4.1227117E-1,-6.781399E-1,-4.3241397E-2,7.760745E-1,1.6363758E-1,-0E0,-2.1171972E-2,5.2064117E-3,-4.1752434E-3,1.0140228E-2,2.464989E-2,7.525901E-3,-3.1796738E-3],"categories":[],"categories_nodes":[],"categories_segments":[],"categories_sizes":[],"default_left":[0,0,0,0,0,0,0,0,0,0,0,0,0,0,0],"id":39,"left_children":[1,3,5,7,9,11,13,-1,-1,-1,-1,-1,-1,-1,-1],"loss_changes":[1.4682973E2,3.7227615E1,3.5032227E1,9.77813E0,5.457129E0,3.3936691E0,8.546965E0,0E0,0E0,0E0,0E0,0E0,0E0,0E0,0E0],"parents":[2147483647,0,0,1,1,2,2,3,3,4,4,5,5,6,6],"right_children":[2,4,6,8,10,12,14,-1,-1,-1,-1,-1,-1,-1,-1],"split_conditions":[1E0,1.0811473E0,1.7990014E-1,-6.565898E-1,-1.9211124E-1,-3.9205226E-1,1.2992024E0,-0E0,-2.1171972E-2,5.2064117E-3,-4.1752434E-3,1.0140228E-2,2.464989E-2,7.525901E-3,-3.1796738E-3],"split_indices":[127,7,40,58,33,16,40,0,0,0,0,0,0,0,0],"split_type":[0,0,0,0,0,0,0,0,0,0,0,0,0,0,0],"sum_hessian":[7.786729E2,3.9327237E2,3.8540054E2,2.3693164E2,1.5634073E2,1.4777718E2,2.3762335E2,2.3850817E1,2.1308083E2,3.9098553E1,1.1724217E2,3.5818016E1,1.1195916E2,1.8185754E2,5.576581E1],"tree_param":{"num_deleted":"0","num_feature":"141","num_nodes":"15","size_leaf_vector":"1"}},{"base_weights":[3.7464811E-3,1.7040317E-1,-1.2946539E-1,2.6163054E-1,-9.663738E-2,-2.3981217E-2,-3.621575E-1,-2.630839E-3,8.904814E-3,-1.0808364E-2,3.1019426E-3,-3.0965027E-3,8.005893E-3,-1.6766112E-2,-4.0702233E-3],"categories":[],"categories_nodes":[],"categories_segments":[],"categories_sizes":[],"default_left":[0,0,0,0,0,0,0,0,0,0,0,0,0,0,0],"id":40,"left_children":[1,3,5,7,9,11,13,-1,-1,-1,-1,-1,-1,-1,-1],"loss_changes":[1.9472446E1,1.0522839E1,1.0921492E1,6.689474E0,8.363963E0,9.813613E0,5.8868256E0,0E0,0E0,0E0,0E0,0E0,0E0,0E0,0E0],"parents":[2147483647,0,0,1,1,2,2,3,3,4,4,5,5,6,6],"right_children":[2,4,6,8,10,12,14,-1,-1,-1,-1,-1,-1,-1,-1],"split_conditions":[-7.711653E-2,4.8796296E-1,4.5260993E-1,-1.2304131E0,1.2437811E-2,8.9751107E-1,5.0677806E-2,-2.630839E-3,8.904814E-3,-1.0808364E-2,3.1019426E-3,-3.0965027E-3,8.005893E-3,-1.6766112E-2,-4.0702233E-3],"split_indices":[33,39,110,27,15,63,90,0,0,0,0,0,0,0,0],"split_type":[0,0,0,0,0,0,0,0,0,0,0,0,0,0,0],"sum_hessian":[7.8459344E2,3.5774084E2,4.2685257E2,2.7488547E2,8.285539E1,3.0580594E2,1.2104664E2,2.7084257E1,2.478012E2,3.9229782E1,4.3625614E1,2.4910118E2,5.6704758E1,4.9138657E1,7.190798E1],"tree_param":{"num_deleted":"0","num_feature":"141","num_nodes":"15","size_leaf_vector":"1"}},{"base_weights":[1.17713185E-2,-4.028286E-1,4.339203E-1,-2.6908552E-2,-6.2534016E-1,7.776853E-1,1.8005304E-1,-3.8783979E-3,8.084462E-3,-5.074328E-5,-1.9365795E-2,5.8749E-3,2.4378527E-2,8.458755E-3,-1.1397961E-3],"categories":[],"categories_nodes":[],"categories_segments":[],"categories_sizes":[],"default_left":[0,0,0,0,0,0,0,0,0,0,0,0,0,0,0],"id":41,"left_children":[1,3,5,7,9,11,13,-1,-1,-1,-1,-1,-1,-1,-1],"loss_changes":[1.440335E2,3.2730003E1,3.4297646E1,7.4014196E0,6.740982E0,5.0826035E0,7.898613E0,0E0,0E0,0E0,0E0,0E0,0E0,0E0,0E0],"parents":[2147483647,0,0,1,1,2,2,3,3,4,4,5,5,6,6],"right_children":[2,4,6,8,10,12,14,-1,-1,-1,-1,-1,-1,-1,-1],"split_conditions":[1E0,-4.9294248E-1,2.173507E-1,6.506507E-1,-8.508701E-1,-5.784882E-1,6.1318153E-1,-3.8783979E-3,8.084462E-3,-5.074328E-5,-1.9365795E-2,5.8749E-3,2.4378527E-2,8.458755E-3,-1.1397961E-3],"split_indices":[127,58,40,23,101,63,137,0,0,0,0,0,0,0,0],"split_type":[0,0,0,0,0,0,0,0,0,0,0,0,0,0,0],"sum_hessian":[7.857635E2,3.930332E2,3.927303E2,1.5292078E2,2.4011243E2,1.579541E2,2.3477618E2,1.21980606E2,3.0940166E1,2.4197094E1,2.1591533E2,2.5665373E1,1.3228873E2,1.6085536E2,7.3920815E1],"tree_param":{"num_deleted":"0","num_feature":"141","num_nodes":"15","size_leaf_vector":"1"}},{"base_weights":[7.6800487E-3,7.935256E-2,-1.4844579E-1,2.2254072E-1,-6.946681E-2,-0E0,-4.3500748E-1,8.250933E-3,-2.1139972E-3,-4.4589927E-3,8.9265E-3,-5.269587E-3,8.772206E-3,-1.6726902E-2,-2.5645588E-3],"categories":[],"categories_nodes":[],"categories_segments":[],"categories_sizes":[],"default_left":[0,0,0,0,0,0,0,0,0,0,0,0,0,0,0],"id":42,"left_children":[1,3,5,7,9,11,13,-1,-1,-1,-1,-1,-1,-1,-1],"loss_changes":[9.957693E0,1.3608597E1,1.1684038E1,7.446023E0,1.099857E1,1.2305191E1,3.4348488E0,0E0,0E0,0E0,0E0,0E0,0E0,0E0,0E0],"parents":[2147483647,0,0,1,1,2,2,3,3,4,4,5,5,6,6],"right_children":[2,4,6,8,10,12,14,-1,-1,-1,-1,-1,-1,-1,-1],"split_conditions":[4.9771118E-1,-7.711653E-2,3.6492175E-1,1.1873605E0,7.9925877E-1,3.4349486E-1,1.5888807E-1,8.250933E-3,-2.1139972E-3,-4.4589927E-3,8.9265E-3,-5.269587E-3,8.772206E-3,-1.6726902E-2,-2.5645588E-3],"split_indices":[25,33,34,63,119,18,63,0,0,0,0,0,0,0,0],"split_type":[0,0,0,0,0,0,0,0,0,0,0,0,0,0,0],"sum_hessian":[7.8349414E2,5.513592E2,2.3213493E2,2.898737E2,2.614855E2,1.5623016E2,7.590478E1,2.4436824E2,4.5505447E1,2.2140623E2,4.007928E1,9.901641E1,5.721375E1,4.451232E1,3.1392454E1],"tree_param":{"num_deleted":"0","num_feature":"141","num_nodes":"15","size_leaf_vector":"1"}},{"base_weights":[2.3944216E-2,-3.85732E-1,4.3984026E-1,-6.011475E-1,-2.666501E-2,6.63266E-1,1.6416432E-1,-1.3014994E-2,-2.2525923E-2,5.422982E-3,-6.8543777E-3,2.2876255E-2,1.301926E-2,8.336939E-3,-7.018168E-3],"categories":[],"categories_nodes":[],"categories_segments":[],"categories_sizes":[],"default_left":[0,0,0,0,0,0,0,0,0,0,0,0,0,0,0],"id":43,"left_children":[1,3,5,7,9,11,13,-1,-1,-1,-1,-1,-1,-1,-1],"loss_changes":[1.4020575E2,3.0198574E1,2.3844994E1,5.1394424E0,1.010458E1,4.281311E0,1.2705675E1,0E0,0E0,0E0,0E0,0E0,0E0,0E0,0E0],"parents":[2147483647,0,0,1,1,2,2,3,3,4,4,5,5,6,6],"right_children":[2,4,6,8,10,12,14,-1,-1,-1,-1,-1,-1,-1,-1],"split_conditions":[1E0,6.588831E-2,4.5895433E-1,4.6214584E-1,-9.8873264E-1,-2.502353E-2,1.0020566E-1,-1.3014994E-2,-2.2525923E-2,5.422982E-3,-6.8543777E-3,2.2876255E-2,1.301926E-2,8.336939E-3,-7.018168E-3],"split_indices":[127,108,10,3,40,40,33,0,0,0,0,0,0,0,0],"split_type":[0,0,0,0,0,0,0,0,0,0,0,0,0,0,0],"sum_hessian":[7.853645E2,3.922613E2,3.931032E2,2.3816772E2,1.5409355E2,2.0774156E2,1.8536166E2,1.5321367E2,8.495406E1,6.996898E1,8.412458E1,1.07155365E2,1.0058619E2,1.4753523E2,3.782643E1],"tree_param":{"num_deleted":"0","num_feature":"141","num_nodes":"15","size_leaf_vector":"1"}},{"base_weights":[-0E0,-3.9172626E-1,3.887147E-1,-9.32543E-2,-6.1183673E-1,5.88137E-1,1.4841421E-1,-7.100825E-3,4.131961E-3,-4.6223584E-3,-1.9206153E-2,1.8378861E-2,3.6368575E-3,7.4439975E-3,-1.7003188E-3],"categories":[],"categories_nodes":[],"categories_segments":[],"categories_sizes":[],"default_left":[0,0,0,0,0,0,0,0,0,0,0,0,0,0,0],"id":44,"left_children":[1,3,5,7,9,11,13,-1,-1,-1,-1,-1,-1,-1,-1],"loss_changes":[1.2324162E2,2.5217678E1,1.807949E1,8.831379E0,4.567581E0,3.8578568E0,6.1182446E0,0E0,0E0,0E0,0E0,0E0,0E0,0E0,0E0],"parents":[2147483647,0,0,1,1,2,2,3,3,4,4,5,5,6,6],"right_children":[2,4,6,8,10,12,14,-1,-1,-1,-1,-1,-1,-1,-1],"split_conditions":[1E0,-3.2629645E-1,5E-1,7.777778E-1,-5.674983E-1,8.625735E-1,5.9632444E-1,-7.100825E-3,4.131961E-3,-4.6223584E-3,-1.9206153E-2,1.8378861E-2,3.6368575E-3,7.4439975E-3,-1.7003188E-3],"split_indices":[127,42,11,125,110,96,34,0,0,0,0,0,0,0,0],"split_type":[0,0,0,0,0,0,0,0,0,0,0,0,0,0,0],"sum_hessian":[7.7024146E2,3.8674384E2,3.8349765E2,1.7253691E2,2.1420691E2,1.9933026E2,1.8416739E2,1.1152078E2,6.1016132E1,3.405176E1,1.8015515E2,1.6987039E2,2.945987E1,1.2766697E2,5.6500416E1],"tree_param":{"num_deleted":"0","num_feature":"141","num_nodes":"15","size_leaf_vector":"1"}},{"base_weights":[-0E0,-3.7828743E-1,3.810328E-1,-1.1367948E-1,-5.912892E-1,5.643648E-1,3.237505E-2,5.153936E-4,-9.432497E-3,-1.5769873E-3,-1.8128226E-2,1.7811263E-2,4.164609E-3,-5.5498783E-3,7.421876E-3],"categories":[],"categories_nodes":[],"categories_segments":[],"categories_sizes":[],"default_left":[0,0,0,0,0,0,0,0,0,0,0,0,0,0,0],"id":45,"left_children":[1,3,5,7,9,11,13,-1,-1,-1,-1,-1,-1,-1,-1],"loss_changes":[1.1714746E2,2.1794048E1,2.4180744E1,7.714444E0,3.5843582E0,4.914032E0,1.036706E1,0E0,0E0,0E0,0E0,0E0,0E0,0E0,0E0],"parents":[2147483647,0,0,1,1,2,2,3,3,4,4,5,5,6,6],"right_children":[2,4,6,8,10,12,14,-1,-1,-1,-1,-1,-1,-1,-1],"split_conditions":[1E0,0E0,2.00119E-1,4.4663693E-3,-6.179846E-1,7.808188E-1,-1.858835E-2,5.153936E-4,-9.432497E-3,-1.5769873E-3,-1.8128226E-2,1.7811263E-2,4.164609E-3,-5.5498783E-3,7.421876E-3],"split_indices":[127,9,107,33,62,42,14,0,0,0,0,0,0,0,0],"split_type":[0,0,0,0,0,0,0,0,0,0,0,0,0,0,0],"sum_hessian":[7.7286035E2,3.9023355E2,3.8262677E2,1.8326488E2,2.0696867E2,2.4342674E2,1.3920003E2,1.0838636E2,7.487852E1,2.2083054E1,1.8488562E2,2.0414534E2,3.9281406E1,6.366813E1,7.55319E1],"tree_param":{"num_deleted":"0","num_feature":"141","num_nodes":"15","size_leaf_vector":"1"}},{"base_weights":[2.2307734E-3,-3.6234257E-1,3.8146278E-1,-1.8155195E-2,-5.80838E-1,5.965044E-1,1.3496128E-1,6.3926685E-3,-4.1620117E-3,-0E0,-1.818647E-2,3.0704187E-3,1.8347545E-2,1.42266955E-2,5.796906E-4],"categories":[],"categories_nodes":[],"categories_segments":[],"categories_sizes":[],"default_left":[0,0,0,0,0,0,0,0,0,0,0,0,0,0,0],"id":46,"left_children":[1,3,5,7,9,11,13,-1,-1,-1,-1,-1,-1,-1,-1],"loss_changes":[1.1303771E2,2.9418552E1,2.0166664E1,7.0820613E0,8.039124E0,3.1074066E0,8.777506E0,0E0,0E0,0E0,0E0,0E0,0E0,0E0,0E0],"parents":[2147483647,0,0,1,1,2,2,3,3,4,4,5,5,6,6],"right_children":[2,4,6,8,10,12,14,-1,-1,-1,-1,-1,-1,-1,-1],"split_conditions":[1E0,-5.079274E-1,1.356073E-1,-7.951106E-1,-6.565898E-1,-8.301249E-1,-6.541318E-1,6.3926685E-3,-4.1620117E-3,-0E0,-1.818647E-2,3.0704187E-3,1.8347545E-2,1.42266955E-2,5.796906E-4],"split_indices":[127,5,5,58,58,119,0,0,0,0,0,0,0,0,0],"split_type":[0,0,0,0,0,0,0,0,0,0,0,0,0,0,0],"sum_hessian":[7.767134E2,3.921784E2,3.8453497E2,1.593961E2,2.327823E2,1.955917E2,1.8894325E2,4.5979E1,1.1341711E2,2.240243E1,2.1037987E2,2.4328499E1,1.7126321E2,3.5403564E1,1.5353969E2],"tree_param":{"num_deleted":"0","num_feature":"141","num_nodes":"15","size_leaf_vector":"1"}},{"base_weights":[-0E0,-3.7617067E-1,3.8489336E-1,-7.1746625E-2,-5.7062554E-1,7.2192156E-1,2.3855935E-1,-1.2190666E-2,-0E0,-0E0,-1.7878886E-2,2.4557184E-2,9.34313E-3,4.6139816E-4,1.0784805E-2],"categories":[],"categories_nodes":[],"categories_segments":[],"categories_sizes":[],"default_left":[0,0,0,0,0,0,0,0,0,0,0,0,0,0,0],"id":47,"left_children":[1,3,5,7,9,11,13,-1,-1,-1,-1,-1,-1,-1,-1],"loss_changes":[1.1792235E2,2.3175594E1,1.8704689E1,6.1529016E0,7.533722E0,3.9621315E0,8.486137E0,0E0,0E0,0E0,0E0,0E0,0E0,0E0,0E0],"parents":[2147483647,0,0,1,1,2,2,3,3,4,4,5,5,6,6],"right_children":[2,4,6,8,10,12,14,-1,-1,-1,-1,-1,-1,-1,-1],"split_conditions":[1E0,-5.079274E-1,0E0,-4.708678E-1,-6.565898E-1,2.3996167E-1,-6.2015362E-2,-1.2190666E-2,-0E0,-0E0,-1.7878886E-2,2.4557184E-2,9.34313E-3,4.6139816E-4,1.0784805E-2],"split_indices":[127,5,43,69,58,62,69,0,0,0,0,0,0,0,0],"split_type":[0,0,0,0,0,0,0,0,0,0,0,0,0,0,0],"sum_hessian":[7.7478796E2,3.95539E2,3.79249E2,1.6246188E2,2.3307712E2,1.03357895E2,2.7589108E2,2.2305882E1,1.4015599E2,2.333837E1,2.0973875E2,6.664748E1,3.6710423E1,1.168069E2,1.590842E2],"tree_param":{"num_deleted":"0","num_feature":"141","num_nodes":"15","size_leaf_vector":"1"}},{"base_weights":[-1.7556847E-3,-3.6395815E-1,3.6124438E-1,-5.8286834E-1,-4.1542143E-2,5.9495986E-1,1.02456085E-1,-1.1010442E-2,-2.0831993E-2,-4.6141013E-3,3.148573E-3,1.8436939E-2,1.833573E-3,-1.9814938E-3,7.3532285E-3],"categories":[],"categories_nodes":[],"categories_segments":[],"categories_sizes":[],"default_left":[0,0,0,0,0,0,0,0,0,0,0,0,0,0,0],"id":48,"left_children":[1,3,5,7,9,11,13,-1,-1,-1,-1,-1,-1,-1,-1],"loss_changes":[1.0745145E2,2.7603764E1,2.3119461E1,5.319626E0,4.720058E0,3.9387894E0,7.2013655E0,0E0,0E0,0E0,0E0,0E0,0E0,0E0,0E0],"parents":[2147483647,0,0,1,1,2,2,3,3,4,4,5,5,6,6],"right_children":[2,4,6,8,10,12,14,-1,-1,-1,-1,-1,-1,-1,-1],"split_conditions":[1E0,1.0135939E0,1.356073E-1,1E0,6.666667E-1,7.5E-1,-7.131012E-2,-1.1010442E-2,-2.0831993E-2,-4.6141013E-3,3.148573E-3,1.8436939E-2,1.833573E-3,-1.9814938E-3,7.3532285E-3],"split_indices":[127,7,5,47,126,35,15,0,0,0,0,0,0,0,0],"split_type":[0,0,0,0,0,0,0,0,0,0,0,0,0,0,0],"sum_hessian":[7.759075E2,3.9241022E2,3.8349722E2,2.261319E2,1.6627834E2,1.9247142E2,1.9102582E2,1.13237434E2,1.12894455E2,1.03332245E2,6.2946095E1,1.6909958E2,2.3371838E1,8.3076996E1,1.0794882E2],"tree_param":{"num_deleted":"0","num_feature":"141","num_nodes":"15","size_leaf_vector":"1"}},{"base_weights":[-6.507362E-3,2.67263E-1,-6.616043E-2,3.443193E-1,-0E0,5.1339757E-2,-1.861367E-1,1.5234515E-2,7.9855154E-4,-7.875085E-3,3.96904E-3,-1.0085575E-2,-0E0],"categories":[],"categories_nodes":[],"categories_segments":[],"categories_sizes":[],"default_left":[0,0,0,0,0,0,0,0,0,0,0,0,0],"id":49,"left_children":[1,3,5,7,-1,9,11,-1,-1,-1,-1,-1,-1],"loss_changes":[1.4087261E1,3.983284E0,1.06043005E1,6.1341343E0,0E0,1.1149274E1,1.1194021E1,0E0,0E0,0E0,0E0,0E0,0E0],"parents":[2147483647,0,0,1,1,2,2,3,3,5,5,6,6],"right_children":[2,4,6,8,-1,10,12,-1,-1,-1,-1,-1,-1],"split_conditions":[-7.572912E-1,5.3515977E-1,-2.348626E-2,-1.2408826E-2,-0E0,-3.9101306E-1,-1.0779436E-2,1.5234515E-2,7.9855154E-4,-7.875085E-3,3.96904E-3,-1.0085575E-2,-0E0],"split_indices":[85,50,54,96,0,85,15,0,0,0,0,0,0],"split_type":[0,0,0,0,0,0,0,0,0,0,0,0,0],"sum_hessian":[7.7201276E2,1.2651902E2,6.454938E2,1.0421804E2,2.2300982E1,3.1509854E2,3.303952E2,5.7249443E1,4.6968597E1,5.763256E1,2.5746597E2,1.6915468E2,1.6124054E2],"tree_param":{"num_deleted":"0","num_feature":"141","num_nodes":"13","size_leaf_vector":"1"}},{"base_weights":[1.01879835E-2,-1.3856645E-1,1.725548E-1,-1.8064342E-2,-5.7532316E-1,2.7123365E-1,-2.1572275E-1,-1.2611216E-2,4.142594E-4,-2.0308288E-2,-2.7143562E-3,1.9648558E-2,5.6585264E-3,-0E0,-1.1117186E-2],"categories":[],"categories_nodes":[],"categories_segments":[],"categories_sizes":[],"default_left":[0,0,0,0,0,0,0,0,0,0,0,0,0,0,0],"id":50,"left_children":[1,3,5,7,9,11,13,-1,-1,-1,-1,-1,-1,-1,-1],"loss_changes":[2.065726E1,2.1767418E1,1.6880257E1,8.308023E0,4.0283203E0,9.86479E0,4.468094E0,0E0,0E0,0E0,0E0,0E0,0E0,0E0,0E0],"parents":[2147483647,0,0,1,1,2,2,3,3,4,4,5,5,6,6],"right_children":[2,4,6,8,10,12,14,-1,-1,-1,-1,-1,-1,-1,-1],"split_conditions":[1E0,-1.9944644E-2,7.646797E-1,-6.315789E-1,2.0830898E-1,-2.5510803E-1,5.34483E-1,-1.2611216E-2,4.142594E-4,-2.0308288E-2,-2.7143562E-3,1.9648558E-2,5.6585264E-3,-0E0,-1.1117186E-2],"split_indices":[128,42,58,32,93,42,27,0,0,0,0,0,0,0,0],"split_type":[0,0,0,0,0,0,0,0,0,0,0,0,0,0,0],"sum_hessian":[7.691962E2,3.923651E2,3.7683112E2,3.1647415E2,7.5890976E1,3.0756918E2,6.926195E1,2.4882154E1,2.9159198E2,5.2469234E1,2.3421743E1,3.3646217E1,2.7392297E2,2.8720654E1,4.0541294E1],"tree_param":{"num_deleted":"0","num_feature":"141","num_nodes":"15","size_leaf_vector":"1"}},{"base_weights":[-4.0752694E-2,-1.6562147E-1,5.4728482E-2,7.66986E-2,-2.95635E-1,2.8574112E-1,-0E0,7.565207E-3,-6.022683E-3,-6.1010835E-3,-1.5983423E-2,-0E0,1.4418626E-2,5.3375736E-3,-3.5330458E-3],"categories":[],"categories_nodes":[],"categories_segments":[],"categories_sizes":[],"default_left":[0,0,0,0,0,0,0,0,0,0,0,0,0,0,0],"id":51,"left_children":[1,3,5,7,9,11,13,-1,-1,-1,-1,-1,-1,-1,-1],"loss_changes":[1.0613941E1,1.293828E1,6.7455897E0,9.166223E0,5.0889835E0,6.8602514E0,1.00826645E1,0E0,0E0,0E0,0E0,0E0,0E0,0E0,0E0],"parents":[2147483647,0,0,1,1,2,2,3,3,4,4,5,5,6,6],"right_children":[2,4,6,8,10,12,14,-1,-1,-1,-1,-1,-1,-1,-1],"split_conditions":[-7.644777E-2,-3.062873E-1,-6.4948934E-1,2.275935E-1,-5.196763E-2,-5.164222E-1,3.772857E-1,7.565207E-3,-6.022683E-3,-6.1010835E-3,-1.5983423E-2,-0E0,1.4418626E-2,5.3375736E-3,-3.5330458E-3],"split_indices":[69,54,0,102,93,68,69,0,0,0,0,0,0,0,0],"split_type":[0,0,0,0,0,0,0,0,0,0,0,0,0,0,0],"sum_hessian":[7.668534E2,3.4412842E2,4.22725E2,1.12953575E2,2.3117484E2,7.7193726E1,3.4553128E2,7.455444E1,3.839913E1,1.9178232E2,3.939252E1,3.404318E1,4.3150547E1,1.367931E2,2.0873816E2],"tree_param":{"num_deleted":"0","num_feature":"141","num_nodes":"15","size_leaf_vector":"1"}},{"base_weights":[-3.0557176E-3,-3.320722E-1,3.260983E-1,1.5136965E-1,-4.6048927E-1,4.482459E-1,-2.485101E-2,-0E0,9.089523E-3,-9.470218E-3,-2.1140745E-2,1.5119336E-2,9.312391E-4,3.4996164E-3,-1.1712449E-2],"categories":[],"categories_nodes":[],"categories_segments":[],"categories_sizes":[],"default_left":[0,0,0,0,0,0,0,0,0,0,0,0,0,0,0],"id":52,"left_children":[1,3,5,7,9,11,13,-1,-1,-1,-1,-1,-1,-1,-1],"loss_changes":[8.817107E1,2.7306713E1,1.864508E1,3.718193E0,1.0765442E1,9.015518E0,9.628413E0,0E0,0E0,0E0,0E0,0E0,0E0,0E0,0E0],"parents":[2147483647,0,0,1,1,2,2,3,3,4,4,5,5,6,6],"right_children":[2,4,6,8,10,12,14,-1,-1,-1,-1,-1,-1,-1,-1],"split_conditions":[1E0,-7.363486E-1,3.3121982E-1,-4.4444446E-2,2.1074641E-1,6.97291E-1,5.34483E-1,-0E0,9.089523E-3,-9.470218E-3,-2.1140745E-2,1.5119336E-2,9.312391E-4,3.4996164E-3,-1.1712449E-2],"split_indices":[127,58,107,92,102,100,27,0,0,0,0,0,0,0,0],"split_type":[0,0,0,0,0,0,0,0,0,0,0,0,0,0,0],"sum_hessian":[7.695162E2,3.8926523E2,3.8025095E2,7.674549E1,3.1251974E2,2.8732852E2,9.292242E1,3.621512E1,4.053037E1,2.2911966E2,8.3400085E1,2.3256075E2,5.4767776E1,6.3987476E1,2.893494E1],"tree_param":{"num_deleted":"0","num_feature":"141","num_nodes":"15","size_leaf_vector":"1"}},{"base_weights":[1.5511812E-2,-3.130351E-1,3.5797048E-1,-5.7669457E-2,-5.3485394E-1,5.6059533E-1,1.1506038E-1,2.8997632E-3,-9.519967E-3,-6.293903E-3,-1.862656E-2,3.2211214E-3,1.8174564E-2,1.0847117E-2,-0E0],"categories":[],"categories_nodes":[],"categories_segments":[],"categories_sizes":[],"default_left":[0,0,0,0,0,0,0,0,0,0,0,0,0,0,0],"id":53,"left_children":[1,3,5,7,9,11,13,-1,-1,-1,-1,-1,-1,-1,-1],"loss_changes":[9.153474E1,2.2020874E1,1.8555492E1,1.1616724E1,6.4171867E0,5.6541214E0,7.0975437E0,0E0,0E0,0E0,0E0,0E0,0E0,0E0,0E0],"parents":[2147483647,0,0,1,1,2,2,3,3,4,4,5,5,6,6],"right_children":[2,4,6,8,10,12,14,-1,-1,-1,-1,-1,-1,-1,-1],"split_conditions":[1E0,-8.8199995E-2,4.5895433E-1,1.2408516E-2,-4.1328573E-1,-7.088455E-1,-2.5410348E-1,2.8997632E-3,-9.519967E-3,-6.293903E-3,-1.862656E-2,3.2211214E-3,1.8174564E-2,1.0847117E-2,-0E0],"split_indices":[127,10,10,33,56,98,33,0,0,0,0,0,0,0,0],"split_type":[0,0,0,0,0,0,0,0,0,0,0,0,0,0,0],"sum_hessian":[7.692178E2,3.8841998E2,3.8079776E2,1.89347E2,1.9907298E2,1.9781117E2,1.829866E2,1.1522825E2,7.411875E1,6.528323E1,1.3378975E2,3.6592525E1,1.6121864E2,5.068938E1,1.3229723E2],"tree_param":{"num_deleted":"0","num_feature":"141","num_nodes":"15","size_leaf_vector":"1"}},{"base_weights":[1.133929E-2,-3.4632212E-1,3.7943378E-1,1.5051468E-1,-4.4000748E-1,6.0464615E-1,1.21521235E-1,1.3921208E-2,-2.4738736E-3,-9.194743E-3,-2.0629492E-2,2.0950701E-2,1.119188E-2,1.4836114E-2,2.2146179E-4],"categories":[],"categories_nodes":[],"categories_segments":[],"categories_sizes":[],"default_left":[0,0,0,0,0,0,0,0,0,0,0,0,0,0,0],"id":54,"left_children":[1,3,5,7,9,11,13,-1,-1,-1,-1,-1,-1,-1,-1],"loss_changes":[1.05774536E2,2.0592903E1,2.1869339E1,8.671938E0,1.04793625E1,3.9502487E0,9.4897E0,0E0,0E0,0E0,0E0,0E0,0E0,0E0,0E0],"parents":[2147483647,0,0,1,1,2,2,3,3,4,4,5,5,6,6],"right_children":[2,4,6,8,10,12,14,-1,-1,-1,-1,-1,-1,-1,-1],"split_conditions":[1E0,-7.951106E-1,1.3760865E-1,-6.527497E-2,2.4158852E-1,0E0,-6.609382E-1,1.3921208E-2,-2.4738736E-3,-9.194743E-3,-2.0629492E-2,2.0950701E-2,1.119188E-2,1.4836114E-2,2.2146179E-4],"split_indices":[127,58,5,33,102,43,37,0,0,0,0,0,0,0,0],"split_type":[0,0,0,0,0,0,0,0,0,0,0,0,0,0,0],"sum_hessian":[7.6186884E2,3.825139E2,3.7935495E2,5.5292408E1,3.2722147E2,1.932022E2,1.8615276E2,2.5887882E1,2.9404526E1,2.4614465E2,8.107682E1,1.03625946E2,8.957624E1,3.1930984E1,1.5422179E2],"tree_param":{"num_deleted":"0","num_feature":"141","num_nodes":"15","size_leaf_vector":"1"}},{"base_weights":[-0E0,1.3444297E-1,-1.1709471E-1,3.2449296E-1,-0E0,3.7115883E-2,-2.4223289E-1,-1.0562678E-3,1.532301E-2,-9.521933E-3,3.4116257E-3,-4.913263E-3,5.634698E-3,4.8409816E-4,-1.1398807E-2],"categories":[],"categories_nodes":[],"categories_segments":[],"categories_sizes":[],"default_left":[0,0,0,0,0,0,0,0,0,0,0,0,0,0,0],"id":55,"left_children":[1,3,5,7,9,11,13,-1,-1,-1,-1,-1,-1,-1,-1],"loss_changes":[1.3586012E1,1.0212228E1,9.502096E0,1.4482342E1,1.144009E1,8.157738E0,1.192135E1,0E0,0E0,0E0,0E0,0E0,0E0,0E0,0E0],"parents":[2147483647,0,0,1,1,2,2,3,3,4,4,5,5,6,6],"right_children":[2,4,6,8,10,12,14,-1,-1,-1,-1,-1,-1,-1,-1],"split_conditions":[-7.460299E-2,-1.6006848E-1,-1.080329E-1,-7.1560997E-1,1.2050236E-1,-1.5678318E-1,-3.4352916E-1,-1.0562678E-3,1.532301E-2,-9.521933E-3,3.4116257E-3,-4.913263E-3,5.634698E-3,4.8409816E-4,-1.1398807E-2],"split_indices":[33,58,137,27,61,24,27,0,0,0,0,0,0,0,0],"split_type":[0,0,0,0,0,0,0,0,0,0,0,0,0,0,0],"sum_hessian":[7.600916E2,3.5466995E2,4.0542163E2,1.435457E2,2.1112425E2,1.7256644E2,2.3285521E2,4.96636E1,9.388211E1,5.3016716E1,1.5810754E2,6.6862656E1,1.0570378E2,8.2804306E1,1.5005089E2],"tree_param":{"num_deleted":"0","num_feature":"141","num_nodes":"15","size_leaf_vector":"1"}},{"base_weights":[-2.4995724E-2,-1.5381882E-1,1.00504816E-1,-0E0,-4.757552E-1,3.4211212E-1,-5.773888E-2,8.282754E-3,-3.7375507E-3,-1.6256718E-2,-0E0,1.350521E-2,-0E0,8.9249166E-5,-1.420781E-2],"categories":[],"categories_nodes":[],"categories_segments":[],"categories_sizes":[],"default_left":[0,0,0,0,0,0,0,0,0,0,0,0,0,0,0],"id":56,"left_children":[1,3,5,7,9,11,13,-1,-1,-1,-1,-1,-1,-1,-1],"loss_changes":[1.3784649E1,2.121727E1,1.6972162E1,1.2841915E1,5.808655E0,6.9503517E0,1.0042416E1,0E0,0E0,0E0,0E0,0E0,0E0,0E0,0E0],"parents":[2147483647,0,0,1,1,2,2,3,3,4,4,5,5,6,6],"right_children":[2,4,6,8,10,12,14,-1,-1,-1,-1,-1,-1,-1,-1],"split_conditions":[1E0,-1.7661715E-1,2.2396807E-1,-1.4031376E-1,5.3335625E-1,4.6957734E-1,2.9329446E-1,8.282754E-3,-3.7375507E-3,-1.6256718E-2,-0E0,1.350521E-2,-0E0,8.9249166E-5,-1.420781E-2],"split_indices":[128,58,40,33,69,37,33,0,0,0,0,0,0,0,0],"split_type":[0,0,0,0,0,0,0,0,0,0,0,0,0,0,0],"sum_hessian":[7.5106604E2,3.8162997E2,3.6943607E2,2.6038547E2,1.212445E2,1.5144057E2,2.179955E2,8.029264E1,1.8009283E2,9.880353E1,2.2440975E1,1.03953384E2,4.748719E1,1.8971173E2,2.8283768E1],"tree_param":{"num_deleted":"0","num_feature":"141","num_nodes":"15","size_leaf_vector":"1"}},{"base_weights":[-1.7834277E-3,-1.5248862E-1,1.4734162E-1,-0E0,-4.7574317E-1,3.2802752E-1,-4.0923886E-2,7.0650512E-3,-4.536549E-3,-1.6422007E-2,-0E0,1.2825316E-2,-0E0,1.705335E-3,-9.122667E-3],"categories":[],"categories_nodes":[],"categories_segments":[],"categories_sizes":[],"default_left":[0,0,0,0,0,0,0,0,0,0,0,0,0,0,0],"id":57,"left_children":[1,3,5,7,9,11,13,-1,-1,-1,-1,-1,-1,-1,-1],"loss_changes":[1.8970694E1,2.189598E1,1.4961355E1,1.3257383E1,5.4566956E0,8.8090515E0,7.9089026E0,0E0,0E0,0E0,0E0,0E0,0E0,0E0,0E0],"parents":[2147483647,0,0,1,1,2,2,3,3,4,4,5,5,6,6],"right_children":[2,4,6,8,10,12,14,-1,-1,-1,-1,-1,-1,-1,-1],"split_conditions":[1E0,-1.7661715E-1,4.930666E-1,-8.691024E-2,5.0411075E-1,5.2236557E-1,7.4300146E-1,7.0650512E-3,-4.536549E-3,-1.6422007E-2,-0E0,1.2825316E-2,-0E0,1.705335E-3,-9.122667E-3],"split_indices":[128,58,58,33,69,21,73,0,0,0,0,0,0,0,0],"split_type":[0,0,0,0,0,0,0,0,0,0,0,0,0,0,0],"sum_hessian":[7.5674963E2,3.860913E2,3.706583E2,2.621126E2,1.239787E2,1.9535088E2,1.7530743E2,1.0536538E2,1.5674724E2,9.742859E1,2.6550108E1,1.4121146E2,5.413942E1,1.2376836E2,5.153907E1],"tree_param":{"num_deleted":"0","num_feature":"141","num_nodes":"15","size_leaf_vector":"1"}},{"base_weights":[1.1550104E-2,-3.016592E-1,3.355416E-1,-6.3550286E-2,-5.8744395E-1,6.449299E-1,1.4228284E-1,4.3131993E-3,-6.0379356E-3,-9.420417E-3,-2.2428349E-2,1.0059992E-2,2.2106923E-2,-1.996255E-3,8.894863E-3],"categories":[],"categories_nodes":[],"categories_segments":[],"categories_sizes":[],"default_left":[0,0,0,0,0,0,0,0,0,0,0,0,0,0,0],"id":58,"left_children":[1,3,5,7,9,11,13,-1,-1,-1,-1,-1,-1,-1,-1],"loss_changes":[8.095908E1,2.5984951E1,2.2551926E1,9.087964E0,7.2773056E0,3.6059647E0,1.1062371E1,0E0,0E0,0E0,0E0,0E0,0E0,0E0,0E0],"parents":[2147483647,0,0,1,1,2,2,3,3,4,4,5,5,6,6],"right_children":[2,4,6,8,10,12,14,-1,-1,-1,-1,-1,-1,-1,-1],"split_conditions":[1E0,-2.6949435E-1,1.7990014E-1,-9.779687E-2,-4.277286E-1,-5.9447E-1,-5.6200765E-2,4.3131993E-3,-6.0379356E-3,-9.420417E-3,-2.2428349E-2,1.0059992E-2,2.2106923E-2,-1.996255E-3,8.894863E-3],"split_indices":[127,40,40,33,137,118,69,0,0,0,0,0,0,0,0],"split_type":[0,0,0,0,0,0,0,0,0,0,0,0,0,0,0],"sum_hessian":[7.5167834E2,3.7776462E2,3.7391376E2,2.1468246E2,1.6308217E2,1.3386427E2,2.4004947E2,7.963261E1,1.3504987E2,8.326693E1,7.981524E1,5.3813362E1,8.005092E1,1.00339294E2,1.3971017E2],"tree_param":{"num_deleted":"0","num_feature":"141","num_nodes":"15","size_leaf_vector":"1"}},{"base_weights":[-1.7559202E-2,2.1628618E-1,-5.2530106E-2,3.895225E-1,-0E0,-4.499234E-1,2.7533886E-1,-0E0,1.8890869E-2,-4.0447805E-3,-1.6536035E-2,1.6996894E-2,2.5866663E-3],"categories":[],"categories_nodes":[],"categories_segments":[],"categories_sizes":[],"default_left":[0,0,0,0,0,0,0,0,0,0,0,0,0],"id":59,"left_children":[1,3,5,7,-1,9,11,-1,-1,-1,-1,-1,-1],"loss_changes":[7.2448263E0,5.2801657E0,9.286114E1,5.9251566E0,0E0,1.1641884E1,2.2018488E1,0E0,0E0,0E0,0E0,0E0,0E0],"parents":[2147483647,0,0,1,1,2,2,3,3,5,5,6,6],"right_children":[2,4,6,8,-1,10,12,-1,-1,-1,-1,-1,-1],"split_conditions":[-7.363486E-1,2.2212027E-1,1E0,-2.0165835E-1,-0E0,-5.079274E-1,1.7990014E-1,-0E0,1.8890869E-2,-4.0447805E-3,-1.6536035E-2,1.6996894E-2,2.5866663E-3],"split_indices":[58,18,127,18,0,5,40,0,0,0,0,0,0],"split_type":[0,0,0,0,0,0,0,0,0,0,0,0,0],"sum_hessian":[7.538377E2,8.412115E1,6.6971655E2,5.091501E1,3.3206135E1,3.0603055E2,3.63686E2,2.6551798E1,2.436321E1,1.00911446E2,2.051191E2,1.23004524E2,2.4068149E2],"tree_param":{"num_deleted":"0","num_feature":"141","num_nodes":"13","size_leaf_vector":"1"}},{"base_weights":[-4.450608E-3,-1.3450181E-1,1.21905245E-1,-0E0,-3.688194E-1,3.2522473E-1,-1.0073197E-2,-9.220398E-3,1.7330827E-3,-1.3459434E-2,-0E0,1.1993121E-2,-1.4712365E-3,-5.9612966E-3,4.232871E-3],"categories":[],"categories_nodes":[],"categories_segments":[],"categories_sizes":[],"default_left":[0,0,0,0,0,0,0,0,0,0,0,0,0,0,0],"id":60,"left_children":[1,3,5,7,9,11,13,-1,-1,-1,-1,-1,-1,-1,-1],"loss_changes":[1.418307E1,1.4127354E1,1.2377239E1,6.974603E0,5.977459E0,7.787508E0,9.511952E0,0E0,0E0,0E0,0E0,0E0,0E0,0E0,0E0],"parents":[2147483647,0,0,1,1,2,2,3,3,4,4,5,5,6,6],"right_children":[2,4,6,8,10,12,14,-1,-1,-1,-1,-1,-1,-1,-1],"split_conditions":[1E0,-6.585679E-2,1.9985615E-1,-5.17364E-1,6.4391065E-1,2.9084325E-1,-1.0779436E-2,-9.220398E-3,1.7330827E-3,-1.3459434E-2,-0E0,1.1993121E-2,-1.4712365E-3,-5.9612966E-3,4.232871E-3],"split_indices":[128,109,40,63,18,102,15,0,0,0,0,0,0,0,0],"split_type":[0,0,0,0,0,0,0,0,0,0,0,0,0,0,0],"sum_hessian":[7.6204266E2,3.868005E2,3.7524213E2,2.4551837E2,1.4128215E2,1.5381564E2,2.214265E2,3.2770485E1,2.1274788E2,1.0814666E2,3.3135483E1,1.283035E2,2.551214E1,1.0569794E2,1.1572855E2],"tree_param":{"num_deleted":"0","num_feature":"141","num_nodes":"15","size_leaf_vector":"1"}},{"base_weights":[7.2738654E-3,-1.15349114E-1,1.4442277E-1,-5.51691E-2,-2.0585159E-2,5.772783E-1,4.845076E-2,-1.4097901E-2,-0E0,4.20753E-3,2.086986E-2,7.34901E-3,-1.4462942E-3],"categories":[],"categories_nodes":[],"categories_segments":[],"categories_sizes":[],"default_left":[0,0,0,0,0,0,0,0,0,0,0,0,0],"id":61,"left_children":[1,3,5,7,-1,9,11,-1,-1,-1,-1,-1,-1],"loss_changes":[1.4382865E1,1.5740234E1,1.6270714E1,1.0687325E1,0E0,2.8208942E0,8.733967E0,0E0,0E0,0E0,0E0,0E0,0E0],"parents":[2147483647,0,0,1,1,2,2,3,3,5,5,6,6],"right_children":[2,4,6,8,-1,10,12,-1,-1,-1,-1,-1,-1],"split_conditions":[1E0,3.3491606E-1,-4.5499116E-2,-6.315789E-1,-2.0585159E-2,-4.007315E-1,1.9985615E-1,-1.4097901E-2,-0E0,4.20753E-3,2.086986E-2,7.34901E-3,-1.4462942E-3],"split_indices":[128,42,42,32,0,101,40,0,0,0,0,0,0],"split_type":[0,0,0,0,0,0,0,0,0,0,0,0,0],"sum_hessian":[7.532525E2,3.8680035E2,3.6645215E2,3.6084378E2,2.5956593E1,5.6841026E1,3.096111E2,3.3047676E1,3.277961E2,2.2502647E1,3.433838E1,1.06588684E2,2.0302243E2],"tree_param":{"num_deleted":"0","num_feature":"141","num_nodes":"13","size_leaf_vector":"1"}},{"base_weights":[-9.03096E-3,-3.05642E-1,2.901116E-1,-4.9030024E-1,-2.1162136E-2,6.1813164E-1,1.5384917E-1,-8.784805E-3,-1.851383E-2,4.2192405E-3,-3.608056E-3,6.0359365E-3,2.130801E-2,7.0445114E-3,-3.6816685E-3],"categories":[],"categories_nodes":[],"categories_segments":[],"categories_sizes":[],"default_left":[0,0,0,0,0,0,0,0,0,0,0,0,0,0,0],"id":62,"left_children":[1,3,5,7,9,11,13,-1,-1,-1,-1,-1,-1,-1,-1],"loss_changes":[7.0723076E1,1.9905418E1,1.6778152E1,5.639839E0,4.41914E0,3.8557892E0,9.106001E0,0E0,0E0,0E0,0E0,0E0,0E0,0E0,0E0],"parents":[2147483647,0,0,1,1,2,2,3,3,4,4,5,5,6,6],"right_children":[2,4,6,8,10,12,14,-1,-1,-1,-1,-1,-1,-1,-1],"split_conditions":[1E0,2.8355906E-2,0E0,0E0,-7.951106E-1,-3.444174E-1,7.646797E-1,-8.784805E-3,-1.851383E-2,4.2192405E-3,-3.608056E-3,6.0359365E-3,2.130801E-2,7.0445114E-3,-3.6816685E-3],"split_indices":[127,108,43,136,58,73,58,0,0,0,0,0,0,0,0],"split_type":[0,0,0,0,0,0,0,0,0,0,0,0,0,0,0],"sum_hessian":[7.4878015E2,3.808442E2,3.6793594E2,2.2271074E2,1.5813345E2,9.6973816E1,2.7096213E2,1.1917173E2,1.0353902E2,4.938072E1,1.0875273E2,3.1948408E1,6.5025406E1,2.1180809E2,5.9154026E1],"tree_param":{"num_deleted":"0","num_feature":"141","num_nodes":"15","size_leaf_vector":"1"}},{"base_weights":[2.1028543E-2,-2.694194E-1,3.226932E-1,1.3914113E-1,-4.1870502E-1,5.120722E-1,1.0526711E-1,-0E0,1.0635081E-2,-1.4487604E-2,-4.4267285E-3,3.2810285E-3,1.6526777E-2,1.3081787E-2,-0E0],"categories":[],"categories_nodes":[],"categories_segments":[],"categories_sizes":[],"default_left":[0,0,0,0,0,0,0,0,0,0,0,0,0,0,0],"id":63,"left_children":[1,3,5,7,9,11,13,-1,-1,-1,-1,-1,-1,-1,-1],"loss_changes":[6.954251E1,2.590276E1,1.5095612E1,4.909422E0,5.891487E0,3.9601364E0,7.7205734E0,0E0,0E0,0E0,0E0,0E0,0E0,0E0,0E0],"parents":[2147483647,0,0,1,1,2,2,3,3,4,4,5,5,6,6],"right_children":[2,4,6,8,10,12,14,-1,-1,-1,-1,-1,-1,-1,-1],"split_conditions":[1E0,-6.8236524E-1,7.88628E-1,-7.65998E-1,1.0547777E0,-5.035276E-1,-6.3446355E-1,-0E0,1.0635081E-2,-1.4487604E-2,-4.4267285E-3,3.2810285E-3,1.6526777E-2,1.3081787E-2,-0E0],"split_indices":[127,58,6,61,7,56,3,0,0,0,0,0,0,0,0],"split_type":[0,0,0,0,0,0,0,0,0,0,0,0,0,0,0],"sum_hessian":[7.447327E2,3.747244E2,3.7000833E2,9.5116196E1,2.7960822E2,1.8727922E2,1.8272913E2,6.0512264E1,3.4603928E1,1.9670795E2,8.290026E1,3.570099E1,1.5157823E2,3.2006847E1,1.5072227E2],"tree_param":{"num_deleted":"0","num_feature":"141","num_nodes":"15","size_leaf_vector":"1"}},{"base_weights":[-0E0,-3.0800715E-1,3.0835128E-1,-7.665981E-2,-5.2271664E-1,5.6555736E-1,1.0343409E-1,-0E0,-1.3458048E-2,-8.044629E-3,-2.0670075E-2,1.9104563E-3,1.8238144E-2,-4.3457295E-3,8.133068E-3],"categories":[],"categories_nodes":[],"categories_segments":[],"categories_sizes":[],"default_left":[0,0,0,0,0,0,0,0,0,0,0,0,0,0,0],"id":64,"left_children":[1,3,5,7,9,11,13,-1,-1,-1,-1,-1,-1,-1,-1],"loss_changes":[7.4821594E1,1.8462032E1,1.9573761E1,8.861802E0,8.14135E0,4.505871E0,1.2812793E1,0E0,0E0,0E0,0E0,0E0,0E0,0E0,0E0],"parents":[2147483647,0,0,1,1,2,2,3,3,4,4,5,5,6,6],"right_children":[2,4,6,8,10,12,14,-1,-1,-1,-1,-1,-1,-1,-1],"split_conditions":[1E0,-1.2975745E-1,2.7443996E-1,3.237407E-1,-7.0304886E-2,-5.5363244E-1,-8.9238435E-2,-0E0,-1.3458048E-2,-8.044629E-3,-2.0670075E-2,1.9104563E-3,1.8238144E-2,-4.3457295E-3,8.133068E-3],"split_indices":[127,5,40,34,63,69,69,0,0,0,0,0,0,0,0],"split_type":[0,0,0,0,0,0,0,0,0,0,0,0,0,0,0],"sum_hessian":[7.407504E2,3.7177878E2,3.6897162E2,1.8848024E2,1.8329854E2,1.5373807E2,2.1523357E2,1.5868686E2,2.9793385E1,9.568548E1,8.761306E1,2.6402622E1,1.2733544E2,8.313809E1,1.3209547E2],"tree_param":{"num_deleted":"0","num_feature":"141","num_nodes":"15","size_leaf_vector":"1"}},{"base_weights":[1.6489455E-2,-2.885616E-1,3.234377E-1,1.2880836E-1,-4.178345E-1,5.6795096E-1,1.2190513E-1,-5.0233034E-3,8.542478E-3,-8.452288E-3,-2.1796064E-2,1.2198625E-2,2.3727356E-2,1.0823818E-2,-0E0],"categories":[],"categories_nodes":[],"categories_segments":[],"categories_sizes":[],"default_left":[0,0,0,0,0,0,0,0,0,0,0,0,0,0,0],"id":65,"left_children":[1,3,5,7,9,11,13,-1,-1,-1,-1,-1,-1,-1,-1],"loss_changes":[7.427696E1,2.2779186E1,1.8584885E1,7.166855E0,1.1912224E1,4.833725E0,7.625931E0,0E0,0E0,0E0,0E0,0E0,0E0,0E0,0E0],"parents":[2147483647,0,0,1,1,2,2,3,3,4,4,5,5,6,6],"right_children":[2,4,6,8,10,12,14,-1,-1,-1,-1,-1,-1,-1,-1],"split_conditions":[1E0,-1.0143067E0,2.7443996E-1,2.2351833E-1,2.0833002E-1,1.18485065E-2,-5.8935136E-1,-5.0233034E-3,8.542478E-3,-8.452288E-3,-2.1796064E-2,1.2198625E-2,2.3727356E-2,1.0823818E-2,-0E0],"split_indices":[127,40,40,108,40,137,23,0,0,0,0,0,0,0,0],"split_type":[0,0,0,0,0,0,0,0,0,0,0,0,0,0,0],"sum_hessian":[7.458858E2,3.6945297E2,3.7643286E2,8.201987E1,2.874331E2,1.5979205E2,2.1664081E2,2.3295631E1,5.872424E1,2.258364E2,6.1596703E1,1.19837326E2,3.9954723E1,6.0450817E1,1.5618999E2],"tree_param":{"num_deleted":"0","num_feature":"141","num_nodes":"15","size_leaf_vector":"1"}},{"base_weights":[-0E0,-1.1741997E-1,1.2103975E-1,5.493506E-3,-3.7036175E-1,3.348289E-1,-2.5813628E-2,9.971293E-3,-1.4440628E-3,-1.3673955E-2,1.3048549E-3,4.48377E-3,1.6862342E-2,2.4641766E-3,-6.3217157E-3],"categories":[],"categories_nodes":[],"categories_segments":[],"categories_sizes":[],"default_left":[0,0,0,0,0,0,0,0,0,0,0,0,0,0,0],"id":66,"left_children":[1,3,5,7,9,11,13,-1,-1,-1,-1,-1,-1,-1,-1],"loss_changes":[1.2167128E1,1.4621204E1,1.3994769E1,8.259798E0,8.444588E0,7.0989E0,6.907068E0,0E0,0E0,0E0,0E0,0E0,0E0,0E0,0E0],"parents":[2147483647,0,0,1,1,2,2,3,3,4,4,5,5,6,6],"right_children":[2,4,6,8,10,12,14,-1,-1,-1,-1,-1,-1,-1,-1],"split_conditions":[1E0,-2.4042496E-1,3.8812143E-1,-6.630587E-1,5.2228874E-1,1.3928145E-1,5.416122E-1,9.971293E-3,-1.4440628E-3,-1.3673955E-2,1.3048549E-3,4.48377E-3,1.6862342E-2,2.4641766E-3,-6.3217157E-3],"split_indices":[128,42,42,119,69,62,27,0,0,0,0,0,0,0,0],"split_type":[0,0,0,0,0,0,0,0,0,0,0,0,0,0,0],"sum_hessian":[7.489381E2,3.8244803E2,3.6649008E2,2.5257796E2,1.2987007E2,1.5498563E2,2.1150446E2,3.938119E1,2.1319676E2,1.07707405E2,2.2162663E1,1.0287567E2,5.2109955E1,1.2663054E2,8.4873924E1],"tree_param":{"num_deleted":"0","num_feature":"141","num_nodes":"15","size_leaf_vector":"1"}},{"base_weights":[8.324479E-3,-2.676341E-1,2.950128E-1,-7.310872E-2,-5.589013E-1,6.004114E-1,1.024843E-1,5.2077603E-3,-4.8259743E-3,-0E0,-1.903853E-2,1.9349914E-2,4.374125E-3,1.3438968E-2,4.8705004E-4],"categories":[],"categories_nodes":[],"categories_segments":[],"categories_sizes":[],"default_left":[0,0,0,0,0,0,0,0,0,0,0,0,0,0,0],"id":67,"left_children":[1,3,5,7,9,11,13,-1,-1,-1,-1,-1,-1,-1,-1],"loss_changes":[6.3019512E1,2.1590416E1,2.2113022E1,7.6337805E0,8.624847E0,3.361683E0,8.417731E0,0E0,0E0,0E0,0E0,0E0,0E0,0E0,0E0],"parents":[2147483647,0,0,1,1,2,2,3,3,4,4,5,5,6,6],"right_children":[2,4,6,8,10,12,14,-1,-1,-1,-1,-1,-1,-1,-1],"split_conditions":[1E0,-2.1044585E-1,1.7990014E-1,-7.4003714E-1,-6.6668665E-1,2.275935E-1,-8.280699E-1,5.2077603E-3,-4.8259743E-3,-0E0,-1.903853E-2,1.9349914E-2,4.374125E-3,1.3438968E-2,4.8705004E-4],"split_indices":[127,40,40,100,22,102,120,0,0,0,0,0,0,0,0],"split_type":[0,0,0,0,0,0,0,0,0,0,0,0,0,0,0],"sum_hessian":[7.4547516E2,3.7479755E2,3.7067764E2,2.3414494E2,1.406526E2,1.3373247E2,2.3694519E2,5.464996E1,1.7949498E2,2.601399E1,1.1463862E2,1.05956024E2,2.7776434E1,3.4160706E1,2.0278448E2],"tree_param":{"num_deleted":"0","num_feature":"141","num_nodes":"15","size_leaf_vector":"1"}},{"base_weights":[2.6385797E-2,1.0282052E-1,-2.0903027E-1,-1.9247004E-1,3.9527366E-1,-3.6308274E-1,-0E0,6.59396E-3,-1.0103656E-2,1.504625E-2,2.8502997E-3,-1.5703028E-2,-0E0,8.773049E-3,-5.453079E-3],"categories":[],"categories_nodes":[],"categories_segments":[],"categories_sizes":[],"default_left":[0,0,0,0,0,0,0,0,0,0,0,0,0,0,0],"id":68,"left_children":[1,3,5,7,9,11,13,-1,-1,-1,-1,-1,-1,-1,-1],"loss_changes":[1.4938122E1,5.3690075E1,6.7428627E0,2.2737644E1,1.0974625E1,7.717127E0,7.8428574E0,0E0,0E0,0E0,0E0,0E0,0E0,0E0,0E0],"parents":[2147483647,0,0,1,1,2,2,3,3,4,4,5,5,6,6],"right_children":[2,4,6,8,10,12,14,-1,-1,-1,-1,-1,-1,-1,-1],"split_conditions":[9.302456E-2,1E0,1E0,-6.904502E-1,5.8670425E-1,1.1266092E0,3.7747774E-2,6.59396E-3,-1.0103656E-2,1.504625E-2,2.8502997E-3,-1.5703028E-2,-0E0,8.773049E-3,-5.453079E-3],"split_indices":[33,127,127,58,58,19,101,0,0,0,0,0,0,0,0],"split_type":[0,0,0,0,0,0,0,0,0,0,0,0,0,0,0],"sum_hessian":[7.446315E2,5.73436E2,1.711955E2,2.8112576E2,2.923102E2,9.801686E1,7.317864E1,7.236272E1,2.0876303E2,1.9200282E2,1.0030738E2,6.1590324E1,3.6426537E1,2.7996052E1,4.5182587E1],"tree_param":{"num_deleted":"0","num_feature":"141","num_nodes":"15","size_leaf_vector":"1"}},{"base_weights":[-0E0,-2.591912E-1,2.612602E-1,-4.4225626E-2,-4.5994297E-1,6.148547E-1,1.257907E-1,5.640371E-3,-4.5639183E-3,-7.2357366E-3,-1.811703E-2,2.7171476E-3,2.0633455E-2,8.831244E-3,5.9054E-4],"categories":[],"categories_nodes":[],"categories_segments":[],"categories_sizes":[],"default_left":[0,0,0,0,0,0,0,0,0,0,0,0,0,0,0],"id":69,"left_children":[1,3,5,7,9,11,13,-1,-1,-1,-1,-1,-1,-1,-1],"loss_changes":[5.374051E1,1.619369E1,1.8026073E1,7.3568764E0,6.016285E0,3.9479256E0,5.6192203E0,0E0,0E0,0E0,0E0,0E0,0E0,0E0,0E0],"parents":[2147483647,0,0,1,1,2,2,3,3,4,4,5,5,6,6],"right_children":[2,4,6,8,10,12,14,-1,-1,-1,-1,-1,-1,-1,-1],"split_conditions":[1E0,-1.2975745E-1,0E0,-7.951106E-1,-7.0304886E-2,-6.597049E-1,-1.8051974E-1,5.640371E-3,-4.5639183E-3,-7.2357366E-3,-1.811703E-2,2.7171476E-3,2.0633455E-2,8.831244E-3,5.9054E-4],"split_indices":[127,5,43,58,63,86,137,0,0,0,0,0,0,0,0],"split_type":[0,0,0,0,0,0,0,0,0,0,0,0,0,0,0],"sum_hessian":[7.39591E2,3.738133E2,3.6577774E2,1.9022952E2,1.8358377E2,9.088872E1,2.74889E2,5.2416706E1,1.3781282E2,9.758522E1,8.599855E1,2.2034666E1,6.885405E1,8.639522E1,1.8849379E2],"tree_param":{"num_deleted":"0","num_feature":"141","num_nodes":"15","size_leaf_vector":"1"}},{"base_weights":[5.1576155E-3,-2.6209262E-1,2.7501148E-1,-5.4099664E-2,-4.599067E-1,5.709126E-1,1.3505189E-1,7.430121E-5,-1.1025861E-2,-9.698035E-3,-2.0119652E-2,3.2522029E-3,1.8826699E-2,7.1097543E-3,-8.5328263E-4],"categories":[],"categories_nodes":[],"categories_segments":[],"categories_sizes":[],"default_left":[0,0,0,0,0,0,0,0,0,0,0,0,0,0,0],"id":70,"left_children":[1,3,5,7,9,11,13,-1,-1,-1,-1,-1,-1,-1,-1],"loss_changes":[5.6740726E1,1.499551E1,1.564283E1,6.7210503E0,4.6021233E0,3.2342873E0,6.5882483E0,0E0,0E0,0E0,0E0,0E0,0E0,0E0,0E0],"parents":[2147483647,0,0,1,1,2,2,3,3,4,4,5,5,6,6],"right_children":[2,4,6,8,10,12,14,-1,-1,-1,-1,-1,-1,-1,-1],"split_conditions":[1E0,-1.2975745E-1,-8.794365E-3,3.0031163E-1,1.356073E-1,-3.9634156E-1,4.396524E-1,7.430121E-5,-1.1025861E-2,-9.698035E-3,-2.0119652E-2,3.2522029E-3,1.8826699E-2,7.1097543E-3,-8.5328263E-4],"split_indices":[127,5,5,34,5,16,137,0,0,0,0,0,0,0,0],"split_type":[0,0,0,0,0,0,0,0,0,0,0,0,0,0,0],"sum_hessian":[7.340007E2,3.6339572E2,3.7060492E2,1.8716847E2,1.7622725E2,1.0780526E2,2.6279965E2,1.5629675E2,3.087173E1,1.34166E2,4.2061256E1,2.4896961E1,8.2908295E1,1.6409097E2,9.870868E1],"tree_param":{"num_deleted":"0","num_feature":"141","num_nodes":"15","size_leaf_vector":"1"}},{"base_weights":[-9.01027E-3,5.710946E-2,-1.5584388E-1,-1.8450616E-1,3.0531538E-1,-4.129657E-1,9.739187E-2,4.937978E-3,-8.553E-3,1.0732117E-2,-7.267268E-3,-3.7275467E-3,-1.9566432E-2,-4.3107923E-3,6.8798466E-3],"categories":[],"categories_nodes":[],"categories_segments":[],"categories_sizes":[],"default_left":[0,0,0,0,0,0,0,0,0,0,0,0,0,0,0],"id":71,"left_children":[1,3,5,7,9,11,13,-1,-1,-1,-1,-1,-1,-1,-1],"loss_changes":[8.689132E0,3.3037827E1,1.9077438E1,1.2665554E1,1.2914534E1,9.459394E0,6.5062313E0,0E0,0E0,0E0,0E0,0E0,0E0,0E0,0E0],"parents":[2147483647,0,0,1,1,2,2,3,3,4,4,5,5,6,6],"right_children":[2,4,6,8,10,12,14,-1,-1,-1,-1,-1,-1,-1,-1],"split_conditions":[4.872271E-1,1E0,1E0,-7.363486E-1,1.5545194E0,-1.20141365E-1,1.797235E-1,4.937978E-3,-8.553E-3,1.0732117E-2,-7.267268E-3,-3.7275467E-3,-1.9566432E-2,-4.3107923E-3,6.8798466E-3],"split_indices":[3,127,127,58,40,5,118,0,0,0,0,0,0,0,0],"split_type":[0,0,0,0,0,0,0,0,0,0,0,0,0,0,0],"sum_hessian":[7.3357153E2,4.9397287E2,2.3959865E2,2.4492421E2,2.4904866E2,1.232022E2,1.1639645E2,5.322359E1,1.9170062E2,2.2672476E2,2.2323902E1,6.934242E1,5.385978E1,3.52042E1,8.1192245E1],"tree_param":{"num_deleted":"0","num_feature":"141","num_nodes":"15","size_leaf_vector":"1"}},{"base_weights":[8.426615E-3,7.8328975E-2,-1.2996264E-1,1.2486994E-1,-1.1167821E-1,-1.1155268E-2,-6.1017934E-2,1.465555E-3,1.228404E-2,-8.169251E-3,1.2273354E-3,-0E0,-1.0092527E-2],"categories":[],"categories_nodes":[],"categories_segments":[],"categories_sizes":[],"default_left":[0,0,0,0,0,0,0,0,0,0,0,0,0],"id":72,"left_children":[1,3,5,7,9,-1,11,-1,-1,-1,-1,-1,-1],"loss_changes":[8.171843E0,5.493681E0,4.687235E0,1.0039037E1,4.475495E0,0E0,6.253902E0,0E0,0E0,0E0,0E0,0E0,0E0],"parents":[2147483647,0,0,1,1,2,2,3,3,4,4,6,6],"right_children":[2,4,6,8,10,-1,12,-1,-1,-1,-1,-1,-1],"split_conditions":[4.872271E-1,6.9859916E-1,-6.6757095E-1,3.5839996E-1,4.1269842E-1,-1.1155268E-2,7.408566E-1,1.465555E-3,1.228404E-2,-8.169251E-3,1.2273354E-3,-0E0,-1.0092527E-2],"split_indices":[3,30,14,73,92,0,119,0,0,0,0,0,0],"split_type":[0,0,0,0,0,0,0,0,0,0,0,0,0],"sum_hessian":[7.301193E2,5.0045172E2,2.2966763E2,4.1560956E2,8.484215E1,3.4573814E1,1.9509381E2,3.4736334E2,6.824624E1,4.6826157E1,3.801599E1,1.5765761E2,3.7436207E1],"tree_param":{"num_deleted":"0","num_feature":"141","num_nodes":"13","size_leaf_vector":"1"}},{"base_weights":[-6.7481548E-3,6.2763266E-2,-1.9026299E-1,1.7697632E-1,-4.9270656E-2,-5.8927678E-2,-1.6042747E-2,-0E0,9.0733245E-3,-3.7401575E-3,9.029196E-3,-1.2138682E-2,-0E0],"categories":[],"categories_nodes":[],"categories_segments":[],"categories_sizes":[],"default_left":[0,0,0,0,0,0,0,0,0,0,0,0,0],"id":73,"left_children":[1,3,5,7,9,11,-1,-1,-1,-1,-1,-1,-1],"loss_changes":[1.1152415E1,8.019814E0,1.0986139E1,6.961068E0,9.599721E0,6.683008E0,0E0,0E0,0E0,0E0,0E0,0E0,0E0],"parents":[2147483647,0,0,1,1,2,2,3,3,4,4,5,5],"right_children":[2,4,6,8,10,12,-1,-1,-1,-1,-1,-1,-1],"split_conditions":[5.139405E-1,-7.711653E-2,1.1250019E-1,1E0,1E0,5.587419E-1,-1.6042747E-2,-0E0,9.0733245E-3,-3.7401575E-3,9.029196E-3,-1.2138682E-2,-0E0],"split_indices":[1,33,33,130,117,2,0,0,0,0,0,0,0],"split_type":[0,0,0,0,0,0,0,0,0,0,0,0,0],"sum_hessian":[7.2321576E2,5.151315E2,2.0808432E2,2.6671912E2,2.4841235E2,1.6362762E2,4.4456688E1,1.2735358E2,1.3936555E2,2.1183049E2,3.6581856E1,2.3581059E1,1.4004657E2],"tree_param":{"num_deleted":"0","num_feature":"141","num_nodes":"13","size_leaf_vector":"1"}},{"base_weights":[-2.751682E-3,1.1454545E-1,-1.2041493E-1,-9.059624E-3,2.7270398E-1,-6.559537E-2,-1.3183941E-2,4.7409986E-3,-6.760896E-3,1.139165E-2,-1.9089385E-3,1.8663063E-3,-4.383121E-3],"categories":[],"categories_nodes":[],"categories_segments":[],"categories_sizes":[],"default_left":[0,0,0,0,0,0,0,0,0,0,0,0,0],"id":74,"left_children":[1,3,5,7,9,11,-1,-1,-1,-1,-1,-1,-1],"loss_changes":[1.1623451E1,8.787709E0,7.9043345E0,1.0556223E1,9.527174E0,5.1829224E0,0E0,0E0,0E0,0E0,0E0,0E0,0E0],"parents":[2147483647,0,0,1,1,2,2,3,3,4,4,5,5],"right_children":[2,4,6,8,10,12,-1,-1,-1,-1,-1,-1,-1],"split_conditions":[-6.777185E-2,2.0729685E-2,8.9739877E-1,2.4116082E-2,1.3156233E0,-2.49201E-1,-1.3183941E-2,4.7409986E-3,-6.760896E-3,1.139165E-2,-1.9089385E-3,1.8663063E-3,-4.383121E-3],"split_indices":[33,15,98,102,69,137,0,0,0,0,0,0,0],"split_type":[0,0,0,0,0,0,0,0,0,0,0,0,0],"sum_hessian":[7.333846E2,3.5486734E2,3.785172E2,1.9120583E2,1.6366151E2,3.3835544E2,4.016176E1,1.015591E2,8.964673E1,1.2466232E2,3.8999195E1,1.2338124E2,2.1497421E2],"tree_param":{"num_deleted":"0","num_feature":"141","num_nodes":"13","size_leaf_vector":"1"}},{"base_weights":[1.8826919E-2,9.5070906E-2,-1.142112E-1,-2.52144E-3,2.1694873E-1,-3.1920555E-1,4.0281378E-2,-5.591613E-3,1.1094129E-2,-0E0,1.2548857E-2,-1.7716393E-2,-2.8334437E-3,-1.2220395E-2,7.32247E-3],"categories":[],"categories_nodes":[],"categories_segments":[],"categories_sizes":[],"default_left":[0,0,0,0,0,0,0,0,0,0,0,0,0,0,0],"id":75,"left_children":[1,3,5,7,9,11,13,-1,-1,-1,-1,-1,-1,-1,-1],"loss_changes":[8.558083E0,7.107434E0,1.0406956E1,2.295114E1,1.2355036E1,7.8594475E0,1.8221182E1,0E0,0E0,0E0,0E0,0E0,0E0,0E0,0E0],"parents":[2147483647,0,0,1,1,2,2,3,3,4,4,5,5,6,6],"right_children":[2,4,6,8,10,12,14,-1,-1,-1,-1,-1,-1,-1,-1],"split_conditions":[2.275935E-1,-9.2476316E-2,-4.965285E-2,1E0,1E0,1E0,1E0,-5.591613E-3,1.1094129E-2,-0E0,1.2548857E-2,-1.7716393E-2,-2.8334437E-3,-1.2220395E-2,7.32247E-3],"split_indices":[102,94,69,127,127,127,127,0,0,0,0,0,0,0,0],"split_type":[0,0,0,0,0,0,0,0,0,0,0,0,0,0,0],"sum_hessian":[7.2993524E2,4.7881885E2,2.5111638E2,2.5503252E2,2.2378632E2,1.1398256E2,1.371338E2,1.771719E2,7.786062E1,1.1624772E2,1.07538605E2,3.8782528E1,7.5200035E1,3.7672966E1,9.9460846E1],"tree_param":{"num_deleted":"0","num_feature":"141","num_nodes":"15","size_leaf_vector":"1"}},{"base_weights":[2.9694382E-4,-2.2130941E-1,2.3778048E-1,4.0780596E-2,-3.6441943E-1,3.358054E-1,-1.2856942E-1,5.4374244E-3,-3.6804583E-3,-7.2203544E-3,-1.7815955E-2,1.50672635E-2,6.5581272E-3,-1.2198325E-2,2.6638194E-3],"categories":[],"categories_nodes":[],"categories_segments":[],"categories_sizes":[],"default_left":[0,0,0,0,0,0,0,0,0,0,0,0,0,0,0],"id":76,"left_children":[1,3,5,7,9,11,13,-1,-1,-1,-1,-1,-1,-1,-1],"loss_changes":[4.1288433E1,1.606608E1,1.5056852E1,5.2129636E0,6.923252E0,5.653343E0,8.331148E0,0E0,0E0,0E0,0E0,0E0,0E0,0E0,0E0],"parents":[2147483647,0,0,1,1,2,2,3,3,4,4,5,5,6,6],"right_children":[2,4,6,8,10,12,14,-1,-1,-1,-1,-1,-1,-1,-1],"split_conditions":[1E0,-7.0930666E-1,1.1295736E0,-4.9173984E-1,2.3944387E-1,-2.502353E-2,7.5505006E-1,5.4374244E-3,-3.6804583E-3,-7.2203544E-3,-1.7815955E-2,1.50672635E-2,6.5581272E-3,-1.2198325E-2,2.6638194E-3],"split_indices":[127,40,40,102,40,40,4,0,0,0,0,0,0,0,0],"split_type":[0,0,0,0,0,0,0,0,0,0,0,0,0,0,0],"sum_hessian":[7.235182E2,3.680548E2,3.554634E2,1.2391344E2,2.4414137E2,2.870296E2,6.843379E1,7.462925E1,4.9284184E1,1.8568047E2,5.8460907E1,8.4929756E1,2.0209985E2,3.292514E1,3.5508656E1],"tree_param":{"num_deleted":"0","num_feature":"141","num_nodes":"15","size_leaf_vector":"1"}},{"base_weights":[-0E0,-2.3288704E-1,2.3012333E-1,-1.306301E-1,-1.9363921E-2,3.01915E-1,-1.8159041E-1,3.4489995E-3,-6.6786218E-3,1.6253525E-2,4.393134E-3,-0E0,-1.2593923E-2],"categories":[],"categories_nodes":[],"categories_segments":[],"categories_sizes":[],"default_left":[0,0,0,0,0,0,0,0,0,0,0,0,0],"id":77,"left_children":[1,3,5,7,-1,9,11,-1,-1,-1,-1,-1,-1],"loss_changes":[4.208246E1,1.7596642E1,1.2820896E1,9.9837475E0,0E0,1.2550261E1,5.1164913E0,0E0,0E0,0E0,0E0,0E0,0E0],"parents":[2147483647,0,0,1,1,2,2,3,3,5,5,6,6],"right_children":[2,4,6,8,-1,10,12,-1,-1,-1,-1,-1,-1],"split_conditions":[1E0,2.3944387E-1,2.9329446E-1,-9.8873264E-1,-1.9363921E-2,1.6137981E-1,4.6707147E-1,3.4489995E-3,-6.6786218E-3,1.6253525E-2,4.393134E-3,-0E0,-1.2593923E-2],"split_indices":[127,40,33,40,0,40,5,0,0,0,0,0,0],"split_type":[0,0,0,0,0,0,0,0,0,0,0,0,0],"sum_hessian":[7.254353E2,3.6671997E2,3.587153E2,3.0860458E2,5.8115402E1,3.1253604E2,4.617928E1,8.178206E1,2.2682253E2,9.902091E1,2.1351512E2,2.3847311E1,2.233197E1],"tree_param":{"num_deleted":"0","num_feature":"141","num_nodes":"13","size_leaf_vector":"1"}},{"base_weights":[2.2973873E-2,-2.0787038E-1,2.6786634E-1,4.526293E-2,-3.8574E-1,6.2254757E-1,1.3496438E-1,6.062584E-3,-5.1241945E-3,-1.0343264E-3,-1.4253466E-2,2.1687701E-2,3.7176928E-3,8.147773E-3,-0E0],"categories":[],"categories_nodes":[],"categories_segments":[],"categories_sizes":[],"default_left":[0,0,0,0,0,0,0,0,0,0,0,0,0,0,0],"id":78,"left_children":[1,3,5,7,9,11,13,-1,-1,-1,-1,-1,-1,-1,-1],"loss_changes":[4.4164085E1,1.9064217E1,1.7274706E1,7.9830446E0,8.274719E0,4.767704E0,6.885324E0,0E0,0E0,0E0,0E0,0E0,0E0,0E0,0E0],"parents":[2147483647,0,0,1,1,2,2,3,3,4,4,5,5,6,6],"right_children":[2,4,6,8,10,12,14,-1,-1,-1,-1,-1,-1,-1,-1],"split_conditions":[1E0,-6.042441E-1,-2.502353E-2,6.08197E-1,-4.277675E-1,2.7177215E-1,-7.711653E-2,6.062584E-3,-5.1241945E-3,-1.0343264E-3,-1.4253466E-2,2.1687701E-2,3.7176928E-3,8.147773E-3,-0E0],"split_indices":[127,40,40,69,59,18,33,0,0,0,0,0,0,0,0],"split_type":[0,0,0,0,0,0,0,0,0,0,0,0,0,0,0],"sum_hessian":[7.222314E2,3.659801E2,3.5625128E2,1.4564049E2,2.2033961E2,8.654651E1,2.6970477E2,9.1069954E1,5.4570538E1,6.2377068E1,1.5796254E2,6.084881E1,2.5697695E1,1.2960643E2,1.4009834E2],"tree_param":{"num_deleted":"0","num_feature":"141","num_nodes":"15","size_leaf_vector":"1"}},{"base_weights":[-0E0,5.7502493E-2,-1.3319443E-1,-1.3781951E-1,1.337328E-1,-3.5674784E-2,-1.2633541E-2,-0E0,-9.430381E-3,2.0146654E-3,1.2373103E-2,-3.708665E-3,7.41174E-3],"categories":[],"categories_nodes":[],"categories_segments":[],"categories_sizes":[],"default_left":[0,0,0,0,0,0,0,0,0,0,0,0,0],"id":79,"left_children":[1,3,5,7,9,11,-1,-1,-1,-1,-1,-1,-1],"loss_changes":[6.9340696E0,8.774666E0,7.663177E0,5.515941E0,7.624193E0,7.196151E0,0E0,0E0,0E0,0E0,0E0,0E0,0E0],"parents":[2147483647,0,0,1,1,2,2,3,3,4,4,5,5],"right_children":[2,4,6,8,10,12,-1,-1,-1,-1,-1,-1,-1],