{"learner":{"attributes":{"best_iteration":"8","best_score":"0.8004869999195041","scikit_learn":"{\"_estimator_type\": \"classifier\"}"},"feature_names":["open","high","low","close","volume","vader_compound","vader_pos","vader_neg","vader_neu","sentiment_label","finbert_score","finbert_label","fng_value","fng_classification","social_score","social_votes","quote_asset_volume","num_trades","taker_buy_base_volume","taker_buy_quote_volume","EMA_9","EMA_21","MACD","MACD_signal","BB_upper","BB_lower","BB_pct_b","RSI_14","Stoch_K","Stoch_D","ROC_10","ATR_14","high_low_spread","OBV","taker_buy_ratio","hour","day_of_week","close_lag_1","close_lag_3","close_lag_7","return_1d","price_above_ma1","return_2d","price_above_ma2","return_3d","price_above_ma3","return_5d","price_above_ma5","return_7d","price_above_ma7","return_14d","price_above_ma14","return_21d","price_above_ma21","return_30d","price_above_ma30","volatility_5d","vol_ratio_5d","close_zscore_5d","volatility_7d","vol_ratio_7d","close_zscore_7d","volatility_14d","vol_ratio_14d","close_zscore_14d","volatility_21d","vol_ratio_21d","close_zscore_21d","volatility_30d","vol_ratio_30d","close_zscore_30d","ema_cross","macd_cross","macd_hist","macd_hist_change","price_vs_ema9","price_vs_ema21","ema_gap","bb_width","bb_squeeze","bb_breakout_up","bb_breakout_down","rsi_overbought","rsi_oversold","rsi_bullish","rsi_change_3d","rsi_change_7d","stoch_cross","stoch_overbought","stoch_oversold","atr_ratio","high_volatility","atr_change","volume_spike","obv_change","obv_trend","buy_pressure","buy_pressure_trend","sentiment_ma3","sentiment_ma7","sentiment_ma14","sentiment_trend","sentiment_momentum","sentiment_pos","sentiment_neg","sentiment_strong_pos","sentiment_strong_neg","vader_pos_change","vader_neg_change","finbert_ma3","finbert_ma7","finbert_trend","fng_extreme_fear","fng_fear","fng_greed","fng_extreme_greed","fng_change_3d","fng_change_7d","fng_ma7","social_spike","social_trend","social_votes_spike","is_weekend","is_monday","is_friday","month","quarter","target_lag_1","target_lag_2","target_lag_3","target_lag_5","target_lag_7","target_lag_14","higher_high","lower_low","doji","bullish_candle","candle_body","bull_confluence","bear_confluence","sentiment_tech_agree"],"feature_types":["float","float","float","float","float","float","float","float","float","float","float","float","float","float","float","float","float","float","float","float","float","float","float","float","float","float","float","float","float","float","float","float","float","float","float","float","float","float","float","float","float","float","float","float","float","float","float","float","float","float","float","float","float","float","float","float","float","float","float","float","float","float","float","float","float","float","float","float","float","float","float","float","float","float","float","float","float","float","float","float","float","float","float","float","float","float","float","float","float","float","float","float","float","float","float","float","float","float","float","float","float","float","float","float","float","float","float","float","float","float","float","float","float","float","float","float","float","float","float","float","float","float","float","float","float","float","float","float","float","float","float","float","float","float","float","float","float","float","float","float","float"],"gradient_booster":{"model":{"cats":{"enc":[],"feature_segments":[],"sorted_idx":[]},"gbtree_model_param":{"num_parallel_tree":"1","num_trees":"69"},"iteration_indptr":[0,1,2,3,4,5,6,7,8,9,10,11,12,13,14,15,16,17,18,19,20,21,22,23,24,25,26,27,28,29,30,31,32,33,34,35,36,37,38,39,40,41,42,43,44,45,46,47,48,49,50,51,52,53,54,55,56,57,58,59,60,61,62,63,64,65,66,67,68,69],"tree_info":[0,0,0,0,0,0,0,0,0,0,0,0,0,0,0,0,0,0,0,0,0,0,0,0,0,0,0,0,0,0,0,0,0,0,0,0,0,0,0,0,0,0,0,0,0,0,0,0,0,0,0,0,0,0,0,0,0,0,0,0,0,0,0,0,0,0,0,0,0],"trees":[{"base_weights":[1.2142708E-2,-3.4510124E-1,3.7511954E-1,-1.9903153E-3,-3.1950295E-2,3.7738327E-2,2.937766E-3],"categories":[],"categories_nodes":[],"categories_segments":[],"categories_sizes":[],"default_left":[0,0,0,0,0,0,0],"id":0,"left_children":[1,3,5,-1,-1,-1,-1],"loss_changes":[9.6647125E1,5.1142647E1,6.4800415E1,0E0,0E0,0E0,0E0],"parents":[2147483647,0,0,1,1,2,2],"right_children":[2,4,6,-1,-1,-1,-1],"split_conditions":[0E0,-2.9162472E-1,1.6972305E-1,-1.9903153E-3,-3.1950295E-2,3.7738327E-2,2.937766E-3],"split_indices":[128,42,42,0,0,0,0],"split_type":[0,0,0,0,0,0,0],"sum_hessian":[7.24089E2,3.6313187E2,3.6095712E2,2.279332E2,1.3519865E2,1.1750075E2,2.4345639E2],"tree_param":{"num_deleted":"0","num_feature":"141","num_nodes":"7","size_leaf_vector":"1"}},{"base_weights":[7.229526E-3,-8.085192E-1,8.1040585E-1,-1.6413845E-2,-5.233003E-2,5.2645788E-2,1.8369598E-2],"categories":[],"categories_nodes":[],"categories_segments":[],"categories_sizes":[],"default_left":[0,0,0,0,0,0,0],"id":1,"left_children":[1,3,5,-1,-1,-1,-1],"loss_changes":[4.83927E2,7.3300186E1,6.594585E1,0E0,0E0,0E0,0E0],"parents":[2147483647,0,0,1,1,2,2],"right_children":[2,4,6,-1,-1,-1,-1],"split_conditions":[0E0,-1.7033295E-1,1.11845806E-1,-1.6413845E-2,-5.233003E-2,5.2645788E-2,1.8369598E-2],"split_indices":[127,40,40,0,0,0,0],"split_type":[0,0,0,0,0,0,0],"sum_hessian":[7.2576245E2,3.592203E2,3.6654218E2,2.1255716E2,1.4666316E2,1.3658655E2,2.2995561E2],"tree_param":{"num_deleted":"0","num_feature":"141","num_nodes":"7","size_leaf_vector":"1"}},{"base_weights":[1.07595315E-2,-8.042785E-1,8.221813E-1,-1.4799285E-2,-5.3455755E-2,5.2260466E-2,1.5975468E-2],"categories":[],"categories_nodes":[],"categories_segments":[],"categories_sizes":[],"default_left":[0,0,0,0,0,0,0],"id":2,"left_children":[1,3,5,-1,-1,-1,-1],"loss_changes":[4.9054398E2,8.656555E1,7.725574E1,0E0,0E0,0E0,0E0],"parents":[2147483647,0,0,1,1,2,2],"right_children":[2,4,6,-1,-1,-1,-1],"split_conditions":[0E0,-1.8775126E-1,2.154663E-1,-1.4799285E-2,-5.3455755E-2,5.2260466E-2,1.5975468E-2],"split_indices":[127,40,40,0,0,0,0],"split_type":[0,0,0,0,0,0,0],"sum_hessian":[7.2891315E2,3.6283115E2,3.6608203E2,2.1152394E2,1.513072E2,1.5792372E2,2.081583E2],"tree_param":{"num_deleted":"0","num_feature":"141","num_nodes":"7","size_leaf_vector":"1"}},{"base_weights":[-3.52383E-2,-7.8950685E-1,7.34949E-1,-2.0331105E-2,-5.4155212E-2,4.8355892E-2,1.9476114E-2],"categories":[],"categories_nodes":[],"categories_segments":[],"categories_sizes":[],"default_left":[0,0,0,0,0,0,0],"id":3,"left_children":[1,3,5,-1,-1,-1,-1],"loss_changes":[4.3292526E2,5.8244568E1,4.178334E1,0E0,0E0,0E0,0E0],"parents":[2147483647,0,0,1,1,2,2],"right_children":[2,4,6,-1,-1,-1,-1],"split_conditions":[0E0,1E0,1E0,-2.0331105E-2,-5.4155212E-2,4.8355892E-2,1.9476114E-2],"split_indices":[127,43,136,0,0,0,0],"split_type":[0,0,0,0,0,0,0],"sum_hessian":[7.319892E2,3.7066125E2,3.6132797E2,2.614597E2,1.0920156E2,1.0906371E2,2.5226425E2],"tree_param":{"num_deleted":"0","num_feature":"141","num_nodes":"7","size_leaf_vector":"1"}},{"base_weights":[1.0736818E-2,-6.9975317E-1,7.355928E-1,-1.5523948E-2,-5.2332535E-2,4.9816616E-2,1.5305341E-2],"categories":[],"categories_nodes":[],"categories_segments":[],"categories_sizes":[],"default_left":[0,0,0,0,0,0,0],"id":4,"left_children":[1,3,5,-1,-1,-1,-1],"loss_changes":[3.8278955E2,7.0578384E1,6.6549866E1,0E0,0E0,0E0,0E0],"parents":[2147483647,0,0,1,1,2,2],"right_children":[2,4,6,-1,-1,-1,-1],"split_conditions":[0E0,-1.2224132E-2,1.11845806E-1,-1.5523948E-2,-5.2332535E-2,4.9816616E-2,1.5305341E-2],"split_indices":[127,40,40,0,0,0,0],"split_type":[0,0,0,0,0,0,0],"sum_hessian":[7.295195E2,3.6752573E2,3.6199374E2,2.5477374E2,1.12752E2,1.3570164E2,2.2629211E2],"tree_param":{"num_deleted":"0","num_feature":"141","num_nodes":"7","size_leaf_vector":"1"}},{"base_weights":[-1.7757362E-3,-3.0163944E-1,2.9051363E-1,-2.775854E-2,2.8805625E-2,-2.4734907E-2,2.5632106E-2],"categories":[],"categories_nodes":[],"categories_segments":[],"categories_sizes":[],"default_left":[0,0,0,0,0,0,0],"id":5,"left_children":[1,3,5,-1,-1,-1,-1],"loss_changes":[6.618409E1,1.6065105E2,1.2964906E2,0E0,0E0,0E0,0E0],"parents":[2147483647,0,0,1,1,2,2],"right_children":[2,4,6,-1,-1,-1,-1],"split_conditions":[0E0,0E0,0E0,-2.775854E-2,2.8805625E-2,-2.4734907E-2,2.5632106E-2],"split_indices":[128,127,127,0,0,0,0],"split_type":[0,0,0,0,0,0,0],"sum_hessian":[7.305847E2,3.6284708E2,3.677376E2,2.6191E2,1.0093708E2,1.0269939E2,2.650382E2],"tree_param":{"num_deleted":"0","num_feature":"141","num_nodes":"7","size_leaf_vector":"1"}},{"base_weights":[-1.5035564E-2,-6.9488925E-1,6.532546E-1,-9.554191E-3,-4.1852955E-2,4.6512745E-2,1.1997061E-2],"categories":[],"categories_nodes":[],"categories_segments":[],"categories_sizes":[],"default_left":[0,0,0,0,0,0,0],"id":6,"left_children":[1,3,5,-1,-1,-1,-1],"loss_changes":[3.3375534E2,6.048674E1,6.721207E1,0E0,0E0,0E0,0E0],"parents":[2147483647,0,0,1,1,2,2],"right_children":[2,4,6,-1,-1,-1,-1],"split_conditions":[0E0,-4.0437052E-1,1.11845806E-1,-9.554191E-3,-4.1852955E-2,4.6512745E-2,1.1997061E-2],"split_indices":[127,40,40,0,0,0,0],"split_type":[0,0,0,0,0,0,0],"sum_hessian":[7.203562E2,3.580273E2,3.623289E2,1.6736281E2,1.906645E2,1.3712506E2,2.2520384E2],"tree_param":{"num_deleted":"0","num_feature":"141","num_nodes":"7","size_leaf_vector":"1"}},{"base_weights":[8.108431E-3,-6.3808805E-1,6.461961E-1,-1.0743776E-2,-4.401846E-2,4.3772917E-2,1.3795812E-2],"categories":[],"categories_nodes":[],"categories_segments":[],"categories_sizes":[],"default_left":[0,0,0,0,0,0,0],"id":7,"left_children":[1,3,5,-1,-1,-1,-1],"loss_changes":[3.079236E2,6.424631E1,5.087613E1,0E0,0E0,0E0,0E0],"parents":[2147483647,0,0,1,1,2,2],"right_children":[2,4,6,-1,-1,-1,-1],"split_conditions":[0E0,-1.8775126E-1,9.731318E-2,-1.0743776E-2,-4.401846E-2,4.3772917E-2,1.3795812E-2],"split_indices":[127,40,40,0,0,0,0],"split_type":[0,0,0,0,0,0,0],"sum_hessian":[7.3221155E2,3.6274472E2,3.6946686E2,2.1283076E2,1.4991394E2,1.356034E2,2.3386345E2],"tree_param":{"num_deleted":"0","num_feature":"141","num_nodes":"7","size_leaf_vector":"1"}},{"base_weights":[1.2581179E-2,-6.181906E-1,6.181259E-1,-1.4057705E-2,-4.6963707E-2,4.18201E-2,1.5351473E-2],"categories":[],"categories_nodes":[],"categories_segments":[],"categories_sizes":[],"default_left":[0,0,0,0,0,0,0],"id":8,"left_children":[1,3,5,-1,-1,-1,-1],"loss_changes":[2.801478E2,5.253978E1,3.6804123E1,0E0,0E0,0E0,0E0],"parents":[2147483647,0,0,1,1,2,2],"right_children":[2,4,6,-1,-1,-1,-1],"split_conditions":[0E0,1E0,0E0,-1.4057705E-2,-4.6963707E-2,4.18201E-2,1.5351473E-2],"split_indices":[127,43,45,0,0,0,0],"split_type":[0,0,0,0,0,0,0],"sum_hessian":[7.186015E2,3.508472E2,3.6775427E2,2.4864484E2,1.0220236E2,1.15926414E2,2.5182787E2],"tree_param":{"num_deleted":"0","num_feature":"141","num_nodes":"7","size_leaf_vector":"1"}},{"base_weights":[-9.699133E-4,-2.707532E-1,2.685115E-1,-2.4920866E-2,2.3811288E-2,-1.9579075E-2,2.2950938E-2],"categories":[],"categories_nodes":[],"categories_segments":[],"categories_sizes":[],"default_left":[0,0,0,0,0,0,0],"id":9,"left_children":[1,3,5,-1,-1,-1,-1],"loss_changes":[5.3833195E1,1.2141601E2,9.140575E1,0E0,0E0,0E0,0E0],"parents":[2147483647,0,0,1,1,2,2],"right_children":[2,4,6,-1,-1,-1,-1],"split_conditions":[0E0,0E0,0E0,-2.4920866E-2,2.3811288E-2,-1.9579075E-2,2.2950938E-2],"split_indices":[128,127,127,0,0,0,0],"split_type":[0,0,0,0,0,0,0],"sum_hessian":[7.1425885E2,3.594217E2,3.5483713E2,2.5521344E2,1.0420824E2,1.0232294E2,2.525142E2],"tree_param":{"num_deleted":"0","num_feature":"141","num_nodes":"7","size_leaf_vector":"1"}},{"base_weights":[-9.505374E-3,-5.961358E-1,5.6040066E-1,2.0004828E-3,-3.1275097E-2,4.0859476E-2,1.2271416E-2],"categories":[],"categories_nodes":[],"categories_segments":[],"categories_sizes":[],"default_left":[0,0,0,0,0,0,0],"id":10,"left_children":[1,3,5,-1,-1,-1,-1],"loss_changes":[2.4289264E2,4.898574E1,4.27082E1,0E0,0E0,0E0,0E0],"parents":[2147483647,0,0,1,1,2,2],"right_children":[2,4,6,-1,-1,-1,-1],"split_conditions":[0E0,-6.815331E-1,0E0,2.0004828E-3,-3.1275097E-2,4.0859476E-2,1.2271416E-2],"split_indices":[127,58,45,0,0,0,0],"split_type":[0,0,0,0,0,0,0],"sum_hessian":[7.1091986E2,3.514148E2,3.5950507E2,8.363524E1,2.6777954E2,1.1540696E2,2.440981E2],"tree_param":{"num_deleted":"0","num_feature":"141","num_nodes":"7","size_leaf_vector":"1"}},{"base_weights":[1.9479256E-2,-5.736107E-1,5.8767754E-1,-5.9608268E-3,-3.5307486E-2,3.7381783E-2,1.1305449E-2],"categories":[],"categories_nodes":[],"categories_segments":[],"categories_sizes":[],"default_left":[0,0,0,0,0,0,0],"id":11,"left_children":[1,3,5,-1,-1,-1,-1],"loss_changes":[2.4504204E2,4.8276077E1,3.982257E1,0E0,0E0,0E0,0E0],"parents":[2147483647,0,0,1,1,2,2],"right_children":[2,4,6,-1,-1,-1,-1],"split_conditions":[0E0,-4.5064458E-1,2.2250205E-1,-5.9608268E-3,-3.5307486E-2,3.7381783E-2,1.1305449E-2],"split_indices":[127,40,40,0,0,0,0],"split_type":[0,0,0,0,0,0,0],"sum_hessian":[7.117446E2,3.470692E2,3.646754E2,1.5667374E2,1.9039546E2,1.5747334E2,2.0720207E2],"tree_param":{"num_deleted":"0","num_feature":"141","num_nodes":"7","size_leaf_vector":"1"}},{"base_weights":[1.7182706E-3,-2.7667853E-1,2.8918234E-1,-0E0,-2.5742956E-2,2.7578093E-2,3.9096214E-3],"categories":[],"categories_nodes":[],"categories_segments":[],"categories_sizes":[],"default_left":[0,0,0,0,0,0,0],"id":12,"left_children":[1,3,5,-1,-1,-1,-1],"loss_changes":[5.9297924E1,4.002805E1,2.8301537E1,0E0,0E0,0E0,0E0],"parents":[2147483647,0,0,1,1,2,2],"right_children":[2,4,6,-1,-1,-1,-1],"split_conditions":[0E0,-3.4016383E-1,1.4018784E-1,-0E0,-2.5742956E-2,2.7578093E-2,3.9096214E-3],"split_indices":[128,42,42,0,0,0,0],"split_type":[0,0,0,0,0,0,0],"sum_hessian":[7.1553394E2,3.611769E2,3.5435706E2,2.1064778E2,1.5052911E2,1.055186E2,2.4883846E2],"tree_param":{"num_deleted":"0","num_feature":"141","num_nodes":"7","size_leaf_vector":"1"}},{"base_weights":[-4.050276E-2,-2.7079505E-1,1.898808E-1,-2.3781247E-2,2.0707907E-2,-2.3013221E-2,1.9837944E-2],"categories":[],"categories_nodes":[],"categories_segments":[],"categories_sizes":[],"default_left":[0,0,0,0,0,0,0],"id":13,"left_children":[1,3,5,-1,-1,-1,-1],"loss_changes":[3.95527E1,1.0223102E2,9.22863E1,0E0,0E0,0E0,0E0],"parents":[2147483647,0,0,1,1,2,2],"right_children":[2,4,6,-1,-1,-1,-1],"split_conditions":[0E0,0E0,0E0,-2.3781247E-2,2.0707907E-2,-2.3013221E-2,1.9837944E-2],"split_indices":[128,127,127,0,0,0,0],"split_type":[0,0,0,0,0,0,0],"sum_hessian":[7.1597906E2,3.607141E2,3.5526495E2,2.5526656E2,1.0544755E2,1.010547E2,2.5421025E2],"tree_param":{"num_deleted":"0","num_feature":"141","num_nodes":"7","size_leaf_vector":"1"}},{"base_weights":[1.2434122E-2,-5.3802484E-1,5.7043624E-1,3.778324E-4,-2.7347665E-2,4.3972544E-2,1.6010327E-2],"categories":[],"categories_nodes":[],"categories_segments":[],"categories_sizes":[],"default_left":[0,0,0,0,0,0,0],"id":14,"left_children":[1,3,5,-1,-1,-1,-1],"loss_changes":[2.2112816E2,3.320926E1,3.0627739E1,0E0,0E0,0E0,0E0],"parents":[2147483647,0,0,1,1,2,2],"right_children":[2,4,6,-1,-1,-1,-1],"split_conditions":[0E0,-7.0578843E-1,-3.512491E-1,3.778324E-4,-2.7347665E-2,4.3972544E-2,1.6010327E-2],"split_indices":[127,58,58,0,0,0,0],"split_type":[0,0,0,0,0,0,0],"sum_hessian":[7.039516E2,3.5321097E2,3.5074063E2,7.9742874E1,2.7346808E2,7.2278725E1,2.784619E2],"tree_param":{"num_deleted":"0","num_feature":"141","num_nodes":"7","size_leaf_vector":"1"}},{"base_weights":[-3.28789E-3,-5.539219E-1,5.4930747E-1,-6.745492E-3,-3.38494E-2,3.860114E-2,1.0754378E-2],"categories":[],"categories_nodes":[],"categories_segments":[],"categories_sizes":[],"default_left":[0,0,0,0,0,0,0],"id":15,"left_children":[1,3,5,-1,-1,-1,-1],"loss_changes":[2.1933038E2,4.2152992E1,4.197129E1,0E0,0E0,0E0,0E0],"parents":[2147483647,0,0,1,1,2,2],"right_children":[2,4,6,-1,-1,-1,-1],"split_conditions":[0E0,-4.5064458E-1,1.11845806E-1,-6.745492E-3,-3.38494E-2,3.860114E-2,1.0754378E-2],"split_indices":[127,40,40,0,0,0,0],"split_type":[0,0,0,0,0,0,0],"sum_hessian":[7.048497E2,3.5426944E2,3.5058023E2,1.6406546E2,1.90204E2,1.2942697E2,2.2115327E2],"tree_param":{"num_deleted":"0","num_feature":"141","num_nodes":"7","size_leaf_vector":"1"}},{"base_weights":[7.4142483E-3,-2.0913047E-1,2.2322E-1,5.702355E-3,-1.9640319E-2,2.841394E-2,2.8746247E-3],"categories":[],"categories_nodes":[],"categories_segments":[],"categories_sizes":[],"default_left":[0,0,0,0,0,0,0],"id":16,"left_children":[1,3,5,-1,-1,-1,-1],"loss_changes":[3.3935078E1,3.8169903E1,2.7070168E1,0E0,0E0,0E0,0E0],"parents":[2147483647,0,0,1,1,2,2],"right_children":[2,4,6,-1,-1,-1,-1],"split_conditions":[0E0,-3.4473285E-1,0E0,5.702355E-3,-1.9640319E-2,2.841394E-2,2.8746247E-3],"split_indices":[128,28,45,0,0,0,0],"split_type":[0,0,0,0,0,0,0],"sum_hessian":[6.950459E2,3.438593E2,3.511866E2,1.5440828E2,1.8945102E2,7.542779E1,2.7575882E2],"tree_param":{"num_deleted":"0","num_feature":"141","num_nodes":"7","size_leaf_vector":"1"}},{"base_weights":[9.881151E-3,-5.1025337E-1,5.2868503E-1,-1.0596669E-2,-4.0959474E-2,3.480207E-2,1.1330833E-2],"categories":[],"categories_nodes":[],"categories_segments":[],"categories_sizes":[],"default_left":[0,0,0,0,0,0,0],"id":17,"left_children":[1,3,5,-1,-1,-1,-1],"loss_changes":[1.902226E2,4.4018005E1,2.95746E1,0E0,0E0,0E0,0E0],"parents":[2147483647,0,0,1,1,2,2],"right_children":[2,4,6,-1,-1,-1,-1],"split_conditions":[0E0,-6.217686E-3,1.11845806E-1,-1.0596669E-2,-4.0959474E-2,3.480207E-2,1.1330833E-2],"split_indices":[127,40,40,0,0,0,0],"split_type":[0,0,0,0,0,0,0],"sum_hessian":[6.883463E2,3.424605E2,3.458858E2,2.4240237E2,1.0005814E2,1.3138669E2,2.1449911E2],"tree_param":{"num_deleted":"0","num_feature":"141","num_nodes":"7","size_leaf_vector":"1"}},{"base_weights":[-1.1335242E-3,-4.6832696E-1,4.6307036E-1,-9.025227E-3,-3.9318755E-2,3.4650143E-2,1.0864262E-2],"categories":[],"categories_nodes":[],"categories_segments":[],"categories_sizes":[],"default_left":[0,0,0,0,0,0,0],"id":18,"left_children":[1,3,5,-1,-1,-1,-1],"loss_changes":[1.5526422E2,4.47472E1,2.716475E1,0E0,0E0,0E0,0E0],"parents":[2147483647,0,0,1,1,2,2],"right_children":[2,4,6,-1,-1,-1,-1],"split_conditions":[0E0,1E0,1E0,-9.025227E-3,-3.9318755E-2,3.4650143E-2,1.0864262E-2],"split_indices":[127,136,136,0,0,0,0],"split_type":[0,0,0,0,0,0,0],"sum_hessian":[6.981185E2,3.493723E2,3.4874622E2,2.4754178E2,1.0183053E2,9.9818886E1,2.4892732E2],"tree_param":{"num_deleted":"0","num_feature":"141","num_nodes":"7","size_leaf_vector":"1"}},{"base_weights":[-2.2946961E-2,-2.3662777E-1,1.8093583E-1,7.530545E-4,-2.3707904E-2,1.9342585E-2,-1.206571E-3],"categories":[],"categories_nodes":[],"categories_segments":[],"categories_sizes":[],"default_left":[0,0,0,0,0,0,0],"id":19,"left_children":[1,3,5,-1,-1,-1,-1],"loss_changes":[3.1415113E1,3.4393898E1,2.5123747E1,0E0,0E0,0E0,0E0],"parents":[2147483647,0,0,1,1,2,2],"right_children":[2,4,6,-1,-1,-1,-1],"split_conditions":[0E0,-3.4016383E-1,3.1446496E-1,7.530545E-4,-2.3707904E-2,1.9342585E-2,-1.206571E-3],"split_indices":[128,42,42,0,0,0,0],"split_type":[0,0,0,0,0,0,0],"sum_hessian":[6.887996E2,3.3930316E2,3.4949646E2,2.0038425E2,1.3891891E2,1.4147377E2,2.0802267E2],"tree_param":{"num_deleted":"0","num_feature":"141","num_nodes":"7","size_leaf_vector":"1"}},{"base_weights":[2.7844947E-2,-1.8255585E-1,2.3671341E-1,-1.7104408E-2,1.7718688E-2,-1.558085E-2,1.9312328E-2],"categories":[],"categories_nodes":[],"categories_segments":[],"categories_sizes":[],"default_left":[0,0,0,0,0,0,0],"id":20,"left_children":[1,3,5,-1,-1,-1,-1],"loss_changes":[3.1879095E1,5.88056E1,6.069717E1,0E0,0E0,0E0,0E0],"parents":[2147483647,0,0,1,1,2,2],"right_children":[2,4,6,-1,-1,-1,-1],"split_conditions":[0E0,0E0,0E0,-1.7104408E-2,1.7718688E-2,-1.558085E-2,1.9312328E-2],"split_indices":[128,127,127,0,0,0,0],"split_type":[0,0,0,0,0,0,0],"sum_hessian":[6.9358545E2,3.425052E2,3.5108026E2,2.4652904E2,9.5976135E1,9.9389656E1,2.516906E2],"tree_param":{"num_deleted":"0","num_feature":"141","num_nodes":"7","size_leaf_vector":"1"}},{"base_weights":[2.028609E-2,-4.1696423E-1,4.6420187E-1,-0E0,-2.9667543E-2,3.389018E-2,8.831543E-3],"categories":[],"categories_nodes":[],"categories_segments":[],"categories_sizes":[],"default_left":[0,0,0,0,0,0,0],"id":21,"left_children":[1,3,5,-1,-1,-1,-1],"loss_changes":[1.3687645E2,4.973917E1,3.2826805E1,0E0,0E0,0E0,0E0],"parents":[2147483647,0,0,1,1,2,2],"right_children":[2,4,6,-1,-1,-1,-1],"split_conditions":[0E0,-4.5064458E-1,9.731318E-2,-0E0,-2.9667543E-2,3.389018E-2,8.831543E-3],"split_indices":[127,40,40,0,0,0,0],"split_type":[0,0,0,0,0,0,0],"sum_hessian":[6.866934E2,3.4450916E2,3.4218427E2,1.5866113E2,1.8584804E2,1.21574394E2,2.2060986E2],"tree_param":{"num_deleted":"0","num_feature":"141","num_nodes":"7","size_leaf_vector":"1"}},{"base_weights":[-1.0934139E-2,1.9040331E-1,-1.8885913E-1,-7.5904164E-3,2.618213E-2,-2.7628269E-2,9.94088E-3],"categories":[],"categories_nodes":[],"categories_segments":[],"categories_sizes":[],"default_left":[0,0,0,0,0,0,0],"id":22,"left_children":[1,3,5,-1,-1,-1,-1],"loss_changes":[2.5552769E1,6.1740746E1,8.790481E1,0E0,0E0,0E0,0E0],"parents":[2147483647,0,0,1,1,2,2],"right_children":[2,4,6,-1,-1,-1,-1],"split_conditions":[-6.451465E-2,0E0,0E0,-7.5904164E-3,2.618213E-2,-2.7628269E-2,9.94088E-3],"split_indices":[28,127,127,0,0,0,0],"split_type":[0,0,0,0,0,0,0],"sum_hessian":[6.794277E2,3.1508664E2,3.64341E2,1.744304E2,1.4065623E2,1.6841273E2,1.9592827E2],"tree_param":{"num_deleted":"0","num_feature":"141","num_nodes":"7","size_leaf_vector":"1"}},{"base_weights":[4.2951886E-2,1.8116404E-1,-1.2495821E-1,2.9645285E-2,5.311576E-3,-2.3043161E-2,-1.0344562E-3],"categories":[],"categories_nodes":[],"categories_segments":[],"categories_sizes":[],"default_left":[0,0,0,0,0,0,0],"id":23,"left_children":[1,3,5,-1,-1,-1,-1],"loss_changes":[1.7085854E1,1.0540882E1,1.4803169E1,0E0,0E0,0E0,0E0],"parents":[2147483647,0,0,1,1,2,2],"right_children":[2,4,6,-1,-1,-1,-1],"split_conditions":[9.4957426E-2,-9.1246635E-1,-4.3809938E-1,2.9645285E-2,5.311576E-3,-2.3043161E-2,-1.0344562E-3],"split_indices":[75,20,66,0,0,0,0],"split_type":[0,0,0,0,0,0,0],"sum_hessian":[6.9626385E2,3.8617413E2,3.1008972E2,2.2161978E1,3.6401215E2,4.901954E1,2.610702E2],"tree_param":{"num_deleted":"0","num_feature":"141","num_nodes":"7","size_leaf_vector":"1"}},{"base_weights":[7.68587E-5,-1.8179634E-1,1.814078E-1,-1.9418268E-3,-3.187579E-2,2.6247025E-2,1.7907036E-3],"categories":[],"categories_nodes":[],"categories_segments":[],"categories_sizes":[],"default_left":[0,0,0,0,0,0,0],"id":24,"left_children":[1,3,5,-1,-1,-1,-1],"loss_changes":[2.3692408E1,2.907703E1,2.359238E1,0E0,0E0,0E0,0E0],"parents":[2147483647,0,0,1,1,2,2],"right_children":[2,4,6,-1,-1,-1,-1],"split_conditions":[0E0,2.9034543E-1,0E0,-1.9418268E-3,-3.187579E-2,2.6247025E-2,1.7907036E-3],"split_indices":[128,61,45,0,0,0,0],"split_type":[0,0,0,0,0,0,0],"sum_hessian":[6.825291E2,3.3703995E2,3.4548917E2,2.8356784E2,5.347209E1,6.988059E1,2.7560858E2],"tree_param":{"num_deleted":"0","num_feature":"141","num_nodes":"7","size_leaf_vector":"1"}},{"base_weights":[-2.1631915E-2,-2.164005E-1,1.670963E-1,-2.24301E-3,-2.7214652E-2,2.5263052E-2,1.2262405E-3],"categories":[],"categories_nodes":[],"categories_segments":[],"categories_sizes":[],"default_left":[0,0,0,0,0,0,0],"id":25,"left_children":[1,3,5,-1,-1,-1,-1],"loss_changes":[2.646019E1,2.6584873E1,2.3074469E1,0E0,0E0,0E0,0E0],"parents":[2147483647,0,0,1,1,2,2],"right_children":[2,4,6,-1,-1,-1,-1],"split_conditions":[0E0,0E0,0E0,-2.24301E-3,-2.7214652E-2,2.5263052E-2,1.2262405E-3],"split_indices":[128,45,45,0,0,0,0],"split_type":[0,0,0,0,0,0,0],"sum_hessian":[6.8533856E2,3.4056277E2,3.447758E2,2.607228E2,7.983994E1,7.115831E1,2.7361746E2],"tree_param":{"num_deleted":"0","num_feature":"141","num_nodes":"7","size_leaf_vector":"1"}},{"base_weights":[-1.0605502E-2,-4.4649446E-1,4.193758E-1,-9.195642E-3,-3.6508717E-2,3.4964874E-2,8.335362E-3],"categories":[],"categories_nodes":[],"categories_segments":[],"categories_sizes":[],"default_left":[0,0,0,0,0,0,0],"id":26,"left_children":[1,3,5,-1,-1,-1,-1],"loss_changes":[1.306336E2,3.4904236E1,3.3423325E1,0E0,0E0,0E0,0E0],"parents":[2147483647,0,0,1,1,2,2],"right_children":[2,4,6,-1,-1,-1,-1],"split_conditions":[0E0,1E0,1E0,-9.195642E-3,-3.6508717E-2,3.4964874E-2,8.335362E-3],"split_indices":[127,136,136,0,0,0,0],"split_type":[0,0,0,0,0,0,0],"sum_hessian":[6.7829333E2,3.3833023E2,3.3996307E2,2.4158572E2,9.674452E1,9.736399E1,2.4259908E2],"tree_param":{"num_deleted":"0","num_feature":"141","num_nodes":"7","size_leaf_vector":"1"}},{"base_weights":[-1.9842936E-4,1.6294096E-1,-1.3942164E-1,3.0782112E-4,1.594717E-2,-1.7755073E-2,1.9724485E-3],"categories":[],"categories_nodes":[],"categories_segments":[],"categories_sizes":[],"default_left":[0,0,0,0,0,0,0],"id":27,"left_children":[1,3,5,-1,-1,-1,-1],"loss_changes":[1.6535765E1,1.2113013E1,2.4310705E1,0E0,0E0,0E0,0E0],"parents":[2147483647,0,0,1,1,2,2],"right_children":[2,4,6,-1,-1,-1,-1],"split_conditions":[-7.931112E-2,0E0,0E0,3.0782112E-4,1.594717E-2,-1.7755073E-2,1.9724485E-3],"split_indices":[28,128,128,0,0,0,0],"split_type":[0,0,0,0,0,0,0],"sum_hessian":[6.8736096E2,3.117948E2,3.7556616E2,1.9651431E2,1.152805E2,1.4214946E2,2.334167E2],"tree_param":{"num_deleted":"0","num_feature":"141","num_nodes":"7","size_leaf_vector":"1"}},{"base_weights":[-3.856963E-2,-2.162091E-1,1.3490267E-1,-1.7534327E-2,1.3626101E-2,-1.5270804E-2,1.4270824E-2],"categories":[],"categories_nodes":[],"categories_segments":[],"categories_sizes":[],"default_left":[0,0,0,0,0,0,0],"id":28,"left_children":[1,3,5,-1,-1,-1,-1],"loss_changes":[2.2089483E1,4.7351784E1,4.3837852E1,0E0,0E0,0E0,0E0],"parents":[2147483647,0,0,1,1,2,2],"right_children":[2,4,6,-1,-1,-1,-1],"split_conditions":[0E0,0E0,0E0,-1.7534327E-2,1.3626101E-2,-1.5270804E-2,1.4270824E-2],"split_indices":[128,127,127,0,0,0,0],"split_type":[0,0,0,0,0,0,0],"sum_hessian":[6.7988995E2,3.3937146E2,3.4051846E2,2.424163E2,9.695516E1,1.01387566E2,2.3913089E2],"tree_param":{"num_deleted":"0","num_feature":"141","num_nodes":"7","size_leaf_vector":"1"}},{"base_weights":[4.5913554E-4,-4.5109695E-1,4.5119548E-1,-1.0395349E-2,-3.491001E-2,2.5697367E-2,7.740318E-3],"categories":[],"categories_nodes":[],"categories_segments":[],"categories_sizes":[],"default_left":[0,0,0,0,0,0,0],"id":29,"left_children":[1,3,5,-1,-1,-1,-1],"loss_changes":[1.4187242E2,2.7525307E1,1.7591637E1,0E0,0E0,0E0,0E0],"parents":[2147483647,0,0,1,1,2,2],"right_children":[2,4,6,-1,-1,-1,-1],"split_conditions":[0E0,1E0,2.693945E-1,-1.0395349E-2,-3.491001E-2,2.5697367E-2,7.740318E-3],"split_indices":[127,43,5,0,0,0,0],"split_type":[0,0,0,0,0,0,0],"sum_hessian":[6.7889655E2,3.3764478E2,3.4125177E2,2.4406381E2,9.3580956E1,1.8178299E2,1.5946877E2],"tree_param":{"num_deleted":"0","num_feature":"141","num_nodes":"7","size_leaf_vector":"1"}},{"base_weights":[-1.2284509E-2,1.2311299E-1,-2.4139102E-1,8.184731E-3,-7.7562453E-3,-1.755658E-2,-2.2950107E-3],"categories":[],"categories_nodes":[],"categories_segments":[],"categories_sizes":[],"default_left":[0,0,0,0,0,0,0],"id":30,"left_children":[1,3,5,-1,-1,-1,-1],"loss_changes":[2.2582783E1,1.2954224E1,9.883933E0,0E0,0E0,0E0,0E0],"parents":[2147483647,0,0,1,1,2,2],"right_children":[2,4,6,-1,-1,-1,-1],"split_conditions":[2.0960887E-1,4.9577183E-1,0E0,8.184731E-3,-7.7562453E-3,-1.755658E-2,-2.2950107E-3],"split_indices":[100,61,128,0,0,0,0],"split_type":[0,0,0,0,0,0,0],"sum_hessian":[6.861707E2,4.2849255E2,2.5767813E2,3.417545E2,8.673809E1,1.14701485E2,1.4297664E2],"tree_param":{"num_deleted":"0","num_feature":"141","num_nodes":"7","size_leaf_vector":"1"}},{"base_weights":[-0E0,-3.9229715E-1,3.8273448E-1,-8.243244E-3,-3.2188796E-2,3.3094116E-2,7.1226303E-3],"categories":[],"categories_nodes":[],"categories_segments":[],"categories_sizes":[],"default_left":[0,0,0,0,0,0,0],"id":31,"left_children":[1,3,5,-1,-1,-1,-1],"loss_changes":[1.044823E2,2.6248558E1,3.19519E1,0E0,0E0,0E0,0E0],"parents":[2147483647,0,0,1,1,2,2],"right_children":[2,4,6,-1,-1,-1,-1],"split_conditions":[0E0,1E0,1E0,-8.243244E-3,-3.2188796E-2,3.3094116E-2,7.1226303E-3],"split_indices":[127,43,43,0,0,0,0],"split_type":[0,0,0,0,0,0,0],"sum_hessian":[6.7570404E2,3.3457724E2,3.4112683E2,2.413457E2,9.323152E1,9.753949E1,2.4358734E2],"tree_param":{"num_deleted":"0","num_feature":"141","num_nodes":"7","size_leaf_vector":"1"}},{"base_weights":[-4.4108856E-2,5.358872E-2,-2.8077573E-1,-3.6585634E-3,9.307559E-3,6.5328376E-3,-1.4205278E-2],"categories":[],"categories_nodes":[],"categories_segments":[],"categories_sizes":[],"default_left":[0,0,0,0,0,0,0],"id":32,"left_children":[1,3,5,-1,-1,-1,-1],"loss_changes":[1.6722672E1,1.3982827E1,8.654385E0,0E0,0E0,0E0,0E0],"parents":[2147483647,0,0,1,1,2,2],"right_children":[2,4,6,-1,-1,-1,-1],"split_conditions":[4.0345383E-1,0E0,-9.882515E-1,-3.6585634E-3,9.307559E-3,6.5328376E-3,-1.4205278E-2],"split_indices":[110,128,33,0,0,0,0],"split_type":[0,0,0,0,0,0,0],"sum_hessian":[6.7103455E2,4.7263397E2,1.984006E2,2.598555E2,2.1277847E2,2.8069174E1,1.7033142E2],"tree_param":{"num_deleted":"0","num_feature":"141","num_nodes":"7","size_leaf_vector":"1"}},{"base_weights":[1.2374723E-2,-3.140144E-1,3.2763177E-1,-4.818472E-3,-3.6106583E-2,2.7233228E-2,2.4505195E-3],"categories":[],"categories_nodes":[],"categories_segments":[],"categories_sizes":[],"default_left":[0,0,0,0,0,0,0],"id":33,"left_children":[1,3,5,-1,-1,-1,-1],"loss_changes":[7.1774414E1,3.8941887E1,3.4176018E1,0E0,0E0,0E0,0E0],"parents":[2147483647,0,0,1,1,2,2],"right_children":[2,4,6,-1,-1,-1,-1],"split_conditions":[0E0,1.11845806E-1,2.154663E-1,-4.818472E-3,-3.6106583E-2,2.7233228E-2,2.4505195E-3],"split_indices":[127,40,40,0,0,0,0],"split_type":[0,0,0,0,0,0,0],"sum_hessian":[6.7466815E2,3.293869E2,3.4528125E2,2.5565813E2,7.372878E1,1.3971756E2,2.0556369E2],"tree_param":{"num_deleted":"0","num_feature":"141","num_nodes":"7","size_leaf_vector":"1"}},{"base_weights":[-0E0,-3.6366746E-1,3.551246E-1,-1.196879E-3,-2.5554748E-2,2.5648363E-2,5.542557E-3],"categories":[],"categories_nodes":[],"categories_segments":[],"categories_sizes":[],"default_left":[0,0,0,0,0,0,0],"id":34,"left_children":[1,3,5,-1,-1,-1,-1],"loss_changes":[8.815005E1,3.1950314E1,2.1527287E1,0E0,0E0,0E0,0E0],"parents":[2147483647,0,0,1,1,2,2],"right_children":[2,4,6,-1,-1,-1,-1],"split_conditions":[0E0,-4.5064458E-1,2.2250205E-1,-1.196879E-3,-2.5554748E-2,2.5648363E-2,5.542557E-3],"split_indices":[127,40,40,0,0,0,0],"split_type":[0,0,0,0,0,0,0],"sum_hessian":[6.613045E2,3.274956E2,3.3380887E2,1.5657385E2,1.7092175E2,1.3272835E2,2.0108052E2],"tree_param":{"num_deleted":"0","num_feature":"141","num_nodes":"7","size_leaf_vector":"1"}},{"base_weights":[3.7457697E-2,-3.124733E-1,3.8143125E-1,-5.7776663E-3,-2.8780121E-2,3.4289308E-2,9.667261E-3],"categories":[],"categories_nodes":[],"categories_segments":[],"categories_sizes":[],"default_left":[0,0,0,0,0,0,0],"id":35,"left_children":[1,3,5,-1,-1,-1,-1],"loss_changes":[8.369483E1,2.3444218E1,2.2726803E1,0E0,0E0,0E0,0E0],"parents":[2147483647,0,0,1,1,2,2],"right_children":[2,4,6,-1,-1,-1,-1],"split_conditions":[0E0,1E0,-3.512491E-1,-5.7776663E-3,-2.8780121E-2,3.4289308E-2,9.667261E-3],"split_indices":[127,136,58,0,0,0,0],"split_type":[0,0,0,0,0,0,0],"sum_hessian":[6.736789E2,3.3214597E2,3.4153293E2,2.448355E2,8.731048E1,6.6534294E1,2.7499863E2],"tree_param":{"num_deleted":"0","num_feature":"141","num_nodes":"7","size_leaf_vector":"1"}},{"base_weights":[-1.4217366E-2,1.324072E-1,-2.0043482E-1,2.452742E-2,3.5788822E-3,-2.2989329E-2,-4.3970942E-3],"categories":[],"categories_nodes":[],"categories_segments":[],"categories_sizes":[],"default_left":[0,0,0,0,0,0,0],"id":36,"left_children":[1,3,5,-1,-1,-1,-1],"loss_changes":[1.9225975E1,7.916359E0,1.0392271E1,0E0,0E0,0E0,0E0],"parents":[2147483647,0,0,1,1,2,2],"right_children":[2,4,6,-1,-1,-1,-1],"split_conditions":[9.4957426E-2,-9.2421526E-1,-4.3809938E-1,2.452742E-2,3.5788822E-3,-2.2989329E-2,-4.3970942E-3],"split_indices":[75,3,66,0,0,0,0],"split_type":[0,0,0,0,0,0,0],"sum_hessian":[6.632061E2,3.6750067E2,2.957054E2,2.1934612E1,3.4556607E2,4.8349735E1,2.4735568E2],"tree_param":{"num_deleted":"0","num_feature":"141","num_nodes":"7","size_leaf_vector":"1"}},{"base_weights":[9.855863E-3,2.65881E-2,-1.652343E-2,3.6645008E-3,-9.712243E-3],"categories":[],"categories_nodes":[],"categories_segments":[],"categories_sizes":[],"default_left":[0,0,0,0,0],"id":37,"left_children":[1,-1,3,-1,-1],"loss_changes":[1.4583566E1,0E0,1.7635595E1,0E0,0E0],"parents":[2147483647,0,0,2,2],"right_children":[2,-1,4,-1,-1],"split_conditions":[-9.2421526E-1,2.65881E-2,2.966788E-1,3.6645008E-3,-9.712243E-3],"split_indices":[3,0,50,0,0],"split_type":[0,0,0,0,0],"sum_hessian":[6.6279407E2,2.4067537E1,6.387265E2,4.3028925E2,2.0843729E2],"tree_param":{"num_deleted":"0","num_feature":"141","num_nodes":"5","size_leaf_vector":"1"}},{"base_weights":[-1.6323537E-2,-1.7543358E-1,1.3354461E-1,-2.4484445E-3,-3.1078244E-2,1.8545568E-2,-4.6853445E-4],"categories":[],"categories_nodes":[],"categories_segments":[],"categories_sizes":[],"default_left":[0,0,0,0,0,0,0],"id":38,"left_children":[1,3,5,-1,-1,-1,-1],"loss_changes":[1.6900818E1,2.3682247E1,1.8637154E1,0E0,0E0,0E0,0E0],"parents":[2147483647,0,0,1,1,2,2],"right_children":[2,4,6,-1,-1,-1,-1],"split_conditions":[0E0,8.226271E-2,1.6972305E-1,-2.4484445E-3,-3.1078244E-2,1.8545568E-2,-4.6853445E-4],"split_indices":[128,42,42,0,0,0,0],"split_type":[0,0,0,0,0,0,0],"sum_hessian":[6.6715625E2,3.2770605E2,3.3945023E2,2.8211343E2,4.559261E1,1.0204976E2,2.3740047E2],"tree_param":{"num_deleted":"0","num_feature":"141","num_nodes":"7","size_leaf_vector":"1"}},{"base_weights":[2.619602E-2,1.2507185E-1,-1.99172E-1,9.657253E-3,-1.892155E-3,-1.7644864E-2,-1.246804E-3],"categories":[],"categories_nodes":[],"categories_segments":[],"categories_sizes":[],"default_left":[0,0,0,0,0,0,0],"id":39,"left_children":[1,3,5,-1,-1,-1,-1],"loss_changes":[1.5231084E1,1.0474279E1,8.313704E0,0E0,0E0,0E0,0E0],"parents":[2147483647,0,0,1,1,2,2],"right_children":[2,4,6,-1,-1,-1,-1],"split_conditions":[4.0345383E-1,1.11845806E-1,0E0,9.657253E-3,-1.892155E-3,-1.7644864E-2,-1.246804E-3],"split_indices":[110,40,128,0,0,0,0],"split_type":[0,0,0,0,0,0,0],"sum_hessian":[6.453671E2,4.536842E2,1.9168292E2,2.697968E2,1.8388739E2,7.095162E1,1.2073131E2],"tree_param":{"num_deleted":"0","num_feature":"141","num_nodes":"7","size_leaf_vector":"1"}},{"base_weights":[9.379976E-3,-3.3304843E-1,3.518305E-1,-4.7525545E-3,-3.346533E-2,2.6460325E-2,4.876599E-3],"categories":[],"categories_nodes":[],"categories_segments":[],"categories_sizes":[],"default_left":[0,0,0,0,0,0,0],"id":40,"left_children":[1,3,5,-1,-1,-1,-1],"loss_changes":[7.951433E1,3.6589767E1,2.452922E1,0E0,0E0,0E0,0E0],"parents":[2147483647,0,0,1,1,2,2],"right_children":[2,4,6,-1,-1,-1,-1],"split_conditions":[0E0,-1.2224132E-2,2.154663E-1,-4.7525545E-3,-3.346533E-2,2.6460325E-2,4.876599E-3],"split_indices":[127,40,40,0,0,0,0],"split_type":[0,0,0,0,0,0,0],"sum_hessian":[6.561248E2,3.2614752E2,3.299773E2,2.3708708E2,8.906045E1,1.3034113E2,1.9963617E2],"tree_param":{"num_deleted":"0","num_feature":"141","num_nodes":"7","size_leaf_vector":"1"}},{"base_weights":[-3.907135E-3,2.0920272E-1,-1.0857567E-1,1.0986581E-2,-1.8683534E-2,1.01108905E-2,-5.99539E-3],"categories":[],"categories_nodes":[],"categories_segments":[],"categories_sizes":[],"default_left":[0,0,0,0,0,0,0],"id":41,"left_children":[1,3,5,-1,-1,-1,-1],"loss_changes":[1.5534348E1,1.2330572E1,8.259724E0,0E0,0E0,0E0,0E0],"parents":[2147483647,0,0,1,1,2,2],"right_children":[2,4,6,-1,-1,-1,-1],"split_conditions":[-3.675389E-1,2.0608258E-1,-8.888079E-1,1.0986581E-2,-1.8683534E-2,1.01108905E-2,-5.99539E-3],"split_indices":[28,99,38,0,0,0,0],"split_type":[0,0,0,0,0,0,0],"sum_hessian":[6.583065E2,2.1156764E2,4.4673886E2,1.948606E2,1.6707045E1,4.3918716E1,4.0282013E2],"tree_param":{"num_deleted":"0","num_feature":"141","num_nodes":"7","size_leaf_vector":"1"}},{"base_weights":[-1.754267E-3,-3.0943128E-1,2.990855E-1,-6.74091E-3,-3.0945625E-2,3.407675E-2,8.079407E-3],"categories":[],"categories_nodes":[],"categories_segments":[],"categories_sizes":[],"default_left":[0,0,0,0,0,0,0],"id":42,"left_children":[1,3,5,-1,-1,-1,-1],"loss_changes":[6.308043E1,2.1877708E1,1.770396E1,0E0,0E0,0E0,0E0],"parents":[2147483647,0,0,1,1,2,2],"right_children":[2,4,6,-1,-1,-1,-1],"split_conditions":[0E0,1.5183508E-1,-3.939365E-1,-6.74091E-3,-3.0945625E-2,3.407675E-2,8.079407E-3],"split_indices":[127,40,40,0,0,0,0],"split_type":[0,0,0,0,0,0,0],"sum_hessian":[6.5746826E2,3.2721173E2,3.3025653E2,2.6058807E2,6.662368E1,3.9940964E1,2.9031555E2],"tree_param":{"num_deleted":"0","num_feature":"141","num_nodes":"7","size_leaf_vector":"1"}},{"base_weights":[-2.692375E-3,1.0158915E-1,-2.1200544E-1,-0E0,1.3075192E-2,-0E0,-1.7512621E-2],"categories":[],"categories_nodes":[],"categories_segments":[],"categories_sizes":[],"default_left":[0,0,0,0,0,0,0],"id":43,"left_children":[1,3,5,-1,-1,-1,-1],"loss_changes":[1.5368585E1,1.125085E1,1.22149105E1,0E0,0E0,0E0,0E0],"parents":[2147483647,0,0,1,1,2,2],"right_children":[2,4,6,-1,-1,-1,-1],"split_conditions":[2.4817619E-1,-6.762354E-2,7.1355216E-2,-0E0,1.3075192E-2,-0E0,-1.7512621E-2],"split_indices":[77,77,33,0,0,0,0],"split_type":[0,0,0,0,0,0,0],"sum_hessian":[6.527105E2,4.3242868E2,2.2028183E2,3.0093362E2,1.3149506E2,1.16089264E2,1.04192566E2],"tree_param":{"num_deleted":"0","num_feature":"141","num_nodes":"7","size_leaf_vector":"1"}},{"base_weights":[1.0719502E-2,-3.069678E-1,3.2953522E-1,-9.156351E-4,-2.4577457E-2,2.658284E-2,4.852359E-3],"categories":[],"categories_nodes":[],"categories_segments":[],"categories_sizes":[],"default_left":[0,0,0,0,0,0,0],"id":44,"left_children":[1,3,5,-1,-1,-1,-1],"loss_changes":[6.787335E1,2.9773169E1,2.3613739E1,0E0,0E0,0E0,0E0],"parents":[2147483647,0,0,1,1,2,2],"right_children":[2,4,6,-1,-1,-1,-1],"split_conditions":[0E0,-3.3302706E-1,1.5183508E-1,-9.156351E-4,-2.4577457E-2,2.658284E-2,4.852359E-3],"split_indices":[127,40,40,0,0,0,0],"split_type":[0,0,0,0,0,0,0],"sum_hessian":[6.4697095E2,3.2199908E2,3.249719E2,1.7547E2,1.4652907E2,1.1463763E2,2.1033426E2],"tree_param":{"num_deleted":"0","num_feature":"141","num_nodes":"7","size_leaf_vector":"1"}},{"base_weights":[1.3202712E-2,1.7565273E-1,-8.980173E-2,2.3202703E-3,1.8753195E-2,-1.2830867E-2,2.4045785E-3],"categories":[],"categories_nodes":[],"categories_segments":[],"categories_sizes":[],"default_left":[0,0,0,0,0,0,0],"id":45,"left_children":[1,3,5,-1,-1,-1,-1],"loss_changes":[1.1869917E1,9.442664E0,1.5720992E1,0E0,0E0,0E0,0E0],"parents":[2147483647,0,0,1,1,2,2],"right_children":[2,4,6,-1,-1,-1,-1],"split_conditions":[-2.4925864E-1,6.363636E-1,0E0,2.3202703E-3,1.8753195E-2,-1.2830867E-2,2.4045785E-3],"split_indices":[28,35,128,0,0,0,0],"split_type":[0,0,0,0,0,0,0],"sum_hessian":[6.557841E2,2.5869254E2,3.9709155E2,1.9321739E2,6.5475136E1,1.5603421E2,2.4105736E2],"tree_param":{"num_deleted":"0","num_feature":"141","num_nodes":"7","size_leaf_vector":"1"}},{"base_weights":[-1.609351E-2,-3.0289513E-1,2.707439E-1,-5.327378E-3,-2.8381012E-2,2.4646731E-2,4.316899E-3],"categories":[],"categories_nodes":[],"categories_segments":[],"categories_sizes":[],"default_left":[0,0,0,0,0,0,0],"id":46,"left_children":[1,3,5,-1,-1,-1,-1],"loss_changes":[5.5969223E1,2.3560555E1,1.9037498E1,0E0,0E0,0E0,0E0],"parents":[2147483647,0,0,1,1,2,2],"right_children":[2,4,6,-1,-1,-1,-1],"split_conditions":[0E0,1E0,0E0,-5.327378E-3,-2.8381012E-2,2.4646731E-2,4.316899E-3],"split_indices":[127,136,45,0,0,0,0],"split_type":[0,0,0,0,0,0,0],"sum_hessian":[6.5535394E2,3.2996027E2,3.2539368E2,2.4229158E2,8.7668686E1,9.458496E1,2.3080873E2],"tree_param":{"num_deleted":"0","num_feature":"141","num_nodes":"7","size_leaf_vector":"1"}},{"base_weights":[-1.9343635E-2,-3.3295333E-1,2.7470455E-1,-6.2671755E-3,-3.1103702E-2,2.6159186E-2,3.7096944E-3],"categories":[],"categories_nodes":[],"categories_segments":[],"categories_sizes":[],"default_left":[0,0,0,0,0,0,0],"id":47,"left_children":[1,3,5,-1,-1,-1,-1],"loss_changes":[6.2385075E1,2.5656994E1,2.410145E1,0E0,0E0,0E0,0E0],"parents":[2147483647,0,0,1,1,2,2],"right_children":[2,4,6,-1,-1,-1,-1],"split_conditions":[0E0,1E0,0E0,-6.2671755E-3,-3.1103702E-2,2.6159186E-2,3.7096944E-3],"split_indices":[127,43,45,0,0,0,0],"split_type":[0,0,0,0,0,0,0],"sum_hessian":[6.522756E2,3.1765833E2,3.3461728E2,2.3682928E2,8.082904E1,9.9470924E1,2.3514635E2],"tree_param":{"num_deleted":"0","num_feature":"141","num_nodes":"7","size_leaf_vector":"1"}},{"base_weights":[8.494821E-3,-2.467081E-1,2.6481536E-1,-2.574928E-3,-2.8423425E-2,2.3981858E-2,4.9134153E-3],"categories":[],"categories_nodes":[],"categories_segments":[],"categories_sizes":[],"default_left":[0,0,0,0,0,0,0],"id":48,"left_children":[1,3,5,-1,-1,-1,-1],"loss_changes":[4.4610073E1,2.8863855E1,1.6189554E1,0E0,0E0,0E0,0E0],"parents":[2147483647,0,0,1,1,2,2],"right_children":[2,4,6,-1,-1,-1,-1],"split_conditions":[0E0,1E0,1E0,-2.574928E-3,-2.8423425E-2,2.3981858E-2,4.9134153E-3],"split_indices":[127,43,43,0,0,0,0],"split_type":[0,0,0,0,0,0,0],"sum_hessian":[6.5466046E2,3.2546866E2,3.291918E2,2.4129071E2,8.417795E1,8.776813E1,2.4142366E2],"tree_param":{"num_deleted":"0","num_feature":"141","num_nodes":"7","size_leaf_vector":"1"}},{"base_weights":[3.8559379E-3,-2.520166E-1,2.712825E-1,-4.5272E-3,-3.0343024E-2,2.4793975E-2,2.8313156E-3],"categories":[],"categories_nodes":[],"categories_segments":[],"categories_sizes":[],"default_left":[0,0,0,0,0,0,0],"id":49,"left_children":[1,3,5,-1,-1,-1,-1],"loss_changes":[4.675077E1,2.4260153E1,2.3703798E1,0E0,0E0,0E0,0E0],"parents":[2147483647,0,0,1,1,2,2],"right_children":[2,4,6,-1,-1,-1,-1],"split_conditions":[0E0,1.6155355E-1,1.11845806E-1,-4.5272E-3,-3.0343024E-2,2.4793975E-2,2.8313156E-3],"split_indices":[127,40,40,0,0,0,0],"split_type":[0,0,0,0,0,0,0],"sum_hessian":[6.5617126E2,3.328451E2,3.2332614E2,2.6948697E2,6.3358143E1,1.0933661E2,2.1398955E2],"tree_param":{"num_deleted":"0","num_feature":"141","num_nodes":"7","size_leaf_vector":"1"}},{"base_weights":[1.7709086E-2,-2.3268977E-1,2.6849625E-1,-3.3870128E-3,-2.5100907E-2,1.9425796E-2,1.5066143E-3],"categories":[],"categories_nodes":[],"categories_segments":[],"categories_sizes":[],"default_left":[0,0,0,0,0,0,0],"id":50,"left_children":[1,3,5,-1,-1,-1,-1],"loss_changes":[4.196752E1,1.9417505E1,1.7116184E1,0E0,0E0,0E0,0E0],"parents":[2147483647,0,0,1,1,2,2],"right_children":[2,4,6,-1,-1,-1,-1],"split_conditions":[0E0,1E0,6.0242996E-2,-3.3870128E-3,-2.5100907E-2,1.9425796E-2,1.5066143E-3],"split_indices":[127,43,109,0,0,0,0],"split_type":[0,0,0,0,0,0,0],"sum_hessian":[6.4059106E2,3.1796634E2,3.2262473E2,2.3981618E2,7.815016E1,1.5673871E2,1.6588602E2],"tree_param":{"num_deleted":"0","num_feature":"141","num_nodes":"7","size_leaf_vector":"1"}},{"base_weights":[-0E0,-2.532598E-1,2.4580468E-1,4.2405308E-4,-2.023073E-2,2.1883978E-2,2.7922445E-3],"categories":[],"categories_nodes":[],"categories_segments":[],"categories_sizes":[],"default_left":[0,0,0,0,0,0,0],"id":51,"left_children":[1,3,5,-1,-1,-1,-1],"loss_changes":[4.1751022E1,2.3688707E1,1.8277172E1,0E0,0E0,0E0,0E0],"parents":[2147483647,0,0,1,1,2,2],"right_children":[2,4,6,-1,-1,-1,-1],"split_conditions":[0E0,-4.445929E-1,1.5183508E-1,4.2405308E-4,-2.023073E-2,2.1883978E-2,2.7922445E-3],"split_indices":[127,40,40,0,0,0,0],"split_type":[0,0,0,0,0,0,0],"sum_hessian":[6.4298975E2,3.1436603E2,3.286237E2,1.5646362E2,1.5790242E2,1.1180929E2,2.1681439E2],"tree_param":{"num_deleted":"0","num_feature":"141","num_nodes":"7","size_leaf_vector":"1"}},{"base_weights":[-2.0364476E-3,2.7137634E-1,-6.899534E-2,2.0083333E-3,2.5385672E-2,-1.2184669E-2,6.380433E-3],"categories":[],"categories_nodes":[],"categories_segments":[],"categories_sizes":[],"default_left":[0,0,0,0,0,0,0],"id":52,"left_children":[1,3,5,-1,-1,-1,-1],"loss_changes":[1.2447796E1,1.0363588E1,3.0987764E1,0E0,0E0,0E0,0E0],"parents":[2147483647,0,0,1,1,2,2],"right_children":[2,4,6,-1,-1,-1,-1],"split_conditions":[-7.984332E-1,6.363636E-1,0E0,2.0083333E-3,2.5385672E-2,-1.2184669E-2,6.380433E-3],"split_indices":[73,35,127,0,0,0,0],"split_type":[0,0,0,0,0,0,0],"sum_hessian":[6.387337E2,1.19829384E2,5.189043E2,8.033122E1,3.9498165E1,2.5589043E2,2.6301385E2],"tree_param":{"num_deleted":"0","num_feature":"141","num_nodes":"7","size_leaf_vector":"1"}},{"base_weights":[6.160724E-4,-2.1891467E-1,2.2577766E-1,-4.8508067E-3,-3.5250507E-2,1.8492624E-2,-0E0],"categories":[],"categories_nodes":[],"categories_segments":[],"categories_sizes":[],"default_left":[0,0,0,0,0,0,0],"id":53,"left_children":[1,3,5,-1,-1,-1,-1],"loss_changes":[3.325888E1,2.1510159E1,1.8360544E1,0E0,0E0,0E0,0E0],"parents":[2147483647,0,0,1,1,2,2],"right_children":[2,4,6,-1,-1,-1,-1],"split_conditions":[0E0,7.60225E-1,1.7046425E-1,-4.8508067E-3,-3.5250507E-2,1.8492624E-2,-0E0],"split_indices":[127,75,5,0,0,0,0],"split_type":[0,0,0,0,0,0,0],"sum_hessian":[6.422362E2,3.2219672E2,3.2003946E2,2.880348E2,3.4161926E1,1.4897418E2,1.7106529E2],"tree_param":{"num_deleted":"0","num_feature":"141","num_nodes":"7","size_leaf_vector":"1"}},{"base_weights":[6.9788485E-3,-1.988249E-1,2.1851179E-1,3.6478352E-3,-1.6259663E-2,2.439458E-2,9.6258096E-4],"categories":[],"categories_nodes":[],"categories_segments":[],"categories_sizes":[],"default_left":[0,0,0,0,0,0,0],"id":54,"left_children":[1,3,5,-1,-1,-1,-1],"loss_changes":[2.8967365E1,2.1837559E1,2.5347898E1,0E0,0E0,0E0,0E0],"parents":[2147483647,0,0,1,1,2,2],"right_children":[2,4,6,-1,-1,-1,-1],"split_conditions":[0E0,-5.8886284E-1,9.731318E-2,3.6478352E-3,-1.6259663E-2,2.439458E-2,9.6258096E-4],"split_indices":[127,40,40,0,0,0,0],"split_type":[0,0,0,0,0,0,0],"sum_hessian":[6.331706E2,3.177961E2,3.1537445E2,1.3384138E2,1.8395473E2,9.7317314E1,2.1805713E2],"tree_param":{"num_deleted":"0","num_feature":"141","num_nodes":"7","size_leaf_vector":"1"}},{"base_weights":[-7.492021E-3,-2.1492901E-1,1.9360007E-1,-4.6374192E-3,-2.7506677E-2,1.35775115E-2,-2.8531668E-3],"categories":[],"categories_nodes":[],"categories_segments":[],"categories_sizes":[],"default_left":[0,0,0,0,0,0,0],"id":55,"left_children":[1,3,5,-1,-1,-1,-1],"loss_changes":[2.7283773E1,1.4965428E1,1.4049905E1,0E0,0E0,0E0,0E0],"parents":[2147483647,0,0,1,1,2,2],"right_children":[2,4,6,-1,-1,-1,-1],"split_conditions":[0E0,4.037386E-1,5.681108E-1,-4.6374192E-3,-2.7506677E-2,1.35775115E-2,-2.8531668E-3],"split_indices":[127,58,5,0,0,0,0],"split_type":[0,0,0,0,0,0,0],"sum_hessian":[6.21262E2,3.0900085E2,3.1226117E2,2.6387854E2,4.5122307E1,2.0037985E2,1.1188132E2],"tree_param":{"num_deleted":"0","num_feature":"141","num_nodes":"7","size_leaf_vector":"1"}},{"base_weights":[-2.2705111E-3,-1.5683737E-1,1.4805293E-1,-1.1694019E-3,-2.3161976E-2,2.127987E-2,1.3704642E-3],"categories":[],"categories_nodes":[],"categories_segments":[],"categories_sizes":[],"default_left":[0,0,0,0,0,0,0],"id":56,"left_children":[1,3,5,-1,-1,-1,-1],"loss_changes":[1.5501118E1,1.7860998E1,1.4492785E1,0E0,0E0,0E0,0E0],"parents":[2147483647,0,0,1,1,2,2],"right_children":[2,4,6,-1,-1,-1,-1],"split_conditions":[0E0,0E0,0E0,-1.1694019E-3,-2.3161976E-2,2.127987E-2,1.3704642E-3],"split_indices":[128,45,45,0,0,0,0],"split_type":[0,0,0,0,0,0,0],"sum_hessian":[6.253185E2,3.126623E2,3.1265616E2,2.4725333E2,6.540897E1,6.3920166E1,2.4873601E2],"tree_param":{"num_deleted":"0","num_feature":"141","num_nodes":"7","size_leaf_vector":"1"}},{"base_weights":[-4.5750192E-3,4.9056664E-1,-5.179457E-2,8.603732E-3,3.322535E-2,-8.66213E-3,4.759789E-3],"categories":[],"categories_nodes":[],"categories_segments":[],"categories_sizes":[],"default_left":[0,0,0,0,0,0,0],"id":57,"left_children":[1,3,5,-1,-1,-1,-1],"loss_changes":[1.5699294E1,4.6854315E0,1.8214714E1,0E0,0E0,0E0,0E0],"parents":[2147483647,0,0,1,1,2,2],"right_children":[2,4,6,-1,-1,-1,-1],"split_conditions":[-8.965606E-1,3.8401002E-1,0E0,8.603732E-3,3.322535E-2,-8.66213E-3,4.759789E-3],"split_indices":[20,137,127,0,0,0,0],"split_type":[0,0,0,0,0,0,0],"sum_hessian":[6.282844E2,4.9677856E1,5.7860657E2,3.3415066E1,1.6262793E1,2.9578992E2,2.8281665E2],"tree_param":{"num_deleted":"0","num_feature":"141","num_nodes":"7","size_leaf_vector":"1"}},{"base_weights":[5.199741E-3,1.1857677E-1,-1.8119706E-1,7.0441947E-3,-6.6247378E-3,-1.4046612E-2,6.704225E-4],"categories":[],"categories_nodes":[],"categories_segments":[],"categories_sizes":[],"default_left":[0,0,0,0,0,0,0],"id":58,"left_children":[1,3,5,-1,-1,-1,-1],"loss_changes":[1.39718685E1,7.7860427E0,9.271107E0,0E0,0E0,0E0,0E0],"parents":[2147483647,0,0,1,1,2,2],"right_children":[2,4,6,-1,-1,-1,-1],"split_conditions":[2.0960887E-1,2.7194756E-1,5.232895E-1,7.0441947E-3,-6.6247378E-3,-1.4046612E-2,6.704225E-4],"split_indices":[100,99,29,0,0,0,0],"split_type":[0,0,0,0,0,0,0],"sum_hessian":[6.2129425E2,3.91514E2,2.2978021E2,3.2706616E2,6.4447845E1,1.2309116E2,1.0668904E2],"tree_param":{"num_deleted":"0","num_feature":"141","num_nodes":"7","size_leaf_vector":"1"}},{"base_weights":[-8.0852676E-4,-1.9364347E-1,1.9173416E-1,-2.157475E-3,-2.4320716E-2,1.8335108E-2,3.0962294E-3],"categories":[],"categories_nodes":[],"categories_segments":[],"categories_sizes":[],"default_left":[0,0,0,0,0,0,0],"id":59,"left_children":[1,3,5,-1,-1,-1,-1],"loss_changes":[2.4496204E1,1.9257675E1,9.881638E0,0E0,0E0,0E0,0E0],"parents":[2147483647,0,0,1,1,2,2],"right_children":[2,4,6,-1,-1,-1,-1],"split_conditions":[0E0,3.2226974E-1,-1.984002E-1,-2.157475E-3,-2.4320716E-2,1.8335108E-2,3.0962294E-3],"split_indices":[127,61,96,0,0,0,0],"split_type":[0,0,0,0,0,0,0],"sum_hessian":[6.255611E2,3.160321E2,3.0952902E2,2.4408598E2,7.1946106E1,8.276594E1,2.2676308E2],"tree_param":{"num_deleted":"0","num_feature":"141","num_nodes":"7","size_leaf_vector":"1"}},{"base_weights":[2.146617E-2,-1.3657933E-1,1.7851561E-1,8.002829E-3,-1.4108048E-2,2.7991721E-2,3.7324808E-3],"categories":[],"categories_nodes":[],"categories_segments":[],"categories_sizes":[],"default_left":[0,0,0,0,0,0,0],"id":60,"left_children":[1,3,5,-1,-1,-1,-1],"loss_changes":[1.6757727E1,2.5853033E1,1.4939547E1,0E0,0E0,0E0,0E0],"parents":[2147483647,0,0,1,1,2,2],"right_children":[2,4,6,-1,-1,-1,-1],"split_conditions":[0E0,-6.465947E-1,-3.530718E-1,8.002829E-3,-1.4108048E-2,2.7991721E-2,3.7324808E-3],"split_indices":[127,40,40,0,0,0,0],"split_type":[0,0,0,0,0,0,0],"sum_hessian":[6.348233E2,3.1233215E2,3.2249115E2,1.2174308E2,1.9058908E2,3.7636707E1,2.8485446E2],"tree_param":{"num_deleted":"0","num_feature":"141","num_nodes":"7","size_leaf_vector":"1"}},{"base_weights":[2.421053E-2,-1.2678415E-1,1.7912458E-1,-0E0,-2.0413075E-2,1.4366895E-2,-0E0],"categories":[],"categories_nodes":[],"categories_segments":[],"categories_sizes":[],"default_left":[0,0,0,0,0,0,0],"id":61,"left_children":[1,3,5,-1,-1,-1,-1],"loss_changes":[1.5554472E1,1.6580286E1,1.1391044E1,0E0,0E0,0E0,0E0],"parents":[2147483647,0,0,1,1,2,2],"right_children":[2,4,6,-1,-1,-1,-1],"split_conditions":[0E0,1E0,6.0242996E-2,-0E0,-2.0413075E-2,1.4366895E-2,-0E0],"split_indices":[127,136,109,0,0,0,0],"split_type":[0,0,0,0,0,0,0],"sum_hessian":[6.233727E2,3.1155893E2,3.1181372E2,2.3951677E2,7.204215E1,1.5166795E2,1.6014577E2],"tree_param":{"num_deleted":"0","num_feature":"141","num_nodes":"7","size_leaf_vector":"1"}},{"base_weights":[7.650417E-3,-1.3226046E-1,1.5516296E-1,7.862632E-3,-1.0230449E-2,1.9155309E-2,1.0406098E-3],"categories":[],"categories_nodes":[],"categories_segments":[],"categories_sizes":[],"default_left":[0,0,0,0,0,0,0],"id":62,"left_children":[1,3,5,-1,-1,-1,-1],"loss_changes":[1.3632722E1,1.4797314E1,1.3512193E1,0E0,0E0,0E0,0E0],"parents":[2147483647,0,0,1,1,2,2],"right_children":[2,4,6,-1,-1,-1,-1],"split_conditions":[0E0,-6.9558144E-1,1E0,7.862632E-3,-1.0230449E-2,1.9155309E-2,1.0406098E-3],"split_indices":[127,58,136,0,0,0,0],"split_type":[0,0,0,0,0,0,0],"sum_hessian":[6.163151E2,3.117827E2,3.045324E2,8.39832E1,2.2779951E2,7.895407E1,2.2557834E2],"tree_param":{"num_deleted":"0","num_feature":"141","num_nodes":"7","size_leaf_vector":"1"}},{"base_weights":[1.8185487E-2,-1.2582739E-1,1.648249E-1,6.765574E-4,-2.234335E-2,2.8582774E-2,3.372107E-3],"categories":[],"categories_nodes":[],"categories_segments":[],"categories_sizes":[],"default_left":[0,0,0,0,0,0,0],"id":63,"left_children":[1,3,5,-1,-1,-1,-1],"loss_changes":[1.3976977E1,2.1906818E1,1.4436717E1,0E0,0E0,0E0,0E0],"parents":[2147483647,0,0,1,1,2,2],"right_children":[2,4,6,-1,-1,-1,-1],"split_conditions":[0E0,-1.7983936E-2,-3.7983578E-1,6.765574E-4,-2.234335E-2,2.8582774E-2,3.372107E-3],"split_indices":[127,40,40,0,0,0,0],"split_type":[0,0,0,0,0,0,0],"sum_hessian":[6.1843E2,3.0759402E2,3.1083594E2,2.3292963E2,7.4664406E1,3.248496E1,2.7835098E2],"tree_param":{"num_deleted":"0","num_feature":"141","num_nodes":"7","size_leaf_vector":"1"}},{"base_weights":[2.0763664E-2,-1.3870004E-1,1.7844975E-1,4.2202356E-3,-1.6343126E-2,2.9864984E-2,3.5429967E-3],"categories":[],"categories_nodes":[],"categories_segments":[],"categories_sizes":[],"default_left":[0,0,0,0,0,0,0],"id":64,"left_children":[1,3,5,-1,-1,-1,-1],"loss_changes":[1.6369164E1,2.2548977E1,1.6628733E1,0E0,0E0,0E0,0E0],"parents":[2147483647,0,0,1,1,2,2],"right_children":[2,4,6,-1,-1,-1,-1],"split_conditions":[0E0,-4.0437052E-1,-3.6282298E-1,4.2202356E-3,-1.6343126E-2,2.9864984E-2,3.5429967E-3],"split_indices":[127,40,40,0,0,0,0],"split_type":[0,0,0,0,0,0,0],"sum_hessian":[6.109204E2,2.9968387E2,3.112365E2,1.5776825E2,1.4191562E2,3.5316364E1,2.7592014E2],"tree_param":{"num_deleted":"0","num_feature":"141","num_nodes":"7","size_leaf_vector":"1"}},{"base_weights":[6.1164954E-4,1.00721665E-1,-1.8875673E-1,6.0325814E-3,-6.8278825E-3,-1.01414155E-2,8.220167E-3],"categories":[],"categories_nodes":[],"categories_segments":[],"categories_sizes":[],"default_left":[0,0,0,0,0,0,0],"id":65,"left_children":[1,3,5,-1,-1,-1,-1],"loss_changes":[1.2540147E1,6.834305E0,7.024784E0,0E0,0E0,0E0,0E0],"parents":[2147483647,0,0,1,1,2,2],"right_children":[2,4,6,-1,-1,-1,-1],"split_conditions":[3.0830714E-1,3.6123937E-1,1.2835838E0,6.0325814E-3,-6.8278825E-3,-1.01414155E-2,8.220167E-3],"split_indices":[46,99,27,0,0,0,0],"split_type":[0,0,0,0,0,0,0],"sum_hessian":[6.204471E2,4.114853E2,2.089618E2,3.4943427E2,6.205103E1,1.8114517E2,2.7816633E1],"tree_param":{"num_deleted":"0","num_feature":"141","num_nodes":"7","size_leaf_vector":"1"}},{"base_weights":[3.489767E-3,-1.6272542E-1,1.7589909E-1,-3.1880932E-3,-2.8011441E-2,-7.986709E-3,9.715576E-3],"categories":[],"categories_nodes":[],"categories_segments":[],"categories_sizes":[],"default_left":[0,0,0,0,0,0,0],"id":66,"left_children":[1,3,5,-1,-1,-1,-1],"loss_changes":[1.89879E1,1.4717646E1,9.687968E0,0E0,0E0,0E0,0E0],"parents":[2147483647,0,0,1,1,2,2],"right_children":[2,4,6,-1,-1,-1,-1],"split_conditions":[0E0,7.60225E-1,-4.6757615E-1,-3.1880932E-3,-2.8011441E-2,-7.986709E-3,9.715576E-3],"split_indices":[127,75,66,0,0,0,0],"split_type":[0,0,0,0,0,0,0],"sum_hessian":[6.2424097E2,3.1393805E2,3.1030292E2,2.7918854E2,3.4749516E1,4.6132336E1,2.6417056E2],"tree_param":{"num_deleted":"0","num_feature":"141","num_nodes":"7","size_leaf_vector":"1"}},{"base_weights":[-2.2469308E-2,2.0838156E-2,-3.876016E-1,-3.8186763E-3,5.7078335E-3,-2.7433405E-2,-0E0],"categories":[],"categories_nodes":[],"categories_segments":[],"categories_sizes":[],"default_left":[0,0,0,0,0,0,0],"id":67,"left_children":[1,3,5,-1,-1,-1,-1],"loss_changes":[1.1432375E1,9.018629E0,9.074695E0,0E0,0E0,0E0,0E0],"parents":[2147483647,0,0,1,1,2,2],"right_children":[2,4,6,-1,-1,-1,-1],"split_conditions":[9.470137E-1,0E0,4.2428994E-1,-3.8186763E-3,5.7078335E-3,-2.7433405E-2,-0E0],"split_indices":[99,127,78,0,0,0,0],"split_type":[0,0,0,0,0,0,0],"sum_hessian":[6.212227E2,5.546698E2,6.65529E1,2.7982425E2,2.7484555E2,3.4698895E1,3.1854012E1],"tree_param":{"num_deleted":"0","num_feature":"141","num_nodes":"7","size_leaf_vector":"1"}},{"base_weights":[2.8997764E-2,-1.4006588E-1,1.98663E-1,-1.1054345E-4,-2.023985E-2,2.8163789E-2,5.041077E-3],"categories":[],"categories_nodes":[],"categories_segments":[],"categories_sizes":[],"default_left":[0,0,0,0,0,0,0],"id":68,"left_children":[1,3,5,-1,-1,-1,-1],"loss_changes":[1.8944431E1,1.6492477E1,1.1859736E1,0E0,0E0,0E0,0E0],"parents":[2147483647,0,0,1,1,2,2],"right_children":[2,4,6,-1,-1,-1,-1],"split_conditions":[0E0,2.4721621E-1,-3.939365E-1,-1.1054345E-4,-2.023985E-2,2.8163789E-2,5.041077E-3],"split_indices":[127,61,40,0,0,0,0],"split_type":[0,0,0,0,0,0,0],"sum_hessian":[6.2247034E2,3.0807986E2,3.1439044E2,2.3103941E2,7.704045E1,3.1156466E1,2.8323398E2],"tree_param":{"num_deleted":"0","num_feature":"141","num_nodes":"7","size_leaf_vector":"1"}}]},"name":"gbtree"},"learner_model_param":{"base_score":"[5E-1]","boost_from_average":"1","num_class":"0","num_feature":"141","num_target":"1"},"objective":{"name":"binary:logistic","reg_loss_param":{"scale_pos_weight":"0.986041903"}}},"version":[3,2,0]}