{"learner":{"attributes":{"best_iteration":"12","best_score":"0.7717015185461787","scikit_learn":"{\"_estimator_type\": \"classifier\"}"},"feature_names":["open","high","low","close","volume","vader_compound","vader_pos","vader_neg","vader_neu","sentiment_label","finbert_score","finbert_label","fng_value","fng_classification","social_score","social_votes","quote_asset_volume","num_trades","taker_buy_base_volume","taker_buy_quote_volume","EMA_9","EMA_21","MACD","MACD_signal","BB_upper","BB_lower","BB_pct_b","RSI_14","Stoch_K","Stoch_D","ROC_10","ATR_14","high_low_spread","OBV","taker_buy_ratio","hour","day_of_week","close_lag_1","close_lag_3","close_lag_7","return_1d","price_above_ma1","return_2d","price_above_ma2","return_3d","price_above_ma3","return_5d","price_above_ma5","return_7d","price_above_ma7","return_14d","price_above_ma14","return_21d","price_above_ma21","return_30d","price_above_ma30","volatility_5d","vol_ratio_5d","close_zscore_5d","volatility_7d","vol_ratio_7d","close_zscore_7d","volatility_14d","vol_ratio_14d","close_zscore_14d","volatility_21d","vol_ratio_21d","close_zscore_21d","volatility_30d","vol_ratio_30d","close_zscore_30d","ema_cross","macd_cross","macd_hist","macd_hist_change","price_vs_ema9","price_vs_ema21","ema_gap","bb_width","bb_squeeze","bb_breakout_up","bb_breakout_down","rsi_overbought","rsi_oversold","rsi_bullish","rsi_change_3d","rsi_change_7d","stoch_cross","stoch_overbought","stoch_oversold","atr_ratio","high_volatility","atr_change","volume_spike","obv_change","obv_trend","buy_pressure","buy_pressure_trend","sentiment_ma3","sentiment_ma7","sentiment_ma14","sentiment_trend","sentiment_momentum","sentiment_pos","sentiment_neg","sentiment_strong_pos","sentiment_strong_neg","vader_pos_change","vader_neg_change","finbert_ma3","finbert_ma7","finbert_trend","fng_extreme_fear","fng_fear","fng_greed","fng_extreme_greed","fng_change_3d","fng_change_7d","fng_ma7","social_spike","social_trend","social_votes_spike","is_weekend","is_monday","is_friday","month","quarter","target_lag_1","target_lag_2","target_lag_3","target_lag_5","target_lag_7","target_lag_14","higher_high","lower_low","doji","bullish_candle","candle_body","bull_confluence","bear_confluence","sentiment_tech_agree"],"feature_types":["float","float","float","float","float","float","float","float","float","float","float","float","float","float","float","float","float","float","float","float","float","float","float","float","float","float","float","float","float","float","float","float","float","float","float","float","float","float","float","float","float","float","float","float","float","float","float","float","float","float","float","float","float","float","float","float","float","float","float","float","float","float","float","float","float","float","float","float","float","float","float","float","float","float","float","float","float","float","float","float","float","float","float","float","float","float","float","float","float","float","float","float","float","float","float","float","float","float","float","float","float","float","float","float","float","float","float","float","float","float","float","float","float","float","float","float","float","float","float","float","float","float","float","float","float","float","float","float","float","float","float","float","float","float","float","float","float","float","float","float","float"],"gradient_booster":{"model":{"cats":{"enc":[],"feature_segments":[],"sorted_idx":[]},"gbtree_model_param":{"num_parallel_tree":"1","num_trees":"73"},"iteration_indptr":[0,1,2,3,4,5,6,7,8,9,10,11,12,13,14,15,16,17,18,19,20,21,22,23,24,25,26,27,28,29,30,31,32,33,34,35,36,37,38,39,40,41,42,43,44,45,46,47,48,49,50,51,52,53,54,55,56,57,58,59,60,61,62,63,64,65,66,67,68,69,70,71,72,73],"tree_info":[0,0,0,0,0,0,0,0,0,0,0,0,0,0,0,0,0,0,0,0,0,0,0,0,0,0,0,0,0,0,0,0,0,0,0,0,0,0,0,0,0,0,0,0,0,0,0,0,0,0,0,0,0,0,0,0,0,0,0,0,0,0,0,0,0,0,0,0,0,0,0,0,0],"trees":[{"base_weights":[4.384667E-3,-3.5644317E-1,4.1104072E-1,-8.238363E-1,8.8787776E-1,-7.6849973E-1,8.995163E-1,-4.6413317E-3,-1.5526633E-2,2.161834E-2,4.0054806E-3,-3.8846843E-3,-1.8563563E-2,1.7900176E-2,5.8998433E-3],"categories":[],"categories_nodes":[],"categories_segments":[],"categories_sizes":[],"default_left":[0,0,0,0,0,0,0,0,0,0,0,0,0,0,0],"id":0,"left_children":[1,3,5,7,9,11,13,-1,-1,-1,-1,-1,-1,-1,-1],"loss_changes":[1.2362516E2,2.6034985E2,2.3030826E2,5.5037735E1,5.3592133E1,3.5189087E1,5.831157E1,0E0,0E0,0E0,0E0,0E0,0E0,0E0,0E0],"parents":[2147483647,0,0,1,1,2,2,3,3,4,4,5,5,6,6],"right_children":[2,4,6,8,10,12,14,-1,-1,-1,-1,-1,-1,-1,-1],"split_conditions":[1E0,1E0,1E0,-4.7614914E-1,-1.5050946E-1,9.863745E-2,4.370878E-1,-4.6413317E-3,-1.5526633E-2,2.161834E-2,4.0054806E-3,-3.8846843E-3,-1.8563563E-2,1.7900176E-2,5.8998433E-3],"split_indices":[128,127,127,10,40,40,40,0,0,0,0,0,0,0,0],"split_type":[0,0,0,0,0,0,0,0,0,0,0,0,0,0,0],"sum_hessian":[8.2921027E2,4.385166E2,3.9069366E2,3.1984036E2,1.18676254E2,1.1353242E2,2.7716125E2,1.4559602E2,1.7424432E2,4.797974E1,7.069652E1,6.934684E1,4.4185574E1,1.2962561E2,1.4753566E2],"tree_param":{"num_deleted":"0","num_feature":"141","num_nodes":"15","size_leaf_vector":"1"}},{"base_weights":[1.9104533E-2,-8.0299646E-1,8.839083E-1,-3.9321104E-1,-1.327317E0,1.4499125E0,4.6947423E-1,-6.8059815E-3,3.0015719E-3,-1.285594E-2,-1.9696293E-2,2.1523617E-2,1.4004936E-2,9.897748E-3,9.688169E-4],"categories":[],"categories_nodes":[],"categories_segments":[],"categories_sizes":[],"default_left":[0,0,0,0,0,0,0,0,0,0,0,0,0,0,0],"id":1,"left_children":[1,3,5,7,9,11,13,-1,-1,-1,-1,-1,-1,-1,-1],"loss_changes":[5.958065E2,9.059744E1,9.3901825E1,2.1226532E1,8.117554E0,8.657623E0,2.7591759E1,0E0,0E0,0E0,0E0,0E0,0E0,0E0,0E0],"parents":[2147483647,0,0,1,1,2,2,3,3,4,4,5,5,6,6],"right_children":[2,4,6,8,10,12,14,-1,-1,-1,-1,-1,-1,-1,-1],"split_conditions":[1E0,-1.7397471E-1,1.6969883E-1,8.533359E-1,9.863745E-2,-1.6662736E-1,3.7333995E-1,-6.8059815E-3,3.0015719E-3,-1.285594E-2,-1.9696293E-2,2.1523617E-2,1.4004936E-2,9.897748E-3,9.688169E-4],"split_indices":[127,40,40,137,40,40,137,0,0,0,0,0,0,0,0],"split_type":[0,0,0,0,0,0,0,0,0,0,0,0,0,0,0],"sum_hessian":[8.2934595E2,4.248025E2,4.0454343E2,2.4171661E2,1.8308589E2,1.6758514E2,2.369583E2,2.0091992E2,4.079669E1,7.382017E1,1.09265724E2,9.9792534E1,6.77926E1,1.3329884E2,1.03659454E2],"tree_param":{"num_deleted":"0","num_feature":"141","num_nodes":"15","size_leaf_vector":"1"}},{"base_weights":[1.2011537E-3,-7.8624177E-1,8.584836E-1,-4.0194893E-1,-1.3010538E0,1.9102484E-2,3.9807308E-1,4.956638E-4,-7.3889387E-3,-1.2514603E-2,-1.895131E-2,7.1726493E-3,-1.4115951E-3],"categories":[],"categories_nodes":[],"categories_segments":[],"categories_sizes":[],"default_left":[0,0,0,0,0,0,0,0,0,0,0,0,0],"id":2,"left_children":[1,3,5,7,9,-1,11,-1,-1,-1,-1,-1,-1],"loss_changes":[5.684661E2,8.514697E1,1.1252368E2,1.9618664E1,6.336334E0,0E0,1.9336273E1,0E0,0E0,0E0,0E0,0E0,0E0],"parents":[2147483647,0,0,1,1,2,2,3,3,4,4,6,6],"right_children":[2,4,6,8,10,-1,12,-1,-1,-1,-1,-1,-1],"split_conditions":[1E0,-1.6917908E-1,1.6969883E-1,-8.60629E-1,-1.8643934E-1,1.9102484E-2,8.343907E-1,4.956638E-4,-7.3889387E-3,-1.2514603E-2,-1.895131E-2,7.1726493E-3,-1.4115951E-3],"split_indices":[127,40,40,75,22,0,58,0,0,0,0,0,0],"split_type":[0,0,0,0,0,0,0,0,0,0,0,0,0],"sum_hessian":[8.3327014E2,4.3396344E2,3.9930667E2,2.518771E2,1.8208633E2,1.678097E2,2.3149696E2,6.8894295E1,1.8298282E2,6.632755E1,1.1575878E2,1.7818471E2,5.331226E1],"tree_param":{"num_deleted":"0","num_feature":"141","num_nodes":"13","size_leaf_vector":"1"}},{"base_weights":[-3.2844096E-2,-7.972773E-1,8.0511874E-1,-4.1366723E-1,-1.3157591E0,1.2389452E0,3.1566387E-1,3.6332972E-4,-7.838933E-3,-1.3304204E-2,-1.8931575E-2,2.0399522E-2,1.1974485E-2,7.589475E-3,9.002338E-4],"categories":[],"categories_nodes":[],"categories_segments":[],"categories_sizes":[],"default_left":[0,0,0,0,0,0,0,0,0,0,0,0,0,0,0],"id":3,"left_children":[1,3,5,7,9,11,13,-1,-1,-1,-1,-1,-1,-1,-1],"loss_changes":[5.3859875E2,8.589633E1,8.3681244E1,2.2475029E1,3.8891907E0,1.8539429E1,1.2651529E1,0E0,0E0,0E0,0E0,0E0,0E0,0E0,0E0],"parents":[2147483647,0,0,1,1,2,2,3,3,4,4,5,5,6,6],"right_children":[2,4,6,8,10,12,14,-1,-1,-1,-1,-1,-1,-1,-1],"split_conditions":[1E0,-1.6917908E-1,3.6580774E-1,-8.4715724E-1,-1.8643934E-1,-1.6662736E-1,3.7333995E-1,3.6332972E-4,-7.838933E-3,-1.3304204E-2,-1.8931575E-2,2.0399522E-2,1.1974485E-2,7.589475E-3,9.002338E-4],"split_indices":[127,40,40,75,22,40,137,0,0,0,0,0,0,0,0],"split_type":[0,0,0,0,0,0,0,0,0,0,0,0,0,0,0],"sum_hessian":[8.3205316E2,4.3566302E2,3.9639014E2,2.5382777E2,1.8183524E2,2.0727898E2,1.8911115E2,7.6101E1,1.7772678E2,6.9233955E1,1.1260128E2,9.44165E1,1.1286248E2,8.706819E1,1.0204296E2],"tree_param":{"num_deleted":"0","num_feature":"141","num_nodes":"15","size_leaf_vector":"1"}},{"base_weights":[1.182538E-2,-3.2442406E-1,3.843247E-1,1.9726588E-1,-5.195101E-1,1.0467142E0,1.13765195E-1,6.1837053E-3,-3.2592148E-3,-4.324516E-3,-1.012054E-2,1.866316E-2,1.075115E-2,6.124283E-3,-4.9964595E-4],"categories":[],"categories_nodes":[],"categories_segments":[],"categories_sizes":[],"default_left":[0,0,0,0,0,0,0,0,0,0,0,0,0,0,0],"id":4,"left_children":[1,3,5,7,9,11,13,-1,-1,-1,-1,-1,-1,-1,-1],"loss_changes":[1.0654271E2,4.602452E1,7.1756485E1,1.6471972E1,1.5098152E1,6.9847717E0,1.672876E1,0E0,0E0,0E0,0E0,0E0,0E0,0E0,0E0],"parents":[2147483647,0,0,1,1,2,2,3,3,4,4,5,5,6,6],"right_children":[2,4,6,8,10,12,14,-1,-1,-1,-1,-1,-1,-1,-1],"split_conditions":[1E0,-8.9401996E-1,1.22503795E-1,-4.851062E-1,-1.2773734E-1,-3.3977273E-1,-6.518836E-2,6.1837053E-3,-3.2592148E-3,-4.324516E-3,-1.012054E-2,1.866316E-2,1.075115E-2,6.124283E-3,-4.9964595E-4],"split_indices":[128,42,42,48,42,42,27,0,0,0,0,0,0,0,0],"split_type":[0,0,0,0,0,0,0,0,0,0,0,0,0,0,0],"sum_hessian":[8.366766E2,4.388116E2,3.9786496E2,1.1834484E2,3.2046677E2,1.124837E2,2.8538126E2,7.38515E1,4.4493343E1,1.9235744E2,1.2810934E2,3.3754654E1,7.872905E1,8.500234E1,2.0037892E2],"tree_param":{"num_deleted":"0","num_feature":"141","num_nodes":"15","size_leaf_vector":"1"}},{"base_weights":[-1.4159947E-2,4.187455E-1,-1.17686436E-1,-3.3977252E-1,1.2292444E0,-8.9356256E-1,7.1534526E-1,2.6994434E-3,-1.0195862E-2,1.9222485E-2,9.8823365E-3,-7.0220074E-3,-1.6884176E-2,1.7801534E-2,4.476043E-3],"categories":[],"categories_nodes":[],"categories_segments":[],"categories_sizes":[],"default_left":[0,0,0,0,0,0,0,0,0,0,0,0,0,0,0],"id":5,"left_children":[1,3,5,7,9,11,13,-1,-1,-1,-1,-1,-1,-1,-1],"loss_changes":[3.827973E1,1.024482E2,4.4360983E2,2.259121E1,6.3673706E0,4.9206024E1,7.9134796E1,0E0,0E0,0E0,0E0,0E0,0E0,0E0,0E0],"parents":[2147483647,0,0,1,1,2,2,3,3,4,4,5,5,6,6],"right_children":[2,4,6,8,10,12,14,-1,-1,-1,-1,-1,-1,-1,-1],"split_conditions":[-6.803287E-1,1E0,1E0,-4.1155532E-1,7.908159E-2,-1.6917908E-1,9.863745E-2,2.6994434E-3,-1.0195862E-2,1.9222485E-2,9.8823365E-3,-7.0220074E-3,-1.6884176E-2,1.7801534E-2,4.476043E-3],"split_indices":[52,127,127,101,58,40,40,0,0,0,0,0,0,0,0],"split_type":[0,0,0,0,0,0,0,0,0,0,0,0,0,0,0],"sum_hessian":[8.3607025E2,1.5844963E2,6.776206E2,8.2102585E1,7.634704E1,3.5123376E2,3.2638687E2,3.669909E1,4.54035E1,4.4856667E1,3.1490376E1,1.9301988E2,1.5821387E2,1.1425558E2,2.1213129E2],"tree_param":{"num_deleted":"0","num_feature":"141","num_nodes":"15","size_leaf_vector":"1"}},{"base_weights":[2.4386474E-4,-7.687341E-1,8.28176E-1,-4.1240197E-1,-1.2589202E0,1.3598143E0,4.1197884E-1,5.710006E-4,-8.159547E-3,-1.43531645E-2,-1.9683812E-2,2.079247E-2,1.3207953E-2,9.785565E-3,-0E0],"categories":[],"categories_nodes":[],"categories_segments":[],"categories_sizes":[],"default_left":[0,0,0,0,0,0,0,0,0,0,0,0,0,0,0],"id":6,"left_children":[1,3,5,7,9,11,13,-1,-1,-1,-1,-1,-1,-1,-1],"loss_changes":[5.3266583E2,7.413583E1,8.7526245E1,2.6142235E1,2.9592285E0,1.0387756E1,3.289546E1,0E0,0E0,0E0,0E0,0E0,0E0,0E0,0E0],"parents":[2147483647,0,0,1,1,2,2,3,3,4,4,5,5,6,6],"right_children":[2,4,6,8,10,12,14,-1,-1,-1,-1,-1,-1,-1,-1],"split_conditions":[1E0,-1.7397471E-1,1.6969883E-1,-7.4864614E-1,4.20768E-1,-1.7397471E-1,3.7333995E-1,5.710006E-4,-8.159547E-3,-1.43531645E-2,-1.9683812E-2,2.079247E-2,1.3207953E-2,9.785565E-3,-0E0],"split_indices":[127,40,40,75,5,40,137,0,0,0,0,0,0,0,0],"split_type":[0,0,0,0,0,0,0,0,0,0,0,0,0,0,0],"sum_hessian":[8.2772577E2,4.2874933E2,3.989764E2,2.5183871E2,1.7691063E2,1.7189871E2,2.270777E2,8.068975E1,1.7114896E2,1.2194663E2,5.4963997E1,9.336536E1,7.8533356E1,1.2261774E2,1.0445996E2],"tree_param":{"num_deleted":"0","num_feature":"141","num_nodes":"15","size_leaf_vector":"1"}},{"base_weights":[-1.2485541E-2,-7.7357E-1,8.1368995E-1,-3.9899373E-1,-1.2578713E0,1.4131874E0,4.573843E-1,-8.1838436E-5,-7.1448274E-3,-1.2174018E-2,-1.8165564E-2,2.0420732E-2,1.2815249E-2,9.029125E-3,1.33424E-3],"categories":[],"categories_nodes":[],"categories_segments":[],"categories_sizes":[],"default_left":[0,0,0,0,0,0,0,0,0,0,0,0,0,0,0],"id":7,"left_children":[1,3,5,7,9,11,13,-1,-1,-1,-1,-1,-1,-1,-1],"loss_changes":[5.342273E2,7.87832E1,8.510745E1,1.4940544E1,5.29953E0,6.1976624E0,2.1664787E1,0E0,0E0,0E0,0E0,0E0,0E0,0E0,0E0],"parents":[2147483647,0,0,1,1,2,2,3,3,4,4,5,5,6,6],"right_children":[2,4,6,8,10,12,14,-1,-1,-1,-1,-1,-1,-1,-1],"split_conditions":[1E0,-1.8884435E-1,8.537399E-2,-6.739991E-1,-2.2343414E-1,-1.6538015E-1,3.7333515E-1,-8.1838436E-5,-7.1448274E-3,-1.2174018E-2,-1.8165564E-2,2.0420732E-2,1.2815249E-2,9.029125E-3,1.33424E-3],"split_indices":[127,40,40,64,22,40,137,0,0,0,0,0,0,0,0],"split_type":[0,0,0,0,0,0,0,0,0,0,0,0,0,0,0],"sum_hessian":[8.408081E2,4.3821414E2,4.0259396E2,2.5055815E2,1.8765598E2,1.4651929E2,2.5607468E2,7.217106E1,1.7838708E2,6.588126E1,1.2177472E2,9.974299E1,4.6776287E1,1.5012161E2,1.0595306E2],"tree_param":{"num_deleted":"0","num_feature":"141","num_nodes":"15","size_leaf_vector":"1"}},{"base_weights":[1.3416141E-2,-7.28784E-1,7.9944533E-1,-5.129289E-1,-1.6699905E-2,1.8068343E-2,4.6605927E-1,-8.264698E-3,-0E0,7.5594E-3,-0E0],"categories":[],"categories_nodes":[],"categories_segments":[],"categories_sizes":[],"default_left":[0,0,0,0,0,0,0,0,0,0,0],"id":8,"left_children":[1,3,5,7,-1,-1,9,-1,-1,-1,-1],"loss_changes":[4.913901E2,5.0659378E1,7.9397675E1,2.0660599E1,0E0,0E0,1.4647278E1,0E0,0E0,0E0,0E0],"parents":[2147483647,0,0,1,1,2,2,3,3,6,6],"right_children":[2,4,6,8,-1,-1,10,-1,-1,-1,-1],"split_conditions":[1E0,1E0,1E0,1.0104585E0,-1.6699905E-2,1.8068343E-2,8.343907E-1,-8.264698E-3,-0E0,7.5594E-3,-0E0],"split_indices":[127,43,43,56,0,0,58,0,0,0,0],"split_type":[0,0,0,0,0,0,0,0,0,0,0],"sum_hessian":[8.3321545E2,4.281427E2,4.0507278E2,3.1343695E2,1.1470573E2,1.418249E2,2.6324786E2,2.5221635E2,6.1220604E1,2.0967583E2,5.357204E1],"tree_param":{"num_deleted":"0","num_feature":"141","num_nodes":"11","size_leaf_vector":"1"}},{"base_weights":[-1.2464398E-2,-7.502963E-1,7.8926575E-1,-3.79812E-1,-1.2400765E0,1.3313922E0,3.6263987E-1,3.529725E-4,-7.5620934E-3,-1.0930465E-2,-1.729139E-2,2.1192495E-2,1.40463235E-2,6.3724904E-3,-3.6778592E-3],"categories":[],"categories_nodes":[],"categories_segments":[],"categories_sizes":[],"default_left":[0,0,0,0,0,0,0,0,0,0,0,0,0,0,0],"id":9,"left_children":[1,3,5,7,9,11,13,-1,-1,-1,-1,-1,-1,-1,-1],"loss_changes":[4.961661E2,7.789336E1,9.131067E1,2.1744312E1,3.8930054E0,8.742035E0,2.0157911E1,0E0,0E0,0E0,0E0,0E0,0E0,0E0,0E0],"parents":[2147483647,0,0,1,1,2,2,3,3,4,4,5,5,6,6],"right_children":[2,4,6,8,10,12,14,-1,-1,-1,-1,-1,-1,-1,-1],"split_conditions":[1E0,-1.7397471E-1,1.6969883E-1,-7.4864614E-1,-8.4848386E-1,-3.490488E-1,9.333227E-1,3.529725E-4,-7.5620934E-3,-1.0930465E-2,-1.729139E-2,2.1192495E-2,1.40463235E-2,6.3724904E-3,-3.6778592E-3],"split_indices":[127,40,40,75,137,40,137,0,0,0,0,0,0,0,0],"split_type":[0,0,0,0,0,0,0,0,0,0,0,0,0,0,0],"sum_hessian":[8.2984485E2,4.327292E2,3.9711566E2,2.4978271E2,1.8294647E2,1.7176248E2,2.2535318E2,8.275973E1,1.67023E2,4.1428043E1,1.4151843E2,6.944486E1,1.0231763E2,1.8933926E2,3.6013924E1],"tree_param":{"num_deleted":"0","num_feature":"141","num_nodes":"15","size_leaf_vector":"1"}},{"base_weights":[1.9412551E-3,-7.355614E-1,7.8700525E-1,-3.0981433E-1,-1.0762247E0,1.2960114E0,4.1067952E-1,2.5742045E-3,-6.103444E-3,-1.1434874E-2,-1.6770922E-2,2.0767415E-2,1.4041052E-2,8.2937805E-3,1.6057339E-3],"categories":[],"categories_nodes":[],"categories_segments":[],"categories_sizes":[],"default_left":[0,0,0,0,0,0,0,0,0,0,0,0,0,0,0],"id":10,"left_children":[1,3,5,7,9,11,13,-1,-1,-1,-1,-1,-1,-1,-1],"loss_changes":[4.8388846E2,6.1222702E1,7.603641E1,1.6966797E1,7.1426697E0,6.789795E0,1.5302677E1,0E0,0E0,0E0,0E0,0E0,0E0,0E0,0E0],"parents":[2147483647,0,0,1,1,2,2,3,3,4,4,5,5,6,6],"right_children":[2,4,6,8,10,12,14,-1,-1,-1,-1,-1,-1,-1,-1],"split_conditions":[1E0,-3.5192207E-1,1.6969883E-1,-8.9047086E-1,7.49484E-2,-3.9691237E-1,3.7333515E-1,2.5742045E-3,-6.103444E-3,-1.1434874E-2,-1.6770922E-2,2.0767415E-2,1.4041052E-2,8.2937805E-3,1.6057339E-3],"split_indices":[127,5,40,30,40,40,137,0,0,0,0,0,0,0,0],"split_type":[0,0,0,0,0,0,0,0,0,0,0,0,0,0,0],"sum_hessian":[8.266422E2,4.258049E2,4.008373E2,1.923879E2,2.33417E2,1.6692468E2,2.3391263E2,4.5004745E1,1.4738315E2,1.3203114E2,1.0138587E2,6.0213223E1,1.06711464E2,1.2678311E2,1.07129524E2],"tree_param":{"num_deleted":"0","num_feature":"141","num_nodes":"15","size_leaf_vector":"1"}},{"base_weights":[1.8332943E-2,-7.1860766E-1,8.145335E-1,-3.4636095E-1,-1.2257304E0,1.9415386E-2,5.155901E-1,2.990602E-4,-7.540865E-3,-1.2611905E-2,-1.7670397E-2,9.69364E-3,1.5887686E-3],"categories":[],"categories_nodes":[],"categories_segments":[],"categories_sizes":[],"default_left":[0,0,0,0,0,0,0,0,0,0,0,0,0],"id":11,"left_children":[1,3,5,7,9,-1,11,-1,-1,-1,-1,-1,-1],"loss_changes":[4.9145886E2,8.066902E1,8.034546E1,2.2938717E1,2.9137878E0,0E0,2.5553215E1,0E0,0E0,0E0,0E0,0E0,0E0],"parents":[2147483647,0,0,1,1,2,2,3,3,4,4,6,6],"right_children":[2,4,6,8,10,-1,12,-1,-1,-1,-1,-1,-1],"split_conditions":[1E0,-1.7397471E-1,-5.7478637E-2,-4.6592423E-1,-5.8667123E-1,1.9415386E-2,3.7333515E-1,2.990602E-4,-7.540865E-3,-1.2611905E-2,-1.7670397E-2,9.69364E-3,1.5887686E-3],"split_indices":[127,40,40,48,137,0,137,0,0,0,0,0,0],"split_type":[0,0,0,0,0,0,0,0,0,0,0,0,0],"sum_hessian":[8.285001E2,4.2988306E2,3.9861707E2,2.512032E2,1.7867986E2,1.17456985E2,2.811601E2,9.7389435E1,1.5381377E2,7.212487E1,1.06554985E2,1.740321E2,1.0712798E2],"tree_param":{"num_deleted":"0","num_feature":"141","num_nodes":"13","size_leaf_vector":"1"}},{"base_weights":[-1.7845323E-2,-3.179061E-1,3.3483866E-1,2.3506777E-1,-5.2796143E-1,8.4726006E-1,-6.7324787E-3,2.0664246E-4,9.264063E-3,-4.6295924E-3,-1.0148837E-2,1.6876988E-2,8.177957E-3,7.0007397E-3,-1.4255244E-3],"categories":[],"categories_nodes":[],"categories_segments":[],"categories_sizes":[],"default_left":[0,0,0,0,0,0,0,0,0,0,0,0,0,0,0],"id":12,"left_children":[1,3,5,7,9,11,13,-1,-1,-1,-1,-1,-1,-1,-1],"loss_changes":[8.960273E1,5.391642E1,6.8658295E1,1.337632E1,1.3768013E1,1.3337982E1,1.3908163E1,0E0,0E0,0E0,0E0,0E0,0E0,0E0,0E0],"parents":[2147483647,0,0,1,1,2,2,3,3,4,4,5,5,6,6],"right_children":[2,4,6,8,10,12,14,-1,-1,-1,-1,-1,-1,-1,-1],"split_conditions":[1E0,-7.433268E-1,3.1934336E-1,1.0601469E0,1.4744085E-1,-2.34E-1,-3.6333704E-1,2.0664246E-4,9.264063E-3,-4.6295924E-3,-1.0148837E-2,1.6876988E-2,8.177957E-3,7.0007397E-3,-1.4255244E-3],"split_indices":[128,75,42,90,96,42,76,0,0,0,0,0,0,0,0],"split_type":[0,0,0,0,0,0,0,0,0,0,0,0,0,0,0],"sum_hessian":[8.325423E2,4.5114832E2,3.8139398E2,1.2310148E2,3.2804684E2,1.519792E2,2.2941478E2,8.737728E1,3.5724197E1,2.0192947E2,1.2611736E2,4.3780224E1,1.0819898E2,3.3574203E1,1.9584058E2],"tree_param":{"num_deleted":"0","num_feature":"141","num_nodes":"15","size_leaf_vector":"1"}},{"base_weights":[-0E0,-7.154656E-1,7.578552E-1,-3.5069788E-1,-1.2024478E0,1.1972437E0,3.4089968E-1,-1.8126733E-4,-6.853079E-3,-9.427364E-3,-1.6890097E-2,1.9900018E-2,1.3661371E-2,8.20274E-3,3.4130216E-4],"categories":[],"categories_nodes":[],"categories_segments":[],"categories_sizes":[],"default_left":[0,0,0,0,0,0,0,0,0,0,0,0,0,0,0],"id":13,"left_children":[1,3,5,7,9,11,13,-1,-1,-1,-1,-1,-1,-1,-1],"loss_changes":[4.5618E2,7.5622635E1,7.339758E1,1.4904663E1,6.1020203E0,5.604248E0,1.9484642E1,0E0,0E0,0E0,0E0,0E0,0E0,0E0,0E0],"parents":[2147483647,0,0,1,1,2,2,3,3,4,4,5,5,6,6],"right_children":[2,4,6,8,10,12,14,-1,-1,-1,-1,-1,-1,-1,-1],"split_conditions":[1E0,-1.7397471E-1,2.832665E-1,-5.014712E-1,-6.0346824E-1,-6.4756685E-1,3.7333995E-1,-1.8126733E-4,-6.853079E-3,-9.427364E-3,-1.6890097E-2,1.9900018E-2,1.3661371E-2,8.20274E-3,3.4130216E-4],"split_indices":[127,40,40,30,57,42,137,0,0,0,0,0,0,0,0],"split_type":[0,0,0,0,0,0,0,0,0,0,0,0,0,0,0],"sum_hessian":[8.321929E2,4.2860342E2,4.0358942E2,2.4840607E2,1.8019736E2,1.9333815E2,2.1025128E2,8.836861E1,1.6003746E2,3.6475143E1,1.4372221E2,4.8669727E1,1.4466843E2,1.06447205E2,1.0380408E2],"tree_param":{"num_deleted":"0","num_feature":"141","num_nodes":"15","size_leaf_vector":"1"}},{"base_weights":[1.4388944E-4,-2.7819702E-1,3.190416E-1,-6.9023937E-1,8.056015E-1,-7.0489746E-1,7.528482E-1,-5.010802E-3,-1.5639924E-2,1.8923663E-2,4.5981295E-3,-1.8753614E-3,-1.54844625E-2,1.45031065E-2,5.00279E-3],"categories":[],"categories_nodes":[],"categories_segments":[],"categories_sizes":[],"default_left":[0,0,0,0,0,0,0,0,0,0,0,0,0,0,0],"id":14,"left_children":[1,3,5,7,9,11,13,-1,-1,-1,-1,-1,-1,-1,-1],"loss_changes":[7.506126E1,2.0167487E2,1.7652582E2,4.9802322E1,3.518544E1,3.1606201E1,3.599739E1,0E0,0E0,0E0,0E0,0E0,0E0,0E0,0E0],"parents":[2147483647,0,0,1,1,2,2,3,3,4,4,5,5,6,6],"right_children":[2,4,6,8,10,12,14,-1,-1,-1,-1,-1,-1,-1,-1],"split_conditions":[1E0,1E0,1E0,-1.6917908E-1,-1.6538015E-1,-8.1530586E-2,4.477161E-1,-5.010802E-3,-1.5639924E-2,1.8923663E-2,4.5981295E-3,-1.8753614E-3,-1.54844625E-2,1.45031065E-2,5.00279E-3],"split_indices":[128,127,127,40,40,40,40,0,0,0,0,0,0,0,0],"split_type":[0,0,0,0,0,0,0,0,0,0,0,0,0,0,0],"sum_hessian":[8.2990125E2,4.420026E2,3.8789868E2,3.2142096E2,1.2058164E2,1.14440254E2,2.7345844E2,2.0612653E2,1.15294426E2,4.620377E1,7.437787E1,5.563142E1,5.880883E1,1.3322809E2,1.4023033E2],"tree_param":{"num_deleted":"0","num_feature":"141","num_nodes":"15","size_leaf_vector":"1"}},{"base_weights":[1.9290076E-3,-7.0144147E-1,7.901539E-1,-3.7138313E-1,-1.151041E0,1.2207755E0,3.7025303E-1,4.5779275E-4,-7.2504138E-3,-1.0943716E-2,-1.6788384E-2,2.0356467E-2,1.3092103E-2,7.96511E-3,1.3229892E-3],"categories":[],"categories_nodes":[],"categories_segments":[],"categories_sizes":[],"default_left":[0,0,0,0,0,0,0,0,0,0,0,0,0,0,0],"id":15,"left_children":[1,3,5,7,9,11,13,-1,-1,-1,-1,-1,-1,-1,-1],"loss_changes":[4.6505234E2,6.439526E1,7.013464E1,2.0587395E1,5.312149E0,1.0349518E1,1.3192316E1,0E0,0E0,0E0,0E0,0E0,0E0,0E0,0E0],"parents":[2147483647,0,0,1,1,2,2,3,3,4,4,5,5,6,6],"right_children":[2,4,6,8,10,12,14,-1,-1,-1,-1,-1,-1,-1,-1],"split_conditions":[1E0,-1.6917908E-1,2.832665E-1,-7.4864614E-1,-1.8643934E-1,-3.922152E-1,3.7333995E-1,4.5779275E-4,-7.2504138E-3,-1.0943716E-2,-1.6788384E-2,2.0356467E-2,1.3092103E-2,7.96511E-3,1.3229892E-3],"split_indices":[127,40,40,75,22,40,137,0,0,0,0,0,0,0,0],"split_type":[0,0,0,0,0,0,0,0,0,0,0,0,0,0,0],"sum_hessian":[8.2956085E2,4.3800253E2,3.9155832E2,2.5619162E2,1.818109E2,1.9005919E2,2.0149913E2,8.034794E1,1.7584369E2,6.537955E1,1.1643134E2,6.3976322E1,1.2608286E2,1.02239525E2,9.9259605E1],"tree_param":{"num_deleted":"0","num_feature":"141","num_nodes":"15","size_leaf_vector":"1"}},{"base_weights":[1.7636673E-3,-2.9183978E-1,3.2760614E-1,-6.962771E-1,7.5105006E-1,-6.407421E-1,7.251084E-1,-3.171272E-3,-1.3493951E-2,1.6333243E-2,2.3944147E-3,-2.831093E-3,-1.6052073E-2,1.3713742E-2,3.7103894E-3],"categories":[],"categories_nodes":[],"categories_segments":[],"categories_sizes":[],"default_left":[0,0,0,0,0,0,0,0,0,0,0,0,0,0,0],"id":16,"left_children":[1,3,5,7,9,11,13,-1,-1,-1,-1,-1,-1,-1,-1],"loss_changes":[8.043687E1,1.8678548E2,1.5482687E2,4.8463196E1,3.467314E1,2.8668293E1,4.033589E1,0E0,0E0,0E0,0E0,0E0,0E0,0E0,0E0],"parents":[2147483647,0,0,1,1,2,2,3,3,4,4,5,5,6,6],"right_children":[2,4,6,8,10,12,14,-1,-1,-1,-1,-1,-1,-1,-1],"split_conditions":[1E0,1E0,1E0,-4.7013482E-1,1E0,1E0,2.1273518E-1,-3.171272E-3,-1.3493951E-2,1.6333243E-2,2.3944147E-3,-2.831093E-3,-1.6052073E-2,1.3713742E-2,3.7103894E-3],"split_indices":[128,127,127,10,43,136,6,0,0,0,0,0,0,0,0],"split_type":[0,0,0,0,0,0,0,0,0,0,0,0,0,0,0],"sum_hessian":[8.255319E2,4.3313562E2,3.923963E2,3.1323175E2,1.1990386E2,1.1318916E2,2.7920712E2,1.3846362E2,1.7476813E2,6.0806164E1,5.9097702E1,6.908447E1,4.4104687E1,1.5572728E2,1.2347984E2],"tree_param":{"num_deleted":"0","num_feature":"141","num_nodes":"15","size_leaf_vector":"1"}},{"base_weights":[8.785673E-3,-3.0137396E-1,3.5999045E-1,-7.050933E-1,7.6460814E-1,-6.455138E-1,7.6586443E-1,-5.410608E-3,-1.5686119E-2,1.8345142E-2,4.0959837E-3,-1.6508078E-3,-1.4513149E-2,1.5599327E-2,5.1018E-3],"categories":[],"categories_nodes":[],"categories_segments":[],"categories_sizes":[],"default_left":[0,0,0,0,0,0,0,0,0,0,0,0,0,0,0],"id":17,"left_children":[1,3,5,7,9,11,13,-1,-1,-1,-1,-1,-1,-1,-1],"loss_changes":[9.0909935E1,1.911302E2,1.6129135E2,4.5226395E1,3.4281258E1,2.7231083E1,4.418956E1,0E0,0E0,0E0,0E0,0E0,0E0,0E0,0E0],"parents":[2147483647,0,0,1,1,2,2,3,3,4,4,5,5,6,6],"right_children":[2,4,6,8,10,12,14,-1,-1,-1,-1,-1,-1,-1,-1],"split_conditions":[1E0,1E0,1E0,-1.7397471E-1,-1.6538015E-1,-7.530603E-2,3.6580774E-1,-5.410608E-3,-1.5686119E-2,1.8345142E-2,4.0959837E-3,-1.6508078E-3,-1.4513149E-2,1.5599327E-2,5.1018E-3],"split_indices":[128,127,127,40,40,40,40,0,0,0,0,0,0,0,0],"split_type":[0,0,0,0,0,0,0,0,0,0,0,0,0,0,0],"sum_hessian":[8.199219E2,4.34421E2,3.8550092E2,3.1622516E2,1.1819582E2,1.09888916E2,2.75612E2,2.0539366E2,1.1083151E2,4.5327637E1,7.286819E1,5.480877E1,5.5080143E1,1.2313348E2,1.5247852E2],"tree_param":{"num_deleted":"0","num_feature":"141","num_nodes":"15","size_leaf_vector":"1"}},{"base_weights":[-1.0892824E-2,-2.9601157E-1,3.1647244E-1,-6.953128E-1,7.221728E-1,-6.3172215E-1,7.1242267E-1,-4.9302657E-3,-1.5994003E-2,1.5380949E-2,-0E0,1.1031994E-3,-1.2237386E-2,1.49163315E-2,3.8527548E-3],"categories":[],"categories_nodes":[],"categories_segments":[],"categories_sizes":[],"default_left":[0,0,0,0,0,0,0,0,0,0,0,0,0,0,0],"id":18,"left_children":[1,3,5,7,9,11,13,-1,-1,-1,-1,-1,-1,-1,-1],"loss_changes":[7.86642E1,1.8446713E2,1.4789436E2,5.3720413E1,4.304859E1,2.7157642E1,4.912802E1,0E0,0E0,0E0,0E0,0E0,0E0,0E0,0E0],"parents":[2147483647,0,0,1,1,2,2,3,3,4,4,5,5,6,6],"right_children":[2,4,6,8,10,12,14,-1,-1,-1,-1,-1,-1,-1,-1],"split_conditions":[1E0,1E0,1E0,-1.6917908E-1,1.6969883E-1,1.828539E-1,4.370878E-1,-4.9302657E-3,-1.5994003E-2,1.5380949E-2,-0E0,1.1031994E-3,-1.2237386E-2,1.49163315E-2,3.8527548E-3],"split_indices":[128,127,127,40,40,42,40,0,0,0,0,0,0,0,0],"split_type":[0,0,0,0,0,0,0,0,0,0,0,0,0,0,0],"sum_hessian":[8.2799884E2,4.4394614E2,3.840527E2,3.2000046E2,1.2394569E2,1.1211992E2,2.719328E2,2.0555595E2,1.1444451E2,7.437685E1,4.9568844E1,3.383963E1,7.828029E1,1.2918538E2,1.4274742E2],"tree_param":{"num_deleted":"0","num_feature":"141","num_nodes":"15","size_leaf_vector":"1"}},{"base_weights":[-0E0,-6.8370974E-1,7.320305E-1,-2.4224368E-1,-9.697701E-1,1.2664571E0,4.2740086E-1,3.0696793E-3,-5.4592025E-3,-8.725943E-3,-1.549395E-2,1.8045869E-2,9.973435E-3,7.5117988E-3,-1.779038E-4],"categories":[],"categories_nodes":[],"categories_segments":[],"categories_sizes":[],"default_left":[0,0,0,0,0,0,0,0,0,0,0,0,0,0,0],"id":19,"left_children":[1,3,5,7,9,11,13,-1,-1,-1,-1,-1,-1,-1,-1],"loss_changes":[4.1566388E2,5.322812E1,6.379677E1,1.5811221E1,1.5161957E1,5.9809875E0,1.809639E1,0E0,0E0,0E0,0E0,0E0,0E0,0E0,0E0],"parents":[2147483647,0,0,1,1,2,2,3,3,4,4,5,5,6,6],"right_children":[2,4,6,8,10,12,14,-1,-1,-1,-1,-1,-1,-1,-1],"split_conditions":[1E0,-4.7013482E-1,1E0,-9.076546E-1,-7.530603E-2,-1.06532246E-1,7.960929E-1,3.0696793E-3,-5.4592025E-3,-8.725943E-3,-1.549395E-2,1.8045869E-2,9.973435E-3,7.5117988E-3,-1.779038E-4],"split_indices":[127,10,43,30,40,40,58,0,0,0,0,0,0,0,0],"split_type":[0,0,0,0,0,0,0,0,0,0,0,0,0,0,0],"sum_hessian":[8.211385E2,4.245812E2,3.9655728E2,1.6981361E2,2.547676E2,1.4020114E2,2.563561E2,4.479362E1,1.2502E2,1.15909004E2,1.3885858E2,1.07020706E2,3.3180443E1,1.9131067E2,6.504545E1],"tree_param":{"num_deleted":"0","num_feature":"141","num_nodes":"15","size_leaf_vector":"1"}},{"base_weights":[1.8164072E-2,-6.425775E-1,7.21246E-1,-2.797449E-1,-9.494298E-1,1.2458181E0,4.10813E-1,5.2981926E-3,-5.5757673E-3,-9.185968E-3,-1.491168E-2,1.739585E-2,1.08763855E-2,7.4830703E-3,2.8014637E-4],"categories":[],"categories_nodes":[],"categories_segments":[],"categories_sizes":[],"default_left":[0,0,0,0,0,0,0,0,0,0,0,0,0,0,0],"id":20,"left_children":[1,3,5,7,9,11,13,-1,-1,-1,-1,-1,-1,-1,-1],"loss_changes":[3.884874E2,4.6969955E1,6.459198E1,2.2136528E1,9.065445E0,2.7573547E0,1.6531471E1,0E0,0E0,0E0,0E0,0E0,0E0,0E0,0E0],"parents":[2147483647,0,0,1,1,2,2,3,3,4,4,5,5,6,6],"right_children":[2,4,6,8,10,12,14,-1,-1,-1,-1,-1,-1,-1,-1],"split_conditions":[1E0,-3.6686572E-1,1E0,-5.918925E-1,1E0,1E0,7.540484E-1,5.2981926E-3,-5.5757673E-3,-9.185968E-3,-1.491168E-2,1.739585E-2,1.08763855E-2,7.4830703E-3,2.8014637E-4],"split_indices":[127,5,136,29,87,135,58,0,0,0,0,0,0,0,0],"split_type":[0,0,0,0,0,0,0,0,0,0,0,0,0,0,0],"sum_hessian":[8.266726E2,4.257114E2,4.009612E2,1.9839711E2,2.2731429E2,1.4535349E2,2.5560773E2,3.389651E1,1.645006E2,1.1038938E2,1.16924904E2,1.1130916E2,3.4044327E1,1.7675502E2,7.88527E1],"tree_param":{"num_deleted":"0","num_feature":"141","num_nodes":"15","size_leaf_vector":"1"}},{"base_weights":[-0E0,-6.388874E-1,7.0338106E-1,-3.2540613E-1,-1.0685749E0,1.1872768E0,3.5071224E-1,1.6128693E-3,-5.853335E-3,-9.473682E-3,-1.5833193E-2,1.930983E-2,1.2485698E-2,7.873196E-3,2.4037488E-4],"categories":[],"categories_nodes":[],"categories_segments":[],"categories_sizes":[],"default_left":[0,0,0,0,0,0,0,0,0,0,0,0,0,0,0],"id":21,"left_children":[1,3,5,7,9,11,13,-1,-1,-1,-1,-1,-1,-1,-1],"loss_changes":[3.7380313E2,5.755005E1,6.6322556E1,1.5262297E1,6.9681396E0,7.6152344E0,1.9739294E1,0E0,0E0,0E0,0E0,0E0,0E0,0E0,0E0],"parents":[2147483647,0,0,1,1,2,2,3,3,4,4,5,5,6,6],"right_children":[2,4,6,8,10,12,14,-1,-1,-1,-1,-1,-1,-1,-1],"split_conditions":[1E0,-1.6917908E-1,1.6789353E-1,-1.0853561E0,-2.2343414E-1,-3.9691237E-1,3.7333995E-1,1.6128693E-3,-5.853335E-3,-9.473682E-3,-1.5833193E-2,1.930983E-2,1.2485698E-2,7.873196E-3,2.4037488E-4],"split_indices":[127,40,40,75,22,40,137,0,0,0,0,0,0,0,0],"split_type":[0,0,0,0,0,0,0,0,0,0,0,0,0,0,0],"sum_hessian":[8.221377E2,4.3051566E2,3.9162204E2,2.5248555E2,1.780301E2,1.6168852E2,2.2993352E2,5.3995224E1,1.9849033E2,6.1622166E1,1.1640794E2,6.1285057E1,1.0040346E2,1.27200615E2,1.02732895E2],"tree_param":{"num_deleted":"0","num_feature":"141","num_nodes":"15","size_leaf_vector":"1"}},{"base_weights":[5.258519E-3,-6.205835E-1,7.029666E-1,-4.2442134E-1,-1.1432173E0,1.0194873E0,1.864722E-1,-1.0355468E-3,-7.881796E-3,-9.231083E-3,-1.7041992E-2,1.7857596E-2,1.00296335E-2,-2.189986E-4,6.6362917E-3],"categories":[],"categories_nodes":[],"categories_segments":[],"categories_sizes":[],"default_left":[0,0,0,0,0,0,0,0,0,0,0,0,0,0,0],"id":22,"left_children":[1,3,5,7,9,11,13,-1,-1,-1,-1,-1,-1,-1,-1],"loss_changes":[3.6046417E2,4.334027E1,6.290796E1,1.9960972E1,6.0093536E0,1.8515533E1,1.0976395E1,0E0,0E0,0E0,0E0,0E0,0E0,0E0,0E0],"parents":[2147483647,0,0,1,1,2,2,3,3,4,4,5,5,6,6],"right_children":[2,4,6,8,10,12,14,-1,-1,-1,-1,-1,-1,-1,-1],"split_conditions":[1E0,1E0,5.540601E-1,-8.353417E-1,-3.3434013E-1,-1.6662736E-1,6.6018087E-1,-1.0355468E-3,-7.881796E-3,-9.231083E-3,-1.7041992E-2,1.7857596E-2,1.00296335E-2,-2.189986E-4,6.6362917E-3],"split_indices":[127,43,5,40,22,40,90,0,0,0,0,0,0,0,0],"split_type":[0,0,0,0,0,0,0,0,0,0,0,0,0,0,0],"sum_hessian":[8.1572107E2,4.295668E2,3.861543E2,3.1669052E2,1.128763E2,2.3699623E2,1.4915807E2,1.1286544E2,2.0382507E2,3.7104668E1,7.577163E1,9.0410545E1,1.4658568E2,9.180076E1,5.73573E1],"tree_param":{"num_deleted":"0","num_feature":"141","num_nodes":"15","size_leaf_vector":"1"}},{"base_weights":[1.7545061E-2,-2.0565343E-1,1.334046E-1,-7.7178264E-1,5.688673E-1,-5.2017605E-1,7.7826977E-1,-6.877391E-3,-1.5189807E-2,1.2660939E-2,3.6354118E-3,-1.967628E-3,-1.1355919E-2,1.4457459E-2,3.6694892E-3],"categories":[],"categories_nodes":[],"categories_segments":[],"categories_sizes":[],"default_left":[0,0,0,0,0,0,0,0,0,0,0,0,0,0,0],"id":23,"left_children":[1,3,5,7,9,11,13,-1,-1,-1,-1,-1,-1,-1,-1],"loss_changes":[2.204999E1,1.2723861E2,2.3571255E2,1.4531418E1,1.3589962E1,3.5741768E1,4.577121E1,0E0,0E0,0E0,0E0,0E0,0E0,0E0,0E0],"parents":[2147483647,0,0,1,1,2,2,3,3,4,4,5,5,6,6],"right_children":[2,4,6,8,10,12,14,-1,-1,-1,-1,-1,-1,-1,-1],"split_conditions":[-1.291086E-1,1E0,1E0,1E0,1E0,-3.439152E-1,5.540601E-1,-6.877391E-3,-1.5189807E-2,1.2660939E-2,3.6354118E-3,-1.967628E-3,-1.1355919E-2,1.4457459E-2,3.6694892E-3],"split_indices":[68,127,127,87,136,5,5,0,0,0,0,0,0,0,0],"split_type":[0,0,0,0,0,0,0,0,0,0,0,0,0,0,0],"sum_hessian":[8.3047125E2,2.808392E2,5.49632E2,1.6282883E2,1.1801038E2,2.726143E2,2.7701773E2,1.0643796E2,5.6390877E1,4.5290264E1,7.272012E1,1.3680968E2,1.3580461E2,1.6198532E2,1.15032425E2],"tree_param":{"num_deleted":"0","num_feature":"141","num_nodes":"15","size_leaf_vector":"1"}},{"base_weights":[-3.1374283E-2,-6.505827E-1,6.4559805E-1,-3.192976E-1,-9.2241824E-1,1.1994126E0,3.5194707E-1,-2.5985197E-3,-1.1247188E-2,-4.712239E-3,-1.3028135E-2,1.6947063E-2,9.884423E-3,6.4886087E-3,-0E0],"categories":[],"categories_nodes":[],"categories_segments":[],"categories_sizes":[],"default_left":[0,0,0,0,0,0,0,0,0,0,0,0,0,0,0],"id":24,"left_children":[1,3,5,7,9,11,13,-1,-1,-1,-1,-1,-1,-1,-1],"loss_changes":[3.481429E2,3.8112198E1,6.322342E1,1.291493E1,9.586121E0,3.6271515E0,1.3698345E1,0E0,0E0,0E0,0E0,0E0,0E0,0E0,0E0],"parents":[2147483647,0,0,1,1,2,2,3,3,4,4,5,5,6,6],"right_children":[2,4,6,8,10,12,14,-1,-1,-1,-1,-1,-1,-1,-1],"split_conditions":[1E0,-3.6686572E-1,1E0,4.8551625E-1,-8.4097856E-1,7.4363396E-2,7.540484E-1,-2.5985197E-3,-1.1247188E-2,-4.712239E-3,-1.3028135E-2,1.6947063E-2,9.884423E-3,6.4886087E-3,-0E0],"split_indices":[127,5,43,76,96,111,58,0,0,0,0,0,0,0,0],"split_type":[0,0,0,0,0,0,0,0,0,0,0,0,0,0,0],"sum_hessian":[8.208603E2,4.2936853E2,3.9149176E2,1.9724405E2,2.3212447E2,1.3208202E2,2.5940976E2,1.6608604E2,3.1158005E1,3.2912567E1,1.992119E2,1.0044718E2,3.163484E1,1.8065065E2,7.87591E1],"tree_param":{"num_deleted":"0","num_feature":"141","num_nodes":"15","size_leaf_vector":"1"}},{"base_weights":[1.6123401E-2,-5.7894796E-1,6.7133325E-1,-3.1592938E-1,-1.0670117E0,1.1054356E0,2.6479E-1,-2.2099556E-3,-8.11113E-3,-1.088344E-2,-1.5782397E-2,1.7004915E-2,1.1060453E-2,4.7725798E-3,-3.377089E-3],"categories":[],"categories_nodes":[],"categories_segments":[],"categories_sizes":[],"default_left":[0,0,0,0,0,0,0,0,0,0,0,0,0,0,0],"id":25,"left_children":[1,3,5,7,9,11,13,-1,-1,-1,-1,-1,-1,-1,-1],"loss_changes":[3.2590372E2,5.5149826E1,6.918074E1,1.2800571E1,2.5425873E0,7.0655823E0,1.22301235E1,0E0,0E0,0E0,0E0,0E0,0E0,0E0,0E0],"parents":[2147483647,0,0,1,1,2,2,3,3,4,4,5,5,6,6],"right_children":[2,4,6,8,10,12,14,-1,-1,-1,-1,-1,-1,-1,-1],"split_conditions":[1E0,-7.530603E-2,2.832665E-1,1.4744085E-1,2.1640341E-1,-1.6538015E-1,1.7804703E0,-2.2099556E-3,-8.11113E-3,-1.088344E-2,-1.5782397E-2,1.7004915E-2,1.1060453E-2,4.7725798E-3,-3.377089E-3],"split_indices":[127,40,40,96,40,40,40,0,0,0,0,0,0,0,0],"split_type":[0,0,0,0,0,0,0,0,0,0,0,0,0,0,0],"sum_hessian":[8.2582245E2,4.3230502E2,3.935174E2,2.8461096E2,1.4769409E2,1.8731967E2,2.0619774E2,1.98052E2,8.655895E1,6.748301E1,8.0211075E1,9.5469246E1,9.1850426E1,1.7412106E2,3.207667E1],"tree_param":{"num_deleted":"0","num_feature":"141","num_nodes":"15","size_leaf_vector":"1"}},{"base_weights":[-6.145909E-3,4.0661618E-1,-1.0587871E-1,-1.9612955E-1,9.984185E-1,-7.212895E-1,5.8154225E-1,2.3752118E-3,-6.280455E-3,1.606084E-2,7.74043E-3,-4.117226E-3,-1.2085185E-2,1.1680882E-2,5.357854E-4],"categories":[],"categories_nodes":[],"categories_segments":[],"categories_sizes":[],"default_left":[0,0,0,0,0,0,0,0,0,0,0,0,0,0,0],"id":26,"left_children":[1,3,5,7,9,11,13,-1,-1,-1,-1,-1,-1,-1,-1],"loss_changes":[3.4221516E1,5.8568474E1,2.8227457E2,9.890509E0,5.823967E0,2.895401E1,5.3739044E1,0E0,0E0,0E0,0E0,0E0,0E0,0E0,0E0],"parents":[2147483647,0,0,1,1,2,2,3,3,4,4,5,5,6,6],"right_children":[2,4,6,8,10,12,14,-1,-1,-1,-1,-1,-1,-1,-1],"split_conditions":[-6.638147E-1,1E0,1E0,-6.070487E-1,1.1697078E-1,-4.7013482E-1,2.118273E-1,2.3752118E-3,-6.280455E-3,1.606084E-2,7.74043E-3,-4.117226E-3,-1.2085185E-2,1.1680882E-2,5.357854E-4],"split_indices":[52,127,127,58,58,10,6,0,0,0,0,0,0,0,0],"split_type":[0,0,0,0,0,0,0,0,0,0,0,0,0,0,0],"sum_hessian":[8.128341E2,1.5518002E2,6.5765405E2,7.7055336E1,7.8124695E1,3.4753128E2,3.1012277E2,3.2516026E1,4.453931E1,4.4361076E1,3.3763615E1,1.2279779E2,2.2473349E2,1.9285991E2,1.1726288E2],"tree_param":{"num_deleted":"0","num_feature":"141","num_nodes":"15","size_leaf_vector":"1"}},{"base_weights":[9.37385E-3,-6.121251E-1,6.777721E-1,-3.1981814E-1,-1.0050805E0,1.107896E0,3.5790634E-1,-5.9724934E-3,4.070273E-3,-8.6195255E-3,-1.4954506E-2,1.0547496E-2,1.6701711E-2,3.2078513E-4,6.233106E-3],"categories":[],"categories_nodes":[],"categories_segments":[],"categories_sizes":[],"default_left":[0,0,0,0,0,0,0,0,0,0,0,0,0,0,0],"id":27,"left_children":[1,3,5,7,9,11,13,-1,-1,-1,-1,-1,-1,-1,-1],"loss_changes":[3.4837027E2,4.8835022E1,5.4446808E1,2.372302E1,7.139984E0,6.308563E0,9.459234E0,0E0,0E0,0E0,0E0,0E0,0E0,0E0,0E0],"parents":[2147483647,0,0,1,1,2,2,3,3,4,4,5,5,6,6],"right_children":[2,4,6,8,10,12,14,-1,-1,-1,-1,-1,-1,-1,-1],"split_conditions":[1E0,-1.7397471E-1,1.6969883E-1,8.533359E-1,-2.2343414E-1,-5.8666646E-1,-1.189388E-1,-5.9724934E-3,4.070273E-3,-8.6195255E-3,-1.4954506E-2,1.0547496E-2,1.6701711E-2,3.2078513E-4,6.233106E-3],"split_indices":[127,40,40,137,22,137,65,0,0,0,0,0,0,0,0],"split_type":[0,0,0,0,0,0,0,0,0,0,0,0,0,0,0],"sum_hessian":[8.287551E2,4.2895248E2,3.9980264E2,2.4969429E2,1.792582E2,1.6686772E2,2.3293492E2,2.0580481E2,4.3889477E1,6.030873E1,1.1894946E2,7.038908E1,9.6478645E1,6.533265E1,1.6760226E2],"tree_param":{"num_deleted":"0","num_feature":"141","num_nodes":"15","size_leaf_vector":"1"}},{"base_weights":[-0E0,-6.0705143E-1,6.7496854E-1,-8.609628E-1,-1.7783037E-1,1.1473796E0,4.073597E-1,-7.4891425E-3,-1.3856325E-2,1.7578523E-3,-6.0126334E-3,1.8739907E-2,1.1207977E-2,7.126169E-3,7.034125E-4],"categories":[],"categories_nodes":[],"categories_segments":[],"categories_sizes":[],"default_left":[0,0,0,0,0,0,0,0,0,0,0,0,0,0,0],"id":28,"left_children":[1,3,5,7,9,11,13,-1,-1,-1,-1,-1,-1,-1,-1],"loss_changes":[3.3806888E2,4.648709E1,4.815381E1,1.4273224E1,1.5823815E1,8.562683E0,1.2499992E1,0E0,0E0,0E0,0E0,0E0,0E0,0E0,0E0],"parents":[2147483647,0,0,1,1,2,2,3,3,4,4,5,5,6,6],"right_children":[2,4,6,8,10,12,14,-1,-1,-1,-1,-1,-1,-1,-1],"split_conditions":[1E0,2.0978397E-1,1E0,-1.17275946E-1,-6.367576E-1,-3.7322277E-1,7.6009643E-1,-7.4891425E-3,-1.3856325E-2,1.7578523E-3,-6.0126334E-3,1.8739907E-2,1.1207977E-2,7.126169E-3,7.034125E-4],"split_indices":[127,7,43,40,75,40,58,0,0,0,0,0,0,0,0],"split_type":[0,0,0,0,0,0,0,0,0,0,0,0,0,0,0],"sum_hessian":[8.1515607E2,4.2880124E2,3.8635486E2,2.667165E2,1.6208473E2,1.3571207E2,2.5064278E2,1.18594185E2,1.4812231E2,7.6679085E1,8.5405655E1,5.966601E1,7.604606E1,1.7601918E2,7.46236E1],"tree_param":{"num_deleted":"0","num_feature":"141","num_nodes":"15","size_leaf_vector":"1"}},{"base_weights":[-4.483274E-3,-6.000923E-1,6.404065E-1,-3.393647E-1,-9.4858384E-1,1.2102774E0,4.0724075E-1,-5.873109E-3,2.8697376E-3,-8.203509E-3,-1.4385197E-2,1.1921944E-2,1.799083E-2,7.976767E-3,1.0043373E-3],"categories":[],"categories_nodes":[],"categories_segments":[],"categories_sizes":[],"default_left":[0,0,0,0,0,0,0,0,0,0,0,0,0,0,0],"id":29,"left_children":[1,3,5,7,9,11,13,-1,-1,-1,-1,-1,-1,-1,-1],"loss_changes":[3.1584537E2,3.793309E1,5.1100845E1,1.6813902E1,7.274597E0,2.4994202E0,1.9207344E1,0E0,0E0,0E0,0E0,0E0,0E0,0E0,0E0],"parents":[2147483647,0,0,1,1,2,2,3,3,4,4,5,5,6,6],"right_children":[2,4,6,8,10,12,14,-1,-1,-1,-1,-1,-1,-1,-1],"split_conditions":[1E0,-1.7397471E-1,-5.7478637E-2,8.533359E-1,-1.8643934E-1,1.0026799E-1,3.7333515E-1,-5.873109E-3,2.8697376E-3,-8.203509E-3,-1.4385197E-2,1.1921944E-2,1.799083E-2,7.976767E-3,1.0043373E-3],"split_indices":[127,40,40,137,22,56,137,0,0,0,0,0,0,0,0],"split_type":[0,0,0,0,0,0,0,0,0,0,0,0,0,0,0],"sum_hessian":[8.124197E2,4.2306082E2,3.893589E2,2.460823E2,1.769785E2,1.0906185E2,2.8029703E2,2.0610844E2,3.9973858E1,6.565387E1,1.1132463E2,4.8924976E1,6.0136875E1,1.6903331E2,1.1126371E2],"tree_param":{"num_deleted":"0","num_feature":"141","num_nodes":"15","size_leaf_vector":"1"}},{"base_weights":[1.0480661E-2,-2.6522171E-1,3.1622744E-1,-6.178771E-1,6.201357E-1,-4.7642958E-1,6.3622993E-1,-4.7594095E-3,-1.3614093E-2,1.3405858E-2,-1.7552593E-4,-1.3821372E-3,-1.5753154E-2,1.4627075E-2,4.727195E-3],"categories":[],"categories_nodes":[],"categories_segments":[],"categories_sizes":[],"default_left":[0,0,0,0,0,0,0,0,0,0,0,0,0,0,0],"id":30,"left_children":[1,3,5,7,9,11,13,-1,-1,-1,-1,-1,-1,-1,-1],"loss_changes":[7.1093376E1,1.3872641E2,1.0255737E2,3.322637E1,3.4287415E1,3.1289867E1,3.7094696E1,0E0,0E0,0E0,0E0,0E0,0E0,0E0,0E0],"parents":[2147483647,0,0,1,1,2,2,3,3,4,4,5,5,6,6],"right_children":[2,4,6,8,10,12,14,-1,-1,-1,-1,-1,-1,-1,-1],"split_conditions":[1E0,1E0,1E0,-1.7154339E-1,2.1640341E-1,1.9709891E-1,1.6969883E-1,-4.7594095E-3,-1.3614093E-2,1.3405858E-2,-1.7552593E-4,-1.3821372E-3,-1.5753154E-2,1.4627075E-2,4.727195E-3],"split_indices":[128,127,127,40,40,40,40,0,0,0,0,0,0,0,0],"split_type":[0,0,0,0,0,0,0,0,0,0,0,0,0,0,0],"sum_hessian":[8.274725E2,4.3395712E2,3.9351535E2,3.1150436E2,1.2245277E2,1.1213037E2,2.8138498E2,2.012828E2,1.1022155E2,7.3831E1,4.862176E1,7.733389E1,3.479648E1,9.619207E1,1.8519292E2],"tree_param":{"num_deleted":"0","num_feature":"141","num_nodes":"15","size_leaf_vector":"1"}},{"base_weights":[-1.0317733E-2,-5.938302E-1,6.205298E-1,-2.2286516E-1,-8.794638E-1,1.4328485E-2,3.5428834E-1,1.0086483E-3,-6.755875E-3,-7.2592655E-3,-1.3315804E-2,6.4590173E-3,-1.2073439E-3],"categories":[],"categories_nodes":[],"categories_segments":[],"categories_sizes":[],"default_left":[0,0,0,0,0,0,0,0,0,0,0,0,0],"id":31,"left_children":[1,3,5,7,9,-1,11,-1,-1,-1,-1,-1,-1],"loss_changes":[3.0523822E2,4.487993E1,5.0263992E1,1.816979E1,9.7901E0,0E0,1.756039E1,0E0,0E0,0E0,0E0,0E0,0E0],"parents":[2147483647,0,0,1,1,2,2,3,3,4,4,6,6],"right_children":[2,4,6,8,10,-1,12,-1,-1,-1,-1,-1,-1],"split_conditions":[1E0,-3.6686572E-1,1E0,-3.0030662E-1,-3.053958E-1,1.4328485E-2,7.960929E-1,1.0086483E-3,-6.755875E-3,-7.2592655E-3,-1.3315804E-2,6.4590173E-3,-1.2073439E-3],"split_indices":[127,5,136,48,96,0,58,0,0,0,0,0,0],"split_type":[0,0,0,0,0,0,0,0,0,0,0,0,0],"sum_hessian":[8.192257E2,4.262924E2,3.929333E2,1.885508E2,2.3774161E2,1.3543059E2,2.5750272E2,9.354398E1,9.500681E1,8.0722984E1,1.5701862E2,1.958681E2,6.1634613E1],"tree_param":{"num_deleted":"0","num_feature":"141","num_nodes":"13","size_leaf_vector":"1"}},{"base_weights":[-1.3930343E-2,-5.855186E-1,6.1601555E-1,-2.7095103E-1,-8.478146E-1,9.105244E-1,2.135754E-1,-5.3634713E-3,3.5937717E-3,-8.508303E-3,-1.3852192E-2,1.6632253E-2,1.03602465E-2,8.276074E-3,8.40661E-4],"categories":[],"categories_nodes":[],"categories_segments":[],"categories_sizes":[],"default_left":[0,0,0,0,0,0,0,0,0,0,0,0,0,0,0],"id":32,"left_children":[1,3,5,7,9,11,13,-1,-1,-1,-1,-1,-1,-1,-1],"loss_changes":[2.962556E2,3.481276E1,4.5465744E1,1.6728254E1,8.071335E0,6.863373E0,1.0759664E1,0E0,0E0,0E0,0E0,0E0,0E0,0E0,0E0],"parents":[2147483647,0,0,1,1,2,2,3,3,4,4,5,5,6,6],"right_children":[2,4,6,8,10,12,14,-1,-1,-1,-1,-1,-1,-1,-1],"split_conditions":[1E0,-3.5192207E-1,4.802257E-1,8.5334235E-1,1E0,-6.3268024E-1,-2.1203914E-1,-5.3634713E-3,3.5937717E-3,-8.508303E-3,-1.3852192E-2,1.6632253E-2,1.03602465E-2,8.276074E-3,8.40661E-4],"split_indices":[127,5,5,137,136,42,96,0,0,0,0,0,0,0,0],"split_type":[0,0,0,0,0,0,0,0,0,0,0,0,0,0,0],"sum_hessian":[8.1275433E2,4.2685065E2,3.859037E2,1.977271E2,2.2912355E2,2.1990906E2,1.6599463E2,1.584477E2,3.9279404E1,1.3000069E2,9.912287E1,4.2859978E1,1.7704907E2,3.9551826E1,1.264428E2],"tree_param":{"num_deleted":"0","num_feature":"141","num_nodes":"15","size_leaf_vector":"1"}},{"base_weights":[1.5357564E-3,-5.5780697E-1,6.107647E-1,-2.5383595E-1,-9.845485E-1,9.5402926E-1,2.1535546E-1,-2.688612E-4,-6.0826517E-3,-1.08354585E-2,-1.6523598E-2,1.7444469E-2,1.0094025E-2,6.64782E-3,-3.0956158E-4],"categories":[],"categories_nodes":[],"categories_segments":[],"categories_sizes":[],"default_left":[0,0,0,0,0,0,0,0,0,0,0,0,0,0,0],"id":33,"left_children":[1,3,5,7,9,11,13,-1,-1,-1,-1,-1,-1,-1,-1],"loss_changes":[2.8313498E2,5.521109E1,5.316594E1,1.278964E1,5.082718E0,1.198468E1,1.4304541E1,0E0,0E0,0E0,0E0,0E0,0E0,0E0,0E0],"parents":[2147483647,0,0,1,1,2,2,3,3,4,4,5,5,6,6],"right_children":[2,4,6,8,10,12,14,-1,-1,-1,-1,-1,-1,-1,-1],"split_conditions":[1E0,-1.7397471E-1,3.6580774E-1,-2.2561294E-1,4.477161E-1,-3.9691237E-1,3.7333995E-1,-2.688612E-4,-6.0826517E-3,-1.08354585E-2,-1.6523598E-2,1.7444469E-2,1.0094025E-2,6.64782E-3,-3.0956158E-4],"split_indices":[127,40,40,30,40,40,137,0,0,0,0,0,0,0,0],"split_type":[0,0,0,0,0,0,0,0,0,0,0,0,0,0,0],"sum_hessian":[8.2047833E2,4.2719946E2,3.9327887E2,2.5286354E2,1.7433592E2,2.0759181E2,1.8568704E2,1.24513954E2,1.283496E2,1.23515724E2,5.0820198E1,5.7606693E1,1.4998512E2,8.292308E1,1.0276396E2],"tree_param":{"num_deleted":"0","num_feature":"141","num_nodes":"15","size_leaf_vector":"1"}},{"base_weights":[2.2164322E-3,-5.5729616E-1,6.0750103E-1,-1.2372643E-1,-7.9513425E-1,1.0440378E0,2.8430802E-1,6.971128E-5,-7.3268185E-3,-8.293455E-3,-1.4944065E-2,1.7396923E-2,1.0840663E-2,8.529273E-3,2.1320998E-3],"categories":[],"categories_nodes":[],"categories_segments":[],"categories_sizes":[],"default_left":[0,0,0,0,0,0,0,0,0,0,0,0,0,0,0],"id":34,"left_children":[1,3,5,7,9,11,13,-1,-1,-1,-1,-1,-1,-1,-1],"loss_changes":[2.7656467E2,4.3004944E1,5.4418503E1,9.867182E0,1.3331436E1,7.438095E0,1.0169407E1,0E0,0E0,0E0,0E0,0E0,0E0,0E0,0E0],"parents":[2147483647,0,0,1,1,2,2,3,3,4,4,5,5,6,6],"right_children":[2,4,6,8,10,12,14,-1,-1,-1,-1,-1,-1,-1,-1],"split_conditions":[1E0,-2.7816875E0,1.6969883E-1,1.6107948E-1,1.9709891E-1,-3.922152E-1,1.5775996E-1,6.971128E-5,-7.3268185E-3,-8.293455E-3,-1.4944065E-2,1.7396923E-2,1.0840663E-2,8.529273E-3,2.1320998E-3],"split_indices":[127,10,40,76,40,40,5,0,0,0,0,0,0,0,0],"split_type":[0,0,0,0,0,0,0,0,0,0,0,0,0,0,0],"sum_hessian":[8.062316E2,4.183948E2,3.8783682E2,1.5070346E2,2.6769135E2,1.6160896E2,2.2622784E2,1.1715838E2,3.354508E1,1.9308318E2,7.460816E1,5.919102E1,1.02417946E2,5.0619476E1,1.7560837E2],"tree_param":{"num_deleted":"0","num_feature":"141","num_nodes":"15","size_leaf_vector":"1"}},{"base_weights":[1.1076401E-2,-5.369357E-1,6.1350524E-1,-2.8186768E-1,-8.940749E-1,1.5852666E-2,4.075542E-1,2.6514337E-3,-4.8477817E-3,-5.472188E-3,-1.2899658E-2,7.982225E-3,1.725584E-4],"categories":[],"categories_nodes":[],"categories_segments":[],"categories_sizes":[],"default_left":[0,0,0,0,0,0,0,0,0,0,0,0,0],"id":35,"left_children":[1,3,5,7,9,-1,11,-1,-1,-1,-1,-1,-1],"loss_changes":[2.7450055E2,3.8792595E1,4.855983E1,1.2299921E1,7.1520233E0,0E0,2.4420193E1,0E0,0E0,0E0,0E0,0E0,0E0],"parents":[2147483647,0,0,1,1,2,2,3,3,4,4,6,6],"right_children":[2,4,6,8,10,-1,12,-1,-1,-1,-1,-1,-1],"split_conditions":[1E0,-1.6917908E-1,-1.6538015E-1,-1.1715481E0,-4.008984E-1,1.5852666E-2,3.7333995E-1,2.6514337E-3,-4.8477817E-3,-5.472188E-3,-1.2899658E-2,7.982225E-3,1.725584E-4],"split_indices":[127,40,40,46,56,0,137,0,0,0,0,0,0],"split_type":[0,0,0,0,0,0,0,0,0,0,0,0,0],"sum_hessian":[8.209808E2,4.2937585E2,3.9160492E2,2.543426E2,1.7503325E2,9.48258E1,2.9677914E2,3.8704453E1,2.1563815E2,3.455794E1,1.4047531E2,1.9195862E2,1.0482052E2],"tree_param":{"num_deleted":"0","num_feature":"141","num_nodes":"13","size_leaf_vector":"1"}},{"base_weights":[1.0499541E-2,-5.45211E-1,6.1304706E-1,-1.3127042E-1,-8.031312E-1,1.0887555E0,3.4003493E-1,4.3971553E-3,-3.9087986E-3,-5.668009E-3,-1.2505784E-2,1.5661305E-2,8.0183605E-3,7.159641E-3,2.2434462E-4],"categories":[],"categories_nodes":[],"categories_segments":[],"categories_sizes":[],"default_left":[0,0,0,0,0,0,0,0,0,0,0,0,0,0,0],"id":36,"left_children":[1,3,5,7,9,11,13,-1,-1,-1,-1,-1,-1,-1,-1],"loss_changes":[2.740007E2,4.469362E1,4.996884E1,1.4336825E1,1.4094589E1,5.7619476E0,1.7224007E1,0E0,0E0,0E0,0E0,0E0,0E0,0E0,0E0],"parents":[2147483647,0,0,1,1,2,2,3,3,4,4,5,5,6,6],"right_children":[2,4,6,8,10,12,14,-1,-1,-1,-1,-1,-1,-1,-1],"split_conditions":[1E0,-4.7614914E-1,1E0,-8.9047086E-1,-1.7397471E-1,-1.06532246E-1,3.7333995E-1,4.3971553E-3,-3.9087986E-3,-5.668009E-3,-1.2505784E-2,1.5661305E-2,8.0183605E-3,7.159641E-3,2.2434462E-4],"split_indices":[127,10,43,30,40,40,137,0,0,0,0,0,0,0,0],"split_type":[0,0,0,0,0,0,0,0,0,0,0,0,0,0,0],"sum_hessian":[8.078658E2,4.1972192E2,3.8814386E2,1.6371956E2,2.5600235E2,1.377883E2,2.5035558E2,4.165056E1,1.2206901E2,8.281929E1,1.7318306E2,1.0539295E2,3.2395344E1,1.4846552E2,1.0189005E2],"tree_param":{"num_deleted":"0","num_feature":"141","num_nodes":"15","size_leaf_vector":"1"}},{"base_weights":[3.3885498E-2,4.5910853E-1,-4.0800378E-2,-1.5119532E-3,8.3296245E-1,-5.5453503E-1,5.587605E-1,1.6572706E-2,4.7729434E-3,-3.164976E-3,-1.2467647E-2,1.1640701E-2,1.4730016E-3],"categories":[],"categories_nodes":[],"categories_segments":[],"categories_sizes":[],"default_left":[0,0,0,0,0,0,0,0,0,0,0,0,0],"id":37,"left_children":[1,3,5,-1,7,9,11,-1,-1,-1,-1,-1,-1],"loss_changes":[2.6873316E1,2.8039263E1,2.153482E2,0E0,1.4499966E1,4.6812744E1,4.794409E1,0E0,0E0,0E0,0E0,0E0,0E0],"parents":[2147483647,0,0,1,1,2,2,4,4,5,5,6,6],"right_children":[2,4,6,-1,8,10,12,-1,-1,-1,-1,-1,-1],"split_conditions":[-1.0629088E0,1E0,1E0,-1.5119532E-3,2.6237828E-1,-1.7397471E-1,4.1767085E-1,1.6572706E-2,4.7729434E-3,-3.164976E-3,-1.2467647E-2,1.1640701E-2,1.4730016E-3],"split_indices":[23,127,127,0,58,40,40,0,0,0,0,0,0],"split_type":[0,0,0,0,0,0,0,0,0,0,0,0,0],"sum_hessian":[8.0932733E2,1.2054777E2,6.8877954E2,4.731658E1,7.3231186E1,3.7173523E2,3.1704434E2,3.4299232E1,3.8931953E1,2.1436752E2,1.5736769E2,1.7744315E2,1.3960118E2],"tree_param":{"num_deleted":"0","num_feature":"141","num_nodes":"13","size_leaf_vector":"1"}},{"base_weights":[7.584384E-3,-5.455197E-1,5.989246E-1,-4.9964316E-2,-7.2674805E-1,1.0104328E0,3.0359313E-1,2.5214145E-3,-4.7466825E-3,-7.2625084E-3,-1.3771991E-2,1.6334683E-2,1.0407345E-2,6.2604416E-3,9.6444855E-4],"categories":[],"categories_nodes":[],"categories_segments":[],"categories_sizes":[],"default_left":[0,0,0,0,0,0,0,0,0,0,0,0,0,0,0],"id":38,"left_children":[1,3,5,7,9,11,13,-1,-1,-1,-1,-1,-1,-1,-1],"loss_changes":[2.6821835E2,3.740622E1,4.72502E1,1.0098997E1,1.5771057E1,5.944397E0,9.506016E0,0E0,0E0,0E0,0E0,0E0,0E0,0E0,0E0],"parents":[2147483647,0,0,1,1,2,2,3,3,4,4,5,5,6,6],"right_children":[2,4,6,8,10,12,14,-1,-1,-1,-1,-1,-1,-1,-1],"split_conditions":[1E0,-8.353417E-1,1.6969883E-1,-5.174374E-1,3.4925357E-1,-3.3527753E-1,8.375006E-1,2.5214145E-3,-4.7466825E-3,-7.2625084E-3,-1.3771991E-2,1.6334683E-2,1.0407345E-2,6.2604416E-3,9.6444855E-4],"split_indices":[127,40,40,76,96,40,40,0,0,0,0,0,0,0,0],"split_type":[0,0,0,0,0,0,0,0,0,0,0,0,0,0,0],"sum_hessian":[8.0957874E2,4.1773685E2,3.9184186E2,1.1385425E2,3.038826E2,1.6010774E2,2.3173413E2,6.337321E1,5.0481037E1,2.0921747E2,9.466514E1,6.517598E1,9.493177E1,1.2651859E2,1.0521553E2],"tree_param":{"num_deleted":"0","num_feature":"141","num_nodes":"15","size_leaf_vector":"1"}},{"base_weights":[-1.1696236E-2,-5.325334E-1,5.4018444E-1,-2.3361175E-1,-9.404599E-1,9.877108E-1,2.2785045E-1,1.06210406E-4,-6.492559E-3,-5.7983794E-3,-1.3725216E-2,1.4155648E-2,8.207632E-3,4.9257763E-3,-1.935588E-3],"categories":[],"categories_nodes":[],"categories_segments":[],"categories_sizes":[],"default_left":[0,0,0,0,0,0,0,0,0,0,0,0,0,0,0],"id":39,"left_children":[1,3,5,7,9,11,13,-1,-1,-1,-1,-1,-1,-1,-1],"loss_changes":[2.2769725E2,4.8959938E1,5.2821953E1,1.6225136E1,8.442932E0,3.8266602E0,1.39214325E1,0E0,0E0,0E0,0E0,0E0,0E0,0E0,0E0],"parents":[2147483647,0,0,1,1,2,2,3,3,4,4,5,5,6,6],"right_children":[2,4,6,8,10,12,14,-1,-1,-1,-1,-1,-1,-1,-1],"split_conditions":[1E0,-1.7397471E-1,1.6969883E-1,-2.3051499E-1,-6.0346824E-1,1E0,7.960929E-1,1.06210406E-4,-6.492559E-3,-5.7983794E-3,-1.3725216E-2,1.4155648E-2,8.207632E-3,4.9257763E-3,-1.935588E-3],"split_indices":[127,40,40,110,57,135,58,0,0,0,0,0,0,0,0],"split_type":[0,0,0,0,0,0,0,0,0,0,0,0,0,0,0],"sum_hessian":[7.8148627E2,4.0281717E2,3.786691E2,2.3582082E2,1.6699634E2,1.5241927E2,2.2624985E2,1.23576256E2,1.1224456E2,3.5950695E1,1.3104565E2,1.12005775E2,4.0413483E1,1.6264243E2,6.3607418E1],"tree_param":{"num_deleted":"0","num_feature":"141","num_nodes":"15","size_leaf_vector":"1"}},{"base_weights":[7.0421994E-3,-5.3834486E-1,5.9990245E-1,-2.6010653E-1,-9.196661E-1,1.0328218E0,2.8421003E-1,-4.623541E-3,2.6997752E-3,-6.2671728E-3,-1.3381464E-2,1.6626991E-2,1.1162318E-2,-1.2467674E-3,5.3667347E-3],"categories":[],"categories_nodes":[],"categories_segments":[],"categories_sizes":[],"default_left":[0,0,0,0,0,0,0,0,0,0,0,0,0,0,0],"id":40,"left_children":[1,3,5,7,9,11,13,-1,-1,-1,-1,-1,-1,-1,-1],"loss_changes":[2.6194455E2,4.3875893E1,5.2138092E1,1.1934116E1,7.089905E0,4.214081E0,1.1951265E1,0E0,0E0,0E0,0E0,0E0,0E0,0E0,0E0],"parents":[2147483647,0,0,1,1,2,2,3,3,4,4,5,5,6,6],"right_children":[2,4,6,8,10,12,14,-1,-1,-1,-1,-1,-1,-1,-1],"split_conditions":[1E0,-1.7397471E-1,1.6969883E-1,8.5334235E-1,-5.5953467E-1,-3.9691237E-1,-1.655869E-1,-4.623541E-3,2.6997752E-3,-6.2671728E-3,-1.3381464E-2,1.6626991E-2,1.1162318E-2,-1.2467674E-3,5.3667347E-3],"split_indices":[127,40,40,137,57,40,65,0,0,0,0,0,0,0,0],"split_type":[0,0,0,0,0,0,0,0,0,0,0,0,0,0,0],"sum_hessian":[7.995912E2,4.1590924E2,3.8368195E2,2.440484E2,1.7186084E2,1.5838347E2,2.2529848E2,2.0416528E2,3.988312E1,3.9451584E1,1.3240926E2,5.602948E1,1.0235399E2,5.5997395E1,1.6930107E2],"tree_param":{"num_deleted":"0","num_feature":"141","num_nodes":"15","size_leaf_vector":"1"}},{"base_weights":[-7.307759E-4,-4.9080378E-1,5.368418E-1,-3.1279215E-1,-9.859503E-1,8.0717933E-1,1.6897967E-1,-8.738116E-3,-1.8171115E-3,-8.023586E-3,-1.4372085E-2,1.5824603E-2,6.8472754E-3,5.909895E-3,-4.5758265E-4],"categories":[],"categories_nodes":[],"categories_segments":[],"categories_sizes":[],"default_left":[0,0,0,0,0,0,0,0,0,0,0,0,0,0,0],"id":41,"left_children":[1,3,5,7,9,11,13,-1,-1,-1,-1,-1,-1,-1,-1],"loss_changes":[2.1447937E2,3.680986E1,3.7840515E1,1.9644012E1,3.0543137E0,2.3872116E1,1.0675271E1,0E0,0E0,0E0,0E0,0E0,0E0,0E0,0E0],"parents":[2147483647,0,0,1,1,2,2,3,3,4,4,5,5,6,6],"right_children":[2,4,6,8,10,12,14,-1,-1,-1,-1,-1,-1,-1,-1],"split_conditions":[1E0,1E0,4.802257E-1,-2.9866138E-1,-2.4509218E-1,-1.6662736E-1,3.7332073E-1,-8.738116E-3,-1.8171115E-3,-8.023586E-3,-1.4372085E-2,1.5824603E-2,6.8472754E-3,5.909895E-3,-4.5758265E-4],"split_indices":[127,136,5,137,96,40,137,0,0,0,0,0,0,0,0],"split_type":[0,0,0,0,0,0,0,0,0,0,0,0,0,0,0],"sum_hessian":[8.0324536E2,4.2105264E2,3.8219272E2,3.1384363E2,1.0720901E2,2.1737328E2,1.6481944E2,9.7635124E1,2.1620851E2,3.2274887E1,7.493412E1,8.299538E1,1.343779E2,6.883008E1,9.5989365E1],"tree_param":{"num_deleted":"0","num_feature":"141","num_nodes":"15","size_leaf_vector":"1"}},{"base_weights":[3.3603024E-2,-4.971334E-1,6.091417E-1,-2.2910748E-1,-8.7362903E-1,9.684116E-1,2.7767107E-1,2.472493E-3,-4.6335286E-3,-7.64029E-3,-1.3323515E-2,1.5219903E-2,9.435448E-3,6.2131425E-3,7.06698E-4],"categories":[],"categories_nodes":[],"categories_segments":[],"categories_sizes":[],"default_left":[0,0,0,0,0,0,0,0,0,0,0,0,0,0,0],"id":42,"left_children":[1,3,5,7,9,11,13,-1,-1,-1,-1,-1,-1,-1,-1],"loss_changes":[2.469284E2,4.166304E1,4.528621E1,1.4174088E1,5.908493E0,6.9055786E0,9.157408E0,0E0,0E0,0E0,0E0,0E0,0E0,0E0,0E0],"parents":[2147483647,0,0,1,1,2,2,3,3,4,4,5,5,6,6],"right_children":[2,4,6,8,10,12,14,-1,-1,-1,-1,-1,-1,-1,-1],"split_conditions":[1E0,-1.6917908E-1,2.832665E-1,-1.0853561E0,-1.8643934E-1,-1.6538015E-1,3.7333995E-1,2.472493E-3,-4.6335286E-3,-7.64029E-3,-1.3323515E-2,1.5219903E-2,9.435448E-3,6.2131425E-3,7.06698E-4],"split_indices":[127,40,40,75,22,40,137,0,0,0,0,0,0,0,0],"split_type":[0,0,0,0,0,0,0,0,0,0,0,0,0,0,0],"sum_hessian":[7.9771136E2,4.1448544E2,3.8322592E2,2.4565865E2,1.688268E2,1.8048726E2,2.0273866E2,5.5843796E1,1.8981485E2,6.544353E1,1.0338328E2,9.025083E1,9.023643E1,1.0315097E2,9.958769E1],"tree_param":{"num_deleted":"0","num_feature":"141","num_nodes":"15","size_leaf_vector":"1"}},{"base_weights":[-1.3197326E-2,-5.037444E-1,5.158682E-1,-2.1683368E-1,-8.897732E-1,9.326986E-1,2.2727613E-1,1.6886214E-3,-3.8626299E-3,-6.2224385E-3,-1.2797053E-2,1.6094586E-2,9.375084E-3,4.2879335E-3,-1.9070109E-3],"categories":[],"categories_nodes":[],"categories_segments":[],"categories_sizes":[],"default_left":[0,0,0,0,0,0,0,0,0,0,0,0,0,0,0],"id":43,"left_children":[1,3,5,7,9,11,13,-1,-1,-1,-1,-1,-1,-1,-1],"loss_changes":[2.0984029E2,4.580069E1,4.593283E1,7.4256363E0,5.6177673E0,7.922882E0,9.654425E0,0E0,0E0,0E0,0E0,0E0,0E0,0E0,0E0],"parents":[2147483647,0,0,1,1,2,2,3,3,4,4,5,5,6,6],"right_children":[2,4,6,8,10,12,14,-1,-1,-1,-1,-1,-1,-1,-1],"split_conditions":[1E0,-2.0707393E-1,1.6969883E-1,-1.0978336E0,-5.98735E-1,-3.7322277E-1,8.4676224E-1,1.6886214E-3,-3.8626299E-3,-6.2224385E-3,-1.2797053E-2,1.6094586E-2,9.375084E-3,4.2879335E-3,-1.9070109E-3],"split_indices":[127,40,40,46,60,40,58,0,0,0,0,0,0,0,0],"split_type":[0,0,0,0,0,0,0,0,0,0,0,0,0,0,0],"sum_hessian":[7.9759076E2,4.1468164E2,3.8290915E2,2.4125876E2,1.7342288E2,1.5328183E2,2.2962732E2,4.3651737E1,1.9760703E2,3.774944E1,1.3567345E2,5.5427162E1,9.785466E1,1.8171034E2,4.7916985E1],"tree_param":{"num_deleted":"0","num_feature":"141","num_nodes":"15","size_leaf_vector":"1"}},{"base_weights":[-1.8041687E-2,-5.2383083E-1,5.336115E-1,1.1493047E-2,-6.5015763E-1,9.738243E-1,2.9358327E-1,3.7959563E-3,-4.873676E-3,-6.7954273E-3,-1.3800402E-2,1.62844E-2,9.501996E-3,6.9705667E-3,-4.805591E-4],"categories":[],"categories_nodes":[],"categories_segments":[],"categories_sizes":[],"default_left":[0,0,0,0,0,0,0,0,0,0,0,0,0,0,0],"id":44,"left_children":[1,3,5,7,9,11,13,-1,-1,-1,-1,-1,-1,-1,-1],"loss_changes":[2.2160385E2,2.8589806E1,3.9220863E1,9.945965E0,1.6290558E1,6.6269913E0,2.0930452E1,0E0,0E0,0E0,0E0,0E0,0E0,0E0,0E0],"parents":[2147483647,0,0,1,1,2,2,3,3,4,4,5,5,6,6],"right_children":[2,4,6,8,10,12,14,-1,-1,-1,-1,-1,-1,-1,-1],"split_conditions":[1E0,-7.0148355E-1,1E0,-8.484942E-1,1.9709891E-1,-3.922152E-1,3.7333995E-1,3.7959563E-3,-4.873676E-3,-6.7954273E-3,-1.3800402E-2,1.62844E-2,9.501996E-3,6.9705667E-3,-4.805591E-4],"split_indices":[127,64,43,40,40,40,137,0,0,0,0,0,0,0,0],"split_type":[0,0,0,0,0,0,0,0,0,0,0,0,0,0,0],"sum_hessian":[7.8350366E2,4.0954037E2,3.739633E2,7.745434E1,3.3208606E2,1.2813474E2,2.4582854E2,4.6380768E1,3.1073568E1,2.6054633E2,7.153973E1,5.2607155E1,7.552759E1,1.4183087E2,1.03997665E2],"tree_param":{"num_deleted":"0","num_feature":"141","num_nodes":"15","size_leaf_vector":"1"}},{"base_weights":[-1.47797E-2,-5.121347E-1,5.14002E-1,-2.0148861E-1,-7.7077293E-1,9.834868E-1,2.5345924E-1,9.928175E-4,-6.217152E-3,-5.9918324E-3,-1.182619E-2,1.6088687E-2,9.864804E-3,4.4631744E-3,-3.9077313E-3],"categories":[],"categories_nodes":[],"categories_segments":[],"categories_sizes":[],"default_left":[0,0,0,0,0,0,0,0,0,0,0,0,0,0,0],"id":45,"left_children":[1,3,5,7,9,11,13,-1,-1,-1,-1,-1,-1,-1,-1],"loss_changes":[2.1209596E2,3.277507E1,4.6914658E1,1.5845596E1,8.58316E0,5.492401E0,1.3690609E1,0E0,0E0,0E0,0E0,0E0,0E0,0E0,0E0],"parents":[2147483647,0,0,1,1,2,2,3,3,4,4,5,5,6,6],"right_children":[2,4,6,8,10,12,14,-1,-1,-1,-1,-1,-1,-1,-1],"split_conditions":[1E0,-3.6686572E-1,1E0,-2.4226467E-1,-1.6917908E-1,-3.9691237E-1,1.7220159E0,9.928175E-4,-6.217152E-3,-5.9918324E-3,-1.182619E-2,1.6088687E-2,9.864804E-3,4.4631744E-3,-3.9077313E-3],"split_indices":[127,5,43,30,40,40,40,0,0,0,0,0,0,0,0],"split_type":[0,0,0,0,0,0,0,0,0,0,0,0,0,0,0],"sum_hessian":[7.955486E2,4.1075116E2,3.8479745E2,1.8998312E2,2.2076804E2,1.3380864E2,2.5098882E2,9.452687E1,9.545626E1,7.457593E1,1.461921E2,5.504629E1,7.8762344E1,2.1766473E2,3.3324074E1],"tree_param":{"num_deleted":"0","num_feature":"141","num_nodes":"15","size_leaf_vector":"1"}},{"base_weights":[-1.4492486E-2,-2.478947E-1,2.525827E-1,-5.1359075E-1,4.5582297E-1,-4.574473E-1,5.4936445E-1,-3.704479E-3,-1.2277785E-2,1.5013381E-2,1.3502889E-3,1.7159162E-3,-9.309228E-3,9.753666E-3,1.7013664E-3],"categories":[],"categories_nodes":[],"categories_segments":[],"categories_sizes":[],"default_left":[0,0,0,0,0,0,0,0,0,0,0,0,0,0,0],"id":46,"left_children":[1,3,5,7,9,11,13,-1,-1,-1,-1,-1,-1,-1,-1],"loss_changes":[5.091151E1,8.231124E1,8.063412E1,3.0582832E1,2.9279146E1,1.8344889E1,2.2150719E1,0E0,0E0,0E0,0E0,0E0,0E0,0E0,0E0],"parents":[2147483647,0,0,1,1,2,2,3,3,4,4,5,5,6,6],"right_children":[2,4,6,8,10,12,14,-1,-1,-1,-1,-1,-1,-1,-1],"split_conditions":[1E0,1E0,1E0,-1.6917908E-1,-1.8884435E-1,-1.28223E-1,8.05E-1,-3.704479E-3,-1.2277785E-2,1.5013381E-2,1.3502889E-3,1.7159162E-3,-9.309228E-3,9.753666E-3,1.7013664E-3],"split_indices":[128,127,127,40,40,28,42,0,0,0,0,0,0,0,0],"split_type":[0,0,0,0,0,0,0,0,0,0,0,0,0,0,0],"sum_hessian":[7.9973376E2,4.284122E2,3.713216E2,3.122795E2,1.1613269E2,1.082903E2,2.6303128E2,2.086482E2,1.0363131E2,3.609584E1,8.003685E1,3.267318E1,7.561712E1,1.7440344E2,8.862785E1],"tree_param":{"num_deleted":"0","num_feature":"141","num_nodes":"15","size_leaf_vector":"1"}},{"base_weights":[-2.783018E-2,-2.6150146E-1,2.2929813E-1,1.600957E-1,-4.132568E-1,6.2022537E-1,-5.1691353E-2,-4.8892567E-4,6.7650042E-3,-9.56143E-3,4.9795145E-3,-0E0,1.1059066E-2,-9.843498E-3,3.1184517E-3],"categories":[],"categories_nodes":[],"categories_segments":[],"categories_sizes":[],"default_left":[0,0,0,0,0,0,0,0,0,0,0,0,0,0,0],"id":47,"left_children":[1,3,5,7,9,11,13,-1,-1,-1,-1,-1,-1,-1,-1],"loss_changes":[4.8765594E1,2.7726341E1,4.2848785E1,9.03624E0,8.256769E1,2.3415695E1,4.820131E1,0E0,0E0,0E0,0E0,0E0,0E0,0E0,0E0],"parents":[2147483647,0,0,1,1,2,2,3,3,4,4,5,5,6,6],"right_children":[2,4,6,8,10,12,14,-1,-1,-1,-1,-1,-1,-1,-1],"split_conditions":[1E0,-7.734905E-1,3.4998554E-1,5.4670054E-1,1E0,1E0,1E0,-4.8892567E-4,6.7650042E-3,-9.56143E-3,4.9795145E-3,-0E0,1.1059066E-2,-9.843498E-3,3.1184517E-3],"split_indices":[128,75,42,14,127,127,127,0,0,0,0,0,0,0,0],"split_type":[0,0,0,0,0,0,0,0,0,0,0,0,0,0,0],"sum_hessian":[7.9431976E2,4.176961E2,3.766237E2,1.091702E2,3.085259E2,1.5739641E2,2.1922726E2,7.0644966E1,3.852523E1,2.2011145E2,8.8414474E1,4.3762714E1,1.136337E2,6.368465E1,1.5554262E2],"tree_param":{"num_deleted":"0","num_feature":"141","num_nodes":"15","size_leaf_vector":"1"}},{"base_weights":[6.029332E-3,-2.6479396E-1,3.1320623E-1,-5.312575E-1,4.4512942E-1,-3.541601E-1,5.791333E-1,-3.7524176E-3,-1.274325E-2,1.4967833E-2,4.8166083E-4,4.2202754E-4,-1.2389487E-2,9.421367E-3,-7.3683664E-4],"categories":[],"categories_nodes":[],"categories_segments":[],"categories_sizes":[],"default_left":[0,0,0,0,0,0,0,0,0,0,0,0,0,0,0],"id":48,"left_children":[1,3,5,7,9,11,13,-1,-1,-1,-1,-1,-1,-1,-1],"loss_changes":[6.821914E1,8.283426E1,6.9144714E1,3.3715294E1,3.416131E1,2.7163986E1,2.6677498E1,0E0,0E0,0E0,0E0,0E0,0E0,0E0,0E0],"parents":[2147483647,0,0,1,1,2,2,3,3,4,4,5,5,6,6],"right_children":[2,4,6,8,10,12,14,-1,-1,-1,-1,-1,-1,-1,-1],"split_conditions":[1E0,1E0,1E0,-1.6917908E-1,-1.8884435E-1,9.863745E-2,8.343907E-1,-3.7524176E-3,-1.274325E-2,1.4967833E-2,4.8166083E-4,4.2202754E-4,-1.2389487E-2,9.421367E-3,-7.3683664E-4],"split_indices":[128,127,127,40,40,40,58,0,0,0,0,0,0,0,0],"split_type":[0,0,0,0,0,0,0,0,0,0,0,0,0,0,0],"sum_hessian":[8.039747E2,4.2611404E2,3.778606E2,3.11072E2,1.1504206E2,1.06601006E2,2.7125958E2,2.0646538E2,1.0460663E2,3.9632675E1,7.5409386E1,6.554865E1,4.1052353E1,2.2079465E2,5.046494E1],"tree_param":{"num_deleted":"0","num_feature":"141","num_nodes":"15","size_leaf_vector":"1"}},{"base_weights":[-4.029222E-3,-4.9342525E-1,5.340564E-1,-2.0946932E-1,-7.423452E-1,1.2693266E-2,2.2122382E-1,3.2058603E-3,-4.668486E-3,-2.5047553E-3,-1.0723892E-2,4.630065E-3,-1.3095842E-3],"categories":[],"categories_nodes":[],"categories_segments":[],"categories_sizes":[],"default_left":[0,0,0,0,0,0,0,0,0,0,0,0,0],"id":49,"left_children":[1,3,5,7,9,-1,11,-1,-1,-1,-1,-1,-1],"loss_changes":[2.1366568E2,2.9454193E1,5.291516E1,1.4859175E1,9.65551E0,0E0,1.0702167E1,0E0,0E0,0E0,0E0,0E0,0E0],"parents":[2147483647,0,0,1,1,2,2,3,3,4,4,6,6],"right_children":[2,4,6,8,10,-1,12,-1,-1,-1,-1,-1,-1],"split_conditions":[1E0,-3.5192207E-1,1.6969883E-1,-9.076546E-1,-8.4097856E-1,1.2693266E-2,7.960929E-1,3.2058603E-3,-4.668486E-3,-2.5047553E-3,-1.0723892E-2,4.630065E-3,-1.3095842E-3],"split_indices":[127,5,40,30,96,0,58,0,0,0,0,0,0],"split_type":[0,0,0,0,0,0,0,0,0,0,0,0,0],"sum_hessian":[8.005049E2,4.2008063E2,3.8042426E2,1.9982246E2,2.2025815E2,1.5375119E2,2.2667307E2,4.7911995E1,1.5191048E2,3.187952E1,1.8837863E2,1.6088794E2,6.5785126E1],"tree_param":{"num_deleted":"0","num_feature":"141","num_nodes":"13","size_leaf_vector":"1"}},{"base_weights":[1.4121035E-2,5.545549E-1,-4.8162345E-2,1.6870318E-3,1.1933922E-2,-5.062338E-1,4.601122E-1,-4.123754E-3,-1.1156945E-2,1.1371666E-2,2.3517797E-3],"categories":[],"categories_nodes":[],"categories_segments":[],"categories_sizes":[],"default_left":[0,0,0,0,0,0,0,0,0,0,0],"id":50,"left_children":[1,3,5,-1,-1,7,9,-1,-1,-1,-1],"loss_changes":[2.802608E1,1.260881E1,1.676009E2,0E0,0E0,2.4523338E1,3.8969887E1,0E0,0E0,0E0,0E0],"parents":[2147483647,0,0,1,1,2,2,5,5,6,6],"right_children":[2,4,6,-1,-1,8,10,-1,-1,-1,-1],"split_conditions":[-9.941199E-1,1E0,1E0,1.6870318E-3,1.1933922E-2,-7.530603E-2,1.6969883E-1,-4.123754E-3,-1.1156945E-2,1.1371666E-2,2.3517797E-3],"split_indices":[52,127,127,0,0,40,40,0,0,0,0],"split_type":[0,0,0,0,0,0,0,0,0,0,0],"sum_hessian":[7.894539E2,8.0832535E1,7.086214E2,3.998789E1,4.084465E1,3.735237E2,3.350977E2,2.4861446E2,1.2490926E2,1.3090492E2,2.0419278E2],"tree_param":{"num_deleted":"0","num_feature":"141","num_nodes":"11","size_leaf_vector":"1"}},{"base_weights":[1.1081121E-2,-4.8025298E-1,5.4229516E-1,-2.4352653E-1,-8.12589E-1,8.498608E-1,2.0186731E-1,3.118605E-4,-5.3504203E-3,-5.5471445E-3,-1.2774938E-2,7.987618E-3,1.413543E-2,5.7908054E-3,5.5692024E-5],"categories":[],"categories_nodes":[],"categories_segments":[],"categories_sizes":[],"default_left":[0,0,0,0,0,0,0,0,0,0,0,0,0,0,0],"id":51,"left_children":[1,3,5,7,9,11,13,-1,-1,-1,-1,-1,-1,-1,-1],"loss_changes":[2.082755E2,3.1885696E1,3.9459984E1,1.1712702E1,9.999489E0,9.48645E0,9.004179E0,0E0,0E0,0E0,0E0,0E0,0E0,0E0,0E0],"parents":[2147483647,0,0,1,1,2,2,3,3,4,4,5,5,6,6],"right_children":[2,4,6,8,10,12,14,-1,-1,-1,-1,-1,-1,-1,-1],"split_conditions":[1E0,-1.7397471E-1,3.6580774E-1,-4.851062E-1,-6.97435E-1,1.0026799E-1,3.7333515E-1,3.118605E-4,-5.3504203E-3,-5.5471445E-3,-1.2774938E-2,7.987618E-3,1.413543E-2,5.7908054E-3,5.5692024E-5],"split_indices":[127,40,40,48,137,56,137,0,0,0,0,0,0,0,0],"split_type":[0,0,0,0,0,0,0,0,0,0,0,0,0,0,0],"sum_hessian":[7.8682794E2,4.081245E2,3.7870343E2,2.4222443E2,1.659001E2,1.958046E2,1.8289885E2,9.292892E1,1.4929552E2,5.557665E1,1.1032345E2,1.0554455E2,9.026005E1,7.850546E1,1.0439339E2],"tree_param":{"num_deleted":"0","num_feature":"141","num_nodes":"15","size_leaf_vector":"1"}},{"base_weights":[-1.1392147E-3,-4.5636302E-1,4.9388903E-1,-1.7767113E-1,-8.4639007E-1,1.0426929E0,2.913831E-1,-3.6639948E-3,3.5921652E-3,-8.665833E-3,-1.3375381E-2,9.7060865E-3,1.595623E-2,6.1587743E-3,-8.277715E-5],"categories":[],"categories_nodes":[],"categories_segments":[],"categories_sizes":[],"default_left":[0,0,0,0,0,0,0,0,0,0,0,0,0,0,0],"id":52,"left_children":[1,3,5,7,9,11,13,-1,-1,-1,-1,-1,-1,-1,-1],"loss_changes":[1.8081348E2,4.487298E1,4.1800423E1,1.2575403E1,3.9432297E0,3.1940918E0,1.6125793E1,0E0,0E0,0E0,0E0,0E0,0E0,0E0,0E0],"parents":[2147483647,0,0,1,1,2,2,3,3,4,4,5,5,6,6],"right_children":[2,4,6,8,10,12,14,-1,-1,-1,-1,-1,-1,-1,-1],"split_conditions":[1E0,-1.7397471E-1,-9.665262E-2,6.4259243E-1,-4.6666527E-1,1.0026799E-1,3.7333995E-1,-3.6639948E-3,3.5921652E-3,-8.665833E-3,-1.3375381E-2,9.7060865E-3,1.595623E-2,6.1587743E-3,-8.277715E-5],"split_indices":[127,40,40,14,137,56,137,0,0,0,0,0,0,0,0],"split_type":[0,0,0,0,0,0,0,0,0,0,0,0,0,0,0],"sum_hessian":[7.910069E2,4.12986E2,3.780209E2,2.4414105E2,1.6884494E2,9.807886E1,2.7994205E2,2.004811E2,4.365997E1,9.425232E1,7.459262E1,4.4780277E1,5.329858E1,1.7377206E2,1.06169975E2],"tree_param":{"num_deleted":"0","num_feature":"141","num_nodes":"15","size_leaf_vector":"1"}},{"base_weights":[2.0167463E-2,-2.1210882E-1,2.8240076E-1,-4.5791632E-1,4.5175013E-1,-3.877128E-1,5.576334E-1,-2.901615E-3,-1.1638255E-2,1.5693309E-2,-3.5481688E-5,3.8315542E-3,-9.375336E-3,1.041318E-2,8.470158E-4],"categories":[],"categories_nodes":[],"categories_segments":[],"categories_sizes":[],"default_left":[0,0,0,0,0,0,0,0,0,0,0,0,0,0,0],"id":53,"left_children":[1,3,5,7,9,11,13,-1,-1,-1,-1,-1,-1,-1,-1],"loss_changes":[4.9547115E1,7.063328E1,7.131729E1,3.1673103E1,4.170451E1,2.7202044E1,3.228843E1,0E0,0E0,0E0,0E0,0E0,0E0,0E0,0E0],"parents":[2147483647,0,0,1,1,2,2,3,3,4,4,5,5,6,6],"right_children":[2,4,6,8,10,12,14,-1,-1,-1,-1,-1,-1,-1,-1],"split_conditions":[1E0,1E0,1E0,-1.6917908E-1,-1.5050946E-1,1.828539E-1,8.05E-1,-2.901615E-3,-1.1638255E-2,1.5693309E-2,-3.5481688E-5,3.8315542E-3,-9.375336E-3,1.041318E-2,8.470158E-4],"split_indices":[128,127,127,40,40,42,42,0,0,0,0,0,0,0,0],"split_type":[0,0,0,0,0,0,0,0,0,0,0,0,0,0,0],"sum_hessian":[7.9556055E2,4.2056473E2,3.749958E2,3.0833478E2,1.1222994E2,1.080635E2,2.6693228E2,2.0489761E2,1.0343717E2,4.1114376E1,7.111557E1,3.4937397E1,7.312611E1,1.7592165E2,9.101064E1],"tree_param":{"num_deleted":"0","num_feature":"141","num_nodes":"15","size_leaf_vector":"1"}},{"base_weights":[-9.295994E-3,-4.8843005E-1,5.1563865E-1,-4.27013E-2,-6.5598834E-1,9.3683803E-1,2.2796944E-1,3.1430454E-3,-3.5353724E-3,-7.0654643E-3,-1.2464281E-2,1.5394732E-2,9.883099E-3,9.034054E-3,1.6528247E-3],"categories":[],"categories_nodes":[],"categories_segments":[],"categories_sizes":[],"default_left":[0,0,0,0,0,0,0,0,0,0,0,0,0,0,0],"id":54,"left_children":[1,3,5,7,9,11,13,-1,-1,-1,-1,-1,-1,-1,-1],"loss_changes":[2.0183246E2,3.0868385E1,4.5530617E1,8.656365E0,9.069397E0,4.456375E0,1.0889151E1,0E0,0E0,0E0,0E0,0E0,0E0,0E0,0E0],"parents":[2147483647,0,0,1,1,2,2,3,3,4,4,5,5,6,6],"right_children":[2,4,6,8,10,12,14,-1,-1,-1,-1,-1,-1,-1,-1],"split_conditions":[1E0,-8.353417E-1,1.6969883E-1,-2.2403587E-1,5.10901E-1,-3.922152E-1,-4.1314667E-1,3.1430454E-3,-3.5353724E-3,-7.0654643E-3,-1.2464281E-2,1.5394732E-2,9.883099E-3,9.034054E-3,1.6528247E-3],"split_indices":[127,40,40,29,70,40,108,0,0,0,0,0,0,0,0],"split_type":[0,0,0,0,0,0,0,0,0,0,0,0,0,0,0],"sum_hessian":[7.914537E2,4.1463907E2,3.768146E2,1.1539965E2,2.992394E2,1.4954712E2,2.2726749E2,4.9965355E1,6.5434296E1,2.2658896E2,7.2650475E1,5.3518433E1,9.602869E1,3.6111137E1,1.9115636E2],"tree_param":{"num_deleted":"0","num_feature":"141","num_nodes":"15","size_leaf_vector":"1"}},{"base_weights":[2.294598E-2,-4.1705146E-1,4.9642706E-1,-1.9461343E-1,-7.508409E-1,1.3264867E-2,2.923248E-1,-3.7225643E-3,2.8884856E-3,-5.2802144E-3,-1.1938585E-2,6.210518E-3,-3.0617608E-4],"categories":[],"categories_nodes":[],"categories_segments":[],"categories_sizes":[],"default_left":[0,0,0,0,0,0,0,0,0,0,0,0,0],"id":55,"left_children":[1,3,5,7,9,-1,11,-1,-1,-1,-1,-1,-1],"loss_changes":[1.6451007E2,2.9788704E1,4.015412E1,1.0278517E1,8.274498E0,0E0,1.7057335E1,0E0,0E0,0E0,0E0,0E0,0E0],"parents":[2147483647,0,0,1,1,2,2,3,3,4,4,6,6],"right_children":[2,4,6,8,10,-1,12,-1,-1,-1,-1,-1,-1],"split_conditions":[1E0,-1.6917908E-1,-5.7478637E-2,8.533359E-1,-2.2343414E-1,1.3264867E-2,3.7333995E-1,-3.7225643E-3,2.8884856E-3,-5.2802144E-3,-1.1938585E-2,6.210518E-3,-3.0617608E-4],"split_indices":[127,40,40,137,22,0,137,0,0,0,0,0,0],"split_type":[0,0,0,0,0,0,0,0,0,0,0,0,0],"sum_hessian":[7.777889E2,4.024559E2,3.7533298E2,2.4526624E2,1.5718968E2,1.0091852E2,2.7441446E2,2.028829E2,4.2383327E1,5.6428074E1,1.00761604E2,1.7315323E2,1.0126123E2],"tree_param":{"num_deleted":"0","num_feature":"141","num_nodes":"13","size_leaf_vector":"1"}},{"base_weights":[6.5001003E-3,-4.4601154E-1,4.9852845E-1,-1.9614989E-1,-8.22603E-1,8.1262285E-1,1.6163161E-1,-3.75871E-3,2.9046969E-3,-7.8086713E-3,-1.3150702E-2,1.399516E-2,7.5943465E-3,3.4288834E-3,-3.6015764E-3],"categories":[],"categories_nodes":[],"categories_segments":[],"categories_sizes":[],"default_left":[0,0,0,0,0,0,0,0,0,0,0,0,0,0,0],"id":56,"left_children":[1,3,5,7,9,11,13,-1,-1,-1,-1,-1,-1,-1,-1],"loss_changes":[1.7581033E2,3.799758E1,3.943135E1,1.0537262E1,5.236862E0,1.0130753E1,9.162986E0,0E0,0E0,0E0,0E0,0E0,0E0,0E0,0E0],"parents":[2147483647,0,0,1,1,2,2,3,3,4,4,5,5,6,6],"right_children":[2,4,6,8,10,12,14,-1,-1,-1,-1,-1,-1,-1,-1],"split_conditions":[1E0,-1.7154339E-1,3.6580774E-1,8.533359E-1,1.073224E-1,-1.7397471E-1,1.7220159E0,-3.75871E-3,2.9046969E-3,-7.8086713E-3,-1.3150702E-2,1.399516E-2,7.5943465E-3,3.4288834E-3,-3.6015764E-3],"split_indices":[127,40,40,137,34,40,40,0,0,0,0,0,0,0,0],"split_type":[0,0,0,0,0,0,0,0,0,0,0,0,0,0,0],"sum_hessian":[7.779566E2,4.045539E2,3.7340274E2,2.4670659E2,1.5784729E2,1.9023444E2,1.8316829E2,2.0379575E2,4.2910843E1,8.02488E1,7.759849E1,8.1423965E1,1.0881047E2,1.5063672E2,3.2531567E1],"tree_param":{"num_deleted":"0","num_feature":"141","num_nodes":"15","size_leaf_vector":"1"}},{"base_weights":[-7.058243E-3,-4.519988E-1,4.8724288E-1,-2.7216148E-1,-8.234997E-1,8.817912E-1,2.2593693E-1,1.4802638E-3,-4.6109725E-3,-5.629881E-3,-1.3023083E-2,1.4983246E-2,9.053963E-3,4.13342E-3,-2.668496E-3],"categories":[],"categories_nodes":[],"categories_segments":[],"categories_sizes":[],"default_left":[0,0,0,0,0,0,0,0,0,0,0,0,0,0,0],"id":57,"left_children":[1,3,5,7,9,11,13,-1,-1,-1,-1,-1,-1,-1,-1],"loss_changes":[1.7355656E2,2.716426E1,3.775087E1,9.746016E0,8.068779E0,5.366356E0,9.834592E0,0E0,0E0,0E0,0E0,0E0,0E0,0E0,0E0],"parents":[2147483647,0,0,1,1,2,2,3,3,4,4,5,5,6,6],"right_children":[2,4,6,8,10,12,14,-1,-1,-1,-1,-1,-1,-1,-1],"split_conditions":[1E0,-7.530603E-2,1.6969883E-1,-5.485028E-1,-2.4771695E-1,-3.9691237E-1,9.7864234E-1,1.4802638E-3,-4.6109725E-3,-5.629881E-3,-1.3023083E-2,1.4983246E-2,9.053963E-3,4.13342E-3,-2.668496E-3],"split_indices":[127,40,40,18,22,40,86,0,0,0,0,0,0,0,0],"split_type":[0,0,0,0,0,0,0,0,0,0,0,0,0,0,0],"sum_hessian":[7.777137E2,4.1022864E2,3.6748505E2,2.807266E2,1.2950204E2,1.4288034E2,2.2460472E2,4.8142803E1,2.3258379E2,4.521897E1,8.4283066E1,5.0220192E1,9.266015E1,1.8681265E2,3.7792065E1],"tree_param":{"num_deleted":"0","num_feature":"141","num_nodes":"15","size_leaf_vector":"1"}},{"base_weights":[9.151347E-3,-4.543311E-1,5.0305265E-1,-2.1820031E-1,-7.932557E-1,8.8168925E-1,2.486336E-1,-4.2051687E-3,2.794091E-3,-7.499945E-3,-1.3437052E-2,1.5064441E-2,9.193648E-3,8.634809E-3,1.9145972E-3],"categories":[],"categories_nodes":[],"categories_segments":[],"categories_sizes":[],"default_left":[0,0,0,0,0,0,0,0,0,0,0,0,0,0,0],"id":58,"left_children":[1,3,5,7,9,11,13,-1,-1,-1,-1,-1,-1,-1,-1],"loss_changes":[1.79549E2,3.1698036E1,3.589865E1,1.1858357E1,7.003395E0,5.260147E0,9.707849E0,0E0,0E0,0E0,0E0,0E0,0E0,0E0,0E0],"parents":[2147483647,0,0,1,1,2,2,3,3,4,4,5,5,6,6],"right_children":[2,4,6,8,10,12,14,-1,-1,-1,-1,-1,-1,-1,-1],"split_conditions":[1E0,-1.7397471E-1,1.6969883E-1,8.533167E-1,1.9709891E-1,-3.9691237E-1,-7.083479E-1,-4.2051687E-3,2.794091E-3,-7.499945E-3,-1.3437052E-2,1.5064441E-2,9.193648E-3,8.634809E-3,1.9145972E-3],"split_indices":[127,40,40,137,40,40,52,0,0,0,0,0,0,0,0],"split_type":[0,0,0,0,0,0,0,0,0,0,0,0,0,0,0],"sum_hessian":[7.7280225E2,3.9797275E2,3.7482953E2,2.383118E2,1.5966095E2,1.469532E2,2.2787633E2,1.9335156E2,4.4960236E1,9.104453E1,6.861642E1,4.8743645E1,9.820956E1,4.013548E1,1.8774084E2],"tree_param":{"num_deleted":"0","num_feature":"141","num_nodes":"15","size_leaf_vector":"1"}},{"base_weights":[-5.0359652E-3,-2.2541901E-1,2.4176882E-1,-4.5228767E-1,3.757856E-1,-3.2841414E-1,4.811419E-1,5.026294E-4,-8.39479E-3,1.308267E-2,5.764731E-4,2.805245E-3,-9.169364E-3,8.935927E-3,-7.8224984E-4],"categories":[],"categories_nodes":[],"categories_segments":[],"categories_sizes":[],"default_left":[0,0,0,0,0,0,0,0,0,0,0,0,0,0,0],"id":59,"left_children":[1,3,5,7,9,11,13,-1,-1,-1,-1,-1,-1,-1,-1],"loss_changes":[4.318132E1,5.79094E1,5.1449654E1,2.9961197E1,2.4036165E1,2.4193079E1,3.037627E1,0E0,0E0,0E0,0E0,0E0,0E0,0E0,0E0],"parents":[2147483647,0,0,1,1,2,2,3,3,4,4,5,5,6,6],"right_children":[2,4,6,8,10,12,14,-1,-1,-1,-1,-1,-1,-1,-1],"split_conditions":[1E0,1E0,1E0,-7.734905E-1,-1.7397471E-1,-6.732184E-2,7.6009643E-1,5.026294E-4,-8.39479E-3,1.308267E-2,5.764731E-4,2.805245E-3,-9.169364E-3,8.935927E-3,-7.8224984E-4],"split_indices":[128,127,127,75,40,111,58,0,0,0,0,0,0,0,0],"split_type":[0,0,0,0,0,0,0,0,0,0,0,0,0,0,0],"sum_hessian":[7.759991E2,4.1171307E2,3.64286E2,3.002972E2,1.1141586E2,1.0648418E2,2.5780182E2,8.494155E1,2.1535567E2,3.570084E1,7.571503E1,4.3291183E1,6.3192997E1,1.86705E2,7.109682E1],"tree_param":{"num_deleted":"0","num_feature":"141","num_nodes":"15","size_leaf_vector":"1"}},{"base_weights":[2.5365375E-2,-3.36802E-1,4.2605728E-1,-8.7990694E-2,-7.0801324E-1,9.75615E-1,2.1487872E-1,4.8454986E-3,-2.939594E-3,-5.0900015E-3,-1.145758E-2,1.55412E-2,8.88889E-3,5.219719E-3,6.724536E-5],"categories":[],"categories_nodes":[],"categories_segments":[],"categories_sizes":[],"default_left":[0,0,0,0,0,0,0,0,0,0,0,0,0,0,0],"id":60,"left_children":[1,3,5,7,9,11,13,-1,-1,-1,-1,-1,-1,-1,-1],"loss_changes":[1.1621926E2,3.830256E1,4.351558E1,1.709931E1,8.192146E0,4.574089E0,1.087911E1,0E0,0E0,0E0,0E0,0E0,0E0,0E0,0E0],"parents":[2147483647,0,0,1,1,2,2,3,3,4,4,5,5,6,6],"right_children":[2,4,6,8,10,12,14,-1,-1,-1,-1,-1,-1,-1,-1],"split_conditions":[1E0,-1.7397471E-1,-5.7478637E-2,-1.0853561E0,-1.8643934E-1,-3.9691237E-1,6.756816E-1,4.8454986E-3,-2.939594E-3,-5.0900015E-3,-1.145758E-2,1.55412E-2,8.88889E-3,5.219719E-3,6.724536E-5],"split_indices":[127,40,40,75,22,40,40,0,0,0,0,0,0,0,0],"split_type":[0,0,0,0,0,0,0,0,0,0,0,0,0,0,0],"sum_hessian":[7.875741E2,4.1286728E2,3.747068E2,2.5027657E2,1.6259071E2,1.005008E2,2.74206E2,5.5581432E1,1.9469513E2,6.2722633E1,9.986807E1,5.0810814E1,4.9689987E1,1.4146713E2,1.3273888E2],"tree_param":{"num_deleted":"0","num_feature":"141","num_nodes":"15","size_leaf_vector":"1"}},{"base_weights":[2.7472392E-2,-1.9354814E-1,2.8064707E-1,-4.1666123E-1,4.149342E-1,-2.4351437E-1,4.9289605E-1,4.6688598E-4,-7.7805026E-3,1.3938828E-2,8.460497E-4,2.7022709E-3,-9.109442E-3,8.552164E-3,-5.406158E-4],"categories":[],"categories_nodes":[],"categories_segments":[],"categories_sizes":[],"default_left":[0,0,0,0,0,0,0,0,0,0,0,0,0,0,0],"id":61,"left_children":[1,3,5,7,9,11,13,-1,-1,-1,-1,-1,-1,-1,-1],"loss_changes":[4.478512E1,5.8251198E1,4.2164886E1,2.648344E1,2.608196E1,2.3948233E1,2.4439415E1,0E0,0E0,0E0,0E0,0E0,0E0,0E0,0E0],"parents":[2147483647,0,0,1,1,2,2,3,3,4,4,5,5,6,6],"right_children":[2,4,6,8,10,12,14,-1,-1,-1,-1,-1,-1,-1,-1],"split_conditions":[1E0,1E0,1E0,-7.4864614E-1,-1.8884435E-1,3.530988E-1,7.960929E-1,4.6688598E-4,-7.7805026E-3,1.3938828E-2,8.460497E-4,2.7022709E-3,-9.109442E-3,8.552164E-3,-5.406158E-4],"split_indices":[128,127,127,75,40,58,58,0,0,0,0,0,0,0,0],"split_type":[0,0,0,0,0,0,0,0,0,0,0,0,0,0,0],"sum_hessian":[7.81889E2,4.1613446E2,3.6575455E2,3.059919E2,1.10142525E2,1.0426169E2,2.6149286E2,8.7689354E1,2.1830257E2,3.55666E1,7.457593E1,5.2387695E1,5.1873993E1,1.9990752E2,6.158534E1],"tree_param":{"num_deleted":"0","num_feature":"141","num_nodes":"15","size_leaf_vector":"1"}},{"base_weights":[1.6186982E-2,-3.942461E-1,4.737829E-1,-1.6805796E-1,-7.4440396E-1,1.3807691E-2,2.930791E-1,1.0190805E-3,-5.216724E-3,-5.118548E-3,-1.1977173E-2,5.2051423E-3,-1.8900178E-3],"categories":[],"categories_nodes":[],"categories_segments":[],"categories_sizes":[],"default_left":[0,0,0,0,0,0,0,0,0,0,0,0,0],"id":62,"left_children":[1,3,5,7,9,-1,11,-1,-1,-1,-1,-1,-1],"loss_changes":[1.4727533E2,3.2152245E1,3.890207E1,1.5439413E1,8.906807E0,0E0,1.4386835E1,0E0,0E0,0E0,0E0,0E0,0E0],"parents":[2147483647,0,0,1,1,2,2,3,3,4,4,6,6],"right_children":[2,4,6,8,10,-1,12,-1,-1,-1,-1,-1,-1],"split_conditions":[1E0,-1.6917908E-1,-1.6662736E-1,-2.6031867E-1,-2.2343414E-1,1.3807691E-2,1.1635759E0,1.0190805E-3,-5.216724E-3,-5.118548E-3,-1.1977173E-2,5.2051423E-3,-1.8900178E-3],"split_indices":[127,40,40,110,22,0,42,0,0,0,0,0,0],"split_type":[0,0,0,0,0,0,0,0,0,0,0,0,0],"sum_hessian":[7.718525E2,4.061849E2,3.6566757E2,2.5035617E2,1.5582872E2,8.170185E1,2.8396573E2,1.2119749E2,1.2915869E2,5.710005E1,9.872867E1,2.292398E2,5.4725918E1],"tree_param":{"num_deleted":"0","num_feature":"141","num_nodes":"13","size_leaf_vector":"1"}},{"base_weights":[-5.0917915E-3,3.8625547E-1,-9.076906E-2,9.050151E-3,7.766117E-1,-4.7719458E-1,3.3954313E-1,3.6720182E-3,-3.8008096E-3,1.3304476E-2,5.752876E-3,-4.1931793E-3,-1.1680505E-2,1.0025774E-2,9.499937E-4],"categories":[],"categories_nodes":[],"categories_segments":[],"categories_sizes":[],"default_left":[0,0,0,0,0,0,0,0,0,0,0,0,0,0,0],"id":63,"left_children":[1,3,5,7,9,11,13,-1,-1,-1,-1,-1,-1,-1,-1],"loss_changes":[2.654077E1,2.029284E1,1.0782491E2,7.184132E0,4.3513374E0,2.1536644E1,3.49658E1,0E0,0E0,0E0,0E0,0E0,0E0,0E0,0E0],"parents":[2147483647,0,0,1,1,2,2,3,3,4,4,5,5,6,6],"right_children":[2,4,6,8,10,12,14,-1,-1,-1,-1,-1,-1,-1,-1],"split_conditions":[-7.083479E-1,1E0,1E0,-4.2399028E-1,2.832665E-1,9.863745E-2,1.6969883E-1,3.6720182E-3,-3.8008096E-3,1.3304476E-2,5.752876E-3,-4.1931793E-3,-1.1680505E-2,1.0025774E-2,9.499937E-4],"split_indices":[52,127,127,99,40,40,40,0,0,0,0,0,0,0,0],"split_type":[0,0,0,0,0,0,0,0,0,0,0,0,0,0,0],"sum_hessian":[7.715101E2,1.3537944E2,6.361306E2,7.115209E1,6.422735E1,3.3596097E2,3.0016965E2,3.8729897E1,3.24222E1,3.2381824E1,3.1845526E1,2.5117717E2,8.4783806E1,1.1120952E2,1.8896014E2],"tree_param":{"num_deleted":"0","num_feature":"141","num_nodes":"15","size_leaf_vector":"1"}},{"base_weights":[5.585715E-4,-2.4207312E-1,2.8242576E-1,1.4099713E-1,-3.8488874E-1,6.0166883E-1,4.9544998E-2,-6.045992E-4,7.3717386E-3,-8.463921E-3,3.6037357E-3,1.300701E-3,1.0557342E-2,-7.4646254E-3,3.9552823E-3],"categories":[],"categories_nodes":[],"categories_segments":[],"categories_sizes":[],"default_left":[0,0,0,0,0,0,0,0,0,0,0,0,0,0,0],"id":64,"left_children":[1,3,5,7,9,11,13,-1,-1,-1,-1,-1,-1,-1,-1],"loss_changes":[5.3512253E1,2.3325039E1,2.6589054E1,1.0223736E1,5.538362E1,1.5508865E1,3.5251743E1,0E0,0E0,0E0,0E0,0E0,0E0,0E0,0E0],"parents":[2147483647,0,0,1,1,2,2,3,3,4,4,5,5,6,6],"right_children":[2,4,6,8,10,12,14,-1,-1,-1,-1,-1,-1,-1,-1],"split_conditions":[1E0,-7.734905E-1,6.402143E-2,1.0601469E0,1E0,1E0,1E0,-6.045992E-4,7.3717386E-3,-8.463921E-3,3.6037357E-3,1.300701E-3,1.0557342E-2,-7.4646254E-3,3.9552823E-3],"split_indices":[128,75,76,90,127,127,127,0,0,0,0,0,0,0,0],"split_type":[0,0,0,0,0,0,0,0,0,0,0,0,0,0,0],"sum_hessian":[7.651701E2,4.099179E2,3.552522E2,1.0985909E2,3.0005884E2,1.4677898E2,2.0847324E2,7.664779E1,3.3211308E1,2.1448935E2,8.556947E1,4.5937374E1,1.008416E2,5.8700695E1,1.4977254E2],"tree_param":{"num_deleted":"0","num_feature":"141","num_nodes":"15","size_leaf_vector":"1"}},{"base_weights":[-4.2868955E-3,-4.0719366E-1,4.44485E-1,-2.1688823E-1,-8.010093E-1,8.3243585E-1,1.9380333E-1,2.6328466E-3,-4.14265E-3,-6.1799455E-3,-1.2176067E-2,1.5120563E-2,8.116802E-3,3.8084185E-3,-4.6043154E-3],"categories":[],"categories_nodes":[],"categories_segments":[],"categories_sizes":[],"default_left":[0,0,0,0,0,0,0,0,0,0,0,0,0,0,0],"id":65,"left_children":[1,3,5,7,9,11,13,-1,-1,-1,-1,-1,-1,-1,-1],"loss_changes":[1.4270427E2,3.0679672E1,3.5601997E1,1.2950138E1,4.6831512E0,8.129791E0,1.3481312E1,0E0,0E0,0E0,0E0,0E0,0E0,0E0,0E0],"parents":[2147483647,0,0,1,1,2,2,3,3,4,4,5,5,6,6],"right_children":[2,4,6,8,10,12,14,-1,-1,-1,-1,-1,-1,-1,-1],"split_conditions":[1E0,-7.530603E-2,1.6969883E-1,-1.0853561E0,-2.4771695E-1,-3.9691237E-1,1.7220159E0,2.6328466E-3,-4.14265E-3,-6.1799455E-3,-1.2176067E-2,1.5120563E-2,8.116802E-3,3.8084185E-3,-4.6043154E-3],"split_indices":[127,40,40,75,22,40,40,0,0,0,0,0,0,0,0],"split_type":[0,0,0,0,0,0,0,0,0,0,0,0,0,0,0],"sum_hessian":[7.771643E2,4.105384E2,3.6662592E2,2.8071143E2,1.2982697E2,1.404335E2,2.261924E2,5.3221107E1,2.2749033E2,4.3851364E1,8.597561E1,4.7709137E1,9.2724365E1,1.9349588E2,3.2696518E1],"tree_param":{"num_deleted":"0","num_feature":"141","num_nodes":"15","size_leaf_vector":"1"}},{"base_weights":[6.688611E-3,-3.714954E-1,4.288849E-1,-1.137296E-1,-6.033774E-1,7.1007943E-1,7.4167766E-2,1.3740944E-3,-4.467848E-3,-3.525079E-3,-9.9185165E-3,1.254852E-2,6.1976947E-3,2.4185267E-3,-4.377947E-3],"categories":[],"categories_nodes":[],"categories_segments":[],"categories_sizes":[],"default_left":[0,0,0,0,0,0,0,0,0,0,0,0,0,0,0],"id":66,"left_children":[1,3,5,7,9,11,13,-1,-1,-1,-1,-1,-1,-1,-1],"loss_changes":[1.2640081E2,2.4461449E1,3.6841255E1,1.0949271E1,1.0887947E1,1.1174652E1,8.526894E0,0E0,0E0,0E0,0E0,0E0,0E0,0E0,0E0],"parents":[2147483647,0,0,1,1,2,2,3,3,4,4,5,5,6,6],"right_children":[2,4,6,8,10,12,14,-1,-1,-1,-1,-1,-1,-1,-1],"split_conditions":[1E0,-3.5192207E-1,4.802257E-1,-2.9267052E-1,-1.6917908E-1,-5.7478637E-2,1.7220159E0,1.3740944E-3,-4.467848E-3,-3.525079E-3,-9.9185165E-3,1.254852E-2,6.1976947E-3,2.4185267E-3,-4.377947E-3],"split_indices":[127,5,5,48,40,40,40,0,0,0,0,0,0,0,0],"split_type":[0,0,0,0,0,0,0,0,0,0,0,0,0,0,0],"sum_hessian":[7.787068E2,4.0995435E2,3.6875244E2,1.9747789E2,2.1247646E2,2.0308633E2,1.656661E2,1.0017886E2,9.729902E1,7.351185E1,1.3896461E2,9.07671E1,1.12319244E2,1.3268768E2,3.2978428E1],"tree_param":{"num_deleted":"0","num_feature":"141","num_nodes":"15","size_leaf_vector":"1"}},{"base_weights":[-4.625178E-3,-3.792747E-1,3.9887536E-1,-1.5861037E-1,-6.9420654E-1,9.133606E-1,2.1710818E-1,-3.260127E-3,3.1370462E-3,-2.6784183E-3,-1.0745719E-2,1.4444136E-2,8.38408E-3,4.9049435E-3,-5.301992E-4],"categories":[],"categories_nodes":[],"categories_segments":[],"categories_sizes":[],"default_left":[0,0,0,0,0,0,0,0,0,0,0,0,0,0,0],"id":67,"left_children":[1,3,5,7,9,11,13,-1,-1,-1,-1,-1,-1,-1,-1],"loss_changes":[1.1911213E2,2.7978615E1,3.479661E1,9.730898E0,1.0149559E1,3.296753E0,1.232049E1,0E0,0E0,0E0,0E0,0E0,0E0,0E0,0E0],"parents":[2147483647,0,0,1,1,2,2,3,3,4,4,5,5,6,6],"right_children":[2,4,6,8,10,12,14,-1,-1,-1,-1,-1,-1,-1,-1],"split_conditions":[1E0,-1.7397471E-1,-7.530603E-2,8.533167E-1,-5.5953467E-1,-3.922152E-1,3.7333995E-1,-3.260127E-3,3.1370462E-3,-2.6784183E-3,-1.0745719E-2,1.4444136E-2,8.38408E-3,4.9049435E-3,-5.301992E-4],"split_indices":[127,40,40,137,57,40,137,0,0,0,0,0,0,0,0],"split_type":[0,0,0,0,0,0,0,0,0,0,0,0,0,0,0],"sum_hessian":[7.7513226E2,4.030076E2,3.7212463E2,2.4061365E2,1.6239395E2,9.3423454E1,2.7870117E2,1.9762529E2,4.2988358E1,3.7815987E1,1.2457797E2,4.706238E1,4.6361073E1,1.7259552E2,1.0610566E2],"tree_param":{"num_deleted":"0","num_feature":"141","num_nodes":"15","size_leaf_vector":"1"}},{"base_weights":[-2.7596617E-2,-4.1838813E-1,4.0541497E-1,-0E0,-5.8218557E-1,9.1405785E-1,2.2046989E-1,-2.662744E-3,3.0753126E-3,-3.133886E-3,-8.845643E-3,1.4651148E-2,8.227823E-3,3.9421185E-3,-4.8835203E-3],"categories":[],"categories_nodes":[],"categories_segments":[],"categories_sizes":[],"default_left":[0,0,0,0,0,0,0,0,0,0,0,0,0,0,0],"id":68,"left_children":[1,3,5,7,9,11,13,-1,-1,-1,-1,-1,-1,-1,-1],"loss_changes":[1.3342426E2,2.8138115E1,3.4526592E1,6.5995345E0,9.473038E0,4.0080414E0,1.47175255E1,0E0,0E0,0E0,0E0,0E0,0E0,0E0,0E0],"parents":[2147483647,0,0,1,1,2,2,3,3,4,4,5,5,6,6],"right_children":[2,4,6,8,10,12,14,-1,-1,-1,-1,-1,-1,-1,-1],"split_conditions":[1E0,-8.353417E-1,-5.7478637E-2,5.544452E-1,-3.3964252E-1,-3.9691237E-1,1.7804703E0,-2.662744E-3,3.0753126E-3,-3.133886E-3,-8.845643E-3,1.4651148E-2,8.227823E-3,3.9421185E-3,-4.8835203E-3],"split_indices":[127,40,40,4,56,40,40,0,0,0,0,0,0,0,0],"split_type":[0,0,0,0,0,0,0,0,0,0,0,0,0,0,0],"sum_hessian":[7.761562E2,4.089507E2,3.6720547E2,1.1667724E2,2.9227347E2,9.418457E1,2.730209E2,6.392097E1,5.275627E1,7.024471E1,2.2202876E2,4.7217415E1,4.6967155E1,2.4166661E2,3.1354298E1],"tree_param":{"num_deleted":"0","num_feature":"141","num_nodes":"15","size_leaf_vector":"1"}},{"base_weights":[-3.5067637E-2,4.0085816E-1,-8.409575E-2,8.993306E-3,5.232077E-4,-2.7709976E-1,1.2425785E-1,-6.450129E-3,-1.4993546E-3,8.877973E-3,3.7616663E-4],"categories":[],"categories_nodes":[],"categories_segments":[],"categories_sizes":[],"default_left":[0,0,0,0,0,0,0,0,0,0,0],"id":69,"left_children":[1,3,5,-1,-1,7,9,-1,-1,-1,-1],"loss_changes":[1.6992786E1,7.980261E0,2.86769E1,0E0,0E0,1.2860989E1,1.8169634E1,0E0,0E0,0E0,0E0],"parents":[2147483647,0,0,1,1,2,2,5,5,6,6],"right_children":[2,4,6,-1,-1,8,10,-1,-1,-1,-1],"split_conditions":[-9.941199E-1,-5.133852E-1,1E0,8.993306E-3,5.232077E-4,-5.5951238E-2,-1.8205246E-1,-6.450129E-3,-1.4993546E-3,8.877973E-3,3.7616663E-4],"split_indices":[52,29,128,0,0,59,58,0,0,0,0],"split_type":[0,0,0,0,0,0,0,0,0,0,0],"sum_hessian":[7.675521E2,7.419794E1,6.933542E2,3.8471577E1,3.572636E1,3.6143747E2,3.319167E2,1.484967E2,2.1294077E2,4.4766987E1,2.8714972E2],"tree_param":{"num_deleted":"0","num_feature":"141","num_nodes":"11","size_leaf_vector":"1"}},{"base_weights":[9.554816E-3,-2.0539923E-1,2.4964127E-1,-4.3761456E-1,3.904532E-1,-2.1980734E-1,4.4258505E-1,1.5897008E-3,-6.988842E-3,-0E0,7.816247E-3,1.0618186E-3,-9.550861E-3,8.092679E-3,-1.4967122E-3],"categories":[],"categories_nodes":[],"categories_segments":[],"categories_sizes":[],"default_left":[0,0,0,0,0,0,0,0,0,0,0,0,0,0,0],"id":70,"left_children":[1,3,5,7,9,11,13,-1,-1,-1,-1,-1,-1,-1,-1],"loss_changes":[4.0958683E1,5.8114765E1,3.456157E1,1.7746304E1,9.79834E0,1.8476782E1,2.7846127E1,0E0,0E0,0E0,0E0,0E0,0E0,0E0,0E0],"parents":[2147483647,0,0,1,1,2,2,3,3,4,4,5,5,6,6],"right_children":[2,4,6,8,10,12,14,-1,-1,-1,-1,-1,-1,-1,-1],"split_conditions":[1E0,1E0,1E0,-1.1172839E0,-3.6231883E-2,5.12016E-1,7.960929E-1,1.5897008E-3,-6.988842E-3,-0E0,7.816247E-3,1.0618186E-3,-9.550861E-3,8.092679E-3,-1.4967122E-3],"split_indices":[128,127,127,46,31,58,58,0,0,0,0,0,0,0,0],"split_type":[0,0,0,0,0,0,0,0,0,0,0,0,0,0,0],"sum_hessian":[7.7467413E2,4.0721915E2,3.6745502E2,2.944324E2,1.1278672E2,1.0576432E2,2.616907E2,4.3971027E1,2.504614E2,4.0929546E1,7.185717E1,6.717045E1,3.8593872E1,1.9819406E2,6.349663E1],"tree_param":{"num_deleted":"0","num_feature":"141","num_nodes":"15","size_leaf_vector":"1"}},{"base_weights":[4.6777683E-3,-1.7697632E-1,2.0963708E-1,-3.6723888E-1,3.2469162E-1,6.3021773E-1,-6.6979766E-2,-2.7888692E-3,-1.0853355E-2,8.229779E-3,-3.1607465E-3,2.8964784E-3,1.0582308E-2,-7.159217E-3,1.7805884E-3],"categories":[],"categories_nodes":[],"categories_segments":[],"categories_sizes":[],"default_left":[0,0,0,0,0,0,0,0,0,0,0,0,0,0,0],"id":71,"left_children":[1,3,5,7,9,11,13,-1,-1,-1,-1,-1,-1,-1,-1],"loss_changes":[2.9363771E1,4.0009003E1,4.3732018E1,2.1077587E1,2.134662E1,1.0445793E1,2.34177E1,0E0,0E0,0E0,0E0,0E0,0E0,0E0,0E0],"parents":[2147483647,0,0,1,1,2,2,3,3,4,4,5,5,6,6],"right_children":[2,4,6,8,10,12,14,-1,-1,-1,-1,-1,-1,-1,-1],"split_conditions":[1E0,1E0,3.1934336E-1,1E0,9.588648E-2,-2.7272728E-1,1E0,-2.7888692E-3,-1.0853355E-2,8.229779E-3,-3.1607465E-3,2.8964784E-3,1.0582308E-2,-7.159217E-3,1.7805884E-3],"split_indices":[128,127,42,87,111,35,127,0,0,0,0,0,0,0,0],"split_type":[0,0,0,0,0,0,0,0,0,0,0,0,0,0,0],"sum_hessian":[7.6715436E2,4.0487778E2,3.6227658E2,2.951488E2,1.09728966E2,1.435835E2,2.1869307E2,2.2701744E2,6.813138E1,7.167719E1,3.8051773E1,4.8137802E1,9.5445694E1,6.465963E1,1.5403343E2],"tree_param":{"num_deleted":"0","num_feature":"141","num_nodes":"15","size_leaf_vector":"1"}},{"base_weights":[2.9917615E-3,-1.972195E-1,2.3460308E-1,-3.873001E-1,3.332192E-1,6.467168E-1,-5.7727575E-2,-0E0,-7.0109894E-3,9.96134E-3,-0E0,3.4338655E-3,1.058405E-2,-7.6409183E-3,2.1141085E-3],"categories":[],"categories_nodes":[],"categories_segments":[],"categories_sizes":[],"default_left":[0,0,0,0,0,0,0,0,0,0,0,0,0,0,0],"id":72,"left_children":[1,3,5,7,9,11,13,-1,-1,-1,-1,-1,-1,-1,-1],"loss_changes":[3.64687E1,4.271678E1,4.458419E1,1.8585674E1,1.6631855E1,9.062187E0,2.6487862E1,0E0,0E0,0E0,0E0,0E0,0E0,0E0,0E0],"parents":[2147483647,0,0,1,1,2,2,3,3,4,4,5,5,6,6],"right_children":[2,4,6,8,10,12,14,-1,-1,-1,-1,-1,-1,-1,-1],"split_conditions":[1E0,1E0,3.4998554E-1,-7.4864614E-1,-5.794019E-1,-2.7272728E-1,1E0,-0E0,-7.0109894E-3,9.96134E-3,-0E0,3.4338655E-3,1.058405E-2,-7.6409183E-3,2.1141085E-3],"split_indices":[128,127,42,75,42,35,127,0,0,0,0,0,0,0,0],"split_type":[0,0,0,0,0,0,0,0,0,0,0,0,0,0,0],"sum_hessian":[7.665452E2,4.095484E2,3.5699686E2,3.0307343E2,1.0647498E2,1.4799384E2,2.09003E2,8.625721E1,2.1681621E2,4.5000954E1,6.147403E1,4.895706E1,9.903678E1,6.1133442E1,1.4786955E2],"tree_param":{"num_deleted":"0","num_feature":"141","num_nodes":"15","size_leaf_vector":"1"}}]},"name":"gbtree"},"learner_model_param":{"base_score":"[5E-1]","boost_from_average":"1","num_class":"0","num_feature":"141","num_target":"1"},"objective":{"name":"binary:logistic","reg_loss_param":{"scale_pos_weight":"1.15235007"}}},"version":[3,2,0]}