{"learner":{"attributes":{"best_iteration":"15","best_score":"0.8012335989696531","scikit_learn":"{\"_estimator_type\": \"classifier\"}"},"feature_names":["open","high","low","close","volume","vader_compound","vader_pos","vader_neg","vader_neu","sentiment_label","finbert_score","finbert_label","fng_value","fng_classification","social_score","social_votes","quote_asset_volume","num_trades","taker_buy_base_volume","taker_buy_quote_volume","EMA_9","EMA_21","MACD","MACD_signal","BB_upper","BB_lower","BB_pct_b","RSI_14","Stoch_K","Stoch_D","ROC_10","ATR_14","high_low_spread","OBV","taker_buy_ratio","hour","day_of_week","close_lag_1","close_lag_3","close_lag_7","return_1d","price_above_ma1","return_2d","price_above_ma2","return_3d","price_above_ma3","return_5d","price_above_ma5","return_7d","price_above_ma7","return_14d","price_above_ma14","return_21d","price_above_ma21","return_30d","price_above_ma30","volatility_5d","vol_ratio_5d","close_zscore_5d","volatility_7d","vol_ratio_7d","close_zscore_7d","volatility_14d","vol_ratio_14d","close_zscore_14d","volatility_21d","vol_ratio_21d","close_zscore_21d","volatility_30d","vol_ratio_30d","close_zscore_30d","ema_cross","macd_cross","macd_hist","macd_hist_change","price_vs_ema9","price_vs_ema21","ema_gap","bb_width","bb_squeeze","bb_breakout_up","bb_breakout_down","rsi_overbought","rsi_oversold","rsi_bullish","rsi_change_3d","rsi_change_7d","stoch_cross","stoch_overbought","stoch_oversold","atr_ratio","high_volatility","atr_change","volume_spike","obv_change","obv_trend","buy_pressure","buy_pressure_trend","sentiment_ma3","sentiment_ma7","sentiment_ma14","sentiment_trend","sentiment_momentum","sentiment_pos","sentiment_neg","sentiment_strong_pos","sentiment_strong_neg","vader_pos_change","vader_neg_change","finbert_ma3","finbert_ma7","finbert_trend","fng_extreme_fear","fng_fear","fng_greed","fng_extreme_greed","fng_change_3d","fng_change_7d","fng_ma7","social_spike","social_trend","social_votes_spike","is_weekend","is_monday","is_friday","month","quarter","target_lag_1","target_lag_2","target_lag_3","target_lag_5","target_lag_7","target_lag_14","higher_high","lower_low","doji","bullish_candle","candle_body","bull_confluence","bear_confluence","sentiment_tech_agree"],"feature_types":["float","float","float","float","float","float","float","float","float","float","float","float","float","float","float","float","float","float","float","float","float","float","float","float","float","float","float","float","float","float","float","float","float","float","float","float","float","float","float","float","float","float","float","float","float","float","float","float","float","float","float","float","float","float","float","float","float","float","float","float","float","float","float","float","float","float","float","float","float","float","float","float","float","float","float","float","float","float","float","float","float","float","float","float","float","float","float","float","float","float","float","float","float","float","float","float","float","float","float","float","float","float","float","float","float","float","float","float","float","float","float","float","float","float","float","float","float","float","float","float","float","float","float","float","float","float","float","float","float","float","float","float","float","float","float","float","float","float","float","float","float"],"gradient_booster":{"model":{"cats":{"enc":[],"feature_segments":[],"sorted_idx":[]},"gbtree_model_param":{"num_parallel_tree":"1","num_trees":"76"},"iteration_indptr":[0,1,2,3,4,5,6,7,8,9,10,11,12,13,14,15,16,17,18,19,20,21,22,23,24,25,26,27,28,29,30,31,32,33,34,35,36,37,38,39,40,41,42,43,44,45,46,47,48,49,50,51,52,53,54,55,56,57,58,59,60,61,62,63,64,65,66,67,68,69,70,71,72,73,74,75,76],"tree_info":[0,0,0,0,0,0,0,0,0,0,0,0,0,0,0,0,0,0,0,0,0,0,0,0,0,0,0,0,0,0,0,0,0,0,0,0,0,0,0,0,0,0,0,0,0,0,0,0,0,0,0,0,0,0,0,0,0,0,0,0,0,0,0,0,0,0,0,0,0,0,0,0,0,0,0,0],"trees":[{"base_weights":[5.8598476E-3,-3.2732028E-1,3.5698247E-1,-9.1998056E-2,-9.665272E-1,1.0567468E0,1.6867554E-1,-1.4037839E-3,-2.3621736E-2,-0E0,-4.375866E-2,3.3737314E-3,4.6756778E-2,1.9285893E-2,1.9871129E-4],"categories":[],"categories_nodes":[],"categories_segments":[],"categories_sizes":[],"default_left":[0,0,0,0,0,0,0,0,0,0,0,0,0,0,0],"id":0,"left_children":[1,3,5,7,9,11,13,-1,-1,-1,-1,-1,-1,-1,-1],"loss_changes":[9.080607E1,5.6778053E1,4.917536E1,9.537766E0,8.60334E0,3.8586426E0,1.5468854E1,0E0,0E0,0E0,0E0,0E0,0E0,0E0,0E0],"parents":[2147483647,0,0,1,1,2,2,3,3,4,4,5,5,6,6],"right_children":[2,4,6,8,10,12,14,-1,-1,-1,-1,-1,-1,-1,-1],"split_conditions":[1E0,-9.9451005E-2,-1.388022E-2,1E0,-1.3626943E0,-5.875801E-1,-1.6085397E-1,-1.4037839E-3,-2.3621736E-2,-0E0,-4.375866E-2,3.3737314E-3,4.6756778E-2,1.9285893E-2,1.9871129E-4],"split_indices":[128,42,42,116,92,69,70,0,0,0,0,0,0,0,0],"split_type":[0,0,0,0,0,0,0,0,0,0,0,0,0,0,0],"sum_hessian":[7.2413776E2,3.6576614E2,3.5837158E2,2.7379416E2,9.1972E1,6.929491E1,2.890767E2,2.5499117E2,1.8802977E1,1.3810545E1,7.816145E1,1.1068113E1,5.822679E1,8.956761E1,1.9950908E2],"tree_param":{"num_deleted":"0","num_feature":"141","num_nodes":"15","size_leaf_vector":"1"}},{"base_weights":[2.3200687E-2,-2.756089E-1,3.3573347E-1,-7.720132E-1,8.411954E-1,-8.0915564E-1,8.1083786E-1,-4.3933332E-2,-3.106361E-3,5.2744478E-2,-2.3673521E-3,-0E0,-4.7765534E-2,5.0907407E-2,2.576597E-2],"categories":[],"categories_nodes":[],"categories_segments":[],"categories_sizes":[],"default_left":[0,0,0,0,0,0,0,0,0,0,0,0,0,0,0],"id":1,"left_children":[1,3,5,7,9,11,13,-1,-1,-1,-1,-1,-1,-1,-1],"loss_changes":[7.3190315E1,2.1536061E2,2.0953912E2,5.6115906E1,5.700042E1,3.489318E1,1.9479172E1,0E0,0E0,0E0,0E0,0E0,0E0,0E0,0E0],"parents":[2147483647,0,0,1,1,2,2,3,3,4,4,5,5,6,6],"right_children":[2,4,6,8,10,12,14,-1,-1,-1,-1,-1,-1,-1,-1],"split_conditions":[1E0,1E0,1E0,2.3815012E-1,0E0,0E0,0E0,-4.3933332E-2,-3.106361E-3,5.2744478E-2,-2.3673521E-3,-0E0,-4.7765534E-2,5.0907407E-2,2.576597E-2],"split_indices":[128,127,127,7,45,45,87,0,0,0,0,0,0,0,0],"split_type":[0,0,0,0,0,0,0,0,0,0,0,0,0,0,0],"sum_hessian":[7.2609814E2,3.647583E2,3.6133984E2,2.5548303E2,1.09275276E2,1.0303387E2,2.58306E2,1.695842E2,8.5898834E1,7.387647E1,3.5398804E1,3.416209E1,6.887177E1,5.9237343E1,1.9906865E2],"tree_param":{"num_deleted":"0","num_feature":"141","num_nodes":"15","size_leaf_vector":"1"}},{"base_weights":[1.1877796E-2,-2.6799205E-1,3.0745137E-1,-7.091594E-1,7.157534E-1,-8.211676E-1,7.8884363E-1,-1.4212165E-2,-5.4976214E-2,5.3343177E-2,-6.812314E-4,-0E0,-5.084555E-2,5.5413455E-2,1.8208755E-2],"categories":[],"categories_nodes":[],"categories_segments":[],"categories_sizes":[],"default_left":[0,0,0,0,0,0,0,0,0,0,0,0,0,0,0],"id":2,"left_children":[1,3,5,7,9,11,13,-1,-1,-1,-1,-1,-1,-1,-1],"loss_changes":[6.5441925E1,1.7110748E2,2.0961424E2,6.105681E1,6.1174446E1,4.559269E1,5.1007736E1,0E0,0E0,0E0,0E0,0E0,0E0,0E0,0E0],"parents":[2147483647,0,0,1,1,2,2,3,3,4,4,5,5,6,6],"right_children":[2,4,6,8,10,12,14,-1,-1,-1,-1,-1,-1,-1,-1],"split_conditions":[1E0,1E0,1E0,-1.861255E-1,1.3844785E-1,-3.4366167E-1,2.0527893E-1,-1.4212165E-2,-5.4976214E-2,5.3343177E-2,-6.812314E-4,-0E0,-5.084555E-2,5.5413455E-2,1.8208755E-2],"split_indices":[128,127,127,40,40,40,40,0,0,0,0,0,0,0,0],"split_type":[0,0,0,0,0,0,0,0,0,0,0,0,0,0,0],"sum_hessian":[7.299987E2,3.6808194E2,3.6191675E2,2.5736804E2,1.10713905E2,1.052485E2,2.5666824E2,1.7361606E2,8.375198E1,6.2254475E1,4.845943E1,3.6175648E1,6.9072845E1,8.590896E1,1.707593E2],"tree_param":{"num_deleted":"0","num_feature":"141","num_nodes":"15","size_leaf_vector":"1"}},{"base_weights":[-3.007377E-2,-8.0286944E-1,7.4827063E-1,-3.670248E-1,-1.261769E0,1.2609845E0,3.28288E-1,-3.2198683E-3,-2.341474E-2,-2.2925463E-2,-5.350431E-2,5.394576E-2,2.5205264E-2,3.1863358E-2,8.95388E-3],"categories":[],"categories_nodes":[],"categories_segments":[],"categories_sizes":[],"default_left":[0,0,0,0,0,0,0,0,0,0,0,0,0,0,0],"id":3,"left_children":[1,3,5,7,9,11,13,-1,-1,-1,-1,-1,-1,-1,-1],"loss_changes":[4.564118E2,7.36525E1,7.808951E1,1.1963003E1,4.5449524E0,4.3345947E0,1.1245951E1,0E0,0E0,0E0,0E0,0E0,0E0,0E0,0E0],"parents":[2147483647,0,0,1,1,2,2,3,3,4,4,5,5,6,6],"right_children":[2,4,6,8,10,12,14,-1,-1,-1,-1,-1,-1,-1,-1],"split_conditions":[1E0,-3.225069E-1,2.740181E-1,-2.8221667E-1,-8.180685E-1,4.7704285E-1,-4.856303E-1,-3.2198683E-3,-2.341474E-2,-2.2925463E-2,-5.350431E-2,5.394576E-2,2.5205264E-2,3.1863358E-2,8.95388E-3],"split_indices":[127,40,40,99,30,10,67,0,0,0,0,0,0,0,0],"split_type":[0,0,0,0,0,0,0,0,0,0,0,0,0,0,0],"sum_hessian":[7.336633E2,3.7069992E2,3.629634E2,1.9666492E2,1.7403502E2,1.571295E2,2.0583392E2,9.389856E1,1.0276635E2,2.3511822E1,1.505232E2,1.3100732E2,2.6122179E1,2.8188202E1,1.7764572E2],"tree_param":{"num_deleted":"0","num_feature":"141","num_nodes":"15","size_leaf_vector":"1"}},{"base_weights":[6.158473E-3,-6.9628084E-1,7.2197783E-1,-1.3632719E-1,-9.476243E-1,5.3754605E-2,4.2433405E-1,1.2398842E-2,-1.0981776E-2,-2.7488466E-2,-5.0974343E-2,2.520138E-2,4.6622544E-3],"categories":[],"categories_nodes":[],"categories_segments":[],"categories_sizes":[],"default_left":[0,0,0,0,0,0,0,0,0,0,0,0,0],"id":4,"left_children":[1,3,5,7,9,-1,11,-1,-1,-1,-1,-1,-1],"loss_changes":[3.812678E2,5.0319946E1,6.751758E1,1.1076464E1,1.9407013E1,0E0,1.5450096E1,0E0,0E0,0E0,0E0,0E0,0E0],"parents":[2147483647,0,0,1,1,2,2,3,3,4,4,6,6],"right_children":[2,4,6,8,10,-1,12,-1,-1,-1,-1,-1,-1],"split_conditions":[1E0,-6.34014E-1,1E0,-1.5067153E-1,1E0,5.3754605E-2,6.6045415E-1,1.2398842E-2,-1.0981776E-2,-2.7488466E-2,-5.0974343E-2,2.520138E-2,4.6622544E-3],"split_indices":[127,10,43,18,43,0,5,0,0,0,0,0,0],"split_type":[0,0,0,0,0,0,0,0,0,0,0,0,0],"sum_hessian":[7.3104486E2,3.6616748E2,3.6487735E2,1.19453995E2,2.4671349E2,1.1173253E2,2.5314482E2,2.0608728E1,9.884527E1,1.4673058E2,9.9982925E1,1.4315076E2,1.0999406E2],"tree_param":{"num_deleted":"0","num_feature":"141","num_nodes":"13","size_leaf_vector":"1"}},{"base_weights":[-2.7223974E-2,1.0490543E-1,-2.0688875E-1,-5.614474E-1,8.0922264E-1,-8.923253E-1,4.6939135E-1,-1.4334332E-2,-4.3972533E-2,5.1164713E-2,2.1205135E-2,-0E0,-4.201462E-2,3.0007482E-2,-5.3185143E-4],"categories":[],"categories_nodes":[],"categories_segments":[],"categories_sizes":[],"default_left":[0,0,0,0,0,0,0,0,0,0,0,0,0,0,0],"id":5,"left_children":[1,3,5,7,9,11,13,-1,-1,-1,-1,-1,-1,-1,-1],"loss_changes":[2.018236E1,2.0546208E2,1.6252124E2,2.3377357E1,2.5940598E1,2.3267548E1,2.7097885E1,0E0,0E0,0E0,0E0,0E0,0E0,0E0,0E0],"parents":[2147483647,0,0,1,1,2,2,3,3,4,4,5,5,6,6],"right_children":[2,4,6,8,10,12,14,-1,-1,-1,-1,-1,-1,-1,-1],"split_conditions":[7.779808E-2,1E0,1E0,1E0,1E0,-4.2824035E0,1E0,-1.4334332E-2,-4.3972533E-2,5.1164713E-2,2.1205135E-2,-0E0,-4.201462E-2,3.0007482E-2,-5.3185143E-4],"split_indices":[52,127,127,43,43,10,11,0,0,0,0,0,0,0,0],"split_type":[0,0,0,0,0,0,0,0,0,0,0,0,0,0,0],"sum_hessian":[7.3230695E2,4.0961768E2,3.226893E2,2.0778046E2,2.018372E2,1.6285944E2,1.5982988E2,1.5845575E2,4.9324715E1,6.755574E1,1.3428146E2,2.5105223E1,1.3775421E2,1.0586251E2,5.3967365E1],"tree_param":{"num_deleted":"0","num_feature":"141","num_nodes":"15","size_leaf_vector":"1"}},{"base_weights":[1.1237178E-3,-2.3952E-1,2.5619984E-1,-5.815655E-1,5.796086E-1,-7.111856E-1,6.670287E-1,-1.2478521E-2,-4.4032175E-2,4.336957E-2,-3.3025593E-3,-0E0,-3.999227E-2,3.916929E-2,6.3847704E-3],"categories":[],"categories_nodes":[],"categories_segments":[],"categories_sizes":[],"default_left":[0,0,0,0,0,0,0,0,0,0,0,0,0,0,0],"id":6,"left_children":[1,3,5,7,9,11,13,-1,-1,-1,-1,-1,-1,-1,-1],"loss_changes":[4.8488598E1,1.1028321E2,1.5281052E2,3.6750443E1,4.3743336E1,2.3011047E1,3.9127655E1,0E0,0E0,0E0,0E0,0E0,0E0,0E0,0E0],"parents":[2147483647,0,0,1,1,2,2,3,3,4,4,5,5,6,6],"right_children":[2,4,6,8,10,12,14,-1,-1,-1,-1,-1,-1,-1,-1],"split_conditions":[1E0,1E0,1E0,-1.861255E-1,1.8542334E-1,0E0,6.902373E-1,-1.2478521E-2,-4.4032175E-2,4.336957E-2,-3.3025593E-3,-0E0,-3.999227E-2,3.916929E-2,6.3847704E-3],"split_indices":[128,127,127,40,40,45,40,0,0,0,0,0,0,0,0],"split_type":[0,0,0,0,0,0,0,0,0,0,0,0,0,0,0],"sum_hessian":[7.196458E2,3.622607E2,3.5738513E2,2.5946503E2,1.02795654E2,1.0313265E2,2.5425249E2,1.7763202E2,8.1833015E1,6.1153866E1,4.1641792E1,3.0857307E1,7.2275345E1,1.518607E2,1.0239178E2],"tree_param":{"num_deleted":"0","num_feature":"141","num_nodes":"15","size_leaf_vector":"1"}},{"base_weights":[-6.641303E-3,-2.4943891E-1,2.2582765E-1,-6.116721E-1,6.0853773E-1,-6.626433E-1,6.1459947E-1,-6.324447E-3,-3.3994816E-2,4.866133E-2,-0E0,-0E0,-3.9387703E-2,3.189289E-2,3.82482E-3],"categories":[],"categories_nodes":[],"categories_segments":[],"categories_sizes":[],"default_left":[0,0,0,0,0,0,0,0,0,0,0,0,0,0,0],"id":7,"left_children":[1,3,5,7,9,11,13,-1,-1,-1,-1,-1,-1,-1,-1],"loss_changes":[4.549159E1,1.23381355E2,1.364007E2,2.7060158E1,4.461145E1,2.7153488E1,2.2854095E1,0E0,0E0,0E0,0E0,0E0,0E0,0E0,0E0],"parents":[2147483647,0,0,1,1,2,2,3,3,4,4,5,5,6,6],"right_children":[2,4,6,8,10,12,14,-1,-1,-1,-1,-1,-1,-1,-1],"split_conditions":[1E0,1E0,1E0,-6.6465914E-1,1E0,0E0,6.985684E-1,-6.324447E-3,-3.3994816E-2,4.866133E-2,-0E0,-0E0,-3.9387703E-2,3.189289E-2,3.82482E-3],"split_indices":[128,127,127,10,43,45,61,0,0,0,0,0,0,0,0],"split_type":[0,0,0,0,0,0,0,0,0,0,0,0,0,0,0],"sum_hessian":[7.33124E2,3.669732E2,3.6615082E2,2.617745E2,1.05198715E2,1.07828064E2,2.5832275E2,9.650744E1,1.6526706E2,5.1859123E1,5.3339592E1,3.438018E1,7.344789E1,1.8514394E2,7.317883E1],"tree_param":{"num_deleted":"0","num_feature":"141","num_nodes":"15","size_leaf_vector":"1"}},{"base_weights":[1.6186407E-2,-5.8501416E-1,6.2735665E-1,-2.9484347E-1,-1.2506273E0,1.0904878E0,4.0408337E-1,-1.8668005E-2,1.5577713E-2,-1.6468784E-2,-5.27796E-2,2.8202655E-2,5.0313022E-2,2.5785184E-2,3.2721797E-3],"categories":[],"categories_nodes":[],"categories_segments":[],"categories_sizes":[],"default_left":[0,0,0,0,0,0,0,0,0,0,0,0,0,0,0],"id":8,"left_children":[1,3,5,7,9,11,13,-1,-1,-1,-1,-1,-1,-1,-1],"loss_changes":[2.7542584E2,7.0447525E1,3.739792E1,3.5303703E1,1.3852234E0,4.1453094E0,1.9048553E1,0E0,0E0,0E0,0E0,0E0,0E0,0E0,0E0],"parents":[2147483647,0,0,1,1,2,2,3,3,4,4,5,5,6,6],"right_children":[2,4,6,8,10,12,14,-1,-1,-1,-1,-1,-1,-1,-1],"split_conditions":[1E0,1E0,1E0,7.162152E-1,-6.0693544E-1,-5.440764E-1,2.531129E-1,-1.8668005E-2,1.5577713E-2,-1.6468784E-2,-5.27796E-2,2.8202655E-2,5.0313022E-2,2.5785184E-2,3.2721797E-3],"split_indices":[127,43,43,137,93,137,137,0,0,0,0,0,0,0,0],"split_type":[0,0,0,0,0,0,0,0,0,0,0,0,0,0,0],"sum_hessian":[7.185243E2,3.5894916E2,3.595751E2,2.5640775E2,1.0254143E2,1.0830521E2,2.5126991E2,2.1048936E2,4.5918365E1,1.29428005E1,8.9598625E1,4.289946E1,6.540575E1,1.3601509E2,1.1525482E2],"tree_param":{"num_deleted":"0","num_feature":"141","num_nodes":"15","size_leaf_vector":"1"}},{"base_weights":[-0E0,-6.083191E-1,6.203013E-1,-1.6579041E-1,-1.0077952E0,1.0914036E0,2.665325E-1,-1.5357475E-2,7.990582E-3,-0E0,-4.3471996E-2,4.6670742E-2,1.7868407E-2,2.9757848E-2,6.619904E-3],"categories":[],"categories_nodes":[],"categories_segments":[],"categories_sizes":[],"default_left":[0,0,0,0,0,0,0,0,0,0,0,0,0,0,0],"id":9,"left_children":[1,3,5,7,9,11,13,-1,-1,-1,-1,-1,-1,-1,-1],"loss_changes":[2.819005E2,6.327498E1,5.9787643E1,1.839974E1,1.5889923E1,3.4345703E0,1.1520157E1,0E0,0E0,0E0,0E0,0E0,0E0,0E0,0E0],"parents":[2147483647,0,0,1,1,2,2,3,3,4,4,5,5,6,6],"right_children":[2,4,6,8,10,12,14,-1,-1,-1,-1,-1,-1,-1,-1],"split_conditions":[1E0,-4.55056E-1,2.0527893E-1,6.3391626E-1,-7.9792917E-1,4.6614718E-1,-4.6901664E-1,-1.5357475E-2,7.990582E-3,-0E0,-4.3471996E-2,4.6670742E-2,1.7868407E-2,2.9757848E-2,6.619904E-3],"split_indices":[127,40,40,137,29,10,67,0,0,0,0,0,0,0,0],"split_type":[0,0,0,0,0,0,0,0,0,0,0,0,0,0,0],"sum_hessian":[7.1634955E2,3.5878854E2,3.57561E2,1.7648373E2,1.823048E2,1.4649437E2,2.1106665E2,1.17522606E2,5.8961136E1,1.183912E1,1.7046568E2,1.246593E2,2.183507E1,2.7738667E1,1.8332797E2],"tree_param":{"num_deleted":"0","num_feature":"141","num_nodes":"15","size_leaf_vector":"1"}},{"base_weights":[3.747448E-3,-5.794716E-1,5.972557E-1,-2.8029764E-1,-1.0278717E0,1.0128443E0,2.5669885E-1,-1.8144716E-2,7.3078847E-3,-2.1783127E-2,-4.8484147E-2,2.8664077E-2,4.902753E-2,2.0929918E-2,2.6686196E-4],"categories":[],"categories_nodes":[],"categories_segments":[],"categories_sizes":[],"default_left":[0,0,0,0,0,0,0,0,0,0,0,0,0,0,0],"id":10,"left_children":[1,3,5,7,9,11,13,-1,-1,-1,-1,-1,-1,-1,-1],"loss_changes":[2.5734738E2,4.795054E1,5.0434143E1,2.1840733E1,9.307297E0,7.3936615E0,1.3645402E1,0E0,0E0,0E0,0E0,0E0,0E0,0E0,0E0],"parents":[2147483647,0,0,1,1,2,2,3,3,4,4,5,5,6,6],"right_children":[2,4,6,8,10,12,14,-1,-1,-1,-1,-1,-1,-1,-1],"split_conditions":[1E0,-1.6823438E-1,2.583126E-1,6.551082E-1,-2.9897434E-1,-5.563415E-1,2.3101956E-1,-1.8144716E-2,7.3078847E-3,-2.1783127E-2,-4.8484147E-2,2.8664077E-2,4.902753E-2,2.0929918E-2,2.6686196E-4],"split_indices":[127,40,40,137,29,137,137,0,0,0,0,0,0,0,0],"split_type":[0,0,0,0,0,0,0,0,0,0,0,0,0,0,0],"sum_hessian":[7.1158563E2,3.5551477E2,3.5607086E2,2.2077814E2,1.3473662E2,1.5308209E2,2.0298877E2,1.673182E2,5.3459934E1,4.4987873E1,8.974875E1,7.500425E1,7.807784E1,8.958951E1,1.1339927E2],"tree_param":{"num_deleted":"0","num_feature":"141","num_nodes":"15","size_leaf_vector":"1"}},{"base_weights":[-0E0,-2.38942E-1,2.3244676E-1,-5.4250285E-2,-7.565785E-1,7.805461E-1,8.5056834E-2,-0E0,-1.9670026E-2,-0E0,-3.3766396E-2,3.505987E-2,-0E0,2.6467592E-2,1.1952958E-3],"categories":[],"categories_nodes":[],"categories_segments":[],"categories_sizes":[],"default_left":[0,0,0,0,0,0,0,0,0,0,0,0,0,0,0],"id":11,"left_children":[1,3,5,7,9,11,13,-1,-1,-1,-1,-1,-1,-1,-1],"loss_changes":[4.361843E1,3.5829056E1,3.0135874E1,8.719135E0,5.555214E0,3.7734451E0,1.1188364E1,0E0,0E0,0E0,0E0,0E0,0E0,0E0,0E0],"parents":[2147483647,0,0,1,1,2,2,3,3,4,4,5,5,6,6],"right_children":[2,4,6,8,10,12,14,-1,-1,-1,-1,-1,-1,-1,-1],"split_conditions":[1E0,-9.9451005E-2,-1.388022E-2,1.2074707E0,-7.2047824E-1,1.6411282E0,-7.2326505E-1,-0E0,-1.9670026E-2,-0E0,-3.3766396E-2,3.505987E-2,-0E0,2.6467592E-2,1.1952958E-3],"split_indices":[128,42,42,23,60,68,21,0,0,0,0,0,0,0,0],"split_type":[0,0,0,0,0,0,0,0,0,0,0,0,0,0,0],"sum_hessian":[7.1221594E2,3.5950592E2,3.5271005E2,2.724948E2,8.701112E1,6.694947E1,2.8576056E2,2.4964851E2,2.284628E1,1.0225305E1,7.678582E1,5.6939472E1,1.0010003E1,1.6565994E1,2.6919458E2],"tree_param":{"num_deleted":"0","num_feature":"141","num_nodes":"15","size_leaf_vector":"1"}},{"base_weights":[-0E0,-2.2203033E-1,2.3377898E-1,-4.3106403E-2,-7.49142E-1,7.779189E-1,1.5351617E-1,-4.5691435E-3,1.2713795E-2,-0E0,-3.394806E-2,3.7260015E-2,5.257631E-3,1.1415299E-2,-4.8168185E-3],"categories":[],"categories_nodes":[],"categories_segments":[],"categories_sizes":[],"default_left":[0,0,0,0,0,0,0,0,0,0,0,0,0,0,0],"id":12,"left_children":[1,3,5,7,9,11,13,-1,-1,-1,-1,-1,-1,-1,-1],"loss_changes":[4.110486E1,3.631388E1,1.6905687E1,9.639688E0,7.190895E0,1.4463272E0,1.4027063E1,0E0,0E0,0E0,0E0,0E0,0E0,0E0,0E0],"parents":[2147483647,0,0,1,1,2,2,3,3,4,4,5,5,6,6],"right_children":[2,4,6,8,10,12,14,-1,-1,-1,-1,-1,-1,-1,-1],"split_conditions":[1E0,0E0,-6.9758064E-1,1E0,-6.285018E-1,5.008572E-1,6.426483E-1,-4.5691435E-3,1.2713795E-2,-0E0,-3.394806E-2,3.7260015E-2,5.257631E-3,1.1415299E-2,-4.8168185E-3],"split_indices":[128,45,2,124,70,74,67,0,0,0,0,0,0,0,0],"split_type":[0,0,0,0,0,0,0,0,0,0,0,0,0,0,0],"sum_hessian":[7.1698413E2,3.6873993E2,3.4824417E2,2.8277725E2,8.596267E1,3.5849857E1,3.1239432E2,2.4691656E2,3.5860703E1,1.008721E1,7.587546E1,2.3254454E1,1.2595404E1,2.2112608E2,9.126824E1],"tree_param":{"num_deleted":"0","num_feature":"141","num_nodes":"15","size_leaf_vector":"1"}},{"base_weights":[-4.3177456E-3,-1.7985773E-1,1.6384745E-1,-1.2417856E-2,-6.285206E-1,7.309829E-1,1.1859251E-2,1.6760573E-2,-3.6287038E-3,-0E0,-2.8763747E-2,3.5232764E-2,3.63487E-3,8.737382E-3,-6.2066307E-3],"categories":[],"categories_nodes":[],"categories_segments":[],"categories_sizes":[],"default_left":[0,0,0,0,0,0,0,0,0,0,0,0,0,0,0],"id":13,"left_children":[1,3,5,7,9,11,13,-1,-1,-1,-1,-1,-1,-1,-1],"loss_changes":[2.4148348E1,2.8580494E1,3.249267E1,1.198298E1,6.4906883E0,4.434696E0,1.3171976E1,0E0,0E0,0E0,0E0,0E0,0E0,0E0,0E0],"parents":[2147483647,0,0,1,1,2,2,3,3,4,4,5,5,6,6],"right_children":[2,4,6,8,10,12,14,-1,-1,-1,-1,-1,-1,-1,-1],"split_conditions":[1E0,-1.1159127E-1,-1.388022E-2,-2.0250466E0,-7.0638853E-1,4E-1,4.9774885E-2,1.6760573E-2,-3.6287038E-3,-0E0,-2.8763747E-2,3.5232764E-2,3.63487E-3,8.737382E-3,-6.2066307E-3],"split_indices":[128,42,42,42,110,118,52,0,0,0,0,0,0,0,0],"split_type":[0,0,0,0,0,0,0,0,0,0,0,0,0,0,0],"sum_hessian":[7.190138E2,3.6341122E2,3.5560257E2,2.7282916E2,9.058206E1,6.778283E1,2.8781976E2,3.2496426E1,2.4033273E2,1.0211654E1,8.0370415E1,4.934889E1,1.8433939E1,1.3919038E2,1.4862936E2],"tree_param":{"num_deleted":"0","num_feature":"141","num_nodes":"15","size_leaf_vector":"1"}},{"base_weights":[-1.739025E-2,-5.801938E-1,5.468876E-1,-1.363078E-1,-7.545697E-1,9.392771E-1,3.4110728E-1,-0E0,-1.5853921E-2,-2.1541739E-2,-4.060352E-2,4.8976776E-4,4.1281708E-2,-5.35212E-3,1.7718986E-2],"categories":[],"categories_nodes":[],"categories_segments":[],"categories_sizes":[],"default_left":[0,0,0,0,0,0,0,0,0,0,0,0,0,0,0],"id":14,"left_children":[1,3,5,7,9,11,13,-1,-1,-1,-1,-1,-1,-1,-1],"loss_changes":[2.3484412E2,2.6513985E1,2.8421112E1,5.0959344E0,1.3023376E1,5.981682E0,1.4729473E1,0E0,0E0,0E0,0E0,0E0,0E0,0E0,0E0],"parents":[2147483647,0,0,1,1,2,2,3,3,4,4,5,5,6,6],"right_children":[2,4,6,8,10,12,14,-1,-1,-1,-1,-1,-1,-1,-1],"split_conditions":[1E0,0E0,0E0,-1.0544783E-1,1E0,-1.4641058E0,1E0,-0E0,-1.5853921E-2,-2.1541739E-2,-4.060352E-2,4.8976776E-4,4.1281708E-2,-5.35212E-3,1.7718986E-2],"split_indices":[127,9,45,96,43,54,128,0,0,0,0,0,0,0,0],"split_type":[0,0,0,0,0,0,0,0,0,0,0,0,0,0,0],"sum_hessian":[7.065432E2,3.5726834E2,3.4927484E2,1.0837984E2,2.488885E2,1.1071788E2,2.3855696E2,7.811823E1,3.026161E1,1.4699835E2,1.0189015E2,1.3927946E1,9.678993E1,3.4574524E1,2.0398244E2],"tree_param":{"num_deleted":"0","num_feature":"141","num_nodes":"15","size_leaf_vector":"1"}},{"base_weights":[-0E0,-5.4733753E-1,5.5891323E-1,-2.4219356E-1,-8.8040906E-1,1.0397148E0,2.1977557E-1,-3.1457217E-3,-2.2339702E-2,-0E0,-3.854215E-2,4.4745877E-2,1.7224664E-2,1.6469268E-2,-0E0],"categories":[],"categories_nodes":[],"categories_segments":[],"categories_sizes":[],"default_left":[0,0,0,0,0,0,0,0,0,0,0,0,0,0,0],"id":15,"left_children":[1,3,5,7,9,11,13,-1,-1,-1,-1,-1,-1,-1,-1],"loss_changes":[2.2629387E2,3.6262115E1,5.7194534E1,1.0680291E1,1.534787E1,3.2093048E0,1.2019491E1,0E0,0E0,0E0,0E0,0E0,0E0,0E0,0E0],"parents":[2147483647,0,0,1,1,2,2,3,3,4,4,5,5,6,6],"right_children":[2,4,6,8,10,12,14,-1,-1,-1,-1,-1,-1,-1,-1],"split_conditions":[1E0,-3.4366167E-1,2.0527893E-1,-2.2698377E-1,-8.047361E-1,5.654175E-1,3.687767E-1,-3.1457217E-3,-2.2339702E-2,-0E0,-3.854215E-2,4.4745877E-2,1.7224664E-2,1.6469268E-2,-0E0],"split_indices":[127,40,40,42,29,111,76,0,0,0,0,0,0,0,0],"split_type":[0,0,0,0,0,0,0,0,0,0,0,0,0,0,0],"sum_hessian":[7.062791E2,3.5811896E2,3.4816016E2,1.9519133E2,1.6292764E2,1.3720706E2,2.1095311E2,1.3857861E2,5.6612717E1,1.0471155E1,1.5245648E2,1.1462306E2,2.2583994E1,1.21148575E2,8.9804535E1],"tree_param":{"num_deleted":"0","num_feature":"141","num_nodes":"15","size_leaf_vector":"1"}},{"base_weights":[1.8171668E-2,1.2957561E-1,-1.4597124E-1,-1.9428864E-1,1.7777371E-1,-3.2355413E-1,1.363051E-1,-0E0,-2.1892449E-2,2.3551509E-3,1.3515149E-2,-1.4016863E-3,-2.0347951E-2,1.2762402E-2,-1.5248934E-2],"categories":[],"categories_nodes":[],"categories_segments":[],"categories_sizes":[],"default_left":[0,0,0,0,0,0,0,0,0,0,0,0,0,0,0],"id":16,"left_children":[1,3,5,7,9,11,13,-1,-1,-1,-1,-1,-1,-1,-1],"loss_changes":[1.4857017E1,8.720472E0,1.6894304E1,5.008533E0,7.4840527E0,8.807932E0,1.363654E1,0E0,0E0,0E0,0E0,0E0,0E0,0E0,0E0],"parents":[2147483647,0,0,1,1,2,2,3,3,4,4,5,5,6,6],"right_children":[2,4,6,8,10,12,14,-1,-1,-1,-1,-1,-1,-1,-1],"split_conditions":[1.9057871E-1,-4.3025845E-1,3.499155E-1,3.7865457E-1,2.1118334E-1,-9.29508E-3,3.0877378E0,-0E0,-2.1892449E-2,2.3551509E-3,1.3515149E-2,-1.4016863E-3,-2.0347951E-2,1.2762402E-2,-1.5248934E-2],"split_indices":[52,62,69,119,120,109,19,0,0,0,0,0,0,0,0],"split_type":[0,0,0,0,0,0,0,0,0,0,0,0,0,0,0],"sum_hessian":[6.984271E2,4.3091647E2,2.6751065E2,4.414912E1,3.8676736E2,1.7274754E2,9.476313E1,3.3148766E1,1.1000357E1,2.3736388E2,1.4940347E2,7.669328E1,9.605425E1,7.6477325E1,1.8285797E1],"tree_param":{"num_deleted":"0","num_feature":"141","num_nodes":"15","size_leaf_vector":"1"}},{"base_weights":[9.267355E-3,-5.430377E-1,5.731738E-1,-3.5785407E-1,-9.746391E-1,1.0140676E0,3.608872E-1,-1.0233251E-2,-3.0857014E-2,-3.1774923E-2,-4.750121E-2,4.496365E-2,2.9025378E-2,-0E0,1.8386012E-2],"categories":[],"categories_nodes":[],"categories_segments":[],"categories_sizes":[],"default_left":[0,0,0,0,0,0,0,0,0,0,0,0,0,0,0],"id":17,"left_children":[1,3,5,7,9,11,13,-1,-1,-1,-1,-1,-1,-1,-1],"loss_changes":[2.2642665E2,2.8116745E1,3.2770493E1,1.15546875E1,1.7355118E0,7.457199E-1,8.634186E0,0E0,0E0,0E0,0E0,0E0,0E0,0E0,0E0],"parents":[2147483647,0,0,1,1,2,2,3,3,4,4,5,5,6,6],"right_children":[2,4,6,8,10,12,14,-1,-1,-1,-1,-1,-1,-1,-1],"split_conditions":[1E0,1E0,1E0,1.9100043E-1,6.1244094E-1,4.0039048E-2,1E0,-1.0233251E-2,-3.0857014E-2,-3.1774923E-2,-4.750121E-2,4.496365E-2,2.9025378E-2,-0E0,1.8386012E-2],"split_indices":[127,43,43,42,44,5,128,0,0,0,0,0,0,0,0],"split_type":[0,0,0,0,0,0,0,0,0,0,0,0,0,0,0],"sum_hessian":[6.936194E2,3.4685504E2,3.4676434E2,2.5207E2,9.4785034E1,1.0382462E2,2.4293973E2,2.1233871E2,3.9731293E1,6.650963E1,2.8275406E1,6.123075E1,4.2593872E1,5.569084E1,1.8724889E2],"tree_param":{"num_deleted":"0","num_feature":"141","num_nodes":"15","size_leaf_vector":"1"}},{"base_weights":[1.4282949E-2,-4.8017302E-1,5.226323E-1,-1.9121058E-1,-9.235315E-1,9.5317715E-1,2.0168719E-1,-1.3669926E-2,9.127912E-3,-1.1087179E-2,-4.171768E-2,-0E0,4.0726203E-2,1.1406648E-2,-5.237659E-3],"categories":[],"categories_nodes":[],"categories_segments":[],"categories_sizes":[],"default_left":[0,0,0,0,0,0,0,0,0,0,0,0,0,0,0],"id":18,"left_children":[1,3,5,7,9,11,13,-1,-1,-1,-1,-1,-1,-1,-1],"loss_changes":[1.8573822E2,4.561286E1,4.871051E1,1.7597511E1,7.2810974E0,7.405777E0,8.177119E0,0E0,0E0,0E0,0E0,0E0,0E0,0E0,0E0],"parents":[2147483647,0,0,1,1,2,2,3,3,4,4,5,5,6,6],"right_children":[2,4,6,8,10,12,14,-1,-1,-1,-1,-1,-1,-1,-1],"split_conditions":[1E0,-1.6823438E-1,2.583126E-1,6.9325376E-1,-5.5416995E-1,-9.9719596E-1,9.0346766E-1,-1.3669926E-2,9.127912E-3,-1.1087179E-2,-4.171768E-2,-0E0,4.0726203E-2,1.1406648E-2,-5.237659E-3],"split_indices":[127,40,40,137,93,137,61,0,0,0,0,0,0,0,0],"split_type":[0,0,0,0,0,0,0,0,0,0,0,0,0,0,0],"sum_hessian":[7.0222034E2,3.5202902E2,3.501913E2,2.205337E2,1.3149532E2,1.4234518E2,2.0784613E2,1.6989474E2,5.0638973E1,2.6414185E1,1.0508113E2,1.0362829E1,1.3198235E2,1.7640875E2,3.1437372E1],"tree_param":{"num_deleted":"0","num_feature":"141","num_nodes":"15","size_leaf_vector":"1"}},{"base_weights":[-6.252876E-4,-1.5112583E-1,1.3928452E-1,-7.827416E-2,-3.649075E-2,2.4291691E-1,-2.1473359E-1,8.6793763E-4,-1.8265054E-2,3.419247E-2,5.878542E-3,-1.6462004E-2,-0E0],"categories":[],"categories_nodes":[],"categories_segments":[],"categories_sizes":[],"default_left":[0,0,0,0,0,0,0,0,0,0,0,0,0],"id":19,"left_children":[1,3,5,7,-1,9,11,-1,-1,-1,-1,-1,-1],"loss_changes":[1.7067125E1,2.1928972E1,1.5544907E1,1.7264343E1,0E0,1.8159964E1,4.870126E0,0E0,0E0,0E0,0E0,0E0,0E0],"parents":[2147483647,0,0,1,1,2,2,3,3,5,5,6,6],"right_children":[2,4,6,8,-1,10,12,-1,-1,-1,-1,-1,-1],"split_conditions":[1E0,5.5032647E-1,7.872485E-1,3.1912357E-1,-3.649075E-2,-2.2698377E-1,7.608709E-1,8.6793763E-4,-1.8265054E-2,3.419247E-2,5.878542E-3,-1.6462004E-2,-0E0],"split_indices":[128,85,67,70,0,42,63,0,0,0,0,0,0],"split_type":[0,0,0,0,0,0,0,0,0,0,0,0,0],"sum_hessian":[6.932194E2,3.4772342E2,3.45496E2,3.2431265E2,2.3410742E1,2.7658087E2,6.8915115E1,2.4958708E2,7.4725586E1,2.9718294E1,2.4686258E2,3.6864857E1,3.2050262E1],"tree_param":{"num_deleted":"0","num_feature":"141","num_nodes":"13","size_leaf_vector":"1"}},{"base_weights":[1.8979098E-3,-4.6421844E-1,4.843451E-1,-1.8478632E-1,-8.9685243E-1,9.1574156E-1,2.1502198E-1,-3.8982707E-3,-2.0665133E-2,-8.55977E-3,-4.0599145E-2,4.184397E-2,2.5802081E-2,3.1723894E-2,5.592689E-3],"categories":[],"categories_nodes":[],"categories_segments":[],"categories_sizes":[],"default_left":[0,0,0,0,0,0,0,0,0,0,0,0,0,0,0],"id":20,"left_children":[1,3,5,7,9,11,13,-1,-1,-1,-1,-1,-1,-1,-1],"loss_changes":[1.6519328E2,4.2801567E1,4.0693848E1,7.2973166E0,7.601738E0,2.346489E0,1.147976E1,0E0,0E0,0E0,0E0,0E0,0E0,0E0,0E0],"parents":[2147483647,0,0,1,1,2,2,3,3,4,4,5,5,6,6],"right_children":[2,4,6,8,10,12,14,-1,-1,-1,-1,-1,-1,-1,-1],"split_conditions":[1E0,-1.6823438E-1,1.4496703E-1,2.6641065E-1,-5.5416995E-1,-2.9663587E-2,-7.2326505E-1,-3.8982707E-3,-2.0665133E-2,-8.55977E-3,-4.0599145E-2,4.184397E-2,2.5802081E-2,3.1723894E-2,5.592689E-3],"split_indices":[127,40,40,5,93,5,21,0,0,0,0,0,0,0,0],"split_type":[0,0,0,0,0,0,0,0,0,0,0,0,0,0,0],"sum_hessian":[6.95962E2,3.497775E2,3.4618448E2,2.2008351E2,1.2969398E2,1.2527523E2,2.2090926E2,1.8581476E2,3.4268764E1,2.461792E1,1.05076065E2,7.1124954E1,5.4150276E1,1.7051954E1,2.038573E2],"tree_param":{"num_deleted":"0","num_feature":"141","num_nodes":"15","size_leaf_vector":"1"}},{"base_weights":[2.4147963E-2,-1.3823283E-1,2.0422684E-1,-6.855973E-2,-3.256129E-2,3.9562452E-1,-0E0,9.728859E-3,-5.292224E-3,2.1942917E-2,-0E0,6.4237397E-3,-5.8447313E-3],"categories":[],"categories_nodes":[],"categories_segments":[],"categories_sizes":[],"default_left":[0,0,0,0,0,0,0,0,0,0,0,0,0],"id":21,"left_children":[1,3,5,7,-1,9,11,-1,-1,-1,-1,-1,-1],"loss_changes":[2.3038403E1,1.8812937E1,1.535952E1,8.521891E0,0E0,1.246961E1,6.2874184E0,0E0,0E0,0E0,0E0,0E0,0E0],"parents":[2147483647,0,0,1,1,2,2,3,3,5,5,6,6],"right_children":[2,4,6,8,-1,10,12,-1,-1,-1,-1,-1,-1],"split_conditions":[1E0,5.326988E-1,8.430032E-2,-1.204329E0,-3.256129E-2,1.5210471E0,2.7573308E-1,9.728859E-3,-5.292224E-3,2.1942917E-2,-0E0,6.4237397E-3,-5.8447313E-3],"split_indices":[128,85,52,23,0,102,85,0,0,0,0,0,0],"split_type":[0,0,0,0,0,0,0,0,0,0,0,0,0],"sum_hessian":[6.869389E2,3.4975458E2,3.3718436E2,3.2457843E2,2.5176138E1,1.7652763E2,1.6065672E2,4.3114708E1,2.8146375E2,1.2896346E2,4.7564167E1,7.1850464E1,8.880626E1],"tree_param":{"num_deleted":"0","num_feature":"141","num_nodes":"13","size_leaf_vector":"1"}},{"base_weights":[-1.897394E-2,-4.909264E-1,4.549783E-1,-1.7027546E-1,-8.56565E-1,8.5126626E-1,1.7890915E-1,-0E0,-1.471233E-2,-3.761385E-2,-2.5070168E-3,3.7770394E-2,1.0199476E-2,2.29386E-2,2.4144317E-3],"categories":[],"categories_nodes":[],"categories_segments":[],"categories_sizes":[],"default_left":[0,0,0,0,0,0,0,0,0,0,0,0,0,0,0],"id":22,"left_children":[1,3,5,7,9,11,13,-1,-1,-1,-1,-1,-1,-1,-1],"loss_changes":[1.615172E2,4.0774452E1,3.7247482E1,9.046225E0,7.060913E0,4.5652695E0,1.0756623E1,0E0,0E0,0E0,0E0,0E0,0E0,0E0,0E0],"parents":[2147483647,0,0,1,1,2,2,3,3,4,4,5,5,6,6],"right_children":[2,4,6,8,10,12,14,-1,-1,-1,-1,-1,-1,-1,-1],"split_conditions":[1E0,-3.225069E-1,2.0527893E-1,3.466891E-1,1E0,4.2535606E-1,-4.6131104E-1,-0E0,-1.471233E-2,-3.761385E-2,-2.5070168E-3,3.7770394E-2,1.0199476E-2,2.29386E-2,2.4144317E-3],"split_indices":[127,40,40,17,89,10,27,0,0,0,0,0,0,0,0],"split_type":[0,0,0,0,0,0,0,0,0,0,0,0,0,0,0],"sum_hessian":[6.8369275E2,3.467783E2,3.3691446E2,1.923432E2,1.5443507E2,1.3046184E2,2.0645264E2,9.705579E1,9.5287415E1,1.3520724E2,1.9227823E1,1.064041E2,2.4057743E1,3.810297E1,1.6834967E2],"tree_param":{"num_deleted":"0","num_feature":"141","num_nodes":"15","size_leaf_vector":"1"}},{"base_weights":[1.6826577E-2,-4.198132E-1,4.6334493E-1,-2.3449571E-1,-8.519663E-1,8.7297565E-1,2.6992148E-1,-2.3301195E-3,-1.9002961E-2,-2.7004775E-2,-4.3205235E-2,-0E0,3.9219487E-2,1.5755095E-2,-0E0],"categories":[],"categories_nodes":[],"categories_segments":[],"categories_sizes":[],"default_left":[0,0,0,0,0,0,0,0,0,0,0,0,0,0,0],"id":23,"left_children":[1,3,5,7,9,11,13,-1,-1,-1,-1,-1,-1,-1,-1],"loss_changes":[1.4405661E2,2.8623085E1,2.821341E1,1.0943719E1,2.5137787E0,9.951401E0,9.128456E0,0E0,0E0,0E0,0E0,0E0,0E0,0E0,0E0],"parents":[2147483647,0,0,1,1,2,2,3,3,4,4,5,5,6,6],"right_children":[2,4,6,8,10,12,14,-1,-1,-1,-1,-1,-1,-1,-1],"split_conditions":[1E0,1E0,1E0,3.709985E-2,1.208345E0,-1.4663212E0,5.7992464E-1,-2.3301195E-3,-1.9002961E-2,-2.7004775E-2,-4.3205235E-2,-0E0,3.9219487E-2,1.5755095E-2,-0E0],"split_indices":[127,43,43,30,102,92,86,0,0,0,0,0,0,0,0],"split_type":[0,0,0,0,0,0,0,0,0,0,0,0,0,0,0],"sum_hessian":[6.9782886E2,3.4833337E2,3.4949545E2,2.5269366E2,9.5639725E1,1.0293347E2,2.4656198E2,1.5666226E2,9.603141E1,6.813579E1,2.7503935E1,1.1736071E1,9.11974E1,1.6815784E2,7.840416E1],"tree_param":{"num_deleted":"0","num_feature":"141","num_nodes":"15","size_leaf_vector":"1"}},{"base_weights":[-0E0,-4.467727E-1,4.4583645E-1,-1.6590057E-1,-8.463809E-1,8.762468E-1,1.416586E-1,-1.5422141E-2,-0E0,-1.6100323E-2,-3.914327E-2,-0E0,3.7236877E-2,-2.3583309E-3,1.1275632E-2],"categories":[],"categories_nodes":[],"categories_segments":[],"categories_sizes":[],"default_left":[0,0,0,0,0,0,0,0,0,0,0,0,0,0,0],"id":24,"left_children":[1,3,5,7,9,11,13,-1,-1,-1,-1,-1,-1,-1,-1],"loss_changes":[1.4459167E2,3.9000008E1,4.5253815E1,9.406427E0,5.701355E0,3.2368393E0,8.376942E0,0E0,0E0,0E0,0E0,0E0,0E0,0E0,0E0],"parents":[2147483647,0,0,1,1,2,2,3,3,4,4,5,5,6,6],"right_children":[2,4,6,8,10,12,14,-1,-1,-1,-1,-1,-1,-1,-1],"split_conditions":[1E0,-2.3808359E-1,2.3406886E-1,-1.4960022E-1,-2.9669103E-1,-1.7823834E0,-1.8181819E-1,-1.5422141E-2,-0E0,-1.6100323E-2,-3.914327E-2,-0E0,3.7236877E-2,-2.3583309E-3,1.1275632E-2],"split_indices":[127,40,40,121,70,92,35,0,0,0,0,0,0,0,0],"split_type":[0,0,0,0,0,0,0,0,0,0,0,0,0,0,0],"sum_hessian":[6.8544434E2,3.4377817E2,3.4166614E2,2.0963107E2,1.3414708E2,1.342786E2,2.0738754E2,8.904012E1,1.2059096E2,3.921542E1,9.493166E1,1.1529908E1,1.22748695E2,7.375136E1,1.336362E2],"tree_param":{"num_deleted":"0","num_feature":"141","num_nodes":"15","size_leaf_vector":"1"}},{"base_weights":[-0E0,-4.2670605E-1,4.2473334E-1,-1.8183626E-1,-8.0220336E-1,9.103582E-1,2.2936592E-1,-1.1653347E-2,4.200106E-3,-1.5068758E-2,-3.929463E-2,4.0000506E-2,1.6012857E-2,1.6686054E-2,-0E0],"categories":[],"categories_nodes":[],"categories_segments":[],"categories_sizes":[],"default_left":[0,0,0,0,0,0,0,0,0,0,0,0,0,0,0],"id":25,"left_children":[1,3,5,7,9,11,13,-1,-1,-1,-1,-1,-1,-1,-1],"loss_changes":[1.3205634E2,3.212519E1,3.3308525E1,9.357241E0,7.997902E0,1.4786301E0,1.1768396E1,0E0,0E0,0E0,0E0,0E0,0E0,0E0,0E0],"parents":[2147483647,0,0,1,1,2,2,3,3,4,4,5,5,6,6],"right_children":[2,4,6,8,10,12,14,-1,-1,-1,-1,-1,-1,-1,-1],"split_conditions":[1E0,-1.6823438E-1,-2.910107E-2,7.162152E-1,-1.4040451E-1,8.504043E-1,2.3101956E-1,-1.1653347E-2,4.200106E-3,-1.5068758E-2,-3.929463E-2,4.0000506E-2,1.6012857E-2,1.6686054E-2,-0E0],"split_indices":[127,40,40,137,67,31,137,0,0,0,0,0,0,0,0],"split_type":[0,0,0,0,0,0,0,0,0,0,0,0,0,0,0],"sum_hessian":[6.864191E2,3.4497525E2,3.414439E2,2.1727844E2,1.2769679E2,8.972535E1,2.5171855E2,1.6771231E2,4.9566143E1,4.6143986E1,8.15528E1,6.821285E1,2.1512495E1,1.3441771E2,1.1730085E2],"tree_param":{"num_deleted":"0","num_feature":"141","num_nodes":"15","size_leaf_vector":"1"}},{"base_weights":[-0E0,5.682559E-1,-3.0785404E-2,-0E0,3.6425352E-2,7.9512715E-2,-1.6657698E-1,-0E0,1.4310508E-2,-1.5324674E-2,-1.5840014E-3],"categories":[],"categories_nodes":[],"categories_segments":[],"categories_sizes":[],"default_left":[0,0,0,0,0,0,0,0,0,0,0],"id":26,"left_children":[1,3,5,-1,-1,7,9,-1,-1,-1,-1],"loss_changes":[1.4572605E1,8.512133E0,1.1888052E1,0E0,0E0,9.336166E0,8.796711E0,0E0,0E0,0E0,0E0],"parents":[2147483647,0,0,1,1,2,2,5,5,6,6],"right_children":[2,4,6,-1,-1,8,10,-1,-1,-1,-1],"split_conditions":[-7.316506E-1,-4.8832625E-2,4.2880505E-2,-0E0,3.6425352E-2,7.2727275E-1,-6.633499E-3,-0E0,1.4310508E-2,-1.5324674E-2,-1.5840014E-3],"split_indices":[38,101,44,0,0,35,39,0,0,0,0],"split_type":[0,0,0,0,0,0,0,0,0,0,0],"sum_hessian":[6.767134E2,2.608269E1,6.5063074E2,1.0193852E1,1.5888837E1,3.4319122E2,3.074395E2,2.7235516E2,7.083606E1,1.00720764E2,2.0671873E2],"tree_param":{"num_deleted":"0","num_feature":"141","num_nodes":"11","size_leaf_vector":"1"}},{"base_weights":[-0E0,-3.7748834E-1,3.8798988E-1,-2.535158E-1,-7.5942665E-1,5.4251015E-1,1.8932132E-2,-5.39908E-3,-2.7130071E-2,-1.6547088E-2,-3.6903504E-2,3.2448146E-2,1.2596447E-2,6.563739E-3,-1.2934031E-2],"categories":[],"categories_nodes":[],"categories_segments":[],"categories_sizes":[],"default_left":[0,0,0,0,0,0,0,0,0,0,0,0,0,0,0],"id":27,"left_children":[1,3,5,7,9,11,13,-1,-1,-1,-1,-1,-1,-1,-1],"loss_changes":[1.0756966E2,1.7036488E1,1.880677E1,1.4752871E1,2.6333847E0,1.3924583E1,8.755804E0,0E0,0E0,0E0,0E0,0E0,0E0,0E0,0E0],"parents":[2147483647,0,0,1,1,2,2,3,3,4,4,5,5,6,6],"right_children":[2,4,6,8,10,12,14,-1,-1,-1,-1,-1,-1,-1,-1],"split_conditions":[1E0,3.1302133E-1,6.6045415E-1,1E0,4.98178E-2,1E0,6.0245764E-1,-5.39908E-3,-2.7130071E-2,-1.6547088E-2,-3.6903504E-2,3.2448146E-2,1.2596447E-2,6.563739E-3,-1.2934031E-2],"split_indices":[127,5,5,43,85,43,38,0,0,0,0,0,0,0,0],"split_type":[0,0,0,0,0,0,0,0,0,0,0,0,0,0,0],"sum_hessian":[6.877924E2,3.4470267E2,3.4308975E2,2.7096378E2,7.373888E1,2.3342487E2,1.09664894E2,2.2114862E2,4.981516E1,3.372278E1,4.00161E1,9.7122284E1,1.3630258E2,8.6102005E1,2.3562891E1],"tree_param":{"num_deleted":"0","num_feature":"141","num_nodes":"15","size_leaf_vector":"1"}},{"base_weights":[-1.7799433E-2,4.601439E-1,-4.6740264E-2,-0E0,2.8697893E-2,-3.2471892E-1,1.1614068E-2,-8.787062E-4,-2.3282323E-2,-4.850124E-3,6.3534915E-3],"categories":[],"categories_nodes":[],"categories_segments":[],"categories_sizes":[],"default_left":[0,0,0,0,0,0,0,0,0,0,0],"id":28,"left_children":[1,3,5,-1,-1,7,9,-1,-1,-1,-1],"loss_changes":[1.1720617E1,6.2146378E0,1.4153496E1,0E0,0E0,9.451163E0,1.2611913E1,0E0,0E0,0E0,0E0],"parents":[2147483647,0,0,1,1,2,2,5,5,6,6],"right_children":[2,4,6,-1,-1,8,10,-1,-1,-1,-1],"split_conditions":[-7.2523034E-1,-2.706385E-1,-5.4285717E-1,-0E0,2.8697893E-2,0E0,1E0,-8.787062E-4,-2.3282323E-2,-4.850124E-3,6.3534915E-3],"split_indices":[20,40,118,0,0,87,128,0,0,0,0],"split_type":[0,0,0,0,0,0,0,0,0,0,0],"sum_hessian":[6.77582E2,2.8871246E1,6.4871075E2,1.0079513E1,1.8791733E1,1.2274602E2,5.259647E2,6.447457E1,5.8271442E1,2.622043E2,2.637604E2],"tree_param":{"num_deleted":"0","num_feature":"141","num_nodes":"11","size_leaf_vector":"1"}},{"base_weights":[-9.447094E-3,3.207956E-1,-5.402714E-2,6.829913E-2,2.8918842E-2,-3.082737E-1,-0E0,-6.6030193E-3,1.377584E-2,-0E0,-1.8546205E-2,-5.216337E-3,4.8737903E-3],"categories":[],"categories_nodes":[],"categories_segments":[],"categories_sizes":[],"default_left":[0,0,0,0,0,0,0,0,0,0,0,0,0],"id":29,"left_children":[1,3,5,7,-1,9,11,-1,-1,-1,-1,-1,-1],"loss_changes":[1.1873802E1,7.5666027E0,1.0668177E1,7.6823797E0,0E0,7.844017E0,9.977291E0,0E0,0E0,0E0,0E0,0E0,0E0],"parents":[2147483647,0,0,1,1,2,2,3,3,5,5,6,6],"right_children":[2,4,6,8,-1,10,12,-1,-1,-1,-1,-1,-1],"split_conditions":[-6.9553804E-1,3.4392595E-1,-5.1428574E-1,-3.996821E-1,2.8918842E-2,-4.2688337E-1,2.307806E-1,-6.6030193E-3,1.377584E-2,-0E0,-1.8546205E-2,-5.216337E-3,4.8737903E-3],"split_indices":[21,59,118,54,0,26,65,0,0,0,0,0,0],"split_type":[0,0,0,0,0,0,0,0,0,0,0,0,0],"sum_hessian":[6.7502655E2,6.792814E1,6.0709845E2,4.9390778E1,1.8537365E1,1.0725013E2,4.998483E2,1.9314331E1,3.0076447E1,2.984872E1,7.740141E1,2.380778E2,2.6177048E2],"tree_param":{"num_deleted":"0","num_feature":"141","num_nodes":"13","size_leaf_vector":"1"}},{"base_weights":[3.489564E-2,-3.4040573E-1,4.274453E-1,-9.9843524E-2,-7.23485E-1,8.354732E-1,1.6086671E-1,-8.348149E-3,5.1469924E-3,-2.0082816E-3,-3.3559028E-2,-0E0,3.6390983E-2,2.3035813E-2,3.1563342E-3],"categories":[],"categories_nodes":[],"categories_segments":[],"categories_sizes":[],"default_left":[0,0,0,0,0,0,0,0,0,0,0,0,0,0,0],"id":30,"left_children":[1,3,5,7,9,11,13,-1,-1,-1,-1,-1,-1,-1,-1],"loss_changes":[1.0814248E2,3.2527264E1,3.760267E1,7.7873726E0,7.355522E0,6.9297104E0,8.577757E0,0E0,0E0,0E0,0E0,0E0,0E0,0E0,0E0],"parents":[2147483647,0,0,1,1,2,2,3,3,4,4,5,5,6,6],"right_children":[2,4,6,8,10,12,14,-1,-1,-1,-1,-1,-1,-1,-1],"split_conditions":[1E0,-1.6823438E-1,2.0527893E-1,6.3391626E-1,-5.638811E-1,-1.5751295E0,-5.3547996E-1,-8.348149E-3,5.1469924E-3,-2.0082816E-3,-3.3559028E-2,-0E0,3.6390983E-2,2.3035813E-2,3.1563342E-3],"split_indices":[127,40,40,137,63,92,67,0,0,0,0,0,0,0,0],"split_type":[0,0,0,0,0,0,0,0,0,0,0,0,0,0,0],"sum_hessian":[6.872692E2,3.4627E2,3.409992E2,2.2086241E2,1.2540759E2,1.2692189E2,2.1407732E2,1.6188469E2,5.897772E1,2.3573275E1,1.0183431E2,1.1823754E1,1.1509814E2,2.5206148E1,1.8887117E2],"tree_param":{"num_deleted":"0","num_feature":"141","num_nodes":"15","size_leaf_vector":"1"}},{"base_weights":[-1.5055044E-2,-4.100052E-1,3.6115175E-1,-1.465078E-1,-7.039701E-1,7.7856576E-1,1.0253851E-1,-1.1345726E-2,3.5523507E-3,-1.9415472E-2,-3.572068E-2,-0E0,3.3940226E-2,1.6958835E-2,-1.4365149E-4],"categories":[],"categories_nodes":[],"categories_segments":[],"categories_sizes":[],"default_left":[0,0,0,0,0,0,0,0,0,0,0,0,0,0,0],"id":31,"left_children":[1,3,5,7,9,11,13,-1,-1,-1,-1,-1,-1,-1,-1],"loss_changes":[1.0724072E2,2.5972557E1,3.747239E1,8.649208E0,5.113327E0,6.796364E0,1.1769642E1,0E0,0E0,0E0,0E0,0E0,0E0,0E0,0E0],"parents":[2147483647,0,0,1,1,2,2,3,3,4,4,5,5,6,6],"right_children":[2,4,6,8,10,12,14,-1,-1,-1,-1,-1,-1,-1,-1],"split_conditions":[1E0,-3.225069E-1,2.0527893E-1,6.3391626E-1,1.16934486E-1,-9.9719596E-1,-3.3075234E-1,-1.1345726E-2,3.5523507E-3,-1.9415472E-2,-3.572068E-2,-0E0,3.3940226E-2,1.6958835E-2,-1.4365149E-4],"split_indices":[127,40,40,137,52,137,73,0,0,0,0,0,0,0,0],"split_type":[0,0,0,0,0,0,0,0,0,0,0,0,0,0,0],"sum_hessian":[6.7510254E2,3.3446155E2,3.4064096E2,1.8533257E2,1.4912898E2,1.226608E2,2.1798016E2,1.2786159E2,5.747097E1,8.19041E1,6.722489E1,1.0336733E1,1.12324066E2,6.2053337E1,1.5592683E2],"tree_param":{"num_deleted":"0","num_feature":"141","num_nodes":"15","size_leaf_vector":"1"}},{"base_weights":[-2.012783E-2,-3.8435888E-1,3.3816215E-1,-1.2260357E-1,-6.874544E-1,6.474752E-1,6.5943627E-3,-1.0458539E-2,7.3582167E-3,-0E0,-3.0421393E-2,3.389746E-2,1.5419886E-2,-1.25158625E-2,5.2580778E-3],"categories":[],"categories_nodes":[],"categories_segments":[],"categories_sizes":[],"default_left":[0,0,0,0,0,0,0,0,0,0,0,0,0,0,0],"id":32,"left_children":[1,3,5,7,9,11,13,-1,-1,-1,-1,-1,-1,-1,-1],"loss_changes":[9.3895454E1,2.6964798E1,3.4225918E1,1.1124281E1,7.056221E0,7.6804733E0,9.611628E0,0E0,0E0,0E0,0E0,0E0,0E0,0E0,0E0],"parents":[2147483647,0,0,1,1,2,2,3,3,4,4,5,5,6,6],"right_children":[2,4,6,8,10,12,14,-1,-1,-1,-1,-1,-1,-1,-1],"split_conditions":[1E0,-3.225069E-1,4.0929195E-1,6.770708E-1,-6.613719E-1,-4.8445813E-2,-1.3812423E-1,-1.0458539E-2,7.3582167E-3,-0E0,-3.0421393E-2,3.389746E-2,1.5419886E-2,-1.25158625E-2,5.2580778E-3],"split_indices":[127,40,40,137,28,40,16,0,0,0,0,0,0,0,0],"split_type":[0,0,0,0,0,0,0,0,0,0,0,0,0,0,0],"sum_hessian":[6.7038983E2,3.379214E2,3.3246848E2,1.901133E2,1.4780807E2,1.6464232E2,1.6782616E2,1.4028683E2,4.982646E1,1.5392275E1,1.324158E2,8.256591E1,8.207641E1,3.713782E1,1.3068832E2],"tree_param":{"num_deleted":"0","num_feature":"141","num_nodes":"15","size_leaf_vector":"1"}},{"base_weights":[1.3062406E-2,-3.2221708E-1,3.6887416E-1,-1.7012888E-1,-3.289103E-2,7.069015E-1,1.5098868E-1,-1.7802227E-2,-0E0,2.13867E-2,3.950021E-2,1.44869415E-2,-0E0],"categories":[],"categories_nodes":[],"categories_segments":[],"categories_sizes":[],"default_left":[0,0,0,0,0,0,0,0,0,0,0,0,0],"id":33,"left_children":[1,3,5,7,-1,9,11,-1,-1,-1,-1,-1,-1],"loss_changes":[8.664004E1,2.7093292E1,2.4933445E1,1.4841345E1,0E0,5.215332E0,9.437323E0,0E0,0E0,0E0,0E0,0E0,0E0],"parents":[2147483647,0,0,1,1,2,2,3,3,5,5,6,6],"right_children":[2,4,6,8,-1,10,12,-1,-1,-1,-1,-1,-1],"split_conditions":[1E0,1.5400057E-1,2.0527893E-1,-1.3670072E-1,-3.289103E-2,-8.491528E-2,2.2346132E-1,-1.7802227E-2,-0E0,2.13867E-2,3.950021E-2,1.44869415E-2,-0E0],"split_indices":[127,40,40,137,0,137,137,0,0,0,0,0,0],"split_type":[0,0,0,0,0,0,0,0,0,0,0,0,0],"sum_hessian":[6.7457355E2,3.415997E2,3.3297388E2,2.7008685E2,7.151284E1,1.2132578E2,2.1164809E2,1.0204939E2,1.6803746E2,8.747302E1,3.3852757E1,9.463042E1,1.1701767E2],"tree_param":{"num_deleted":"0","num_feature":"141","num_nodes":"13","size_leaf_vector":"1"}},{"base_weights":[-3.21333E-2,1.0046655E-1,-1.566224E-1,3.8427255E-1,-8.542711E-5,1.3927316E-2,-1.9558533E-1,2.4479449E-2,-0E0,-3.7150104E-3,8.287273E-3,-1.7859237E-2,-4.5395694E-3],"categories":[],"categories_nodes":[],"categories_segments":[],"categories_sizes":[],"default_left":[0,0,0,0,0,0,0,0,0,0,0,0,0],"id":34,"left_children":[1,3,5,7,9,-1,11,-1,-1,-1,-1,-1,-1],"loss_changes":[1.2942503E1,1.2521112E1,9.636793E0,9.789919E0,6.1305857E0,0E0,7.5437384E0,0E0,0E0,0E0,0E0,0E0,0E0],"parents":[2147483647,0,0,1,1,2,2,3,3,4,4,6,6],"right_children":[2,4,6,8,10,-1,12,-1,-1,-1,-1,-1,-1],"split_conditions":[-1.2319141E-1,-4.2029804E-1,-7.186024E-1,9.2970073E-1,4.428966E-1,1.3927316E-2,-5.1428574E-1,2.4479449E-2,-0E0,-3.7150104E-3,8.287273E-3,-1.7859237E-2,-4.5395694E-3],"split_indices":[70,57,21,68,119,0,118,0,0,0,0,0,0],"split_type":[0,0,0,0,0,0,0,0,0,0,0,0,0],"sum_hessian":[6.565023E2,3.0246924E2,3.5403305E2,8.794886E1,2.1452039E2,1.6753208E1,3.3727985E2,5.498153E1,3.296733E1,1.6246413E2,5.205625E1,6.924255E1,2.680373E2],"tree_param":{"num_deleted":"0","num_feature":"141","num_nodes":"13","size_leaf_vector":"1"}},{"base_weights":[-0E0,-3.6083055E-1,3.7092763E-1,-2.1412028E-1,-7.508504E-1,7.3703074E-1,1.8940505E-1,-1.3024122E-2,6.89473E-3,-0E0,-3.3861373E-2,-0E0,3.2673772E-2,-2.020547E-3,1.394491E-2],"categories":[],"categories_nodes":[],"categories_segments":[],"categories_sizes":[],"default_left":[0,0,0,0,0,0,0,0,0,0,0,0,0,0,0],"id":35,"left_children":[1,3,5,7,9,11,13,-1,-1,-1,-1,-1,-1,-1,-1],"loss_changes":[9.625145E1,1.993177E1,2.285857E1,1.3913833E1,5.952793E0,4.5337753E0,1.1853919E1,0E0,0E0,0E0,0E0,0E0,0E0,0E0,0E0],"parents":[2147483647,0,0,1,1,2,2,3,3,4,4,5,5,6,6],"right_children":[2,4,6,8,10,12,14,-1,-1,-1,-1,-1,-1,-1,-1],"split_conditions":[1E0,1E0,0E0,7.162152E-1,-5.257018E-1,-1.4663212E0,-1.8181819E-1,-1.3024122E-2,6.89473E-3,-0E0,-3.3861373E-2,-0E0,3.2673772E-2,-2.020547E-3,1.394491E-2],"split_indices":[127,136,87,137,28,92,35,0,0,0,0,0,0,0,0],"split_type":[0,0,0,0,0,0,0,0,0,0,0,0,0,0,0],"sum_hessian":[6.705023E2,3.352593E2,3.3524304E2,2.536036E2,8.1655685E1,1.0153489E2,2.3370815E2,2.0553978E2,4.806383E1,1.0167E1,7.1488686E1,1.2854856E1,8.868003E1,8.3380226E1,1.5032793E2],"tree_param":{"num_deleted":"0","num_feature":"141","num_nodes":"15","size_leaf_vector":"1"}},{"base_weights":[-0E0,3.4141892E-1,-3.2294016E-2,5.622729E-1,-5.4587014E-3,2.4580275E-1,-7.624101E-2,4.8677633E-3,3.392276E-2,-0E0,2.1543615E-2,-1.0831306E-2,-0E0],"categories":[],"categories_nodes":[],"categories_segments":[],"categories_sizes":[],"default_left":[0,0,0,0,0,0,0,0,0,0,0,0,0],"id":36,"left_children":[1,3,5,7,-1,9,11,-1,-1,-1,-1,-1,-1],"loss_changes":[1.0488475E1,1.0946529E1,9.14628E0,4.9262104E0,0E0,7.4578986E0,9.939828E0,0E0,0E0,0E0,0E0,0E0,0E0],"parents":[2147483647,0,0,1,1,2,2,3,3,5,5,6,6],"right_children":[2,4,6,8,-1,10,12,-1,-1,-1,-1,-1,-1],"split_conditions":[-1.434638E0,7.3402864E-1,-6.838646E-1,-1.8998306E0,-5.4587014E-3,-3.088792E-1,-9.251276E-2,4.8677633E-3,3.392276E-2,-0E0,2.1543615E-2,-1.0831306E-2,-0E0],"split_indices":[52,21,1,52,0,23,25,0,0,0,0,0,0],"split_type":[0,0,0,0,0,0,0,0,0,0,0,0,0],"sum_hessian":[6.644762E2,5.6530724E1,6.0794543E2,4.4138092E1,1.23926325E1,6.909178E1,5.388537E2,2.404871E1,2.008938E1,3.8610252E1,3.0481533E1,1.559875E2,3.8286618E2],"tree_param":{"num_deleted":"0","num_feature":"141","num_nodes":"13","size_leaf_vector":"1"}},{"base_weights":[3.7007648E-3,-3.211515E-1,3.383548E-1,6.22303E-2,-4.7145247E-1,7.7652055E-1,1.950429E-1,-9.862481E-4,1.2171809E-2,-5.9773074E-3,-2.4395134E-2,-0E0,3.502988E-2,1.1025065E-2,-9.932121E-3],"categories":[],"categories_nodes":[],"categories_segments":[],"categories_sizes":[],"default_left":[0,0,0,0,0,0,0,0,0,0,0,0,0,0,0],"id":37,"left_children":[1,3,5,7,9,11,13,-1,-1,-1,-1,-1,-1,-1,-1],"loss_changes":[7.795497E1,2.2598125E1,2.1890987E1,5.1181893E0,9.922176E0,3.8532982E0,1.214854E1,0E0,0E0,0E0,0E0,0E0,0E0,0E0,0E0],"parents":[2147483647,0,0,1,1,2,2,3,3,4,4,5,5,6,6],"right_children":[2,4,6,8,10,12,14,-1,-1,-1,-1,-1,-1,-1,-1],"split_conditions":[1E0,-3.9514947E0,-3.2022297E-1,2.5E-1,-4.55056E-1,-1.2020725E0,9.0346766E-1,-9.862481E-4,1.2171809E-2,-5.9773074E-3,-2.4395134E-2,-0E0,3.502988E-2,1.1025065E-2,-9.932121E-3],"split_indices":[127,10,58,36,40,92,61,0,0,0,0,0,0,0,0],"split_type":[0,0,0,0,0,0,0,0,0,0,0,0,0,0,0],"sum_hessian":[6.635095E2,3.3063663E2,3.3287292E2,8.59521E1,2.4468451E2,7.2713486E1,2.6015945E2,5.2406654E1,3.354545E1,8.291265E1,1.6177187E2,1.1611116E1,6.110237E1,2.2885576E2,3.1303686E1],"tree_param":{"num_deleted":"0","num_feature":"141","num_nodes":"15","size_leaf_vector":"1"}},{"base_weights":[-1.4763279E-2,1.5424314E-2,-4.120985E-1,-8.457793E-2,1.2546432E-1,-6.8912095E-1,-0E0,-4.3099746E-4,-2.242675E-2,1.6573984E-2,1.9627176E-3,-4.547161E-3,-4.2053107E-2,-1.1538433E-2,1.0226122E-2],"categories":[],"categories_nodes":[],"categories_segments":[],"categories_sizes":[],"default_left":[0,0,0,0,0,0,0,0,0,0,0,0,0,0,0],"id":38,"left_children":[1,3,5,7,9,11,13,-1,-1,-1,-1,-1,-1,-1,-1],"loss_changes":[1.2915588E1,8.484441E0,7.348214E0,1.2198043E1,7.6567135E0,5.2705555E0,6.6184893E0,0E0,0E0,0E0,0E0,0E0,0E0,0E0,0E0],"parents":[2147483647,0,0,1,1,2,2,3,3,4,4,5,5,6,6],"right_children":[2,4,6,8,10,12,14,-1,-1,-1,-1,-1,-1,-1,-1],"split_conditions":[8.441343E-1,1E0,1.9809524E0,3.8337514E-1,-8.125595E-1,1.3123938E-1,1.6581127E-1,-4.3099746E-4,-2.242675E-2,1.6573984E-2,1.9627176E-3,-4.547161E-3,-4.2053107E-2,-1.1538433E-2,1.0226122E-2],"split_indices":[3,128,118,85,52,96,96,0,0,0,0,0,0,0,0],"split_type":[0,0,0,0,0,0,0,0,0,0,0,0,0,0,0],"sum_hessian":[6.638579E2,6.095626E2,5.4295315E1,3.0048044E2,3.0908218E2,2.8776516E1,2.5518799E1,2.693017E2,3.1178734E1,5.1887928E1,2.5719427E2,1.647027E1,1.2306247E1,1.5414826E1,1.0103972E1],"tree_param":{"num_deleted":"0","num_feature":"141","num_nodes":"15","size_leaf_vector":"1"}},{"base_weights":[3.3910228E-3,-1.3641882E-1,1.5326892E-1,-0E0,-5.5690736E-1,4.4928893E-1,4.9430557E-2,4.111014E-3,-1.0565452E-2,-0E0,-2.7330536E-2,-0E0,2.5079658E-2,2.0307485E-2,-0E0],"categories":[],"categories_nodes":[],"categories_segments":[],"categories_sizes":[],"default_left":[0,0,0,0,0,0,0,0,0,0,0,0,0,0,0],"id":39,"left_children":[1,3,5,7,9,11,13,-1,-1,-1,-1,-1,-1,-1,-1],"loss_changes":[1.5943407E1,2.2751556E1,1.0759039E1,9.2514E0,7.477478E0,6.4318256E0,9.185077E0,0E0,0E0,0E0,0E0,0E0,0E0,0E0,0E0],"parents":[2147483647,0,0,1,1,2,2,3,3,4,4,5,5,6,6],"right_children":[2,4,6,8,10,12,14,-1,-1,-1,-1,-1,-1,-1,-1],"split_conditions":[1E0,1.3844785E-1,-1.3134989E-1,4.7540522E-1,-6.987925E-1,-3.674899E-1,-5.840822E-1,4.111014E-3,-1.0565452E-2,-0E0,-2.7330536E-2,-0E0,2.5079658E-2,2.0307485E-2,-0E0],"split_indices":[128,40,109,22,86,66,15,0,0,0,0,0,0,0,0],"split_type":[0,0,0,0,0,0,0,0,0,0,0,0,0,0,0],"sum_hessian":[6.433732E2,3.1909573E2,3.242775E2,2.3957373E2,7.9522E1,7.224359E1,2.5203392E2,1.7805774E2,6.1515987E1,1.3131803E1,6.63902E1,2.313957E1,4.910402E1,2.1735588E1,2.3029832E2],"tree_param":{"num_deleted":"0","num_feature":"141","num_nodes":"15","size_leaf_vector":"1"}},{"base_weights":[-1.5700117E-2,-3.3780986E-1,2.9537603E-1,-1.300045E-1,-7.0002866E-1,7.804161E-1,1.220618E-1,-8.241672E-3,1.2498231E-2,-0E0,-3.412382E-2,3.504644E-2,3.6144855E-3,3.0447295E-2,2.574144E-3],"categories":[],"categories_nodes":[],"categories_segments":[],"categories_sizes":[],"default_left":[0,0,0,0,0,0,0,0,0,0,0,0,0,0,0],"id":40,"left_children":[1,3,5,7,9,11,13,-1,-1,-1,-1,-1,-1,-1,-1],"loss_changes":[7.094506E1,2.5180737E1,2.8600481E1,1.0108865E1,1.1150543E1,2.547947E0,1.1446461E1,0E0,0E0,0E0,0E0,0E0,0E0,0E0,0E0],"parents":[2147483647,0,0,1,1,2,2,3,3,4,4,5,5,6,6],"right_children":[2,4,6,8,10,12,14,-1,-1,-1,-1,-1,-1,-1,-1],"split_conditions":[1E0,-1.6823438E-1,-4.8445813E-2,9.3599814E-1,-5.5416995E-1,2.4057403E-1,-7.2523034E-1,-8.241672E-3,1.2498231E-2,-0E0,-3.412382E-2,3.504644E-2,3.6144855E-3,3.0447295E-2,2.574144E-3],"split_indices":[127,40,40,137,93,42,20,0,0,0,0,0,0,0,0],"split_type":[0,0,0,0,0,0,0,0,0,0,0,0,0,0,0],"sum_hessian":[6.5236584E2,3.267529E2,3.2561295E2,2.1659918E2,1.101537E2,7.756898E1,2.4804396E2,1.9379358E2,2.2805607E1,2.2487167E1,8.7666534E1,6.2709488E1,1.4859487E1,1.2654348E1,2.3538962E2],"tree_param":{"num_deleted":"0","num_feature":"141","num_nodes":"15","size_leaf_vector":"1"}},{"base_weights":[-0E0,2.3421701E-2,-3.711799E-1,1.9624902E-1,-2.8981345E-2,-0E0,-2.4589123E-2,-5.0530076E-4,1.389469E-2,-6.911434E-3,1.9328457E-3],"categories":[],"categories_nodes":[],"categories_segments":[],"categories_sizes":[],"default_left":[0,0,0,0,0,0,0,0,0,0,0],"id":41,"left_children":[1,3,5,7,9,-1,-1,-1,-1,-1,-1],"loss_changes":[9.0430565E0,7.9058614E0,6.007945E0,7.7329345E0,7.123252E0,0E0,0E0,0E0,0E0,0E0,0E0],"parents":[2147483647,0,0,1,1,2,2,3,3,4,4],"right_children":[2,4,6,8,10,-1,-1,-1,-1,-1,-1],"split_conditions":[1E0,-4.856303E-1,-1.5106621E-1,-2.7897087E-1,-2.9648347E-2,-0E0,-2.4589123E-2,-5.0530076E-4,1.389469E-2,-6.911434E-3,1.9328457E-3],"split_indices":[116,67,17,14,98,0,0,0,0,0,0],"split_type":[0,0,0,0,0,0,0,0,0,0,0],"sum_hessian":[6.539101E2,6.1597516E2,3.793492E1,1.597437E2,4.5623145E2,1.4595558E1,2.3339363E1,5.6433876E1,1.0330982E2,1.769702E2,2.7926126E2],"tree_param":{"num_deleted":"0","num_feature":"141","num_nodes":"11","size_leaf_vector":"1"}},{"base_weights":[-3.150091E-2,-3.5613516E-1,2.8403893E-1,-6.5552294E-2,-5.9044296E-1,5.9824413E-1,1.3335407E-1,-8.73603E-3,1.1996376E-2,-3.0946268E-2,-1.3763212E-2,-0E0,2.7171556E-2,-1.5551597E-2,9.691572E-3],"categories":[],"categories_nodes":[],"categories_segments":[],"categories_sizes":[],"default_left":[0,0,0,0,0,0,0,0,0,0,0,0,0,0,0],"id":42,"left_children":[1,3,5,7,9,11,13,-1,-1,-1,-1,-1,-1,-1,-1],"loss_changes":[7.2426735E1,2.2139206E1,1.5949949E1,1.2172243E1,6.957329E0,4.716957E0,1.6698536E1,0E0,0E0,0E0,0E0,0E0,0E0,0E0,0E0],"parents":[2147483647,0,0,1,1,2,2,3,3,4,4,5,5,6,6],"right_children":[2,4,6,8,10,12,14,-1,-1,-1,-1,-1,-1,-1,-1],"split_conditions":[1E0,-2.384073E-1,0E0,1.1614393E-1,1.2525114E-1,-1.4663212E0,1E0,-8.73603E-3,1.1996376E-2,-3.0946268E-2,-1.3763212E-2,-0E0,2.7171556E-2,-1.5551597E-2,9.691572E-3],"split_indices":[127,64,45,74,62,92,128,0,0,0,0,0,0,0,0],"split_type":[0,0,0,0,0,0,0,0,0,0,0,0,0,0,0],"sum_hessian":[6.5205005E2,3.2753107E2,3.2451898E2,1.5513177E2,1.7239929E2,9.440603E1,2.3011296E2,1.1785381E2,3.727797E1,8.751429E1,8.488501E1,1.2308331E1,8.2097694E1,3.2195934E1,1.9791702E2],"tree_param":{"num_deleted":"0","num_feature":"141","num_nodes":"15","size_leaf_vector":"1"}},{"base_weights":[5.822881E-3,-2.853515E-1,3.0269065E-1,-1.5267132E-1,-6.9235337E-1,6.5541106E-1,1.5280168E-1,2.4578373E-3,-1.2710384E-2,-2.1652615E-2,-3.478366E-2,2.9732041E-2,-0E0,1.3801844E-2,-6.400587E-4],"categories":[],"categories_nodes":[],"categories_segments":[],"categories_sizes":[],"default_left":[0,0,0,0,0,0,0,0,0,0,0,0,0,0,0],"id":43,"left_children":[1,3,5,7,9,11,13,-1,-1,-1,-1,-1,-1,-1,-1],"loss_changes":[6.0923767E1,1.8216711E1,1.7965694E1,1.1747959E1,9.4026184E-1,3.1211472E0,1.078601E1,0E0,0E0,0E0,0E0,0E0,0E0,0E0,0E0],"parents":[2147483647,0,0,1,1,2,2,3,3,4,4,5,5,6,6],"right_children":[2,4,6,8,10,12,14,-1,-1,-1,-1,-1,-1,-1,-1],"split_conditions":[1E0,3.1302133E-1,1E0,-4.6013656E-1,2.775283E-1,5.654175E-1,2.1734272E-1,2.4578373E-3,-1.2710384E-2,-2.1652615E-2,-3.478366E-2,2.9732041E-2,-0E0,1.3801844E-2,-6.400587E-4],"split_indices":[127,5,43,99,6,111,137,0,0,0,0,0,0,0,0],"split_type":[0,0,0,0,0,0,0,0,0,0,0,0,0,0,0],"sum_hessian":[6.454256E2,3.190459E2,3.263797E2,2.5035588E2,6.869001E1,8.710641E1,2.392733E2,9.864931E1,1.5170657E2,5.3754128E1,1.4935887E1,7.209818E1,1.500822E1,1.2227296E2,1.1700034E2],"tree_param":{"num_deleted":"0","num_feature":"141","num_nodes":"15","size_leaf_vector":"1"}},{"base_weights":[-1.1211556E-2,-3.1402352E-1,2.8675923E-1,-1.3690265E-1,-6.2583333E-1,7.083112E-1,1.3783035E-1,-1.3249884E-2,4.5413116E-4,-0E0,-2.914297E-2,3.4731623E-2,9.088904E-4,9.491525E-3,-1.132485E-2],"categories":[],"categories_nodes":[],"categories_segments":[],"categories_sizes":[],"default_left":[0,0,0,0,0,0,0,0,0,0,0,0,0,0,0],"id":44,"left_children":[1,3,5,7,9,11,13,-1,-1,-1,-1,-1,-1,-1,-1],"loss_changes":[6.2999084E1,1.8371761E1,2.0855438E1,9.214044E0,8.355228E0,5.972763E0,1.318314E1,0E0,0E0,0E0,0E0,0E0,0E0,0E0,0E0],"parents":[2147483647,0,0,1,1,2,2,3,3,4,4,5,5,6,6],"right_children":[2,4,6,8,10,12,14,-1,-1,-1,-1,-1,-1,-1,-1],"split_conditions":[1E0,-1.6823438E-1,-4.8445813E-2,1E0,-6.7464274E-1,8.504043E-1,1.5888627E0,-1.3249884E-2,4.5413116E-4,-0E0,-2.914297E-2,3.4731623E-2,9.088904E-4,9.491525E-3,-1.132485E-2],"split_indices":[127,40,40,130,3,31,40,0,0,0,0,0,0,0,0],"split_type":[0,0,0,0,0,0,0,0,0,0,0,0,0,0,0],"sum_hessian":[6.400435E2,3.240736E2,3.1596994E2,2.1692967E2,1.0714394E2,7.326693E1,2.42703E2,1.0473087E2,1.1219879E2,1.3855525E1,9.3288414E1,5.435551E1,1.8911419E1,2.0505165E2,3.765135E1],"tree_param":{"num_deleted":"0","num_feature":"141","num_nodes":"15","size_leaf_vector":"1"}},{"base_weights":[-0E0,-2.9860902E-1,3.0644092E-1,-1.1404003E-1,-6.2455755E-1,6.022391E-1,1.2500326E-1,-1.0270576E-2,8.658951E-3,-0E0,-3.041937E-2,2.9053345E-2,2.1938309E-4,2.7049579E-2,1.4646343E-3],"categories":[],"categories_nodes":[],"categories_segments":[],"categories_sizes":[],"default_left":[0,0,0,0,0,0,0,0,0,0,0,0,0,0,0],"id":45,"left_children":[1,3,5,7,9,11,13,-1,-1,-1,-1,-1,-1,-1,-1],"loss_changes":[6.4682236E1,2.016909E1,1.7742664E1,1.3471285E1,9.763107E0,6.4151535E0,1.213603E1,0E0,0E0,0E0,0E0,0E0,0E0,0E0,0E0],"parents":[2147483647,0,0,1,1,2,2,3,3,4,4,5,5,6,6],"right_children":[2,4,6,8,10,12,14,-1,-1,-1,-1,-1,-1,-1,-1],"split_conditions":[1E0,-1.6823438E-1,2.0527893E-1,6.551082E-1,-5.638811E-1,7.9919136E-1,-5.3547996E-1,-1.0270576E-2,8.658951E-3,-0E0,-3.041937E-2,2.9053345E-2,2.1938309E-4,2.7049579E-2,1.4646343E-3],"split_indices":[127,40,40,137,63,31,67,0,0,0,0,0,0,0,0],"split_type":[0,0,0,0,0,0,0,0,0,0,0,0,0,0,0],"sum_hessian":[6.4914374E2,3.262201E2,3.2292368E2,2.1806468E2,1.08155396E2,1.1239345E2,2.1053023E2,1.6132936E2,5.673532E1,2.034394E1,8.7811455E1,8.735261E1,2.504084E1,2.0881052E1,1.8964917E2],"tree_param":{"num_deleted":"0","num_feature":"141","num_nodes":"15","size_leaf_vector":"1"}},{"base_weights":[-3.2179486E-3,-2.5677454E-1,2.4245699E-1,-0E0,-5.118955E-1,5.764305E-1,5.6331653E-2,1.2513122E-2,-4.6131057E-3,-0E0,-2.3970777E-2,5.595573E-3,2.7475467E-2,7.1416004E-3,-3.2423816E-3],"categories":[],"categories_nodes":[],"categories_segments":[],"categories_sizes":[],"default_left":[0,0,0,0,0,0,0,0,0,0,0,0,0,0,0],"id":46,"left_children":[1,3,5,7,9,11,13,-1,-1,-1,-1,-1,-1,-1,-1],"loss_changes":[4.461015E1,2.1515486E1,2.0582153E1,8.950623E0,7.69788E0,3.556282E0,5.676949E0,0E0,0E0,0E0,0E0,0E0,0E0,0E0,0E0],"parents":[2147483647,0,0,1,1,2,2,3,3,4,4,5,5,6,6],"right_children":[2,4,6,8,10,12,14,-1,-1,-1,-1,-1,-1,-1,-1],"split_conditions":[1E0,-4.55056E-1,1.4496703E-1,-4.2029804E-1,-8.180685E-1,-4.2857143E-1,1.7142858E-1,1.2513122E-2,-4.6131057E-3,-0E0,-2.3970777E-2,5.595573E-3,2.7475467E-2,7.1416004E-3,-3.2423816E-3],"split_indices":[127,40,40,57,30,118,118,0,0,0,0,0,0,0,0],"split_type":[0,0,0,0,0,0,0,0,0,0,0,0,0,0,0],"sum_hessian":[6.4677594E2,3.2628384E2,3.204921E2,1.7156224E2,1.5472159E2,1.0530111E2,2.15191E2,3.5783703E1,1.3577855E2,2.2066696E1,1.3265489E2,2.9294935E1,7.600617E1,1.2921483E2,8.597616E1],"tree_param":{"num_deleted":"0","num_feature":"141","num_nodes":"15","size_leaf_vector":"1"}},{"base_weights":[-8.775546E-3,-3.0423972E-1,2.707587E-1,-1.8650596E-1,-7.19285E-1,7.430583E-1,1.629009E-1,-1.6691573E-2,-0E0,-0E0,-3.333445E-2,3.4978412E-2,9.322743E-3,1.6819315E-2,2.9061434E-3],"categories":[],"categories_nodes":[],"categories_segments":[],"categories_sizes":[],"default_left":[0,0,0,0,0,0,0,0,0,0,0,0,0,0,0],"id":47,"left_children":[1,3,5,7,9,11,13,-1,-1,-1,-1,-1,-1,-1,-1],"loss_changes":[5.8151005E1,1.661528E1,1.7786936E1,1.1883449E1,3.86063E0,1.4981956E0,6.972868E0,0E0,0E0,0E0,0E0,0E0,0E0,0E0,0E0],"parents":[2147483647,0,0,1,1,2,2,3,3,4,4,5,5,6,6],"right_children":[2,4,6,8,10,12,14,-1,-1,-1,-1,-1,-1,-1,-1],"split_conditions":[1E0,1.5400057E-1,-2.3110935E-1,-1.4960022E-1,-5.303245E-1,8.504043E-1,-2.3220359E-1,-1.6691573E-2,-0E0,-0E0,-3.333445E-2,3.4978412E-2,9.322743E-3,1.6819315E-2,2.9061434E-3],"split_indices":[127,40,40,121,93,31,5,0,0,0,0,0,0,0,0],"split_type":[0,0,0,0,0,0,0,0,0,0,0,0,0,0,0],"sum_hessian":[6.4290607E2,3.1944196E2,3.234641E2,2.588992E2,6.0542774E1,5.077987E1,2.7268423E2,1.08282196E2,1.50617E2,1.1417913E1,4.912486E1,3.3022514E1,1.7757353E1,5.745629E1,2.1522794E2],"tree_param":{"num_deleted":"0","num_feature":"141","num_nodes":"15","size_leaf_vector":"1"}},{"base_weights":[2.4328043E-3,-2.2307442E-1,2.4253777E-1,-8.738458E-2,-6.469693E-1,4.9749473E-1,-0E0,5.072766E-3,-9.835792E-3,-2.9736798E-2,-1.3795266E-3,3.345275E-2,1.309258E-2,4.2972323E-3,-1.1713346E-2],"categories":[],"categories_nodes":[],"categories_segments":[],"categories_sizes":[],"default_left":[0,0,0,0,0,0,0,0,0,0,0,0,0,0,0],"id":48,"left_children":[1,3,5,7,9,11,13,-1,-1,-1,-1,-1,-1,-1,-1],"loss_changes":[3.888088E1,1.9753666E1,2.3422398E1,1.1474205E1,1.9766273E0,9.441273E0,8.863875E0,0E0,0E0,0E0,0E0,0E0,0E0,0E0,0E0],"parents":[2147483647,0,0,1,1,2,2,3,3,4,4,5,5,6,6],"right_children":[2,4,6,8,10,12,14,-1,-1,-1,-1,-1,-1,-1,-1],"split_conditions":[1E0,8.121158E-2,4.4000164E-1,-4.5096433E-1,7.154301E-1,-4.5076954E-1,3.1899E-1,5.072766E-3,-9.835792E-3,-2.9736798E-2,-1.3795266E-3,3.345275E-2,1.309258E-2,4.2972323E-3,-1.1713346E-2],"split_indices":[127,40,40,99,30,5,23,0,0,0,0,0,0,0,0],"split_type":[0,0,0,0,0,0,0,0,0,0,0,0,0,0,0],"sum_hessian":[6.4344183E2,3.2325656E2,3.2018527E2,2.540809E2,6.917565E1,1.6076427E2,1.5942102E2,9.724063E1,1.5684027E2,5.387136E1,1.5304291E1,4.342491E1,1.1733935E2,1.1042252E2,4.899849E1],"tree_param":{"num_deleted":"0","num_feature":"141","num_nodes":"15","size_leaf_vector":"1"}},{"base_weights":[7.0668426E-3,-2.692632E-1,5.3042207E-2,-5.215877E-1,-1.37495445E-2,9.787036E-2,-2.84061E-1,-0E0,-3.1110272E-2,3.1618244E-4,-1.5176639E-2,-0E0,7.594394E-3,-2.066801E-2,-0E0],"categories":[],"categories_nodes":[],"categories_segments":[],"categories_sizes":[],"default_left":[0,0,0,0,0,0,0,0,0,0,0,0,0,0,0],"id":49,"left_children":[1,3,5,7,9,11,13,-1,-1,-1,-1,-1,-1,-1,-1],"loss_changes":[9.930658E0,5.151438E0,1.0570652E1,5.1188536E0,4.8833623E0,5.049295E0,4.294575E0,0E0,0E0,0E0,0E0,0E0,0E0,0E0,0E0],"parents":[2147483647,0,0,1,1,2,2,3,3,4,4,5,5,6,6],"right_children":[2,4,6,8,10,12,14,-1,-1,-1,-1,-1,-1,-1,-1],"split_conditions":[-4.1046488E-1,-6.871914E-2,2.7890203E0,-2.7651817E-1,2.642487E-1,1E0,4.1137347E0,-0E0,-3.1110272E-2,3.1618244E-4,-1.5176639E-2,-0E0,7.594394E-3,-2.066801E-2,-0E0],"split_indices":[65,98,19,86,92,128,19,0,0,0,0,0,0,0,0],"split_type":[0,0,0,0,0,0,0,0,0,0,0,0,0,0,0],"sum_hessian":[6.459076E2,7.812934E1,5.6777826E2,3.0233849E1,4.7895493E1,5.130492E2,5.4729107E1,1.26429205E1,1.7590929E1,3.685135E1,1.1044145E1,2.570441E2,2.560051E2,2.4288618E1,3.0440489E1],"tree_param":{"num_deleted":"0","num_feature":"141","num_nodes":"15","size_leaf_vector":"1"}},{"base_weights":[1.878106E-2,-2.3441853E-1,2.8707638E-1,-1.07350014E-1,-5.6502837E-1,4.3743086E-1,1.0231983E-2,5.132338E-3,-8.780035E-3,-0E0,-2.7350873E-2,2.1244869E-2,-0E0,-1.8341348E-2,4.84224E-3],"categories":[],"categories_nodes":[],"categories_segments":[],"categories_sizes":[],"default_left":[0,0,0,0,0,0,0,0,0,0,0,0,0,0,0],"id":50,"left_children":[1,3,5,7,9,11,13,-1,-1,-1,-1,-1,-1,-1,-1],"loss_changes":[4.749169E1,1.4120373E1,1.2663273E1,8.712519E0,6.132942E0,8.280556E0,9.688009E0,0E0,0E0,0E0,0E0,0E0,0E0,0E0,0E0],"parents":[2147483647,0,0,1,1,2,2,3,3,4,4,5,5,6,6],"right_children":[2,4,6,8,10,12,14,-1,-1,-1,-1,-1,-1,-1,-1],"split_conditions":[1E0,2.2667678E-1,3.6792892E-1,-1.8610231E0,-5.5416995E-1,3.0454478E0,-3.285234E-1,5.132338E-3,-8.780035E-3,-0E0,-2.7350873E-2,2.1244869E-2,-0E0,-1.8341348E-2,4.84224E-3],"split_indices":[127,42,48,102,93,5,65,0,0,0,0,0,0,0,0],"split_type":[0,0,0,0,0,0,0,0,0,0,0,0,0,0,0],"sum_hessian":[6.320884E2,3.176298E2,3.1445856E2,2.4034769E2,7.728212E1,1.9354175E2,1.2091682E2,6.557105E1,1.7477663E2,1.3692104E1,6.359001E1,1.5829955E2,3.52422E1,1.4827264E1,1.06089554E2],"tree_param":{"num_deleted":"0","num_feature":"141","num_nodes":"15","size_leaf_vector":"1"}},{"base_weights":[3.6379963E-2,-1.9242077E-1,2.7762312E-1,-6.463225E-2,-6.7532283E-1,7.487182E-1,1.1771543E-1,9.2430245E-3,-7.4082953E-3,-3.1454723E-2,-1.1241201E-2,-0E0,3.3826347E-2,1.4234533E-2,-4.4946563E-3],"categories":[],"categories_nodes":[],"categories_segments":[],"categories_sizes":[],"default_left":[0,0,0,0,0,0,0,0,0,0,0,0,0,0,0],"id":51,"left_children":[1,3,5,7,9,11,13,-1,-1,-1,-1,-1,-1,-1,-1],"loss_changes":[3.9248177E1,2.1139297E1,2.5219551E1,1.2031656E1,9.5116425E-1,4.8334084E0,1.7400753E1,0E0,0E0,0E0,0E0,0E0,0E0,0E0,0E0],"parents":[2147483647,0,0,1,1,2,2,3,3,4,4,5,5,6,6],"right_children":[2,4,6,8,10,12,14,-1,-1,-1,-1,-1,-1,-1,-1],"split_conditions":[1E0,1.5400057E-1,-2.910107E-2,-4.2029804E-1,4.2865437E-1,-1.3056995E0,2.4059334E-1,9.2430245E-3,-7.4082953E-3,-3.1454723E-2,-1.1241201E-2,-0E0,3.3826347E-2,1.4234533E-2,-4.4946563E-3],"split_indices":[127,40,40,57,68,92,137,0,0,0,0,0,0,0,0],"split_type":[0,0,0,0,0,0,0,0,0,0,0,0,0,0,0],"sum_hessian":[6.373387E2,3.1878455E2,3.1855417E2,2.606477E2,5.8136826E1,7.228865E1,2.4626552E2,6.50945E1,1.955532E2,3.5914925E1,2.2221903E1,1.0002493E1,6.228616E1,1.2922177E2,1.1704375E2],"tree_param":{"num_deleted":"0","num_feature":"141","num_nodes":"15","size_leaf_vector":"1"}},{"base_weights":[-2.5969783E-3,-2.2787166E-1,2.1329682E-1,-5.2945632E-2,-5.4964083E-1,5.9086764E-1,1.043528E-1,-6.592917E-3,7.2068595E-3,-1.6744105E-3,-2.8178468E-2,3.1132977E-2,8.193989E-3,-2.4102714E-3,1.1444262E-2],"categories":[],"categories_nodes":[],"categories_segments":[],"categories_sizes":[],"default_left":[0,0,0,0,0,0,0,0,0,0,0,0,0,0,0],"id":52,"left_children":[1,3,5,7,9,11,13,-1,-1,-1,-1,-1,-1,-1,-1],"loss_changes":[3.45222E1,1.855949E1,1.3930174E1,7.991434E0,6.608616E0,3.2713451E0,1.0491913E1,0E0,0E0,0E0,0E0,0E0,0E0,0E0,0E0],"parents":[2147483647,0,0,1,1,2,2,3,3,4,4,5,5,6,6],"right_children":[2,4,6,8,10,12,14,-1,-1,-1,-1,-1,-1,-1,-1],"split_conditions":[1E0,-1.6823438E-1,-1.327307E-1,6.3391626E-1,-2.846195E-1,-1.250275E-1,9.090909E-2,-6.592917E-3,7.2068595E-3,-1.6744105E-3,-2.8178468E-2,3.1132977E-2,8.193989E-3,-2.4102714E-3,1.1444262E-2],"split_indices":[127,40,40,137,76,5,35,0,0,0,0,0,0,0,0],"split_type":[0,0,0,0,0,0,0,0,0,0,0,0,0,0,0],"sum_hessian":[6.316922E2,3.1818008E2,3.1351215E2,2.1588829E2,1.0229179E2,5.974613E1,2.53766E2,1.5810847E2,5.777981E1,3.0372972E1,7.1918816E1,3.1868618E1,2.7877516E1,1.2206E2,1.3170601E2],"tree_param":{"num_deleted":"0","num_feature":"141","num_nodes":"15","size_leaf_vector":"1"}},{"base_weights":[-0E0,2.8720942E-1,-3.0877484E-2,6.2692416E-1,-0E0,-3.0328336E-1,2.2052689E-2,3.482079E-2,-0E0,1.3838834E-2,-7.6262313E-3,-0E0,-1.9817965E-2,7.71294E-3,-2.4522836E-3],"categories":[],"categories_nodes":[],"categories_segments":[],"categories_sizes":[],"default_left":[0,0,0,0,0,0,0,0,0,0,0,0,0,0,0],"id":53,"left_children":[1,3,5,7,9,11,13,-1,-1,-1,-1,-1,-1,-1,-1],"loss_changes":[8.863815E0,7.6138535E0,1.1732926E1,3.8658314E0,7.8727036E0,5.9683924E0,9.0230665E0,0E0,0E0,0E0,0E0,0E0,0E0,0E0,0E0],"parents":[2147483647,0,0,1,1,2,2,3,3,4,4,5,5,6,6],"right_children":[2,4,6,8,10,12,14,-1,-1,-1,-1,-1,-1,-1,-1],"split_conditions":[-6.838646E-1,-3.5154995E-1,-5.1428574E-1,2.7591202E-1,-7.283295E-1,-2.3808359E-1,1.14285715E-1,3.482079E-2,-0E0,1.3838834E-2,-7.6262313E-3,-0E0,-1.9817965E-2,7.71294E-3,-2.4522836E-3],"split_indices":[1,99,118,63,38,40,118,0,0,0,0,0,0,0,0],"split_type":[0,0,0,0,0,0,0,0,0,0,0,0,0,0,0],"sum_hessian":[6.355918E2,6.765005E1,5.679417E2,2.4870235E1,4.2779816E1,1.0304796E2,4.6489377E2,1.4481613E1,1.0388621E1,2.0323343E1,2.2456472E1,4.7388985E1,5.5658974E1,1.675305E2,2.9736328E2],"tree_param":{"num_deleted":"0","num_feature":"141","num_nodes":"15","size_leaf_vector":"1"}},{"base_weights":[9.10923E-3,-1.6168313E-1,2.0026043E-1,-3.8552087E-2,-5.2481663E-1,4.877789E-1,5.6285635E-2,-5.7485444E-3,1.2658097E-2,-1.2941512E-2,-2.8445268E-2,-0E0,2.3891963E-2,1.6906945E-2,-2.454893E-4],"categories":[],"categories_nodes":[],"categories_segments":[],"categories_sizes":[],"default_left":[0,0,0,0,0,0,0,0,0,0,0,0,0,0,0],"id":54,"left_children":[1,3,5,7,9,11,13,-1,-1,-1,-1,-1,-1,-1,-1],"loss_changes":[2.366692E1,1.5381084E1,1.3344449E1,1.213437E1,2.1554089E0,4.6454544E0,9.632015E0,0E0,0E0,0E0,0E0,0E0,0E0,0E0,0E0],"parents":[2147483647,0,0,1,1,2,2,3,3,4,4,5,5,6,6],"right_children":[2,4,6,8,10,12,14,-1,-1,-1,-1,-1,-1,-1,-1],"split_conditions":[1E0,1E0,0E0,7.162152E-1,3.8474494E-1,-6.2552315E-1,-3.342735E-1,-5.7485444E-3,1.2658097E-2,-1.2941512E-2,-2.8445268E-2,-0E0,2.3891963E-2,1.6906945E-2,-2.454893E-4],"split_indices":[127,136,87,137,98,30,94,0,0,0,0,0,0,0,0],"split_type":[0,0,0,0,0,0,0,0,0,0,0,0,0,0,0],"sum_hessian":[6.288901E2,3.2120834E2,3.0768173E2,2.4996982E2,7.123852E1,9.158156E1,2.1610017E2,2.0269011E2,4.7279705E1,4.725217E1,2.3986343E1,2.0190752E1,7.139081E1,3.9086773E1,1.770134E2],"tree_param":{"num_deleted":"0","num_feature":"141","num_nodes":"15","size_leaf_vector":"1"}},{"base_weights":[2.4797244E-2,-2.0729913E-1,2.6481876E-1,-9.227871E-2,-5.9361625E-1,3.1920466E-1,-2.8658077E-1,3.6220427E-3,-1.4417868E-2,-2.7671548E-2,-0E0,6.0325433E-3,1.905037E-2,-2.9851548E-2,-0E0],"categories":[],"categories_nodes":[],"categories_segments":[],"categories_sizes":[],"default_left":[0,0,0,0,0,0,0,0,0,0,0,0,0,0,0],"id":55,"left_children":[1,3,5,7,9,11,13,-1,-1,-1,-1,-1,-1,-1,-1],"loss_changes":[3.8510757E1,1.4661155E1,1.2505732E1,1.6119518E1,3.305519E0,7.509926E0,8.756908E0,0E0,0E0,0E0,0E0,0E0,0E0,0E0,0E0],"parents":[2147483647,0,0,1,1,2,2,3,3,4,4,5,5,6,6],"right_children":[2,4,6,8,10,12,14,-1,-1,-1,-1,-1,-1,-1,-1],"split_conditions":[1E0,3.2071772E-1,9.6767354E-1,-9.0241544E-2,7.2727275E-1,1.8181819E-1,1.1107696E0,3.6220427E-3,-1.4417868E-2,-2.7671548E-2,-0E0,6.0325433E-3,1.905037E-2,-2.9851548E-2,-0E0],"split_indices":[127,5,61,67,35,35,66,0,0,0,0,0,0,0,0],"split_type":[0,0,0,0,0,0,0,0,0,0,0,0,0,0,0],"sum_hessian":[6.18197E2,3.0592783E2,3.1226923E2,2.458736E2,6.0054222E1,2.917191E2,2.0550129E1,1.379741E2,1.078995E2,4.9248863E1,1.0805362E1,1.5436339E2,1.373557E2,1.0339662E1,1.0210467E1],"tree_param":{"num_deleted":"0","num_feature":"141","num_nodes":"15","size_leaf_vector":"1"}},{"base_weights":[-0E0,2.865421E-1,-4.7479115E-2,3.9893377E-1,-0E0,2.4534005E-1,-9.768185E-2,5.1738173E-3,2.5000587E-2,-6.5055676E-3,2.5675995E-3,1.5898017E-2,-0E0,-1.0464994E-3,-1.3659168E-2],"categories":[],"categories_nodes":[],"categories_segments":[],"categories_sizes":[],"default_left":[0,0,0,0,0,0,0,0,0,0,0,0,0,0,0],"id":56,"left_children":[1,3,5,7,9,11,13,-1,-1,-1,-1,-1,-1,-1,-1],"loss_changes":[1.2125593E1,4.7506104E0,9.532219E0,4.2412376E0,2.2675066E0,5.0519896E0,8.667376E0,0E0,0E0,0E0,0E0,0E0,0E0,0E0,0E0],"parents":[2147483647,0,0,1,1,2,2,3,3,4,4,5,5,6,6],"right_children":[2,4,6,8,10,12,14,-1,-1,-1,-1,-1,-1,-1,-1],"split_conditions":[-1.204329E0,7.8107095E-1,-6.899302E-1,1.5567221E-1,1.1120859E0,5.745506E-1,6.887984E-1,5.1738173E-3,2.5000587E-2,-6.5055676E-3,2.5675995E-3,1.5898017E-2,-0E0,-1.0464994E-3,-1.3659168E-2],"split_indices":[23,86,0,119,94,96,44,0,0,0,0,0,0,0,0],"split_type":[0,0,0,0,0,0,0,0,0,0,0,0,0,0,0],"sum_hessian":[6.1975507E2,9.8387566E1,5.213675E2,7.3859276E1,2.452829E1,6.3325912E1,4.580416E2,4.3220757E1,3.0638515E1,1.2709696E1,1.1818592E1,4.7369835E1,1.5956076E1,3.6838876E2,8.965282E1],"tree_param":{"num_deleted":"0","num_feature":"141","num_nodes":"15","size_leaf_vector":"1"}},{"base_weights":[-0E0,-1.0207305E-1,1.1155088E-1,2.5587213E-1,-2.1372819E-1,-1.8469217E-1,2.4833924E-1,-0E0,2.576594E-2,-1.0717051E-3,-1.7603818E-2,1.08865425E-2,-1.4702949E-2,1.9884607E-2,1.1904346E-3],"categories":[],"categories_nodes":[],"categories_segments":[],"categories_sizes":[],"default_left":[0,0,0,0,0,0,0,0,0,0,0,0,0,0,0],"id":57,"left_children":[1,3,5,7,9,11,13,-1,-1,-1,-1,-1,-1,-1,-1],"loss_changes":[8.88983E0,1.5570226E1,1.5548406E1,1.0171565E1,1.0700689E1,1.1724896E1,1.2140941E1,0E0,0E0,0E0,0E0,0E0,0E0,0E0,0E0],"parents":[2147483647,0,0,1,1,2,2,3,3,4,4,5,5,6,6],"right_children":[2,4,6,8,10,12,14,-1,-1,-1,-1,-1,-1,-1,-1],"split_conditions":[1E0,-1.9829437E0,1E0,2.5E-1,-2.9232875E-1,-2.2716491E-1,1.5975979E-1,-0E0,2.576594E-2,-1.0717051E-3,-1.7603818E-2,1.08865425E-2,-1.4702949E-2,1.9884607E-2,1.1904346E-3],"split_indices":[128,102,127,36,58,109,34,0,0,0,0,0,0,0,0],"split_type":[0,0,0,0,0,0,0,0,0,0,0,0,0,0,0],"sum_hessian":[6.235351E2,3.1464923E2,3.0888586E2,6.5573265E1,2.4907597E2,8.804581E1,2.2084006E2,3.988965E1,2.5683613E1,1.471266E2,1.0194937E2,1.8476498E1,6.9569305E1,9.370761E1,1.2713244E2],"tree_param":{"num_deleted":"0","num_feature":"141","num_nodes":"15","size_leaf_vector":"1"}},{"base_weights":[-1.3037574E-2,2.9240254E-1,-5.9013315E-2,2.7346907E-2,1.193427E-1,-2.4008027E-1,2.941485E-3,-0E0,1.9055163E-2,5.492959E-3,-1.3007752E-2,3.4049982E-3,-1.2037526E-2],"categories":[],"categories_nodes":[],"categories_segments":[],"categories_sizes":[],"default_left":[0,0,0,0,0,0,0,0,0,0,0,0,0],"id":58,"left_children":[1,3,5,-1,7,9,11,-1,-1,-1,-1,-1,-1],"loss_changes":[1.0472333E1,5.3713818E0,8.59017E0,0E0,5.0246935E0,7.588333E0,1.2052862E1,0E0,0E0,0E0,0E0,0E0,0E0],"parents":[2147483647,0,0,1,1,2,2,4,4,5,5,6,6],"right_children":[2,4,6,-1,8,10,12,-1,-1,-1,-1,-1,-1],"split_conditions":[-6.904104E-1,-5.713909E-1,-8.6235486E-2,2.7346907E-2,5.1212937E-2,-4.6223882E-1,7.802585E-1,-0E0,1.9055163E-2,5.492959E-3,-1.3007752E-2,3.4049982E-3,-1.2037526E-2],"split_indices":[20,121,39,0,31,59,20,0,0,0,0,0,0],"split_type":[0,0,0,0,0,0,0,0,0,0,0,0,0],"sum_hessian":[6.1390454E2,6.732501E1,5.465795E2,1.1569699E1,5.575531E1,1.5425519E2,3.9232437E2,4.4704536E1,1.1050774E1,1.9165165E1,1.3509001E2,3.2051718E2,7.18072E1],"tree_param":{"num_deleted":"0","num_feature":"141","num_nodes":"13","size_leaf_vector":"1"}},{"base_weights":[-3.455888E-3,5.568465E-2,-2.0256504E-1,-6.655594E-2,3.1158057E-1,1.0856188E-2,-2.764084E-1,-4.6631685E-3,1.1874422E-2,1.5310333E-2,-5.833104E-3,-2.8763933E-2,-6.4119436E-3],"categories":[],"categories_nodes":[],"categories_segments":[],"categories_sizes":[],"default_left":[0,0,0,0,0,0,0,0,0,0,0,0,0],"id":59,"left_children":[1,3,5,7,9,-1,11,-1,-1,-1,-1,-1,-1],"loss_changes":[1.0010432E1,1.8237757E1,8.510073E0,7.665159E0,7.9859676E0,0E0,8.541665E0,0E0,0E0,0E0,0E0,0E0,0E0],"parents":[2147483647,0,0,1,1,2,2,3,3,4,4,6,6],"right_children":[2,4,6,8,10,-1,12,-1,-1,-1,-1,-1,-1],"split_conditions":[5.5040383E-1,1E0,-7.128614E-1,9.123877E-1,1.1588892E0,1.0856188E-2,-6.098372E-1,-4.6631685E-3,1.1874422E-2,1.5310333E-2,-5.833104E-3,-2.8763933E-2,-6.4119436E-3],"split_indices":[42,128,0,137,34,0,3,0,0,0,0,0,0],"split_type":[0,0,0,0,0,0,0,0,0,0,0,0,0],"sum_hessian":[6.2170667E2,4.6500113E2,1.5670554E2,3.051613E2,1.5983984E2,1.3010404E1,1.4369513E2,2.7946933E2,2.5691956E1,1.4655557E2,1.3284274E1,2.0475304E1,1.23219826E2],"tree_param":{"num_deleted":"0","num_feature":"141","num_nodes":"13","size_leaf_vector":"1"}},{"base_weights":[2.0121585E-3,2.7014244E-1,-4.492901E-2,4.363936E-1,-0E0,-1.826449E-1,1.7838016E-2,3.246095E-2,6.707593E-3,1.1815065E-2,-9.019705E-3,9.2254573E-4,-1.5625605E-2,-9.865652E-3,3.1989985E-3],"categories":[],"categories_nodes":[],"categories_segments":[],"categories_sizes":[],"default_left":[0,0,0,0,0,0,0,0,0,0,0,0,0,0,0],"id":60,"left_children":[1,3,5,7,9,11,13,-1,-1,-1,-1,-1,-1,-1,-1],"loss_changes":[1.1444173E1,5.1790667E0,6.4992695E0,6.280427E0,7.688385E0,1.1252802E1,7.494436E0,0E0,0E0,0E0,0E0,0E0,0E0,0E0,0E0],"parents":[2147483647,0,0,1,1,2,2,3,3,4,4,5,5,6,6],"right_children":[2,4,6,8,10,12,14,-1,-1,-1,-1,-1,-1,-1,-1],"split_conditions":[-1.0205116E0,-8.8907026E-2,-1.2084217E-1,-1.9230976E0,7.309764E-1,0E0,-6.778637E-1,3.246095E-2,6.707593E-3,1.1815065E-2,-9.019705E-3,9.2254573E-4,-1.5625605E-2,-9.865652E-3,3.1989985E-3],"split_indices":[98,96,16,44,17,87,109,0,0,0,0,0,0,0,0],"split_type":[0,0,0,0,0,0,0,0,0,0,0,0,0,0,0],"sum_hessian":[6.3304395E2,1.0549987E2,5.2754407E2,5.923803E1,4.6261837E1,1.8388438E2,3.4365967E2,1.6721457E1,4.2516575E1,2.412134E1,2.2140497E1,8.3439354E1,1.0044504E2,5.172364E1,2.9193604E2],"tree_param":{"num_deleted":"0","num_feature":"141","num_nodes":"15","size_leaf_vector":"1"}},{"base_weights":[-0E0,-1.9150227E-1,2.0029923E-1,-6.188225E-2,-4.7434503E-1,2.8429276E-1,-1.414989E-1,-5.6256363E-3,1.2007386E-2,-9.291006E-3,-2.9247541E-2,2.203955E-2,4.653506E-3,-0E0,-1.9833984E-2],"categories":[],"categories_nodes":[],"categories_segments":[],"categories_sizes":[],"default_left":[0,0,0,0,0,0,0,0,0,0,0,0,0,0,0],"id":61,"left_children":[1,3,5,7,9,11,13,-1,-1,-1,-1,-1,-1,-1,-1],"loss_changes":[2.7006577E1,1.1977545E1,1.1368116E1,8.8817215E0,5.104023E0,1.1790726E1,5.947292E0,0E0,0E0,0E0,0E0,0E0,0E0,0E0,0E0],"parents":[2147483647,0,0,1,1,2,2,3,3,4,4,5,5,6,6],"right_children":[2,4,6,8,10,12,14,-1,-1,-1,-1,-1,-1,-1,-1],"split_conditions":[1E0,0E0,6.852775E-1,6.2565917E-1,-3.271104E-2,2.0527893E-1,1.687511E0,-5.6256363E-3,1.2007386E-2,-9.291006E-3,-2.9247541E-2,2.203955E-2,4.653506E-3,-0E0,-1.9833984E-2],"split_indices":[127,45,3,74,137,40,101,0,0,0,0,0,0,0,0],"split_type":[0,0,0,0,0,0,0,0,0,0,0,0,0,0,0],"sum_hessian":[6.16989E2,3.0946167E2,3.0752737E2,2.2380836E2,8.56533E1,2.5660193E2,5.0925434E1,1.9418135E2,2.9627008E1,5.4088688E1,3.1564611E1,8.84538E1,1.6814813E2,3.605449E1,1.4870946E1],"tree_param":{"num_deleted":"0","num_feature":"141","num_nodes":"15","size_leaf_vector":"1"}},{"base_weights":[-2.4133557E-2,3.6452293E-1,-4.8835114E-2,-0E0,2.290164E-2,-1.779216E-2,-4.0511477E-1,-4.1351793E-3,3.4792307E-3,-2.6022779E-2,-0E0],"categories":[],"categories_nodes":[],"categories_segments":[],"categories_sizes":[],"default_left":[0,0,0,0,0,0,0,0,0,0,0],"id":62,"left_children":[1,3,5,-1,-1,7,9,-1,-1,-1,-1],"loss_changes":[7.8204412E0,3.5766354E0,7.833968E0,0E0,0E0,6.4296856E0,5.2420645E0,0E0,0E0,0E0,0E0],"parents":[2147483647,0,0,1,1,2,2,5,5,6,6],"right_children":[2,4,6,-1,-1,8,10,-1,-1,-1,-1],"split_conditions":[-7.283295E-1,-5.93032E-2,1.6498774E0,-0E0,2.290164E-2,1.4426525E-1,4.1335374E-1,-4.1351793E-3,3.4792307E-3,-2.6022779E-2,-0E0],"split_indices":[38,40,40,0,0,74,107,0,0,0,0],"split_type":[0,0,0,0,0,0,0,0,0,0,0],"sum_hessian":[6.145319E2,2.5177055E1,5.8935486E2,1.03301525E1,1.4846904E1,5.5463806E2,3.471681E1,3.2662726E2,2.2801079E2,2.000489E1,1.4711918E1],"tree_param":{"num_deleted":"0","num_feature":"141","num_nodes":"11","size_leaf_vector":"1"}},{"base_weights":[-1.3745111E-2,-2.3770589E-1,1.9639859E-1,-9.6943215E-2,-4.9423105E-1,6.4302886E-1,9.8046005E-2,-1.0103778E-2,8.2410825E-4,-1.5000828E-3,-2.8519344E-2,3.2101624E-2,7.4326238E-3,1.4614523E-2,-3.7076787E-4],"categories":[],"categories_nodes":[],"categories_segments":[],"categories_sizes":[],"default_left":[0,0,0,0,0,0,0,0,0,0,0,0,0,0,0],"id":63,"left_children":[1,3,5,7,9,11,13,-1,-1,-1,-1,-1,-1,-1,-1],"loss_changes":[3.2715366E1,1.1525213E1,1.4903158E1,6.217888E0,8.759167E0,1.9325504E0,1.12022505E1,0E0,0E0,0E0,0E0,0E0,0E0,0E0,0E0],"parents":[2147483647,0,0,1,1,2,2,3,3,4,4,5,5,6,6],"right_children":[2,4,6,8,10,12,14,-1,-1,-1,-1,-1,-1,-1,-1],"split_conditions":[1E0,-1.6823438E-1,-2.4787988E-1,1E0,-1.4255945E-1,2.7665228E-1,-4.69721E-2,-1.0103778E-2,8.2410825E-4,-1.5000828E-3,-2.8519344E-2,3.2101624E-2,7.4326238E-3,1.4614523E-2,-3.7076787E-4],"split_indices":[127,40,40,130,27,38,96,0,0,0,0,0,0,0,0],"split_type":[0,0,0,0,0,0,0,0,0,0,0,0,0,0,0],"sum_hessian":[6.153853E2,3.0701685E2,3.083685E2,2.1032751E2,9.668932E1,4.605978E1,2.6230872E2,1.0439276E2,1.0593476E2,3.7896206E1,5.8793118E1,2.652508E1,1.9534698E1,8.4590355E1,1.7771837E2],"tree_param":{"num_deleted":"0","num_feature":"141","num_nodes":"15","size_leaf_vector":"1"}},{"base_weights":[1.8778903E-2,-6.9464356E-2,1.22620754E-1,1.6788834E-1,-2.110045E-1,3.3239865E-1,-2.540275E-2,1.1283312E-2,-5.4741357E-3,-0E0,-1.5302024E-2,-0E0,1.9738456E-2,1.22755E-2,-3.8995685E-3],"categories":[],"categories_nodes":[],"categories_segments":[],"categories_sizes":[],"default_left":[0,0,0,0,0,0,0,0,0,0,0,0,0,0,0],"id":64,"left_children":[1,3,5,7,9,11,13,-1,-1,-1,-1,-1,-1,-1,-1],"loss_changes":[7.238626E0,1.32086E1,1.2555829E1,6.365704E0,8.0125885E0,9.705645E0,6.271944E0,0E0,0E0,0E0,0E0,0E0,0E0,0E0,0E0],"parents":[2147483647,0,0,1,1,2,2,3,3,4,4,5,5,6,6],"right_children":[2,4,6,8,10,12,14,-1,-1,-1,-1,-1,-1,-1,-1],"split_conditions":[1E0,-1.066271E0,9.179121E-2,7.648622E-1,-1.5311567E-1,-4.1149783E-1,-3.3962265E-1,1.1283312E-2,-5.4741357E-3,-0E0,-1.5302024E-2,-0E0,1.9738456E-2,1.22755E-2,-3.8995685E-3],"split_indices":[128,102,27,38,110,69,31,0,0,0,0,0,0,0,0],"split_type":[0,0,0,0,0,0,0,0,0,0,0,0,0,0,0],"sum_hessian":[6.1033215E2,3.0942065E2,3.009115E2,1.048261E2,2.0459456E2,1.3457816E2,1.6633334E2,8.6130196E1,1.8695906E1,9.782042E1,1.0677414E2,3.9527718E1,9.505043E1,1.8360518E1,1.4797282E2],"tree_param":{"num_deleted":"0","num_feature":"141","num_nodes":"15","size_leaf_vector":"1"}},{"base_weights":[9.631732E-3,-2.0733485E-1,2.3523845E-1,-5.652463E-2,-4.9504218E-1,5.9949917E-1,1.3519433E-1,5.5563366E-3,-6.5787155E-3,-0E0,-2.3281287E-2,2.8889736E-2,-0E0,-0E0,1.1508352E-2],"categories":[],"categories_nodes":[],"categories_segments":[],"categories_sizes":[],"default_left":[0,0,0,0,0,0,0,0,0,0,0,0,0,0,0],"id":65,"left_children":[1,3,5,7,9,11,13,-1,-1,-1,-1,-1,-1,-1,-1],"loss_changes":[3.422942E1,1.3940088E1,1.23934E1,6.6350503E0,5.193159E0,4.85075E0,6.6137667E0,0E0,0E0,0E0,0E0,0E0,0E0,0E0,0E0],"parents":[2147483647,0,0,1,1,2,2,3,3,4,4,5,5,6,6],"right_children":[2,4,6,8,10,12,14,-1,-1,-1,-1,-1,-1,-1,-1],"split_conditions":[1E0,-1.6823438E-1,-1.327307E-1,-3.249719E-1,-6.779661E-1,4.9873245E-1,1.8181819E-1,5.5563366E-3,-6.5787155E-3,-0E0,-2.3281287E-2,2.8889736E-2,-0E0,-0E0,1.1508352E-2],"split_indices":[127,40,40,57,3,111,35,0,0,0,0,0,0,0,0],"split_type":[0,0,0,0,0,0,0,0,0,0,0,0,0,0,0],"sum_hessian":[6.2147064E2,3.0781186E2,3.1365875E2,2.1285869E2,9.4953186E1,5.6542477E1,2.5711627E2,6.209532E1,1.5076335E2,1.3043117E1,8.1910065E1,4.600977E1,1.0532709E1,1.3612872E2,1.20987564E2],"tree_param":{"num_deleted":"0","num_feature":"141","num_nodes":"15","size_leaf_vector":"1"}},{"base_weights":[-0E0,-1.5357994E-1,1.446069E-1,-3.9176743E-2,-5.4545814E-1,5.24243E-1,4.00526E-2,-9.4946055E-3,2.7727596E-3,-0E0,-2.6798286E-2,-0E0,2.5432216E-2,-3.6740818E-3,7.7280714E-3],"categories":[],"categories_nodes":[],"categories_segments":[],"categories_sizes":[],"default_left":[0,0,0,0,0,0,0,0,0,0,0,0,0,0,0],"id":66,"left_children":[1,3,5,7,9,11,13,-1,-1,-1,-1,-1,-1,-1,-1],"loss_changes":[1.632322E1,1.51720085E1,1.3408216E1,8.27916E0,4.9499397E0,4.254627E0,7.5200944E0,0E0,0E0,0E0,0E0,0E0,0E0,0E0,0E0],"parents":[2147483647,0,0,1,1,2,2,3,3,4,4,5,5,6,6],"right_children":[2,4,6,8,10,12,14,-1,-1,-1,-1,-1,-1,-1,-1],"split_conditions":[1E0,3.2071772E-1,-1.1556745E-1,-1.4365333E-1,-3.66908E-1,-5.338263E-1,7.85971E-4,-9.4946055E-3,2.7727596E-3,-0E0,-2.6798286E-2,-0E0,2.5432216E-2,-3.6740818E-3,7.7280714E-3],"split_indices":[127,5,40,121,59,69,69,0,0,0,0,0,0,0,0],"split_type":[0,0,0,0,0,0,0,0,0,0,0,0,0,0,0],"sum_hessian":[6.2128546E2,3.1238242E2,3.0890308E2,2.516208E2,6.0761593E1,5.6480408E1,2.5242268E2,1.0133168E2,1.5028912E2,1.2079333E1,4.868226E1,1.0143776E1,4.633663E1,1.2183891E2,1.3058377E2],"tree_param":{"num_deleted":"0","num_feature":"141","num_nodes":"15","size_leaf_vector":"1"}},{"base_weights":[-0E0,-1.8809919E-1,1.846412E-1,-5.454186E-2,-4.3483165E-1,1.282767E-1,2.5347479E-2,-0E0,-1.9600147E-2,-0E0,-2.1960221E-2,1.7785974E-2,7.5056625E-4],"categories":[],"categories_nodes":[],"categories_segments":[],"categories_sizes":[],"default_left":[0,0,0,0,0,0,0,0,0,0,0,0,0],"id":67,"left_children":[1,3,5,7,9,11,-1,-1,-1,-1,-1,-1,-1],"loss_changes":[2.4631786E1,1.0734945E1,9.18218E0,1.0350301E1,7.2505207E0,1.0655648E1,0E0,0E0,0E0,0E0,0E0,0E0,0E0],"parents":[2147483647,0,0,1,1,2,2,3,3,4,4,5,5],"right_children":[2,4,6,8,10,12,-1,-1,-1,-1,-1,-1,-1],"split_conditions":[1E0,0E0,7.847534E-1,2.0470705E0,-1.2550074E0,-4.8445813E-2,2.5347479E-2,-0E0,-1.9600147E-2,-0E0,-2.1960221E-2,1.7785974E-2,7.5056625E-4],"split_indices":[127,87,29,16,73,40,0,0,0,0,0,0,0],"split_type":[0,0,0,0,0,0,0,0,0,0,0,0,0],"sum_hessian":[6.1832654E2,3.1134094E2,3.069856E2,2.143239E2,9.7017044E1,2.8313342E2,2.3852173E1,1.8508266E2,2.9241238E1,1.5404731E1,8.161231E1,6.186218E1,2.2127124E2],"tree_param":{"num_deleted":"0","num_feature":"141","num_nodes":"13","size_leaf_vector":"1"}},{"base_weights":[9.803894E-3,-1.7891277E-1,2.0748965E-1,-1.4054121E-3,-3.6642388E-1,4.664426E-1,6.445964E-2,-6.845958E-3,3.7564158E-3,-0E0,-2.0209357E-2,2.5136288E-2,7.620938E-4,1.954969E-2,-0E0],"categories":[],"categories_nodes":[],"categories_segments":[],"categories_sizes":[],"default_left":[0,0,0,0,0,0,0,0,0,0,0,0,0,0,0],"id":68,"left_children":[1,3,5,7,9,11,13,-1,-1,-1,-1,-1,-1,-1,-1],"loss_changes":[2.6503984E1,1.0358463E1,1.2110286E1,5.2312293E0,8.856646E0,6.1317043E0,1.0321152E1,0E0,0E0,0E0,0E0,0E0,0E0,0E0,0E0],"parents":[2147483647,0,0,1,1,2,2,3,3,4,4,5,5,6,6],"right_children":[2,4,6,8,10,12,14,-1,-1,-1,-1,-1,-1,-1,-1],"split_conditions":[1E0,-4.55056E-1,2.0527893E-1,-6.3040906E-1,-3E-1,2.7583915E-1,-6.658223E-1,-6.845958E-3,3.7564158E-3,-0E0,-2.0209357E-2,2.5136288E-2,7.620938E-4,1.954969E-2,-0E0],"split_indices":[127,40,40,85,17,3,110,0,0,0,0,0,0,0,0],"split_type":[0,0,0,0,0,0,0,0,0,0,0,0,0,0,0],"sum_hessian":[6.217897E2,3.0781754E2,3.1397214E2,1.702854E2,1.3753215E2,9.9932274E1,2.1403987E2,7.581397E1,9.447143E1,3.521646E1,1.0231569E2,6.633994E1,3.3592335E1,3.073111E1,1.8330876E2],"tree_param":{"num_deleted":"0","num_feature":"141","num_nodes":"15","size_leaf_vector":"1"}},{"base_weights":[-3.982489E-3,3.7758715E-2,-1.8400818E-1,-0E0,4.5632964E-1,5.2331374E-3,-2.6785818E-1,-1.9680432E-3,1.4211876E-2,-0E0,2.5498651E-2,-2.1199547E-2,-4.735242E-3],"categories":[],"categories_nodes":[],"categories_segments":[],"categories_sizes":[],"default_left":[0,0,0,0,0,0,0,0,0,0,0,0,0],"id":69,"left_children":[1,3,5,7,9,-1,11,-1,-1,-1,-1,-1,-1],"loss_changes":[6.959432E0,1.1973563E1,5.881452E0,1.0232748E1,6.1023054E0,0E0,4.8534393E0,0E0,0E0,0E0,0E0,0E0,0E0],"parents":[2147483647,0,0,1,1,2,2,3,3,4,4,6,6],"right_children":[2,4,6,8,10,-1,12,-1,-1,-1,-1,-1,-1],"split_conditions":[6.6082937E-1,6.532379E-1,-6.904104E-1,6.739449E-1,-3.6363637E-1,5.2331374E-3,-2.6666668E-1,-1.9680432E-3,1.4211876E-2,-0E0,2.5498651E-2,-2.1199547E-2,-4.735242E-3],"split_indices":[44,94,20,98,35,0,12,0,0,0,0,0,0],"split_type":[0,0,0,0,0,0,0,0,0,0,0,0,0],"sum_hessian":[6.1067914E2,4.7903574E2,1.3164336E2,4.3661624E2,4.24195E1,1.736438E1,1.14278984E2,3.9063687E2,4.597938E1,1.007505E1,3.2344448E1,2.9892813E1,8.438617E1],"tree_param":{"num_deleted":"0","num_feature":"141","num_nodes":"13","size_leaf_vector":"1"}},{"base_weights":[2.6818557E-2,-1.153346E-1,1.7835549E-1,-6.0276393E-2,-2.263029E-2,4.588559E-1,4.3442056E-2,-9.047936E-3,1.2347383E-3,2.9181822E-3,2.4135653E-2,5.9616696E-3,-1.1716662E-2],"categories":[],"categories_nodes":[],"categories_segments":[],"categories_sizes":[],"default_left":[0,0,0,0,0,0,0,0,0,0,0,0,0],"id":70,"left_children":[1,3,5,7,-1,9,11,-1,-1,-1,-1,-1,-1],"loss_changes":[1.5667897E1,9.026128E0,1.2336193E1,6.609411E0,0E0,3.9545631E0,1.0562026E1,0E0,0E0,0E0,0E0,0E0,0E0],"parents":[2147483647,0,0,1,1,2,2,3,3,5,5,6,6],"right_children":[2,4,6,8,-1,10,12,-1,-1,-1,-1,-1,-1],"split_conditions":[1E0,7.6820964E-1,0E0,-1.4365333E-1,-2.263029E-2,-5.3830224E-1,7.3704773E-1,-9.047936E-3,1.2347383E-3,2.9181822E-3,2.4135653E-2,5.9616696E-3,-1.1716662E-2],"split_indices":[127,85,87,121,0,137,27,0,0,0,0,0,0],"split_type":[0,0,0,0,0,0,0,0,0,0,0,0,0],"sum_hessian":[6.11659E2,3.0218948E2,3.094695E2,2.7937863E2,2.2810852E1,8.910162E1,2.2036787E2,1.1378061E2,1.65598E2,3.2541767E1,5.655986E1,1.7784482E2,4.2523056E1],"tree_param":{"num_deleted":"0","num_feature":"141","num_nodes":"13","size_leaf_vector":"1"}},{"base_weights":[2.4789957E-2,-1.0319651E-1,1.6409567E-1,-0E0,-5.1143104E-1,4.2712137E-1,3.1460952E-2,-1.5094572E-2,1.6697175E-3,-0E0,-2.5816852E-2,-0E0,2.1047447E-2,2.4193624E-2,-0E0],"categories":[],"categories_nodes":[],"categories_segments":[],"categories_sizes":[],"default_left":[0,0,0,0,0,0,0,0,0,0,0,0,0,0,0],"id":71,"left_children":[1,3,5,7,9,11,13,-1,-1,-1,-1,-1,-1,-1,-1],"loss_changes":[1.3080057E1,1.4952622E1,1.1212759E1,8.01373E0,5.137495E0,5.579237E0,9.612797E0,0E0,0E0,0E0,0E0,0E0,0E0,0E0,0E0],"parents":[2147483647,0,0,1,1,2,2,3,3,4,4,5,5,6,6],"right_children":[2,4,6,8,10,12,14,-1,-1,-1,-1,-1,-1,-1,-1],"split_conditions":[1E0,3.2071772E-1,1.4496703E-1,-7.1813124E-1,-5.3253496E-1,-1.2020725E0,-7.2326505E-1,-1.5094572E-2,1.6697175E-3,-0E0,-2.5816852E-2,-0E0,2.1047447E-2,2.4193624E-2,-0E0],"split_indices":[127,5,40,137,40,92,21,0,0,0,0,0,0,0,0],"split_type":[0,0,0,0,0,0,0,0,0,0,0,0,0,0,0],"sum_hessian":[6.062452E2,3.012222E2,3.0502295E2,2.4646439E2,5.4757797E1,9.044224E1,2.1458072E2,2.7977524E1,2.1848686E2,1.1129254E1,4.3628544E1,1.37922945E1,7.664995E1,1.2177803E1,2.0240292E2],"tree_param":{"num_deleted":"0","num_feature":"141","num_nodes":"15","size_leaf_vector":"1"}},{"base_weights":[7.7236337E-3,9.365825E-2,-1.0868821E-1,-0E0,2.580686E-1,1.6607637E-2,-2.7389666E-1,1.2638231E-2,-4.062248E-3,2.6360797E-2,3.3885532E-3,-9.030624E-4,1.6348617E-2,-2.342939E-2,-1.354319E-3],"categories":[],"categories_nodes":[],"categories_segments":[],"categories_sizes":[],"default_left":[0,0,0,0,0,0,0,0,0,0,0,0,0,0,0],"id":72,"left_children":[1,3,5,7,9,11,13,-1,-1,-1,-1,-1,-1,-1,-1],"loss_changes":[7.661577E0,6.3898582E0,7.506998E0,1.1982357E1,9.463201E0,6.81095E0,9.034566E0,0E0,0E0,0E0,0E0,0E0,0E0,0E0,0E0],"parents":[2147483647,0,0,1,1,2,2,3,3,4,4,5,5,6,6],"right_children":[2,4,6,8,10,12,14,-1,-1,-1,-1,-1,-1,-1,-1],"split_conditions":[1.7725827E-1,-1.2649903E-1,0E0,-4.0598208E-1,-1.4068887E-2,6.814874E-1,5.350574E-2,1.2638231E-2,-4.062248E-3,2.6360797E-2,3.3885532E-3,-9.030624E-4,1.6348617E-2,-2.342939E-2,-1.354319E-3],"split_indices":[52,54,87,60,54,86,25,0,0,0,0,0,0,0,0],"split_type":[0,0,0,0,0,0,0,0,0,0,0,0,0,0,0],"sum_hessian":[6.11046E2,3.716527E2,2.3939334E2,2.485266E2,1.231261E2,1.2344117E2,1.1595216E2,6.572521E1,1.8280139E2,2.8446316E1,9.467979E1,1.047631E2,1.8678076E1,4.1922153E1,7.4030014E1],"tree_param":{"num_deleted":"0","num_feature":"141","num_nodes":"15","size_leaf_vector":"1"}},{"base_weights":[-5.9340787E-3,-1.6513409E-1,1.4051521E-1,-6.432927E-2,-4.885254E-1,6.116804E-1,4.571308E-2,6.3141515E-3,-7.2401627E-3,-0E0,-2.3369916E-2,2.8558673E-2,-0E0,1.9127814E-2,-0E0],"categories":[],"categories_nodes":[],"categories_segments":[],"categories_sizes":[],"default_left":[0,0,0,0,0,0,0,0,0,0,0,0,0,0,0],"id":73,"left_children":[1,3,5,7,9,11,13,-1,-1,-1,-1,-1,-1,-1,-1],"loss_changes":[1.6634539E1,1.0716337E1,1.4961977E1,8.617901E0,3.624279E0,1.3181896E0,9.978067E0,0E0,0E0,0E0,0E0,0E0,0E0,0E0,0E0],"parents":[2147483647,0,0,1,1,2,2,3,3,4,4,5,5,6,6],"right_children":[2,4,6,8,10,12,14,-1,-1,-1,-1,-1,-1,-1,-1],"split_conditions":[1E0,6.725525E-2,-2.3110935E-1,-3.4136415E-1,-8.4734666E-1,6.440703E-1,-4.4092685E-1,6.3141515E-3,-7.2401627E-3,-0E0,-2.3369916E-2,2.8558673E-2,-0E0,1.9127814E-2,-0E0],"split_indices":[127,40,40,57,73,24,5,0,0,0,0,0,0,0,0],"split_type":[0,0,0,0,0,0,0,0,0,0,0,0,0,0,0],"sum_hessian":[6.0147504E2,3.012057E2,3.0026935E2,2.411297E2,6.0075996E1,4.116981E1,2.5909955E2,7.071332E1,1.7041638E2,1.0008247E1,5.006775E1,3.0842398E1,1.0327411E1,2.8848475E1,2.3025107E2],"tree_param":{"num_deleted":"0","num_feature":"141","num_nodes":"15","size_leaf_vector":"1"}},{"base_weights":[-0E0,-1.4773144E-1,1.4847742E-1,-8.460552E-2,-2.5756465E-2,2.2631402E-1,-1.745806E-1,-6.100611E-3,7.990248E-3,1.1832039E-2,-2.8328493E-3,-1.8361831E-2,-0E0],"categories":[],"categories_nodes":[],"categories_segments":[],"categories_sizes":[],"default_left":[0,0,0,0,0,0,0,0,0,0,0,0,0],"id":74,"left_children":[1,3,5,7,-1,9,11,-1,-1,-1,-1,-1,-1],"loss_changes":[1.5834343E1,1.1022771E1,1.0159982E1,7.325824E0,0E0,7.401889E0,5.0944934E0,0E0,0E0,0E0,0E0,0E0,0E0],"parents":[2147483647,0,0,1,1,2,2,3,3,5,5,6,6],"right_children":[2,4,6,8,-1,10,12,-1,-1,-1,-1,-1,-1],"split_conditions":[1E0,8.050476E-1,7.834009E-1,8.7717277E-1,-2.5756465E-2,3.760916E0,7.242699E-1,-6.100611E-3,7.990248E-3,1.1832039E-2,-2.8328493E-3,-1.8361831E-2,-0E0],"split_indices":[127,42,58,73,0,5,98,0,0,0,0,0,0],"split_type":[0,0,0,0,0,0,0,0,0,0,0,0,0],"sum_hessian":[6.0883984E2,2.9945663E2,3.0938318E2,2.750518E2,2.4404854E1,2.5987482E2,4.9508358E1,2.3451138E2,4.0540417E1,2.2213092E2,3.7743896E1,1.8774067E1,3.0734291E1],"tree_param":{"num_deleted":"0","num_feature":"141","num_nodes":"13","size_leaf_vector":"1"}},{"base_weights":[7.6137823E-3,-1.1813138E-1,1.5082948E-1,9.848496E-3,-4.2222893E-1,1.9573997E-1,-2.418866E-1,3.6574707E-3,-1.1705542E-2,-0E0,-2.0589218E-2,1.3196123E-2,1.3370314E-3,-2.083021E-2,-0E0],"categories":[],"categories_nodes":[],"categories_segments":[],"categories_sizes":[],"default_left":[0,0,0,0,0,0,0,0,0,0,0,0,0,0,0],"id":75,"left_children":[1,3,5,7,9,11,13,-1,-1,-1,-1,-1,-1,-1,-1],"loss_changes":[1.317055E1,1.6198704E1,7.495926E0,7.401021E0,6.1209526E0,5.8823357E0,4.2229347E0,0E0,0E0,0E0,0E0,0E0,0E0,0E0,0E0],"parents":[2147483647,0,0,1,1,2,2,3,3,4,4,5,5,6,6],"right_children":[2,4,6,8,10,12,14,-1,-1,-1,-1,-1,-1,-1,-1],"split_conditions":[1E0,5.50514E-2,9.6767354E-1,7.4310404E-1,-7.8979015E-1,-2.2842016E-2,9.729827E-1,3.6574707E-3,-1.1705542E-2,-0E0,-2.0589218E-2,1.3196123E-2,1.3370314E-3,-2.083021E-2,-0E0],"split_indices":[127,102,61,3,28,121,93,0,0,0,0,0,0,0,0],"split_type":[0,0,0,0,0,0,0,0,0,0,0,0,0,0,0],"sum_hessian":[6.029811E2,3.0633762E2,2.9664346E2,2.0780975E2,9.852786E1,2.763832E2,2.0260256E1,1.7539784E2,3.2411903E1,1.2059257E1,8.6468605E1,1.3703601E2,1.393472E2,1.0062645E1,1.0197612E1],"tree_param":{"num_deleted":"0","num_feature":"141","num_nodes":"15","size_leaf_vector":"1"}}]},"name":"gbtree"},"learner_model_param":{"base_score":"[5E-1]","boost_from_average":"1","num_class":"0","num_feature":"141","num_target":"1"},"objective":{"name":"binary:logistic","reg_loss_param":{"scale_pos_weight":"1.01009083"}}},"version":[3,2,0]}