{"learner":{"attributes":{"best_iteration":"5","best_score":"0.8020344858306809","scikit_learn":"{\"_estimator_type\": \"classifier\"}"},"feature_names":["open","high","low","close","volume","vader_compound","vader_pos","vader_neg","vader_neu","sentiment_label","finbert_score","finbert_label","fng_value","fng_classification","social_score","social_votes","quote_asset_volume","num_trades","taker_buy_base_volume","taker_buy_quote_volume","EMA_9","EMA_21","MACD","MACD_signal","BB_upper","BB_lower","BB_pct_b","RSI_14","Stoch_K","Stoch_D","ROC_10","ATR_14","high_low_spread","OBV","taker_buy_ratio","hour","day_of_week","close_lag_1","close_lag_3","close_lag_7","return_1d","price_above_ma1","return_2d","price_above_ma2","return_3d","price_above_ma3","return_5d","price_above_ma5","return_7d","price_above_ma7","return_14d","price_above_ma14","return_21d","price_above_ma21","return_30d","price_above_ma30","volatility_5d","vol_ratio_5d","close_zscore_5d","volatility_7d","vol_ratio_7d","close_zscore_7d","volatility_14d","vol_ratio_14d","close_zscore_14d","volatility_21d","vol_ratio_21d","close_zscore_21d","volatility_30d","vol_ratio_30d","close_zscore_30d","ema_cross","macd_cross","macd_hist","macd_hist_change","price_vs_ema9","price_vs_ema21","ema_gap","bb_width","bb_squeeze","bb_breakout_up","bb_breakout_down","rsi_overbought","rsi_oversold","rsi_bullish","rsi_change_3d","rsi_change_7d","stoch_cross","stoch_overbought","stoch_oversold","atr_ratio","high_volatility","atr_change","volume_spike","obv_change","obv_trend","buy_pressure","buy_pressure_trend","sentiment_ma3","sentiment_ma7","sentiment_ma14","sentiment_trend","sentiment_momentum","sentiment_pos","sentiment_neg","sentiment_strong_pos","sentiment_strong_neg","vader_pos_change","vader_neg_change","finbert_ma3","finbert_ma7","finbert_trend","fng_extreme_fear","fng_fear","fng_greed","fng_extreme_greed","fng_change_3d","fng_change_7d","fng_ma7","social_spike","social_trend","social_votes_spike","is_weekend","is_monday","is_friday","month","quarter","target_lag_1","target_lag_2","target_lag_3","target_lag_5","target_lag_7","target_lag_14","higher_high","lower_low","doji","bullish_candle","candle_body","bull_confluence","bear_confluence","sentiment_tech_agree"],"feature_types":["float","float","float","float","float","float","float","float","float","float","float","float","float","float","float","float","float","float","float","float","float","float","float","float","float","float","float","float","float","float","float","float","float","float","float","float","float","float","float","float","float","float","float","float","float","float","float","float","float","float","float","float","float","float","float","float","float","float","float","float","float","float","float","float","float","float","float","float","float","float","float","float","float","float","float","float","float","float","float","float","float","float","float","float","float","float","float","float","float","float","float","float","float","float","float","float","float","float","float","float","float","float","float","float","float","float","float","float","float","float","float","float","float","float","float","float","float","float","float","float","float","float","float","float","float","float","float","float","float","float","float","float","float","float","float","float","float","float","float","float","float"],"gradient_booster":{"model":{"cats":{"enc":[],"feature_segments":[],"sorted_idx":[]},"gbtree_model_param":{"num_parallel_tree":"1","num_trees":"66"},"iteration_indptr":[0,1,2,3,4,5,6,7,8,9,10,11,12,13,14,15,16,17,18,19,20,21,22,23,24,25,26,27,28,29,30,31,32,33,34,35,36,37,38,39,40,41,42,43,44,45,46,47,48,49,50,51,52,53,54,55,56,57,58,59,60,61,62,63,64,65,66],"tree_info":[0,0,0,0,0,0,0,0,0,0,0,0,0,0,0,0,0,0,0,0,0,0,0,0,0,0,0,0,0,0,0,0,0,0,0,0,0,0,0,0,0,0,0,0,0,0,0,0,0,0,0,0,0,0,0,0,0,0,0,0,0,0,0,0,0,0],"trees":[{"base_weights":[1.5940366E-2,-3.187108E-1,3.977925E-1,-1.24040924E-1,-2.8600099E-2,3.2180876E-2,1.3794452E-1,-1.2687331E-2,3.1781872E-3,1.6898189E-2,2.2986687E-4],"categories":[],"categories_nodes":[],"categories_segments":[],"categories_sizes":[],"default_left":[0,0,0,0,0,0,0,0,0,0,0],"id":0,"left_children":[1,3,5,7,-1,-1,9,-1,-1,-1,-1],"loss_changes":[1.2853163E2,5.1608135E1,6.535133E1,2.7939487E1,0E0,0E0,1.6911617E1,0E0,0E0,0E0,0E0],"parents":[2147483647,0,0,1,1,2,2,3,3,6,6],"right_children":[2,4,6,8,-1,-1,10,-1,-1,-1,-1],"split_conditions":[1E0,6.090552E-2,1.7726187E-1,6.402201E-2,-2.8600099E-2,3.2180876E-2,-7.692209E-1,-1.2687331E-2,3.1781872E-3,1.6898189E-2,2.2986687E-4],"split_indices":[128,58,42,68,0,0,22,0,0,0,0],"split_type":[0,0,0,0,0,0,0,0,0,0,0],"sum_hessian":[9.074053E2,4.7415207E2,4.332532E2,3.6386154E2,1.1029053E2,1.2217455E2,3.1107864E2,1.8125923E2,1.8260233E2,6.208708E1,2.4899156E2],"tree_param":{"num_deleted":"0","num_feature":"141","num_nodes":"11","size_leaf_vector":"1"}},{"base_weights":[1.3131451E-2,-2.9200104E-1,3.745363E-1,-7.6768535E-1,8.3684707E-1,-7.586242E-1,8.449969E-1,-4.1256575E-3,-3.213893E-2,4.067192E-2,1.2031337E-3,-0E0,-3.84413E-2,3.672721E-2,4.8903897E-3],"categories":[],"categories_nodes":[],"categories_segments":[],"categories_sizes":[],"default_left":[0,0,0,0,0,0,0,0,0,0,0,0,0,0,0],"id":1,"left_children":[1,3,5,7,9,11,13,-1,-1,-1,-1,-1,-1,-1,-1],"loss_changes":[1.12971214E2,2.8923816E2,2.566266E2,3.937683E1,4.0308716E1,4.7839417E1,5.074179E1,0E0,0E0,0E0,0E0,0E0,0E0,0E0,0E0],"parents":[2147483647,0,0,1,1,2,2,3,3,4,4,5,5,6,6],"right_children":[2,4,6,8,10,12,14,-1,-1,-1,-1,-1,-1,-1,-1],"split_conditions":[1E0,1E0,1E0,-9.073067E-1,1.9397837E-1,-3.9849904E-1,7.452197E-1,-4.1256575E-3,-3.213893E-2,4.067192E-2,1.2031337E-3,-0E0,-3.84413E-2,3.672721E-2,4.8903897E-3],"split_indices":[128,127,127,40,40,40,58,0,0,0,0,0,0,0,0],"split_type":[0,0,0,0,0,0,0,0,0,0,0,0,0,0,0],"sum_hessian":[9.1868036E2,4.8804257E2,4.3063776E2,3.4952078E2,1.3852182E2,1.2050531E2,3.1013245E2,9.07035E1,2.5881726E2,8.570336E1,5.281845E1,3.9429996E1,8.107531E1,2.181448E2,9.198764E1],"tree_param":{"num_deleted":"0","num_feature":"141","num_nodes":"15","size_leaf_vector":"1"}},{"base_weights":[-1.1641087E-2,-3.3216062E-1,3.3224234E-1,-7.8099126E-1,7.852307E-1,-7.496207E-1,8.1479555E-1,-4.954168E-3,-3.161737E-2,4.1240655E-2,4.2007198E-3,-0E0,-3.4017373E-2,4.039084E-2,1.0124918E-2],"categories":[],"categories_nodes":[],"categories_segments":[],"categories_sizes":[],"default_left":[0,0,0,0,0,0,0,0,0,0,0,0,0,0,0],"id":2,"left_children":[1,3,5,7,9,11,13,-1,-1,-1,-1,-1,-1,-1,-1],"loss_changes":[1.1250964E2,2.7046445E2,2.526892E2,3.225374E1,3.844931E1,2.62695E1,5.8660507E1,0E0,0E0,0E0,0E0,0E0,0E0,0E0,0E0],"parents":[2147483647,0,0,1,1,2,2,3,3,4,4,5,5,6,6],"right_children":[2,4,6,8,10,12,14,-1,-1,-1,-1,-1,-1,-1,-1],"split_conditions":[1E0,1E0,1E0,-6.735202E-1,1E0,1E0,5.5629617E-1,-4.954168E-3,-3.161737E-2,4.1240655E-2,4.2007198E-3,-0E0,-3.4017373E-2,4.039084E-2,1.0124918E-2],"split_indices":[128,127,127,58,43,45,58,0,0,0,0,0,0,0,0],"split_type":[0,0,0,0,0,0,0,0,0,0,0,0,0,0,0],"sum_hessian":[9.203911E2,4.8738843E2,4.330027E2,3.5391696E2,1.334715E2,1.2768287E2,3.0531982E2,8.3449936E1,2.70467E2,6.9550964E1,6.392053E1,3.9166523E1,8.851634E1,1.6027846E2,1.4504137E2],"tree_param":{"num_deleted":"0","num_feature":"141","num_nodes":"15","size_leaf_vector":"1"}},{"base_weights":[-0E0,-3.01524E-1,3.5112494E-1,-7.218927E-1,7.32879E-1,-6.8115544E-1,8.0780077E-1,-1.0707734E-2,-3.2661118E-2,3.4289017E-2,-0E0,3.0488244E-3,-3.6635794E-2,3.945046E-2,9.952374E-3],"categories":[],"categories_nodes":[],"categories_segments":[],"categories_sizes":[],"default_left":[0,0,0,0,0,0,0,0,0,0,0,0,0,0,0],"id":3,"left_children":[1,3,5,7,9,11,13,-1,-1,-1,-1,-1,-1,-1,-1],"loss_changes":[1.08377945E2,2.3367444E2,2.2931435E2,3.2689728E1,3.442344E1,5.7686188E1,5.528296E1,0E0,0E0,0E0,0E0,0E0,0E0,0E0,0E0],"parents":[2147483647,0,0,1,1,2,2,3,3,4,4,5,5,6,6],"right_children":[2,4,6,8,10,12,14,-1,-1,-1,-1,-1,-1,-1,-1],"split_conditions":[1E0,1E0,1E0,-4.9186242E-1,3.9252582E-1,-3.9849904E-1,5.5629617E-1,-1.0707734E-2,-3.2661118E-2,3.4289017E-2,-0E0,3.0488244E-3,-3.6635794E-2,3.945046E-2,9.952374E-3],"split_indices":[128,127,127,61,40,40,58,0,0,0,0,0,0,0,0],"split_type":[0,0,0,0,0,0,0,0,0,0,0,0,0,0,0],"sum_hessian":[9.165083E2,4.828876E2,4.3362067E2,3.4990585E2,1.3298175E2,1.2702883E2,3.0659183E2,1.5159244E2,1.983134E2,9.39971E1,3.8984653E1,3.9907547E1,8.7121284E1,1.6476495E2,1.4182689E2],"tree_param":{"num_deleted":"0","num_feature":"141","num_nodes":"15","size_leaf_vector":"1"}},{"base_weights":[-0E0,-7.0606166E-1,7.768891E-1,-9.428455E-1,-2.215317E-1,1.0701166E0,2.3626673E-1,-2.375903E-2,-3.9448757E-2,-0E0,-1.33142155E-2,4.281847E-2,2.3089232E-2,1.4264701E-2,-0E0],"categories":[],"categories_nodes":[],"categories_segments":[],"categories_sizes":[],"default_left":[0,0,0,0,0,0,0,0,0,0,0,0,0,0,0],"id":4,"left_children":[1,3,5,7,9,11,13,-1,-1,-1,-1,-1,-1,-1,-1],"loss_changes":[5.331579E2,5.222473E1,6.734686E1,1.0919708E1,1.0656702E1,1.4156525E1,1.0077758E1,0E0,0E0,0E0,0E0,0E0,0E0,0E0,0E0],"parents":[2147483647,0,0,1,1,2,2,3,3,4,4,5,5,6,6],"right_children":[2,4,6,8,10,12,14,-1,-1,-1,-1,-1,-1,-1,-1],"split_conditions":[1E0,2.1416679E-1,2.0169163E-1,1E0,-5.3654104E-1,1E0,4.4231722E-1,-2.375903E-2,-3.9448757E-2,-0E0,-1.33142155E-2,4.281847E-2,2.3089232E-2,1.4264701E-2,-0E0],"split_indices":[127,7,6,43,27,43,28,0,0,0,0,0,0,0,0],"split_type":[0,0,0,0,0,0,0,0,0,0,0,0,0,0,0],"sum_hessian":[9.173609E2,4.768605E2,4.405004E2,3.0561658E2,1.7124393E2,2.7224545E2,1.6825496E2,1.8185078E2,1.2376579E2,7.1099205E1,1.0014473E2,1.5386607E2,1.1837938E2,8.7752E1,8.050296E1],"tree_param":{"num_deleted":"0","num_feature":"141","num_nodes":"15","size_leaf_vector":"1"}},{"base_weights":[6.6411006E-3,-7.101091E-1,7.822649E-1,-4.9993452E-1,-3.9952125E-2,4.2815946E-2,4.794978E-1,-0E0,-2.1303805E-2,2.4833431E-2,9.263765E-3],"categories":[],"categories_nodes":[],"categories_segments":[],"categories_sizes":[],"default_left":[0,0,0,0,0,0,0,0,0,0,0],"id":5,"left_children":[1,3,5,7,-1,-1,9,-1,-1,-1,-1],"loss_changes":[5.402405E2,4.5890076E1,6.433945E1,2.1537987E1,0E0,0E0,1.4842606E1,0E0,0E0,0E0,0E0],"parents":[2147483647,0,0,1,1,2,2,3,3,6,6],"right_children":[2,4,6,8,-1,-1,10,-1,-1,-1,-1],"split_conditions":[1E0,1E0,1E0,-8.664439E-1,-3.9952125E-2,4.2815946E-2,-1.7473732E-1,-0E0,-2.1303805E-2,2.4833431E-2,9.263765E-3],"split_indices":[127,43,43,75,0,0,60,0,0,0,0],"split_type":[0,0,0,0,0,0,0,0,0,0,0],"sum_hessian":[9.174647E2,4.723091E2,4.451556E2,3.4930252E2,1.230066E2,1.5137941E2,2.9377618E2,8.637478E1,2.6292773E2,1.0497624E2,1.8879994E2],"tree_param":{"num_deleted":"0","num_feature":"141","num_nodes":"11","size_leaf_vector":"1"}},{"base_weights":[-8.1244605E-3,-3.113929E-1,3.095744E-1,-7.512065E-2,-6.276639E-1,7.02316E-1,-0E0,5.3942557E-3,-6.2292083E-3,-6.0062995E-3,-2.6191946E-2,2.6480483E-2,6.724018E-3,1.1949776E-2,-3.1490736E-3],"categories":[],"categories_nodes":[],"categories_segments":[],"categories_sizes":[],"default_left":[0,0,0,0,0,0,0,0,0,0,0,0,0,0,0],"id":6,"left_children":[1,3,5,7,9,11,13,-1,-1,-1,-1,-1,-1,-1,-1],"loss_changes":[9.7955925E1,3.644155E1,6.2489338E1,1.2088669E1,1.0014961E1,4.502075E0,1.3737821E1,0E0,0E0,0E0,0E0,0E0,0E0,0E0,0E0],"parents":[2147483647,0,0,1,1,2,2,3,3,4,4,5,5,6,6],"right_children":[2,4,6,8,10,12,14,-1,-1,-1,-1,-1,-1,-1,-1],"split_conditions":[1E0,-2.6208097E-1,4.279508E-1,-7.0123285E-1,-3.575977E-1,5.4565644E-1,-4.0227705E-1,5.3942557E-3,-6.2292083E-3,-6.0062995E-3,-2.6191946E-2,2.6480483E-2,6.724018E-3,1.1949776E-2,-3.1490736E-3],"split_indices":[128,42,42,77,54,28,39,0,0,0,0,0,0,0,0],"split_type":[0,0,0,0,0,0,0,0,0,0,0,0,0,0,0],"sum_hessian":[9.0984357E2,4.7720932E2,4.3263425E2,2.9145554E2,1.8575378E2,1.9329707E2,2.3933716E2,7.096937E1,2.2048618E2,6.31121E1,1.2264168E2,1.4913255E2,4.4164528E1,3.5122486E1,2.0421468E2],"tree_param":{"num_deleted":"0","num_feature":"141","num_nodes":"15","size_leaf_vector":"1"}},{"base_weights":[-3.4862587E-3,-6.8480796E-1,7.135199E-1,-3.0325863E-1,-9.742096E-1,3.899028E-2,3.2033756E-1,-1.3633788E-2,-0E0,-2.2960834E-2,-3.752564E-2,1.6518794E-2,8.16902E-4],"categories":[],"categories_nodes":[],"categories_segments":[],"categories_sizes":[],"default_left":[0,0,0,0,0,0,0,0,0,0,0,0,0],"id":7,"left_children":[1,3,5,7,9,-1,11,-1,-1,-1,-1,-1,-1],"loss_changes":[4.757899E2,5.0556107E1,7.670622E1,1.1511646E1,4.1465454E0,0E0,1.2107365E1,0E0,0E0,0E0,0E0,0E0,0E0],"parents":[2147483647,0,0,1,1,2,2,3,3,4,4,6,6],"right_children":[2,4,6,8,10,-1,12,-1,-1,-1,-1,-1,-1],"split_conditions":[1E0,-3.9849904E-1,2.01994E-1,1E0,1E0,3.899028E-2,2.8227618E-1,-1.3633788E-2,-0E0,-2.2960834E-2,-3.752564E-2,1.6518794E-2,8.16902E-4],"split_indices":[127,40,40,128,45,0,50,0,0,0,0,0,0],"split_type":[0,0,0,0,0,0,0,0,0,0,0,0,0],"sum_hessian":[9.183554E2,4.7623486E2,4.421205E2,2.2270094E2,2.5353394E2,1.9148677E2,2.5063376E2,1.8190494E2,4.0796E1,1.1434864E2,1.3918529E2,1.401528E2,1.1048096E2],"tree_param":{"num_deleted":"0","num_feature":"141","num_nodes":"13","size_leaf_vector":"1"}},{"base_weights":[8.452899E-3,-2.6125404E-1,3.2358536E-1,-2.5684614E-2,-5.602797E-1,6.4609283E-1,-0E0,1.1287264E-3,-8.32755E-3,-2.3139572E-2,-3.6861908E-3,2.642188E-2,1.0201255E-2,1.2921379E-2,-1.782412E-3],"categories":[],"categories_nodes":[],"categories_segments":[],"categories_sizes":[],"default_left":[0,0,0,0,0,0,0,0,0,0,0,0,0,0,0],"id":8,"left_children":[1,3,5,7,9,11,13,-1,-1,-1,-1,-1,-1,-1,-1],"loss_changes":[8.806898E1,3.4898186E1,4.6772434E1,9.204317E0,8.836548E0,6.9749756E0,1.3424404E1,0E0,0E0,0E0,0E0,0E0,0E0,0E0,0E0],"parents":[2147483647,0,0,1,1,2,2,3,3,4,4,5,5,6,6],"right_children":[2,4,6,8,10,12,14,-1,-1,-1,-1,-1,-1,-1,-1],"split_conditions":[1E0,-2.6208097E-1,4.6681067E-1,-3.9101593E-2,3.9713126E-1,1.7726187E-1,-3.7408346E-1,1.1287264E-3,-8.32755E-3,-2.3139572E-2,-3.6861908E-3,2.642188E-2,1.0201255E-2,1.2921379E-2,-1.782412E-3],"split_indices":[128,42,42,28,65,42,24,0,0,0,0,0,0,0,0],"split_type":[0,0,0,0,0,0,0,0,0,0,0,0,0,0,0],"sum_hessian":[9.1813574E2,4.8304367E2,4.3509207E2,2.8819034E2,1.9485332E2,2.0449011E2,2.3060196E2,2.0676427E2,8.142607E1,1.3605742E2,5.879589E1,1.23223E2,8.126712E1,3.674132E1,1.9386064E2],"tree_param":{"num_deleted":"0","num_feature":"141","num_nodes":"15","size_leaf_vector":"1"}},{"base_weights":[-0E0,-6.625943E-1,7.1620524E-1,-3.3985928E-1,-3.390417E-2,1.100509E0,2.9579538E-1,-0E0,-1.4865694E-2,3.973067E-2,1.4475327E-2,1.9713156E-2,2.7468249E-3],"categories":[],"categories_nodes":[],"categories_segments":[],"categories_sizes":[],"default_left":[0,0,0,0,0,0,0,0,0,0,0,0,0],"id":9,"left_children":[1,3,5,7,-1,9,11,-1,-1,-1,-1,-1,-1],"loss_changes":[4.572566E2,5.171379E1,6.828525E1,1.1989513E1,0E0,4.005066E0,1.4456858E1,0E0,0E0,0E0,0E0,0E0,0E0],"parents":[2147483647,0,0,1,1,2,2,3,3,5,5,6,6],"right_children":[2,4,6,8,-1,10,12,-1,-1,-1,-1,-1,-1],"split_conditions":[1E0,-2.7620727E-1,3.1268153E-1,-1.1351817E0,-3.390417E-2,7.585956E-2,-1.8357159E-1,-0E0,-1.4865694E-2,3.973067E-2,1.4475327E-2,1.9713156E-2,2.7468249E-3],"split_indices":[127,40,40,75,0,33,60,0,0,0,0,0,0],"split_type":[0,0,0,0,0,0,0,0,0,0,0,0,0],"sum_hessian":[9.074296E2,4.7568326E2,4.3174634E2,2.6475507E2,2.1092819E2,2.1034497E2,2.2140138E2,5.804307E1,2.06712E2,1.7265349E2,3.7691486E1,7.405062E1,1.4735075E2],"tree_param":{"num_deleted":"0","num_feature":"141","num_nodes":"13","size_leaf_vector":"1"}},{"base_weights":[6.502318E-3,3.2671642E-1,-5.675389E-2,-0E0,4.0966406E-1,1.0492288E-2,-1.08869575E-1,-0E0,1.7369753E-2,5.8491817E-3,-6.556442E-3],"categories":[],"categories_nodes":[],"categories_segments":[],"categories_sizes":[],"default_left":[0,0,0,0,0,0,0,0,0,0,0],"id":10,"left_children":[1,3,5,-1,7,-1,9,-1,-1,-1,-1],"loss_changes":[2.603888E1,5.6478767E0,1.8480192E1,0E0,5.4198036E0,0E0,2.0782345E1,0E0,0E0,0E0,0E0],"parents":[2147483647,0,0,1,1,2,2,4,4,6,6],"right_children":[2,4,6,-1,8,-1,10,-1,-1,-1,-1],"split_conditions":[-8.0434674E-1,-1.8027434E0,-4.0720877E-1,-0E0,-2.639494E-1,1.0492288E-2,-7.5639445E-1,-0E0,1.7369753E-2,5.8491817E-3,-6.556442E-3],"split_indices":[22,77,20,0,63,0,74,0,0,0,0],"split_type":[0,0,0,0,0,0,0,0,0,0,0],"sum_hessian":[9.0599603E2,1.6323572E2,7.427603E2,3.5586372E1,1.27649345E2,7.017626E1,6.7258405E2,3.5835983E1,9.181336E1,1.3588808E2,5.36696E2],"tree_param":{"num_deleted":"0","num_feature":"141","num_nodes":"11","size_leaf_vector":"1"}},{"base_weights":[6.6920226E-3,-2.3946145E-1,2.967405E-1,-2.9580095E-3,-5.505283E-1,7.15895E-1,1.13094196E-1,-6.2111723E-3,6.628106E-3,-1.8709269E-3,-2.1602826E-2,2.8431501E-2,8.808623E-3,1.1785815E-2,-0E0],"categories":[],"categories_nodes":[],"categories_segments":[],"categories_sizes":[],"default_left":[0,0,0,0,0,0,0,0,0,0,0,0,0,0,0],"id":11,"left_children":[1,3,5,7,9,11,13,-1,-1,-1,-1,-1,-1,-1,-1],"loss_changes":[7.384321E1,3.6204853E1,3.4691837E1,1.6455275E1,5.8239136E0,3.1101074E0,1.2669952E1,0E0,0E0,0E0,0E0,0E0,0E0,0E0,0E0],"parents":[2147483647,0,0,1,1,2,2,3,3,4,4,5,5,6,6],"right_children":[2,4,6,8,10,12,14,-1,-1,-1,-1,-1,-1,-1,-1],"split_conditions":[1E0,-1.982488E-1,1E0,2.9564878E-1,-4.0125594E-1,8.129722E-2,4.6681067E-1,-6.2111723E-3,6.628106E-3,-1.8709269E-3,-2.1602826E-2,2.8431501E-2,8.808623E-3,1.1785815E-2,-0E0],"split_indices":[128,61,47,62,42,42,42,0,0,0,0,0,0,0,0],"split_type":[0,0,0,0,0,0,0,0,0,0,0,0,0,0,0],"sum_hessian":[9.065379E2,4.775892E2,4.2894867E2,2.8874115E2,1.8884807E2,1.1217966E2,3.16769E2,1.7049992E2,1.1824121E2,4.3947803E1,1.4490025E2,6.97748E1,4.2404858E1,1.0127839E2,2.1549063E2],"tree_param":{"num_deleted":"0","num_feature":"141","num_nodes":"15","size_leaf_vector":"1"}},{"base_weights":[7.116266E-3,3.25689E-1,-6.64648E-2,-2.153966E-1,8.169992E-1,-6.8437386E-1,6.392255E-1,1.6405795E-3,-1.913422E-2,3.2409694E-2,9.25869E-3,-1.253901E-2,-3.2612298E-2,3.236327E-2,5.447698E-3],"categories":[],"categories_nodes":[],"categories_segments":[],"categories_sizes":[],"default_left":[0,0,0,0,0,0,0,0,0,0,0,0,0,0,0],"id":12,"left_children":[1,3,5,7,9,11,13,-1,-1,-1,-1,-1,-1,-1,-1],"loss_changes":[2.9162083E1,6.697824E1,3.4220013E2,1.8254913E1,3.9484482E0,3.2884323E1,5.0569168E1,0E0,0E0,0E0,0E0,0E0,0E0,0E0,0E0],"parents":[2147483647,0,0,1,1,2,2,3,3,4,4,5,5,6,6],"right_children":[2,4,6,8,10,12,14,-1,-1,-1,-1,-1,-1,-1,-1],"split_conditions":[-7.3284006E-1,1E0,1E0,-6.50162E-1,3.0822246E0,-2.821956E-1,4.4135526E-1,1.6405795E-3,-1.913422E-2,3.2409694E-2,9.25869E-3,-1.253901E-2,-3.2612298E-2,3.236327E-2,5.447698E-3],"split_indices":[22,127,127,40,10,40,40,0,0,0,0,0,0,0,0],"split_type":[0,0,0,0,0,0,0,0,0,0,0,0,0,0,0],"sum_hessian":[9.124736E2,1.8490361E2,7.2756995E2,8.296302E1,1.0194059E2,3.934913E2,3.3407864E2,3.947382E1,4.3489204E1,6.504504E1,3.6895554E1,2.0892438E2,1.8456694E2,1.8537683E2,1.487018E2],"tree_param":{"num_deleted":"0","num_feature":"141","num_nodes":"15","size_leaf_vector":"1"}},{"base_weights":[-0E0,-2.3071119E-1,2.54735E-1,-5.2374336E-3,-5.328744E-1,6.1139613E-1,4.573928E-2,-6.9144447E-3,5.937954E-3,-9.784684E-3,-2.1833329E-2,7.097836E-3,2.5459133E-2,1.6843101E-2,-6.482478E-4],"categories":[],"categories_nodes":[],"categories_segments":[],"categories_sizes":[],"default_left":[0,0,0,0,0,0,0,0,0,0,0,0,0,0,0],"id":13,"left_children":[1,3,5,7,9,11,13,-1,-1,-1,-1,-1,-1,-1,-1],"loss_changes":[6.1329025E1,3.3789993E1,3.340323E1,1.6915422E1,3.2181702E0,5.661911E0,1.9198153E1,0E0,0E0,0E0,0E0,0E0,0E0,0E0,0E0],"parents":[2147483647,0,0,1,1,2,2,3,3,4,4,5,5,6,6],"right_children":[2,4,6,8,10,12,14,-1,-1,-1,-1,-1,-1,-1,-1],"split_conditions":[1E0,-1.982488E-1,1.7878625E-1,1.9359362E-1,1.277535E-1,-4.1485604E-2,-3.7204158E-1,-6.9144447E-3,5.937954E-3,-9.784684E-3,-2.1833329E-2,7.097836E-3,2.5459133E-2,1.6843101E-2,-6.482478E-4],"split_indices":[128,61,58,62,58,62,24,0,0,0,0,0,0,0,0],"split_type":[0,0,0,0,0,0,0,0,0,0,0,0,0,0,0],"sum_hessian":[9.099508E2,4.8075674E2,4.291941E2,2.9331165E2,1.8744508E2,1.4055205E2,2.8864203E2,1.5795973E2,1.353519E2,8.976776E1,9.767733E1,5.573952E1,8.481253E1,4.375123E1,2.4489081E2],"tree_param":{"num_deleted":"0","num_feature":"141","num_nodes":"15","size_leaf_vector":"1"}},{"base_weights":[-0E0,-2.3953596E-1,2.64197E-1,-4.0574297E-2,-4.8842046E-1,5.688966E-1,1.9096578E-2,-1.1709881E-2,2.3246186E-3,-8.354242E-3,-2.3716E-2,2.6449118E-2,8.522017E-3,1.2753708E-2,-8.138802E-4],"categories":[],"categories_nodes":[],"categories_segments":[],"categories_sizes":[],"default_left":[0,0,0,0,0,0,0,0,0,0,0,0,0,0,0],"id":14,"left_children":[1,3,5,7,9,11,13,-1,-1,-1,-1,-1,-1,-1,-1],"loss_changes":[6.530929E1,2.4203115E1,3.269629E1,1.7574791E1,8.897423E0,1.0205612E1,1.22763195E1,0E0,0E0,0E0,0E0,0E0,0E0,0E0,0E0],"parents":[2147483647,0,0,1,1,2,2,3,3,4,4,5,5,6,6],"right_children":[2,4,6,8,10,12,14,-1,-1,-1,-1,-1,-1,-1,-1],"split_conditions":[1E0,-1.4457037E-1,2.0699215E-1,-1.3435711E-1,1E0,1.3414101E-1,2.007368E-1,-1.1709881E-2,2.3246186E-3,-8.354242E-3,-2.3716E-2,2.6449118E-2,8.522017E-3,1.2753708E-2,-8.138802E-4],"split_indices":[128,75,75,65,45,42,42,0,0,0,0,0,0,0,0],"split_type":[0,0,0,0,0,0,0,0,0,0,0,0,0,0,0],"sum_hessian":[9.027975E2,4.7705954E2,4.2573795E2,2.860257E2,1.9103383E2,1.7230374E2,2.534342E2,8.823578E1,1.9778993E2,1.1424049E2,7.679334E1,8.167876E1,9.0624985E1,3.893947E1,2.1449475E2],"tree_param":{"num_deleted":"0","num_feature":"141","num_nodes":"15","size_leaf_vector":"1"}},{"base_weights":[-0E0,-2.2319397E-1,2.432378E-1,-1.2444402E-2,-5.086386E-1,4.1931024E-1,-1.4747455E-2,-9.349855E-3,6.322147E-3,-9.550657E-3,-2.2187237E-2,2.0241672E-2,-0E0,8.926759E-3,-5.4878877E-3],"categories":[],"categories_nodes":[],"categories_segments":[],"categories_sizes":[],"default_left":[0,0,0,0,0,0,0,0,0,0,0,0,0,0,0],"id":15,"left_children":[1,3,5,7,9,11,13,-1,-1,-1,-1,-1,-1,-1,-1],"loss_changes":[5.6944885E1,3.0150396E1,2.5416267E1,2.3918474E1,4.7247353E0,2.2731964E1,1.2504743E1,0E0,0E0,0E0,0E0,0E0,0E0,0E0,0E0],"parents":[2147483647,0,0,1,1,2,2,3,3,4,4,5,5,6,6],"right_children":[2,4,6,8,10,12,14,-1,-1,-1,-1,-1,-1,-1,-1],"split_conditions":[1E0,-1.982488E-1,1E0,5.163588E-2,1E0,4.6681067E-1,-3.352381E-1,-9.349855E-3,6.322147E-3,-9.550657E-3,-2.2187237E-2,2.0241672E-2,-0E0,8.926759E-3,-5.4878877E-3],"split_indices":[128,61,133,68,45,42,0,0,0,0,0,0,0,0,0],"split_type":[0,0,0,0,0,0,0,0,0,0,0,0,0,0,0],"sum_hessian":[9.116621E2,4.8561966E2,4.2604245E2,2.983559E2,1.8726373E2,2.671347E2,1.5890773E2,1.4257982E2,1.557761E2,1.03387474E2,8.387626E1,1.8081198E2,8.632274E1,3.6182182E1,1.22725555E2],"tree_param":{"num_deleted":"0","num_feature":"141","num_nodes":"15","size_leaf_vector":"1"}},{"base_weights":[-1.5320658E-3,-6.329989E-1,6.554646E-1,-1.356389E-1,-8.460511E-1,3.9808366E-2,3.8462827E-1,-0E0,-9.579993E-3,-2.2167936E-2,-3.4699365E-2,2.1491852E-2,7.489376E-3],"categories":[],"categories_nodes":[],"categories_segments":[],"categories_sizes":[],"default_left":[0,0,0,0,0,0,0,0,0,0,0,0,0],"id":16,"left_children":[1,3,5,7,9,-1,11,-1,-1,-1,-1,-1,-1],"loss_changes":[3.9615652E2,4.6884476E1,6.172322E1,7.4517574E0,6.023651E0,0E0,1.2476307E1,0E0,0E0,0E0,0E0,0E0,0E0],"parents":[2147483647,0,0,1,1,2,2,3,3,4,4,6,6],"right_children":[2,4,6,8,10,-1,12,-1,-1,-1,-1,-1,-1],"split_conditions":[1E0,-6.50162E-1,-4.2679757E-2,-6.686896E-1,1E0,3.9808366E-2,-3.6557883E-1,-0E0,-9.579993E-3,-2.2167936E-2,-3.4699365E-2,2.1491852E-2,7.489376E-3],"split_indices":[127,40,40,27,43,0,137,0,0,0,0,0,0],"split_type":[0,0,0,0,0,0,0,0,0,0,0,0,0],"sum_hessian":[8.956879E2,4.6246524E2,4.3322272E2,1.5248717E2,3.0997806E2,1.291109E2,3.0411182E2,5.8690067E1,9.37971E1,1.9151181E2,1.1846625E2,9.212313E1,2.1198866E2],"tree_param":{"num_deleted":"0","num_feature":"141","num_nodes":"13","size_leaf_vector":"1"}},{"base_weights":[-0E0,-2.0532022E-1,2.4317597E-1,-0E0,-4.711766E-1,5.6644946E-1,5.81892E-2,-9.487908E-3,4.2647114E-3,-8.296527E-3,-2.1521246E-2,2.5686067E-2,1.03421435E-2,1.4715245E-2,-0E0],"categories":[],"categories_nodes":[],"categories_segments":[],"categories_sizes":[],"default_left":[0,0,0,0,0,0,0,0,0,0,0,0,0,0,0],"id":17,"left_children":[1,3,5,7,9,11,13,-1,-1,-1,-1,-1,-1,-1,-1],"loss_changes":[5.2163216E1,2.7943233E1,2.6611284E1,1.705895E1,6.0083084E0,5.1229553E0,1.3996123E1,0E0,0E0,0E0,0E0,0E0,0E0,0E0,0E0],"parents":[2147483647,0,0,1,1,2,2,3,3,4,4,5,5,6,6],"right_children":[2,4,6,8,10,12,14,-1,-1,-1,-1,-1,-1,-1,-1],"split_conditions":[1E0,-2.4103504E-1,1.7878625E-1,-1.3435711E-1,1E0,-1.10080406E-1,-3.7720287E-1,-9.487908E-3,4.2647114E-3,-8.296527E-3,-2.1521246E-2,2.5686067E-2,1.03421435E-2,1.4715245E-2,-0E0],"split_indices":[128,61,58,65,45,42,24,0,0,0,0,0,0,0,0],"split_type":[0,0,0,0,0,0,0,0,0,0,0,0,0,0,0],"sum_hessian":[8.946961E2,4.6972592E2,4.2497015E2,2.7795032E2,1.917756E2,1.3491656E2,2.900536E2,9.346454E1,1.844858E2,1.0875045E2,8.302515E1,5.2361244E1,8.255533E1,4.2176483E1,2.4787712E2],"tree_param":{"num_deleted":"0","num_feature":"141","num_nodes":"15","size_leaf_vector":"1"}},{"base_weights":[1.1969178E-3,-1.8750443E-1,2.2331366E-1,-0E0,-4.7757444E-1,5.2518E-1,-1.6822338E-2,-8.589269E-3,8.343423E-3,-8.46094E-3,-2.1516146E-2,2.5279831E-2,1.1562571E-2,7.837742E-3,-4.142944E-3],"categories":[],"categories_nodes":[],"categories_segments":[],"categories_sizes":[],"default_left":[0,0,0,0,0,0,0,0,0,0,0,0,0,0,0],"id":18,"left_children":[1,3,5,7,9,11,13,-1,-1,-1,-1,-1,-1,-1,-1],"loss_changes":[4.4621895E1,3.0645227E1,4.015912E1,2.655098E1,5.3363037E0,6.986534E0,1.0679185E1,0E0,0E0,0E0,0E0,0E0,0E0,0E0,0E0],"parents":[2147483647,0,0,1,1,2,2,3,3,4,4,5,5,6,6],"right_children":[2,4,6,8,10,12,14,-1,-1,-1,-1,-1,-1,-1,-1],"split_conditions":[1E0,-1.9130544E-1,4.6681067E-1,5.163588E-2,1E0,-1.10080406E-1,-7.692209E-1,-8.589269E-3,8.343423E-3,-8.46094E-3,-2.1516146E-2,2.5279831E-2,1.1562571E-2,7.837742E-3,-4.142944E-3],"split_indices":[128,61,42,68,45,42,22,0,0,0,0,0,0,0,0],"split_type":[0,0,0,0,0,0,0,0,0,0,0,0,0,0,0],"sum_hessian":[9.0240814E2,4.7092987E2,4.3147827E2,2.8859634E2,1.8233354E2,2.006274E2,2.3085088E2,1.4028094E2,1.483154E2,1.02939514E2,7.939402E1,6.086248E1,1.3976491E2,4.605435E1,1.8479652E2],"tree_param":{"num_deleted":"0","num_feature":"141","num_nodes":"15","size_leaf_vector":"1"}},{"base_weights":[4.9613826E-3,-5.566576E-1,6.24537E-1,-9.657772E-2,-7.5530833E-1,3.827266E-2,3.6287183E-1,-1.1110601E-2,1.755032E-5,-1.7274199E-2,-3.2093048E-2,1.6250292E-2,-0E0],"categories":[],"categories_nodes":[],"categories_segments":[],"categories_sizes":[],"default_left":[0,0,0,0,0,0,0,0,0,0,0,0,0],"id":19,"left_children":[1,3,5,7,9,-1,11,-1,-1,-1,-1,-1,-1],"loss_changes":[3.339879E2,4.0619934E1,5.7873596E1,9.454413E0,1.1371628E1,0E0,1.3808693E1,0E0,0E0,0E0,0E0,0E0,0E0],"parents":[2147483647,0,0,1,1,2,2,3,3,4,4,6,6],"right_children":[2,4,6,8,10,-1,12,-1,-1,-1,-1,-1,-1],"split_conditions":[1E0,-6.50162E-1,-5.6316298E-2,7.113553E-2,-4.2679757E-2,3.827266E-2,7.773266E-1,-1.1110601E-2,1.755032E-5,-1.7274199E-2,-3.2093048E-2,1.6250292E-2,-0E0],"split_indices":[127,40,40,68,40,0,58,0,0,0,0,0,0],"split_type":[0,0,0,0,0,0,0,0,0,0,0,0,0],"sum_hessian":[8.9481116E2,4.6363098E2,4.3118018E2,1.5409328E2,3.0953772E2,1.27637924E2,3.0354224E2,6.1778732E1,9.231454E1,1.6877148E2,1.4076622E2,2.1905106E2,8.449119E1],"tree_param":{"num_deleted":"0","num_feature":"141","num_nodes":"13","size_leaf_vector":"1"}},{"base_weights":[-0E0,-5.777966E-1,6.2584823E-1,-3.7902308E-1,-3.055505E-2,3.4424104E-2,3.6946893E-1,-0E0,-1.5620775E-2,1.6796693E-2,-0E0],"categories":[],"categories_nodes":[],"categories_segments":[],"categories_sizes":[],"default_left":[0,0,0,0,0,0,0,0,0,0,0],"id":20,"left_children":[1,3,5,7,-1,-1,9,-1,-1,-1,-1],"loss_changes":[3.453711E2,2.973227E1,4.251802E1,1.2598892E1,0E0,0E0,1.3437973E1,0E0,0E0,0E0,0E0],"parents":[2147483647,0,0,1,1,2,2,3,3,6,6],"right_children":[2,4,6,8,-1,-1,10,-1,-1,-1,-1],"split_conditions":[1E0,1E0,1E0,-1.0606856E0,-3.055505E-2,3.4424104E-2,7.773266E-1,-0E0,-1.5620775E-2,1.6796693E-2,-0E0],"split_indices":[127,45,136,85,0,0,58,0,0,0,0],"split_type":[0,0,0,0,0,0,0,0,0,0,0],"sum_hessian":[8.926641E2,4.6723688E2,4.2542728E2,3.1572552E2,1.5151135E2,1.4673804E2,2.7868924E2,5.6001335E1,2.5972418E2,1.9495837E2,8.373086E1],"tree_param":{"num_deleted":"0","num_feature":"141","num_nodes":"11","size_leaf_vector":"1"}},{"base_weights":[-0E0,-1.9658875E-1,2.0989855E-1,-5.6455746E-2,-1.7101858E-2,5.669256E-1,5.765829E-2,-9.417386E-3,4.49521E-3,1.0116693E-2,2.5517283E-2,1.1207952E-2,-0E0],"categories":[],"categories_nodes":[],"categories_segments":[],"categories_sizes":[],"default_left":[0,0,0,0,0,0,0,0,0,0,0,0,0],"id":21,"left_children":[1,3,5,7,-1,9,11,-1,-1,-1,-1,-1,-1],"loss_changes":[4.3212906E1,2.1974298E1,2.450828E1,2.1606464E1,0E0,3.5718765E0,8.4821005E0,0E0,0E0,0E0,0E0,0E0,0E0],"parents":[2147483647,0,0,1,1,2,2,3,3,5,5,6,6],"right_children":[2,4,6,8,-1,10,12,-1,-1,-1,-1,-1,-1],"split_conditions":[1E0,3.535542E-2,3.2843325E-2,6.402201E-2,-1.7101858E-2,3.5714287E-1,-3.7720287E-1,-9.417386E-3,4.49521E-3,1.0116693E-2,2.5517283E-2,1.1207952E-2,-0E0],"split_indices":[128,61,58,68,0,32,24,0,0,0,0,0,0],"split_type":[0,0,0,0,0,0,0,0,0,0,0,0,0],"sum_hessian":[8.914032E2,4.7067514E2,4.2072803E2,3.46959E2,1.2371612E2,1.0557456E2,3.1515347E2,1.7524075E2,1.7171828E2,6.809914E1,3.747543E1,4.259318E1,2.725603E2],"tree_param":{"num_deleted":"0","num_feature":"141","num_nodes":"13","size_leaf_vector":"1"}},{"base_weights":[-1.151737E-2,-5.6310755E-1,5.6990117E-1,-2.7696717E-1,-7.8976125E-1,7.7547175E-1,5.4051064E-2,2.0778034E-4,-1.2949226E-2,-1.3792872E-2,-3.3007942E-2,3.600181E-2,1.6265567E-2,8.385134E-3,-3.2045654E-4],"categories":[],"categories_nodes":[],"categories_segments":[],"categories_sizes":[],"default_left":[0,0,0,0,0,0,0,0,0,0,0,0,0,0,0],"id":22,"left_children":[1,3,5,7,9,11,13,-1,-1,-1,-1,-1,-1,-1,-1],"loss_changes":[3.0600864E2,2.8444534E1,4.3437256E1,1.1588287E1,1.3546326E1,2.2063416E1,6.479249E0,0E0,0E0,0E0,0E0,0E0,0E0,0E0,0E0],"parents":[2147483647,0,0,1,1,2,2,3,3,4,4,5,5,6,6],"right_children":[2,4,6,8,10,12,14,-1,-1,-1,-1,-1,-1,-1,-1],"split_conditions":[1E0,-3.1236923E-1,2.926717E-1,-1.0132757E0,-1.1280588E-1,-5.6316298E-2,8.88017E-2,2.0778034E-4,-1.2949226E-2,-1.3792872E-2,-3.3007942E-2,3.600181E-2,1.6265567E-2,8.385134E-3,-3.2045654E-4],"split_indices":[127,10,6,74,40,40,30,0,0,0,0,0,0,0,0],"split_type":[0,0,0,0,0,0,0,0,0,0,0,0,0,0,0],"sum_hessian":[8.8902155E2,4.627125E2,4.2630908E2,2.2585536E2,2.3685713E2,2.9215796E2,1.3415112E2,4.6069214E1,1.7978615E2,1.0030999E2,1.3654713E2,1.2269087E2,1.6946707E2,5.5511047E1,7.864007E1],"tree_param":{"num_deleted":"0","num_feature":"141","num_nodes":"15","size_leaf_vector":"1"}},{"base_weights":[3.9249E-3,-5.460035E-1,6.070877E-1,-2.2844453E-1,-7.8032064E-1,3.191432E-2,3.0209786E-1,-1.0372016E-2,-0E0,-8.269977E-3,-2.8911704E-2,1.5596102E-2,1.1413265E-3],"categories":[],"categories_nodes":[],"categories_segments":[],"categories_sizes":[],"default_left":[0,0,0,0,0,0,0,0,0,0,0,0,0],"id":23,"left_children":[1,3,5,7,9,-1,11,-1,-1,-1,-1,-1,-1],"loss_changes":[3.1839203E2,3.2979446E1,4.4148285E1,7.024332E0,6.0600586E0,0E0,1.0194763E1,0E0,0E0,0E0,0E0,0E0,0E0],"parents":[2147483647,0,0,1,1,2,2,3,3,4,4,6,6],"right_children":[2,4,6,8,10,-1,12,-1,-1,-1,-1,-1,-1],"split_conditions":[1E0,-3.9849904E-1,2.01994E-1,1E0,-5.028045E-1,3.191432E-2,1.4824149E-1,-1.0372016E-2,-0E0,-8.269977E-3,-2.8911704E-2,1.5596102E-2,1.1413265E-3],"split_indices":[127,40,40,128,46,0,57,0,0,0,0,0,0],"split_type":[0,0,0,0,0,0,0,0,0,0,0,0,0],"sum_hessian":[8.937306E2,4.6159213E2,4.321385E2,2.1526474E2,2.463274E2,1.8487439E2,2.4726408E2,1.7594948E2,3.931526E1,4.7929825E1,1.9839757E2,1.3389029E2,1.133738E2],"tree_param":{"num_deleted":"0","num_feature":"141","num_nodes":"13","size_leaf_vector":"1"}},{"base_weights":[-1.990126E-2,-2.0601839E-1,1.7089956E-1,-1.9628916E-2,-1.5262086E-2,5.68013E-1,-2.7860675E-2,-8.438688E-3,2.7979107E-3,2.4730774E-2,9.434626E-3,6.734026E-3,-3.325283E-3],"categories":[],"categories_nodes":[],"categories_segments":[],"categories_sizes":[],"default_left":[0,0,0,0,0,0,0,0,0,0,0,0,0],"id":24,"left_children":[1,3,5,7,-1,9,11,-1,-1,-1,-1,-1,-1],"loss_changes":[3.735878E1,2.2333813E1,4.3743565E1,1.2959117E1,0E0,5.0754395E0,7.862632E0,0E0,0E0,0E0,0E0,0E0,0E0],"parents":[2147483647,0,0,1,1,2,2,3,3,5,5,6,6],"right_children":[2,4,6,8,-1,10,12,-1,-1,-1,-1,-1,-1],"split_conditions":[1E0,-1.982488E-1,2.8189972E-1,-9.000725E-2,-1.5262086E-2,-3.1954356E-2,-3.7204158E-1,-8.438688E-3,2.7979107E-3,2.4730774E-2,9.434626E-3,6.734026E-3,-3.325283E-3],"split_indices":[128,61,42,78,0,42,24,0,0,0,0,0,0],"split_type":[0,0,0,0,0,0,0,0,0,0,0,0,0],"sum_hessian":[8.8484564E2,4.6680112E2,4.1804456E2,2.8784793E2,1.7895317E2,1.4700566E2,2.7103888E2,1.0690217E2,1.8094577E2,6.953758E1,7.746808E1,3.7062252E1,2.3397662E2],"tree_param":{"num_deleted":"0","num_feature":"141","num_nodes":"13","size_leaf_vector":"1"}},{"base_weights":[-0E0,-1.7970788E-1,2.0616204E-1,-5.87281E-2,-1.6907888E-2,4.7116703E-1,-0E0,-6.30671E-3,8.3832035E-4,1.6616561E-3,1.9648014E-2,9.254115E-3,-3.6798688E-3],"categories":[],"categories_nodes":[],"categories_segments":[],"categories_sizes":[],"default_left":[0,0,0,0,0,0,0,0,0,0,0,0,0],"id":25,"left_children":[1,3,5,7,-1,9,11,-1,-1,-1,-1,-1,-1],"loss_changes":[3.8997528E1,1.9720695E1,2.9871794E1,7.4118695E0,0E0,7.121311E0,1.1973869E1,0E0,0E0,0E0,0E0,0E0,0E0],"parents":[2147483647,0,0,1,1,2,2,3,3,5,5,6,6],"right_children":[2,4,6,8,-1,10,12,-1,-1,-1,-1,-1,-1],"split_conditions":[1E0,1E0,4.6681067E-1,0E0,-1.6907888E-2,-2.9824233E-1,-3.4095237E-1,-6.30671E-3,8.3832035E-4,1.6616561E-3,1.9648014E-2,9.254115E-3,-3.6798688E-3],"split_indices":[128,47,42,12,0,59,0,0,0,0,0,0,0],"split_type":[0,0,0,0,0,0,0,0,0,0,0,0,0],"sum_hessian":[8.8482983E2,4.6437787E2,4.20452E2,3.6063153E2,1.03746315E2,1.9183708E2,2.2861493E2,1.7224718E2,1.8838435E2,5.6516354E1,1.3532072E2,4.716796E1,1.8144696E2],"tree_param":{"num_deleted":"0","num_feature":"141","num_nodes":"13","size_leaf_vector":"1"}},{"base_weights":[4.3562246E-3,-5.369831E-1,5.9869725E-1,-3.6692488E-1,-3.0895153E-2,8.334062E-1,2.1749742E-1,-0E0,-1.5360632E-2,3.2492988E-2,1.8879402E-2,1.1555165E-2,-0E0],"categories":[],"categories_nodes":[],"categories_segments":[],"categories_sizes":[],"default_left":[0,0,0,0,0,0,0,0,0,0,0,0,0],"id":26,"left_children":[1,3,5,7,-1,9,11,-1,-1,-1,-1,-1,-1],"loss_changes":[3.0553775E2,2.9214523E1,3.6444733E1,1.29937935E1,0E0,4.244705E0,8.209801E0,0E0,0E0,0E0,0E0,0E0,0E0],"parents":[2147483647,0,0,1,1,2,2,3,3,5,5,6,6],"right_children":[2,4,6,8,-1,10,12,-1,-1,-1,-1,-1,-1],"split_conditions":[1E0,1E0,5.0201225E-1,-6.727876E-1,-3.0895153E-2,1E0,7.0890445E-1,-0E0,-1.5360632E-2,3.2492988E-2,1.8879402E-2,1.1555165E-2,-0E0],"split_indices":[127,43,10,77,0,43,26,0,0,0,0,0,0],"split_type":[0,0,0,0,0,0,0,0,0,0,0,0,0],"sum_hessian":[8.8267926E2,4.559441E2,4.2673517E2,3.3878015E2,1.1716394E2,2.469662E2,1.7976897E2,6.744581E1,2.7133432E2,1.3482324E2,1.1214295E2,1.2133588E2,5.8433086E1],"tree_param":{"num_deleted":"0","num_feature":"141","num_nodes":"13","size_leaf_vector":"1"}},{"base_weights":[-0E0,-1.6583633E-1,1.0893552E-1,6.2743393E-3,-2.4539599E-1,2.3464493E-1,-1.0805011E-1,-1.3321323E-2,-0E0,-4.0284623E-4,9.626854E-3,-0E0,-1.1096188E-2],"categories":[],"categories_nodes":[],"categories_segments":[],"categories_sizes":[],"default_left":[0,0,0,0,0,0,0,0,0,0,0,0,0],"id":27,"left_children":[1,3,5,-1,7,9,11,-1,-1,-1,-1,-1,-1],"loss_changes":[2.0168728E1,1.441504E1,1.962296E1,0E0,1.084725E1,7.7406597E0,9.5159235E0,0E0,0E0,0E0,0E0,0E0,0E0],"parents":[2147483647,0,0,1,1,2,2,4,4,5,5,6,6],"right_children":[2,4,6,-1,8,10,12,-1,-1,-1,-1,-1,-1],"split_conditions":[-4.028815E-2,-4.0796965E-1,3.5688406E-1,6.2743393E-3,9.737021E-2,-1.8666667E0,8.80612E-1,-1.3321323E-2,-0E0,-4.0284623E-4,9.626854E-3,-0E0,-1.1096188E-2],"split_indices":[65,39,29,0,52,92,46,0,0,0,0,0,0],"split_type":[0,0,0,0,0,0,0,0,0,0,0,0,0],"sum_hessian":[8.8974536E2,3.4202362E2,5.4772174E2,4.4405308E1,2.9761832E2,3.6751678E2,1.8020494E2,1.6444823E2,1.3317009E2,4.074376E1,3.2677304E2,1.0977051E2,7.043443E1],"tree_param":{"num_deleted":"0","num_feature":"141","num_nodes":"13","size_leaf_vector":"1"}},{"base_weights":[9.411107E-3,-1.5039214E-1,2.0665987E-1,-4.3990466E-1,5.3456074E-1,-5.2272993E-1,5.3985363E-1,-2.5937145E-3,-2.0899864E-2,2.523994E-2,-0E0,-0E0,-2.875945E-2,2.3610482E-2,6.2568695E-5],"categories":[],"categories_nodes":[],"categories_segments":[],"categories_sizes":[],"default_left":[0,0,0,0,0,0,0,0,0,0,0,0,0,0,0],"id":28,"left_children":[1,3,5,7,9,11,13,-1,-1,-1,-1,-1,-1,-1,-1],"loss_changes":[3.370421E1,1.0725481E2,1.1702026E2,2.1202736E1,2.0546028E1,2.8261395E1,2.3583153E1,0E0,0E0,0E0,0E0,0E0,0E0,0E0,0E0],"parents":[2147483647,0,0,1,1,2,2,3,3,4,4,5,5,6,6],"right_children":[2,4,6,8,10,12,14,-1,-1,-1,-1,-1,-1,-1,-1],"split_conditions":[1E0,1E0,1E0,-6.50162E-1,4.0924925E-1,-2.821956E-1,7.773266E-1,-2.5937145E-3,-2.0899864E-2,2.523994E-2,-0E0,-0E0,-2.875945E-2,2.3610482E-2,6.2568695E-5],"split_indices":[128,127,127,40,40,40,58,0,0,0,0,0,0,0,0],"split_type":[0,0,0,0,0,0,0,0,0,0,0,0,0,0,0],"sum_hessian":[8.8226843E2,4.6812E2,4.1414847E2,3.383142E2,1.2980577E2,1.217463E2,2.9240216E2,1.2995828E2,2.0835594E2,9.287648E1,3.69293E1,4.9025288E1,7.2721016E1,2.1233571E2,8.0066444E1],"tree_param":{"num_deleted":"0","num_feature":"141","num_nodes":"15","size_leaf_vector":"1"}},{"base_weights":[-0E0,-5.2408105E-1,5.4981005E-1,-6.9638056E-1,-1.7765525E-1,3.0119814E-2,3.3699006E-1,-1.4013843E-2,-2.876661E-2,-1.1463237E-2,-0E0,1.4233135E-2,-0E0],"categories":[],"categories_nodes":[],"categories_segments":[],"categories_sizes":[],"default_left":[0,0,0,0,0,0,0,0,0,0,0,0,0],"id":29,"left_children":[1,3,5,7,9,-1,11,-1,-1,-1,-1,-1,-1],"loss_changes":[2.729579E2,2.543097E1,3.0596954E1,9.569183E0,8.09001E0,0E0,9.103138E0,0E0,0E0,0E0,0E0,0E0,0E0],"parents":[2147483647,0,0,1,1,2,2,3,3,4,4,6,6],"right_children":[2,4,6,8,10,-1,12,-1,-1,-1,-1,-1,-1],"split_conditions":[1E0,2.1783067E-1,1E0,-1.07723534E-1,9.52381E-2,3.0119814E-2,7.577419E-1,-1.4013843E-2,-2.876661E-2,-1.1463237E-2,-0E0,1.4233135E-2,-0E0],"split_indices":[127,7,43,40,118,0,69,0,0,0,0,0,0],"split_type":[0,0,0,0,0,0,0,0,0,0,0,0,0],"sum_hessian":[8.7912524E2,4.55054E2,4.2407126E2,2.8499405E2,1.7005995E2,1.3931041E2,2.8476083E2,1.3001389E2,1.5498018E2,8.984902E1,8.021092E1,2.2108415E2,6.367669E1],"tree_param":{"num_deleted":"0","num_feature":"141","num_nodes":"13","size_leaf_vector":"1"}},{"base_weights":[5.025111E-3,-4.7626773E-1,5.442801E-1,-0E0,-5.9941787E-1,3.4261152E-2,3.154823E-1,3.6516169E-3,-7.6143183E-3,-1.6555909E-2,-3.0545587E-2,1.4819761E-2,-0E0],"categories":[],"categories_nodes":[],"categories_segments":[],"categories_sizes":[],"default_left":[0,0,0,0,0,0,0,0,0,0,0,0,0],"id":30,"left_children":[1,3,5,7,9,-1,11,-1,-1,-1,-1,-1,-1],"loss_changes":[2.4606323E2,2.7182632E1,4.5848953E1,8.023135E0,1.0151611E1,0E0,1.4713829E1,0E0,0E0,0E0,0E0,0E0,0E0],"parents":[2147483647,0,0,1,1,2,2,3,3,4,4,6,6],"right_children":[2,4,6,8,10,-1,12,-1,-1,-1,-1,-1,-1],"split_conditions":[1E0,-9.726078E-1,-4.2679757E-2,-6.230387E-1,4.5450875E-1,3.4261152E-2,7.773266E-1,3.6516169E-3,-7.6143183E-3,-1.6555909E-2,-3.0545587E-2,1.4819761E-2,-0E0],"split_indices":[127,40,40,58,5,0,58,0,0,0,0,0,0],"split_type":[0,0,0,0,0,0,0,0,0,0,0,0,0],"sum_hessian":[8.7487665E2,4.5565466E2,4.1922202E2,1.0001466E2,3.5563998E2,1.17597565E2,3.0162445E2,6.145894E1,3.8555725E1,2.9626755E2,5.9372456E1,2.1684503E2,8.477943E1],"tree_param":{"num_deleted":"0","num_feature":"141","num_nodes":"13","size_leaf_vector":"1"}},{"base_weights":[-0E0,2.1961538E-1,-6.073504E-2,-1.2744372E-1,1.9107254E-2,-5.31918E-1,4.5915216E-1,-1.2178767E-2,-0E0,-6.0234275E-3,-2.3060363E-2,2.7413558E-2,2.637346E-3],"categories":[],"categories_nodes":[],"categories_segments":[],"categories_sizes":[],"default_left":[0,0,0,0,0,0,0,0,0,0,0,0,0],"id":31,"left_children":[1,3,5,7,-1,9,11,-1,-1,-1,-1,-1,-1],"loss_changes":[1.5377619E1,3.2506947E1,1.8940366E2,8.524107E0,0E0,1.8519073E1,4.469661E1,0E0,0E0,0E0,0E0,0E0,0E0],"parents":[2147483647,0,0,1,1,2,2,3,3,5,5,6,6],"right_children":[2,4,6,8,-1,10,12,-1,-1,-1,-1,-1,-1],"split_conditions":[-7.4560285E-1,1E0,1E0,1.0934498E-1,1.9107254E-2,-4.8409656E-1,3.1268153E-1,-1.2178767E-2,-0E0,-6.0234275E-3,-2.3060363E-2,2.7413558E-2,2.637346E-3],"split_indices":[22,127,127,69,0,85,40,0,0,0,0,0,0],"split_type":[0,0,0,0,0,0,0,0,0,0,0,0,0],"sum_hessian":[8.746339E2,1.7321593E2,7.0141797E2,7.884875E1,9.436718E1,3.7514816E2,3.2626978E2,4.22558E1,3.6592953E1,1.3348338E2,2.4166478E2,1.5420377E2,1.7206602E2],"tree_param":{"num_deleted":"0","num_feature":"141","num_nodes":"13","size_leaf_vector":"1"}},{"base_weights":[-2.8348337E-3,-1.8098648E-1,1.7568848E-1,-4.5466578E-1,4.540046E-1,-5.1156527E-1,4.994581E-1,-0E0,-1.7985165E-2,2.6019204E-2,-0E0,-6.5915254E-3,-2.5243714E-2,2.2267496E-2,-0E0],"categories":[],"categories_nodes":[],"categories_segments":[],"categories_sizes":[],"default_left":[0,0,0,0,0,0,0,0,0,0,0,0,0,0,0],"id":32,"left_children":[1,3,5,7,9,11,13,-1,-1,-1,-1,-1,-1,-1,-1],"loss_changes":[3.3234417E1,9.235751E1,1.0750423E2,1.5648827E1,2.6678177E1,8.300659E0,2.3632912E1,0E0,0E0,0E0,0E0,0E0,0E0,0E0,0E0],"parents":[2147483647,0,0,1,1,2,2,3,3,4,4,5,5,6,6],"right_children":[2,4,6,8,10,12,14,-1,-1,-1,-1,-1,-1,-1,-1],"split_conditions":[1E0,1E0,1E0,-1.428534E0,1E0,1E0,2.7472746E0,-0E0,-1.7985165E-2,2.6019204E-2,-0E0,-6.5915254E-3,-2.5243714E-2,2.2267496E-2,-0E0],"split_indices":[128,127,127,44,87,136,5,0,0,0,0,0,0,0,0],"split_type":[0,0,0,0,0,0,0,0,0,0,0,0,0,0,0],"sum_hessian":[8.6817487E2,4.547556E2,4.1341928E2,3.2720767E2,1.27547935E2,1.2387386E2,2.895454E2,4.2851044E1,2.8435663E2,7.570084E1,5.1847095E1,7.234606E1,5.15278E1,2.0954195E2,8.000347E1],"tree_param":{"num_deleted":"0","num_feature":"141","num_nodes":"15","size_leaf_vector":"1"}},{"base_weights":[1.5393816E-2,-4.0551457E-1,4.8615894E-1,-1.2191793E-1,-6.318503E-1,3.018829E-2,2.825111E-1,-7.146187E-3,4.715834E-3,-1.605319E-2,-2.8831039E-2,1.6696278E-2,4.5762104E-3],"categories":[],"categories_nodes":[],"categories_segments":[],"categories_sizes":[],"default_left":[0,0,0,0,0,0,0,0,0,0,0,0,0],"id":33,"left_children":[1,3,5,7,9,-1,11,-1,-1,-1,-1,-1,-1],"loss_changes":[1.8870285E2,2.8513824E1,3.543271E1,9.502319E0,5.8541794E0,0E0,9.651527E0,0E0,0E0,0E0,0E0,0E0,0E0],"parents":[2147483647,0,0,1,1,2,2,3,3,4,4,6,6],"right_children":[2,4,6,8,10,-1,12,-1,-1,-1,-1,-1,-1],"split_conditions":[1E0,-3.9849904E-1,-5.6316298E-2,1.6939751E0,3.3737954E-1,3.018829E-2,-3.1335208E-1,-7.146187E-3,4.715834E-3,-1.605319E-2,-2.8831039E-2,1.6696278E-2,4.5762104E-3],"split_indices":[127,40,40,56,40,0,137,0,0,0,0,0,0],"split_type":[0,0,0,0,0,0,0,0,0,0,0,0,0],"sum_hessian":[8.707429E2,4.5214737E2,4.1859555E2,2.1989854E2,2.3224884E2,1.1827926E2,3.0031628E2,1.8483794E2,3.50606E1,1.7094533E2,6.130351E1,9.452969E1,2.0578659E2],"tree_param":{"num_deleted":"0","num_feature":"141","num_nodes":"13","size_leaf_vector":"1"}},{"base_weights":[-0E0,-4.2467263E-1,4.7717497E-1,-1.3246825E-1,-6.5032744E-1,2.9508362E-2,2.8076705E-1,4.142604E-3,-7.5460346E-3,-4.8703793E-3,-2.4200093E-2,1.5706709E-2,4.155317E-3],"categories":[],"categories_nodes":[],"categories_segments":[],"categories_sizes":[],"default_left":[0,0,0,0,0,0,0,0,0,0,0,0,0],"id":34,"left_children":[1,3,5,7,9,-1,11,-1,-1,-1,-1,-1,-1],"loss_changes":[1.918176E2,2.9137505E1,3.2910316E1,9.315605E0,4.7026367E0,0E0,8.7723675E0,0E0,0E0,0E0,0E0,0E0,0E0],"parents":[2147483647,0,0,1,1,2,2,3,3,4,4,6,6],"right_children":[2,4,6,8,10,-1,12,-1,-1,-1,-1,-1,-1],"split_conditions":[1E0,-3.9849904E-1,-5.6316298E-2,-1.4700235E0,-2.9880762E-1,2.9508362E-2,-1.8357159E-1,4.142604E-3,-7.5460346E-3,-4.8703793E-3,-2.4200093E-2,1.5706709E-2,4.155317E-3],"split_indices":[127,40,40,44,10,0,60,0,0,0,0,0,0],"split_type":[0,0,0,0,0,0,0,0,0,0,0,0,0],"sum_hessian":[8.6583344E2,4.5145294E2,4.1438046E2,2.1577597E2,2.3567699E2,1.1564528E2,2.9873517E2,3.573443E1,1.8004155E2,4.4054314E1,1.9162267E2,1.0874379E2,1.8999138E2],"tree_param":{"num_deleted":"0","num_feature":"141","num_nodes":"13","size_leaf_vector":"1"}},{"base_weights":[-0E0,1.1097228E-2,-3.5795014E-2,-1.8238084E-1,6.303218E-2,-0E0,-1.0166374E-2,6.5280534E-3,-1.0575167E-2],"categories":[],"categories_nodes":[],"categories_segments":[],"categories_sizes":[],"default_left":[0,0,0,0,0,0,0,0,0],"id":35,"left_children":[1,-1,3,5,7,-1,-1,-1,-1],"loss_changes":[1.4544943E1,0E0,1.5696171E1,9.632369E0,2.8817558E1,0E0,0E0,0E0,0E0],"parents":[2147483647,0,0,2,2,3,3,4,4],"right_children":[2,-1,4,6,8,-1,-1,-1,-1],"split_conditions":[-4.174573E-1,1.1097228E-2,7.113553E-2,-1.3206168E-1,5.429637E-1,-0E0,-1.0166374E-2,6.5280534E-3,-1.0575167E-2],"split_indices":[39,0,68,57,26,0,0,0,0],"split_type":[0,0,0,0,0,0,0,0,0],"sum_hessian":[8.693996E2,6.787862E1,8.01521E2,3.4971527E2,4.5180576E2,1.412832E2,2.0843207E2,3.5213788E2,9.9667854E1],"tree_param":{"num_deleted":"0","num_feature":"141","num_nodes":"9","size_leaf_vector":"1"}},{"base_weights":[2.11657E-3,-4.170048E-1,4.75506E-1,-1.3213353E-1,-6.4321536E-1,3.103966E-2,2.6643652E-1,4.143657E-3,-7.5776023E-3,-1.4816721E-2,-2.7100869E-2,1.2958985E-2,-0E0],"categories":[],"categories_nodes":[],"categories_segments":[],"categories_sizes":[],"default_left":[0,0,0,0,0,0,0,0,0,0,0,0,0],"id":36,"left_children":[1,3,5,7,9,-1,11,-1,-1,-1,-1,-1,-1],"loss_changes":[1.8786195E2,2.850116E1,3.942727E1,9.486009E0,5.0203323E0,0E0,1.222666E1,0E0,0E0,0E0,0E0,0E0,0E0],"parents":[2147483647,0,0,1,1,2,2,3,3,4,4,6,6],"right_children":[2,4,6,8,10,-1,12,-1,-1,-1,-1,-1,-1],"split_conditions":[1E0,-3.9849904E-1,-5.6316298E-2,-1.4700235E0,-3.6558208E-1,3.103966E-2,4.2184377E-1,4.143657E-3,-7.5776023E-3,-1.4816721E-2,-2.7100869E-2,1.2958985E-2,-0E0],"split_indices":[127,40,40,44,137,0,137,0,0,0,0,0,0],"split_type":[0,0,0,0,0,0,0,0,0,0,0,0,0],"sum_hessian":[8.650958E2,4.5121503E2,4.1388077E2,2.1902614E2,2.3218889E2,1.12558495E2,3.013223E2,3.731989E1,1.8170625E2,1.3585074E2,9.633815E1,2.1037964E2,9.094264E1],"tree_param":{"num_deleted":"0","num_feature":"141","num_nodes":"13","size_leaf_vector":"1"}},{"base_weights":[-0E0,-1.4663772E-1,1.7093043E-1,-3.9313105E-1,4.3482494E-1,-4.1594806E-1,4.397197E-1,-2.1871224E-3,-1.6986461E-2,2.3103913E-2,-0E0,-2.4394135E-3,-2.419186E-2,2.4695275E-2,4.6931664E-3],"categories":[],"categories_nodes":[],"categories_segments":[],"categories_sizes":[],"default_left":[0,0,0,0,0,0,0,0,0,0,0,0,0,0,0],"id":37,"left_children":[1,3,5,7,9,11,13,-1,-1,-1,-1,-1,-1,-1,-1],"loss_changes":[2.6397476E1,7.533937E1,7.688447E1,1.0343933E1,1.5820377E1,1.2465143E1,2.5511189E1,0E0,0E0,0E0,0E0,0E0,0E0,0E0,0E0],"parents":[2147483647,0,0,1,1,2,2,3,3,4,4,5,5,6,6],"right_children":[2,4,6,8,10,12,14,-1,-1,-1,-1,-1,-1,-1,-1],"split_conditions":[1E0,1E0,1E0,-7.042243E-1,1E0,1E0,4.6681067E-1,-2.1871224E-3,-1.6986461E-2,2.3103913E-2,-0E0,-2.4394135E-3,-2.419186E-2,2.4695275E-2,4.6931664E-3],"split_indices":[128,127,127,85,87,43,42,0,0,0,0,0,0,0,0],"split_type":[0,0,0,0,0,0,0,0,0,0,0,0,0,0,0],"sum_hessian":[8.5048615E2,4.4286017E2,4.0762598E2,3.214227E2,1.2143748E2,1.1833082E2,2.8929517E2,1.015198E2,2.199029E2,6.980388E1,5.16336E1,7.105413E1,4.7276688E1,1.2820595E2,1.6108922E2],"tree_param":{"num_deleted":"0","num_feature":"141","num_nodes":"15","size_leaf_vector":"1"}},{"base_weights":[4.565782E-3,-3.7322536E-1,4.2942047E-1,-6.915381E-2,-5.2618927E-1,7.354461E-1,2.4063484E-1,-9.856566E-3,-0E0,-9.529672E-3,-2.4495803E-2,2.8688071E-2,9.3740765E-3,1.2097477E-2,-0E0],"categories":[],"categories_nodes":[],"categories_segments":[],"categories_sizes":[],"default_left":[0,0,0,0,0,0,0,0,0,0,0,0,0,0,0],"id":38,"left_children":[1,3,5,7,9,11,13,-1,-1,-1,-1,-1,-1,-1,-1],"loss_changes":[1.5171538E2,1.966185E1,2.3740753E1,7.5532856E0,1.2165398E1,3.4704895E0,1.0437006E1,0E0,0E0,0E0,0E0,0E0,0E0,0E0,0E0],"parents":[2147483647,0,0,1,1,2,2,3,3,4,4,5,5,6,6],"right_children":[2,4,6,8,10,12,14,-1,-1,-1,-1,-1,-1,-1,-1],"split_conditions":[1E0,-2.7851238E0,1E0,-4.5714286E-1,-4.2679757E-2,-5.6316298E-2,3.5945207E-1,-9.856566E-3,-0E0,-9.529672E-3,-2.4495803E-2,2.8688071E-2,9.3740765E-3,1.2097477E-2,-0E0],"split_indices":[127,10,87,118,40,40,14,0,0,0,0,0,0,0,0],"split_type":[0,0,0,0,0,0,0,0,0,0,0,0,0,0,0],"sum_hessian":[8.560787E2,4.4460587E2,4.114728E2,1.6820343E2,2.7640244E2,1.3423509E2,2.772377E2,5.2431713E1,1.1577171E2,1.5027438E2,1.2612806E2,8.886115E1,4.5373947E1,1.8680136E2,9.043635E1],"tree_param":{"num_deleted":"0","num_feature":"141","num_nodes":"15","size_leaf_vector":"1"}},{"base_weights":[-0E0,-3.7400076E-1,4.0321267E-1,-1.7922187E-1,-6.8109924E-1,7.1171373E-1,1.2455063E-1,-0E0,-1.0640847E-2,-3.5524564E-3,-2.6467746E-2,5.2239816E-3,2.9233105E-2,1.1567299E-2,-0E0],"categories":[],"categories_nodes":[],"categories_segments":[],"categories_sizes":[],"default_left":[0,0,0,0,0,0,0,0,0,0,0,0,0,0,0],"id":39,"left_children":[1,3,5,7,9,11,13,-1,-1,-1,-1,-1,-1,-1,-1],"loss_changes":[1.4009683E2,2.6380508E1,3.4971382E1,7.818077E0,5.515114E0,1.2150841E1,9.473078E0,0E0,0E0,0E0,0E0,0E0,0E0,0E0,0E0],"parents":[2147483647,0,0,1,1,2,2,3,3,4,4,5,5,6,6],"right_children":[2,4,6,8,10,12,14,-1,-1,-1,-1,-1,-1,-1,-1],"split_conditions":[1E0,-1.1280588E-1,2.547932E-1,-2.6083572E-2,-2.1610248E-1,-7.5929123E-1,-1.7514233E-1,-0E0,-1.0640847E-2,-3.5524564E-3,-2.6467746E-2,5.2239816E-3,2.9233105E-2,1.1567299E-2,-0E0],"split_indices":[127,40,40,23,58,137,57,0,0,0,0,0,0,0,0],"split_type":[0,0,0,0,0,0,0,0,0,0,0,0,0,0,0],"sum_hessian":[8.396427E2,4.351247E2,4.0451804E2,2.878001E2,1.4732458E2,1.7423154E2,2.3028648E2,1.426301E2,1.4517001E2,3.598078E1,1.113438E2,5.201854E1,1.22213E2,7.6786514E1,1.5349998E2],"tree_param":{"num_deleted":"0","num_feature":"141","num_nodes":"15","size_leaf_vector":"1"}},{"base_weights":[-7.14555E-4,-3.9038134E-1,4.04365E-1,-1.338669E-1,-5.9095806E-1,5.9644645E-1,-0E0,-8.80931E-3,-0E0,-6.8884115E-3,-2.26938E-2,8.621171E-3,2.4732552E-2,4.3595904E-3,-5.739835E-3],"categories":[],"categories_nodes":[],"categories_segments":[],"categories_sizes":[],"default_left":[0,0,0,0,0,0,0,0,0,0,0,0,0,0,0],"id":40,"left_children":[1,3,5,7,9,11,13,-1,-1,-1,-1,-1,-1,-1,-1],"loss_changes":[1.4745457E2,2.2087479E1,3.0804825E1,6.3467474E0,4.439354E0,9.94339E0,7.601727E0,0E0,0E0,0E0,0E0,0E0,0E0,0E0,0E0],"parents":[2147483647,0,0,1,1,2,2,3,3,4,4,5,5,6,6],"right_children":[2,4,6,8,10,12,14,-1,-1,-1,-1,-1,-1,-1,-1],"split_conditions":[1E0,-3.9849904E-1,6.4668226E-1,2.9564878E-1,-3.1327552E-1,-7.83002E-2,4.7116336E-1,-8.80931E-3,-0E0,-6.8884115E-3,-2.26938E-2,8.621171E-3,2.4732552E-2,4.3595904E-3,-5.739835E-3],"split_indices":[127,40,40,62,58,62,23,0,0,0,0,0,0,0,0],"split_type":[0,0,0,0,0,0,0,0,0,0,0,0,0,0,0],"sum_hessian":[8.47335E2,4.4111572E2,4.0621927E2,2.1477557E2,2.2634015E2,2.6151028E2,1.44709E2,1.1577636E2,9.899921E1,6.0639755E1,1.657004E2,9.743918E1,1.640711E2,1.0609089E2,3.8618107E1],"tree_param":{"num_deleted":"0","num_feature":"141","num_nodes":"15","size_leaf_vector":"1"}},{"base_weights":[-0E0,1.5141842E-2,-1.6313935E-2,-3.719628E-1,3.7371033E-1,-3.427353E-3,-1.9579511E-2,2.290999E-2,2.0461113E-3],"categories":[],"categories_nodes":[],"categories_segments":[],"categories_sizes":[],"default_left":[0,0,0,0,0,0,0,0,0],"id":41,"left_children":[1,-1,3,5,7,-1,-1,-1,-1],"loss_changes":[1.596941E1,0E0,1.2406133E2,2.405561E1,3.6395397E1,0E0,0E0,0E0,0E0],"parents":[2147483647,0,0,2,2,3,3,4,4],"right_children":[2,-1,4,6,8,-1,-1,-1,-1],"split_conditions":[-4.5057034E-1,1.5141842E-2,1E0,-3.9849904E-1,3.0551592E-1,-3.427353E-3,-1.9579511E-2,2.290999E-2,2.0461113E-3],"split_indices":[38,0,127,40,40,0,0,0,0],"split_type":[0,0,0,0,0,0,0,0,0],"sum_hessian":[8.406072E2,3.6912476E1,8.0369464E2,4.3024512E2,3.7344955E2,2.0858188E2,2.2166325E2,1.7203085E2,2.014187E2],"tree_param":{"num_deleted":"0","num_feature":"141","num_nodes":"9","size_leaf_vector":"1"}},{"base_weights":[-0E0,-1.2736197E-1,1.3140364E-1,-3.3662152E-1,3.5983303E-1,-3.678637E-1,3.6877194E-1,-0E0,-1.4927949E-2,1.8945523E-2,-0E0,2.0379832E-3,-2.2495281E-2,2.0393897E-2,4.8759817E-3],"categories":[],"categories_nodes":[],"categories_segments":[],"categories_sizes":[],"default_left":[0,0,0,0,0,0,0,0,0,0,0,0,0,0,0],"id":42,"left_children":[1,3,5,7,9,11,13,-1,-1,-1,-1,-1,-1,-1,-1],"loss_changes":[1.8048643E1,5.486147E1,5.7822525E1,1.483054E1,1.5067146E1,2.605921E1,1.4830467E1,0E0,0E0,0E0,0E0,0E0,0E0,0E0,0E0],"parents":[2147483647,0,0,1,1,2,2,3,3,4,4,5,5,6,6],"right_children":[2,4,6,8,10,12,14,-1,-1,-1,-1,-1,-1,-1,-1],"split_conditions":[1E0,1E0,1E0,-1.0704207E0,3.9252582E-1,-3.8083702E-1,3.3427286E-1,-0E0,-1.4927949E-2,1.8945523E-2,-0E0,2.0379832E-3,-2.2495281E-2,2.0393897E-2,4.8759817E-3],"split_indices":[128,127,127,40,40,40,10,0,0,0,0,0,0,0,0],"split_type":[0,0,0,0,0,0,0,0,0,0,0,0,0,0,0],"sum_hessian":[8.4114215E2,4.429319E2,3.982103E2,3.2182E2,1.21111885E2,1.1719733E2,2.8101297E2,7.316173E1,2.4865826E2,8.299279E1,3.81191E1,4.0975323E1,7.622201E1,1.1423629E2,1.6677669E2],"tree_param":{"num_deleted":"0","num_feature":"141","num_nodes":"15","size_leaf_vector":"1"}},{"base_weights":[-0E0,-3.4463444E-1,3.9510557E-1,-2.7733194E-2,-5.001959E-1,2.330262E-2,2.179111E-1,6.7036394E-3,-5.447507E-3,-1.2588795E-2,-2.7468557E-2,9.7596245E-3,-2.2998976E-3],"categories":[],"categories_nodes":[],"categories_segments":[],"categories_sizes":[],"default_left":[0,0,0,0,0,0,0,0,0,0,0,0,0],"id":43,"left_children":[1,3,5,7,9,-1,11,-1,-1,-1,-1,-1,-1],"loss_changes":[1.2699938E2,2.0681656E1,2.1263939E1,9.984553E0,1.0397537E1,0E0,9.638023E0,0E0,0E0,0E0,0E0,0E0,0E0],"parents":[2147483647,0,0,1,1,2,2,3,3,4,4,6,6],"right_children":[2,4,6,8,10,-1,12,-1,-1,-1,-1,-1,-1],"split_conditions":[1E0,-4.5830435E-1,1E0,-8.373833E-1,3.9252582E-1,2.330262E-2,8.3452207E-1,6.7036394E-3,-5.447507E-3,-1.2588795E-2,-2.7468557E-2,9.7596245E-3,-2.2998976E-3],"split_indices":[127,61,87,102,40,0,23,0,0,0,0,0,0],"split_type":[0,0,0,0,0,0,0,0,0,0,0,0,0],"sum_hessian":[8.367695E2,4.3788568E2,3.9888382E2,1.6233702E2,2.7554865E2,1.2533432E2,2.735495E2,3.902436E1,1.2331267E2,2.2539473E2,5.0153904E1,2.3823946E2,3.5310043E1],"tree_param":{"num_deleted":"0","num_feature":"141","num_nodes":"13","size_leaf_vector":"1"}},{"base_weights":[4.924185E-3,-3.0486855E-1,3.6985287E-1,-1.325962E-1,-2.0914959E-2,2.6290175E-2,1.8012328E-1,-0E0,-9.462318E-3,8.654839E-3,-3.4387081E-3],"categories":[],"categories_nodes":[],"categories_segments":[],"categories_sizes":[],"default_left":[0,0,0,0,0,0,0,0,0,0,0],"id":44,"left_children":[1,3,5,7,-1,-1,9,-1,-1,-1,-1],"loss_changes":[1.04836464E2,2.4661919E1,3.1531895E1,9.60633E0,0E0,0E0,1.0323548E1,0E0,0E0,0E0,0E0],"parents":[2147483647,0,0,1,1,2,2,3,3,6,6],"right_children":[2,4,6,8,-1,-1,10,-1,-1,-1,-1],"split_conditions":[1E0,-8.4539376E-2,-5.6316298E-2,-4.181746E-1,-2.0914959E-2,2.6290175E-2,8.3452207E-1,-0E0,-9.462318E-3,8.654839E-3,-3.4387081E-3],"split_indices":[127,40,40,44,0,0,23,0,0,0,0],"split_type":[0,0,0,0,0,0,0,0,0,0,0],"sum_hessian":[8.227912E2,4.3495624E2,3.8783496E2,3.035915E2,1.3136475E2,1.0285873E2,2.8497623E2,1.4820058E2,1.553909E2,2.4417903E2,4.07972E1],"tree_param":{"num_deleted":"0","num_feature":"141","num_nodes":"11","size_leaf_vector":"1"}},{"base_weights":[-6.845391E-3,-1.455839E-1,1.2739296E-1,-0E0,-3.609526E-1,3.4420347E-1,-2.4335107E-2,2.428085E-3,-3.216423E-3,-1.54011715E-2,-0E0,1.4941795E-2,9.210253E-4,5.4917005E-3,-4.0447833E-3],"categories":[],"categories_nodes":[],"categories_segments":[],"categories_sizes":[],"default_left":[0,0,0,0,0,0,0,0,0,0,0,0,0,0,0],"id":45,"left_children":[1,3,5,7,9,11,13,-1,-1,-1,-1,-1,-1,-1,-1],"loss_changes":[1.9597128E1,1.5329314E1,1.9016531E1,4.5255837E0,5.765312E0,4.238598E0,7.6035695E0,0E0,0E0,0E0,0E0,0E0,0E0,0E0,0E0],"parents":[2147483647,0,0,1,1,2,2,3,3,4,4,5,5,6,6],"right_children":[2,4,6,8,10,12,14,-1,-1,-1,-1,-1,-1,-1,-1],"split_conditions":[1E0,-2.4182478E-1,4.6681067E-1,-3.28282E-2,5.5181587E-1,2.495013E-1,-3.3333334E-1,2.428085E-3,-3.216423E-3,-1.54011715E-2,-0E0,1.4941795E-2,9.210253E-4,5.4917005E-3,-4.0447833E-3],"split_indices":[128,42,42,120,65,75,0,0,0,0,0,0,0,0,0],"split_type":[0,0,0,0,0,0,0,0,0,0,0,0,0,0,0],"sum_hessian":[8.2388416E2,4.3132538E2,3.925588E2,2.7357227E2,1.5775311E2,1.7738097E2,2.1517784E2,1.3154245E2,1.4202982E2,1.1566166E2,4.209145E1,1.1503168E2,6.2349285E1,4.561212E1,1.6956572E2],"tree_param":{"num_deleted":"0","num_feature":"141","num_nodes":"15","size_leaf_vector":"1"}},{"base_weights":[-0E0,-3.279434E-1,3.5299072E-1,-0E0,-4.6496686E-1,2.2140712E-2,1.771588E-1,-3.8752712E-3,5.1073893E-3,-1.0762382E-2,-2.2609197E-2,9.621945E-3,-0E0],"categories":[],"categories_nodes":[],"categories_segments":[],"categories_sizes":[],"default_left":[0,0,0,0,0,0,0,0,0,0,0,0,0],"id":46,"left_children":[1,3,5,7,9,-1,11,-1,-1,-1,-1,-1,-1],"loss_changes":[1.0814438E2,1.995774E1,2.1961369E1,6.4207788E0,8.0050125E0,0E0,8.382954E0,0E0,0E0,0E0,0E0,0E0,0E0],"parents":[2147483647,0,0,1,1,2,2,3,3,4,4,6,6],"right_children":[2,4,6,8,10,-1,12,-1,-1,-1,-1,-1,-1],"split_conditions":[1E0,-6.1015075E-1,1E0,3.3333334E-1,1E0,2.2140712E-2,7.292529E-1,-3.8752712E-3,5.1073893E-3,-1.0762382E-2,-2.2609197E-2,9.621945E-3,-0E0],"split_indices":[127,44,136,12,136,0,101,0,0,0,0,0,0],"split_type":[0,0,0,0,0,0,0,0,0,0,0,0,0],"sum_hessian":[8.3482404E2,4.357996E2,3.9902444E2,1.3956316E2,2.9623642E2,1.2316486E2,2.758596E2,9.594667E1,4.3616497E1,2.0638098E2,8.9855446E1,1.8383995E2,9.2019646E1],"tree_param":{"num_deleted":"0","num_feature":"141","num_nodes":"13","size_leaf_vector":"1"}},{"base_weights":[7.142852E-3,-2.9984742E-1,3.5750327E-1,-1.4950982E-1,-2.0073866E-2,2.6129898E-2,1.6620895E-1,-0E0,-9.8462915E-3,9.869762E-3,-0E0],"categories":[],"categories_nodes":[],"categories_segments":[],"categories_sizes":[],"default_left":[0,0,0,0,0,0,0,0,0,0,0],"id":47,"left_children":[1,3,5,7,-1,-1,9,-1,-1,-1,-1],"loss_changes":[1.0048351E2,2.003415E1,3.3245132E1,9.680567E0,0E0,0E0,7.8754463E0,0E0,0E0,0E0,0E0],"parents":[2147483647,0,0,1,1,2,2,3,3,6,6],"right_children":[2,4,6,8,-1,-1,10,-1,-1,-1,-1],"split_conditions":[1E0,-4.2679757E-2,-4.2679757E-2,-9.8240234E-2,-2.0073866E-2,2.6129898E-2,1.4413063E-1,-0E0,-9.8462915E-3,9.869762E-3,-0E0],"split_indices":[127,40,40,22,0,0,57,0,0,0,0],"split_type":[0,0,0,0,0,0,0,0,0,0,0],"sum_hessian":[8.2823926E2,4.3101202E2,3.9722726E2,3.0991028E2,1.2110173E2,1.05326904E2,2.9190036E2,1.4627113E2,1.6363916E2,1.5821121E2,1.3368915E2],"tree_param":{"num_deleted":"0","num_feature":"141","num_nodes":"11","size_leaf_vector":"1"}},{"base_weights":[2.6223477E-2,-9.877622E-2,1.8354475E-1,-1.3393823E-2,-1.2648226E-2,3.595495E-1,1.4933492E-2,-4.6115303E-3,2.3204947E-3,1.7617434E-2,5.1163114E-3,1.0135893E-2,-4.049641E-4],"categories":[],"categories_nodes":[],"categories_segments":[],"categories_sizes":[],"default_left":[0,0,0,0,0,0,0,0,0,0,0,0,0],"id":48,"left_children":[1,3,5,7,-1,9,11,-1,-1,-1,-1,-1,-1],"loss_changes":[2.0829569E1,1.1869665E1,1.1795155E1,7.100434E0,0E0,5.017519E0,8.233928E0,0E0,0E0,0E0,0E0,0E0,0E0],"parents":[2147483647,0,0,1,1,2,2,3,3,5,5,6,6],"right_children":[2,4,6,8,-1,10,12,-1,-1,-1,-1,-1,-1],"split_conditions":[1E0,2.4806571E-1,3.4780303E-1,6.402201E-2,-1.2648226E-2,-1.6804543E-1,-3.7408346E-1,-4.6115303E-3,2.3204947E-3,1.7617434E-2,5.1163114E-3,1.0135893E-2,-4.049641E-4],"split_indices":[128,61,61,68,0,40,24,0,0,0,0,0,0],"split_type":[0,0,0,0,0,0,0,0,0,0,0,0,0],"sum_hessian":[8.2560815E2,4.3598865E2,3.896195E2,3.593036E2,7.6685036E1,1.655693E2,2.240502E2,1.7666162E2,1.8264198E2,6.647627E1,9.909303E1,3.584725E1,1.8820294E2],"tree_param":{"num_deleted":"0","num_feature":"141","num_nodes":"13","size_leaf_vector":"1"}},{"base_weights":[1.8297194E-2,-2.7229038E-1,3.5209185E-1,-1.6598181E-1,-2.4575729E-2,2.5800543E-2,1.7542955E-1,-9.904305E-3,-0E0,9.756249E-3,-0E0],"categories":[],"categories_nodes":[],"categories_segments":[],"categories_sizes":[],"default_left":[0,0,0,0,0,0,0,0,0,0,0],"id":49,"left_children":[1,3,5,7,-1,-1,9,-1,-1,-1,-1],"loss_changes":[9.103601E1,2.309454E1,3.0386868E1,9.378489E0,0E0,0E0,6.5601015E0,0E0,0E0,0E0,0E0],"parents":[2147483647,0,0,1,1,2,2,3,3,6,6],"right_children":[2,4,6,8,-1,-1,10,-1,-1,-1,-1],"split_conditions":[1E0,2.829215E-1,-7.332382E-2,1.24365255E-1,-2.4575729E-2,2.5800543E-2,1.4413063E-1,-9.904305E-3,-0E0,9.756249E-3,-0E0],"split_indices":[127,40,40,14,0,0,57,0,0,0,0],"split_type":[0,0,0,0,0,0,0,0,0,0,0],"sum_hessian":[8.276046E2,4.3158633E2,3.960183E2,3.7140994E2,6.0176388E1,9.848148E1,2.9753683E2,1.9906734E2,1.723426E2,1.6188565E2,1.3565118E2],"tree_param":{"num_deleted":"0","num_feature":"141","num_nodes":"11","size_leaf_vector":"1"}},{"base_weights":[6.173109E-3,-2.915517E-1,3.434375E-1,-1.7488416E-1,-5.735251E-1,5.245799E-1,5.464026E-2,1.9025012E-3,-7.7620815E-3,-3.05657E-3,-2.3752443E-2,2.0579502E-2,-0E0,5.642411E-3,-4.521997E-3],"categories":[],"categories_nodes":[],"categories_segments":[],"categories_sizes":[],"default_left":[0,0,0,0,0,0,0,0,0,0,0,0,0,0,0],"id":50,"left_children":[1,3,5,7,9,11,13,-1,-1,-1,-1,-1,-1,-1,-1],"loss_changes":[9.346549E1,1.4700489E1,2.012159E1,7.349531E0,3.7980995E0,9.80928E0,7.8367577E0,0E0,0E0,0E0,0E0,0E0,0E0,0E0,0E0],"parents":[2147483647,0,0,1,1,2,2,3,3,4,4,5,5,6,6],"right_children":[2,4,6,8,10,12,14,-1,-1,-1,-1,-1,-1,-1,-1],"split_conditions":[1E0,1E0,5.4527384E-1,-1.4700235E0,-4.7610007E-2,8.65029E-2,6.938699E-1,1.9025012E-3,-7.7620815E-3,-3.05657E-3,-2.3752443E-2,2.0579502E-2,-0E0,5.642411E-3,-4.521997E-3],"split_indices":[127,43,5,44,98,33,22,0,0,0,0,0,0,0,0],"split_type":[0,0,0,0,0,0,0,0,0,0,0,0,0,0,0],"sum_hessian":[8.218232E2,4.2564517E2,3.9617804E2,3.276573E2,9.798788E1,2.2438641E2,1.7179161E2,3.887833E1,2.8877896E2,3.5673145E1,6.2314735E1,1.852489E2,3.9137512E1,1.3185106E2,3.9940556E1],"tree_param":{"num_deleted":"0","num_feature":"141","num_nodes":"15","size_leaf_vector":"1"}},{"base_weights":[6.516026E-3,-9.3884766E-2,1.356022E-1,6.554546E-3,-2.667981E-1,2.560896E-1,-1.5361643E-2,-2.6526926E-3,4.4082818E-3,-0E0,-1.3622504E-2,1.28625985E-2,-0E0,-9.1189835E-3,6.360358E-4],"categories":[],"categories_nodes":[],"categories_segments":[],"categories_sizes":[],"default_left":[0,0,0,0,0,0,0,0,0,0,0,0,0,0,0],"id":51,"left_children":[1,3,5,7,9,11,13,-1,-1,-1,-1,-1,-1,-1,-1],"loss_changes":[1.4299527E1,1.2067972E1,1.0918942E1,6.1376524E0,6.6216297E0,7.8648033E0,7.2079535E0,0E0,0E0,0E0,0E0,0E0,0E0,0E0,0E0],"parents":[2147483647,0,0,1,1,2,2,3,3,4,4,5,5,6,6],"right_children":[2,4,6,8,10,12,14,-1,-1,-1,-1,-1,-1,-1,-1],"split_conditions":[1E0,-2.5545713E-1,1E0,5.163588E-2,-1.2048462E-1,3.5226905E-1,-1.5167624E-1,-2.6526926E-3,4.4082818E-3,-0E0,-1.3622504E-2,1.28625985E-2,-0E0,-9.1189835E-3,6.360358E-4],"split_indices":[128,44,133,68,54,64,18,0,0,0,0,0,0,0,0],"split_type":[0,0,0,0,0,0,0,0,0,0,0,0,0,0,0],"sum_hessian":[8.1672095E2,4.290365E2,3.8768448E2,2.4943617E2,1.7960033E2,2.3937967E2,1.4830481E2,1.15167694E2,1.3426848E2,7.800658E1,1.0159376E2,1.4409494E2,9.528472E1,3.6381565E1,1.1192325E2],"tree_param":{"num_deleted":"0","num_feature":"141","num_nodes":"15","size_leaf_vector":"1"}},{"base_weights":[-0E0,-2.895558E-1,3.0000806E-1,-0E0,-4.7315055E-1,2.1909181E-2,1.4171848E-1,-3.143164E-3,7.596459E-3,-1.2305819E-2,-2.5323864E-2,9.216344E-3,-0E0],"categories":[],"categories_nodes":[],"categories_segments":[],"categories_sizes":[],"default_left":[0,0,0,0,0,0,0,0,0,0,0,0,0],"id":52,"left_children":[1,3,5,7,9,-1,11,-1,-1,-1,-1,-1,-1],"loss_changes":[8.086107E1,2.38806E1,2.3047623E1,8.157999E0,6.925934E0,0E0,7.2804117E0,0E0,0E0,0E0,0E0,0E0,0E0],"parents":[2147483647,0,0,1,1,2,2,3,3,4,4,6,6],"right_children":[2,4,6,8,10,-1,12,-1,-1,-1,-1,-1,-1],"split_conditions":[1E0,-4.081128E-1,-5.6316298E-2,1.5714285E0,3.9252582E-1,2.1909181E-2,4.2090777E-2,-3.143164E-3,7.596459E-3,-1.2305819E-2,-2.5323864E-2,9.216344E-3,-0E0],"split_indices":[127,44,40,32,40,0,63,0,0,0,0,0,0],"split_type":[0,0,0,0,0,0,0,0,0,0,0,0,0],"sum_hessian":[8.1860516E2,4.2559E2,3.930152E2,1.759983E2,2.4959167E2,1.0055205E2,2.9246313E2,1.3938046E2,3.6617847E1,2.1179378E2,3.7797897E1,1.4382742E2,1.4863571E2],"tree_param":{"num_deleted":"0","num_feature":"141","num_nodes":"13","size_leaf_vector":"1"}},{"base_weights":[-0E0,1.1623555E-2,-3.1851854E-2,1.13836154E-1,-8.4857166E-2,-0E0,8.930824E-3,3.4584813E-3,-4.8054093E-3],"categories":[],"categories_nodes":[],"categories_segments":[],"categories_sizes":[],"default_left":[0,0,0,0,0,0,0,0,0],"id":53,"left_children":[1,-1,3,5,7,-1,-1,-1,-1],"loss_changes":[1.3058613E1,0E0,8.283795E0,5.6413355E0,9.412031E0,0E0,0E0,0E0,0E0],"parents":[2147483647,0,0,2,2,3,3,4,4],"right_children":[2,-1,4,6,8,-1,-1,-1,-1],"split_conditions":[-4.342857E-1,1.1623555E-2,-6.597439E-1,4.5585595E-2,-7.692209E-1,-0E0,8.930824E-3,3.4584813E-3,-4.8054093E-3],"split_indices":[0,0,74,96,22,0,0,0,0],"split_type":[0,0,0,0,0,0,0,0,0],"sum_hessian":[8.203486E2,4.9452488E1,7.7089606E2,1.670134E2,6.038827E2,9.372363E1,7.3289764E1,1.12156906E2,4.9172574E2],"tree_param":{"num_deleted":"0","num_feature":"141","num_nodes":"9","size_leaf_vector":"1"}},{"base_weights":[1.2875267E-2,1.1575248E-2,-0E0,-1.14691265E-1,8.21763E-2,-7.571116E-3,-0E0,5.254277E-3,-6.516936E-3],"categories":[],"categories_nodes":[],"categories_segments":[],"categories_sizes":[],"default_left":[0,0,0,0,0,0,0,0,0],"id":54,"left_children":[1,-1,3,5,7,-1,-1,-1,-1],"loss_changes":[9.727569E0,0E0,1.0508723E1,7.4879217E0,1.2954783E1,0E0,0E0,0E0,0E0],"parents":[2147483647,0,0,2,2,3,3,4,4],"right_children":[2,-1,4,6,8,-1,-1,-1,-1],"split_conditions":[-4.4071883E-1,1.1575248E-2,7.113553E-2,1E0,7.877142E-1,-7.571116E-3,-0E0,5.254277E-3,-6.516936E-3],"split_indices":[21,0,68,128,27,0,0,0,0],"split_type":[0,0,0,0,0,0,0,0,0],"sum_hessian":[8.195613E2,3.5302856E1,7.842584E2,3.467705E2,4.3748795E2,2.001756E2,1.465949E2,3.679366E2,6.955133E1],"tree_param":{"num_deleted":"0","num_feature":"141","num_nodes":"9","size_leaf_vector":"1"}},{"base_weights":[1.2684619E-3,-1.0524544E-1,8.1595846E-2,-0E0,-2.726158E-1,1.7313913E-1,-1.00508794E-1,-4.0486725E-3,4.0806173E-3,-1.2877226E-2,-0E0,7.379246E-3,-3.9253704E-4,1.0208373E-3,-8.162143E-3],"categories":[],"categories_nodes":[],"categories_segments":[],"categories_sizes":[],"default_left":[0,0,0,0,0,0,0,0,0,0,0,0,0,0,0],"id":55,"left_children":[1,3,5,7,9,11,13,-1,-1,-1,-1,-1,-1,-1,-1],"loss_changes":[9.595634E0,8.822378E0,1.1941874E1,6.410304E0,3.993475E0,5.5393906E0,6.8714247E0,0E0,0E0,0E0,0E0,0E0,0E0,0E0,0E0],"parents":[2147483647,0,0,1,1,2,2,3,3,4,4,5,5,6,6],"right_children":[2,4,6,8,10,12,14,-1,-1,-1,-1,-1,-1,-1,-1],"split_conditions":[-4.028815E-2,1.956999E-1,4.7451812E-1,-1.1221555E-1,-1.218841E-2,2.002467E0,-3.6557883E-1,-4.0486725E-3,4.0806173E-3,-1.2877226E-2,-0E0,7.379246E-3,-3.9253704E-4,1.0208373E-3,-8.162143E-3],"split_indices":[65,121,27,29,56,78,137,0,0,0,0,0,0,0,0],"split_type":[0,0,0,0,0,0,0,0,0,0,0,0,0,0,0],"sum_hessian":[8.131519E2,3.0992084E2,5.0323108E2,1.8385349E2,1.2606734E2,3.6154288E2,1.4168819E2,7.998709E1,1.038664E2,7.6370735E1,4.9696606E1,3.189216E2,4.2621284E1,5.0432793E1,9.12554E1],"tree_param":{"num_deleted":"0","num_feature":"141","num_nodes":"15","size_leaf_vector":"1"}},{"base_weights":[-4.560129E-3,-1.0829932E-1,9.177345E-2,-0E0,-2.7100265E-1,3.4811473E-1,-0E0,-7.657514E-3,3.600313E-3,-0E0,-1.2409111E-2,1.9019522E-2,1.2765658E-3,8.299937E-3,-1.6095805E-3],"categories":[],"categories_nodes":[],"categories_segments":[],"categories_sizes":[],"default_left":[0,0,0,0,0,0,0,0,0,0,0,0,0,0,0],"id":56,"left_children":[1,3,5,7,9,11,13,-1,-1,-1,-1,-1,-1,-1,-1],"loss_changes":[1.114447E1,9.023216E0,1.3171583E1,1.2248119E1,6.0259943E0,6.291504E0,7.632005E0,0E0,0E0,0E0,0E0,0E0,0E0,0E0,0E0],"parents":[2147483647,0,0,1,1,2,2,3,3,4,4,5,5,6,6],"right_children":[2,4,6,8,10,12,14,-1,-1,-1,-1,-1,-1,-1,-1],"split_conditions":[1E0,-5.7183694E-2,1.7726187E-1,-1.3435711E-1,-1.6918343E-1,-1.8466225E-1,-4.0796965E-1,-7.657514E-3,3.600313E-3,-0E0,-1.2409111E-2,1.9019522E-2,1.2765658E-3,8.299937E-3,-1.6095805E-3],"split_indices":[128,46,42,65,16,57,39,0,0,0,0,0,0,0,0],"split_type":[0,0,0,0,0,0,0,0,0,0,0,0,0,0,0],"sum_hessian":[8.05665E2,4.2361093E2,3.8205405E2,2.7132315E2,1.5228778E2,9.780185E1,2.842522E2,9.4277695E1,1.7704544E2,4.003257E1,1.1225521E2,4.0154778E1,5.764707E1,3.8230896E1,2.4602132E2],"tree_param":{"num_deleted":"0","num_feature":"141","num_nodes":"15","size_leaf_vector":"1"}},{"base_weights":[8.147577E-3,1.0661072E-2,-1.3072831E-2,-3.098116E-1,3.0809495E-1,-2.2191925E-3,-1.6909683E-2,2.336769E-2,4.411708E-3],"categories":[],"categories_nodes":[],"categories_segments":[],"categories_sizes":[],"default_left":[0,0,0,0,0,0,0,0,0],"id":57,"left_children":[1,-1,3,5,7,-1,-1,-1,-1],"loss_changes":[1.226922E1,0E0,8.114423E1,1.856971E1,2.5049599E1,0E0,0E0,0E0,0E0],"parents":[2147483647,0,0,2,2,3,3,4,4],"right_children":[2,-1,4,6,8,-1,-1,-1,-1],"split_conditions":[-4.0083313E-1,1.0661072E-2,1E0,-3.9849904E-1,-5.6316298E-2,-2.2191925E-3,-1.6909683E-2,2.336769E-2,4.411708E-3],"split_indices":[24,0,127,40,40,0,0,0,0],"split_type":[0,0,0,0,0,0,0,0,0],"sum_hessian":[8.122133E2,6.741812E1,7.447952E2,3.989545E2,3.4584073E2,1.9752975E2,2.0142474E2,8.872096E1,2.5711975E2],"tree_param":{"num_deleted":"0","num_feature":"141","num_nodes":"9","size_leaf_vector":"1"}},{"base_weights":[-0E0,-2.7651563E-1,3.1211573E-1,-1.544693E-1,-1.9639013E-2,4.222392E-1,-1.3033266E-2,-7.25318E-3,4.483925E-3,1.7782135E-2,7.651004E-3,-0E0,-5.972221E-3],"categories":[],"categories_nodes":[],"categories_segments":[],"categories_sizes":[],"default_left":[0,0,0,0,0,0,0,0,0,0,0,0,0],"id":58,"left_children":[1,3,5,7,-1,9,11,-1,-1,-1,-1,-1,-1],"loss_changes":[7.948158E1,1.680619E1,1.8816032E1,9.539232E0,0E0,4.9339104E0,3.8590477E0,0E0,0E0,0E0,0E0,0E0,0E0],"parents":[2147483647,0,0,1,1,2,2,3,3,5,5,6,6],"right_children":[2,4,6,8,-1,10,12,-1,-1,-1,-1,-1,-1],"split_conditions":[1E0,1E0,7.773266E-1,1.1818441E0,-1.9639013E-2,2.5417814E-2,3.5972625E-1,-7.25318E-3,4.483925E-3,1.7782135E-2,7.651004E-3,-0E0,-5.972221E-3],"split_indices":[127,43,58,121,0,63,107,0,0,0,0,0,0],"split_type":[0,0,0,0,0,0,0,0,0,0,0,0,0],"sum_hessian":[8.060217E2,4.213728E2,3.8464893E2,3.2657056E2,9.480222E1,3.0229575E2,8.23532E1,2.9132367E2,3.5246918E1,1.6272499E2,1.3957074E2,4.253186E1,3.982134E1],"tree_param":{"num_deleted":"0","num_feature":"141","num_nodes":"13","size_leaf_vector":"1"}},{"base_weights":[-0E0,-2.7665305E-1,2.916809E-1,-9.2008404E-2,-4.7906083E-1,2.1569777E-2,1.381707E-1,4.6743327E-3,-6.722067E-3,-8.700725E-3,-2.3254553E-2,7.681318E-3,-0E0],"categories":[],"categories_nodes":[],"categories_segments":[],"categories_sizes":[],"default_left":[0,0,0,0,0,0,0,0,0,0,0,0,0],"id":59,"left_children":[1,3,5,7,9,-1,11,-1,-1,-1,-1,-1,-1],"loss_changes":[7.4644714E1,1.5942387E1,2.1878922E1,1.0560794E1,7.3375854E0,0E0,6.32828E0,0E0,0E0,0E0,0E0,0E0,0E0],"parents":[2147483647,0,0,1,1,2,2,3,3,4,4,6,6],"right_children":[2,4,6,8,10,-1,12,-1,-1,-1,-1,-1,-1],"split_conditions":[1E0,-2.821956E-1,-5.6316298E-2,-8.441758E-1,-3.6558208E-1,2.1569777E-2,7.292529E-1,4.6743327E-3,-6.722067E-3,-8.700725E-3,-2.3254553E-2,7.681318E-3,-0E0],"split_indices":[127,40,40,27,137,0,101,0,0,0,0,0,0],"split_type":[0,0,0,0,0,0,0,0,0,0,0,0,0],"sum_hessian":[8.093985E2,4.2445593E2,3.8494257E2,2.4625223E2,1.7820369E2,9.57526E1,2.8918997E2,5.649419E1,1.8975804E2,1.1243741E2,6.576629E1,1.9685698E2,9.233298E1],"tree_param":{"num_deleted":"0","num_feature":"141","num_nodes":"13","size_leaf_vector":"1"}},{"base_weights":[-0E0,1.6067733E-1,-3.6664564E-2,-0E0,2.4659061E-1,6.6579105E-3,-7.5777136E-2,1.3798282E-2,5.0732144E-4,2.7814459E-3,-4.4514933E-3],"categories":[],"categories_nodes":[],"categories_segments":[],"categories_sizes":[],"default_left":[0,0,0,0,0,0,0,0,0,0,0],"id":60,"left_children":[1,3,5,-1,7,-1,9,-1,-1,-1,-1],"loss_changes":[8.56823E0,5.261683E0,8.526267E0,0E0,5.017006E0,0E0,7.673065E0,0E0,0E0,0E0,0E0],"parents":[2147483647,0,0,1,1,2,2,4,4,6,6],"right_children":[2,4,6,-1,8,-1,10,-1,-1,-1,-1],"split_conditions":[-6.597439E-1,-3.8295317E-1,-4.0515932E-1,-0E0,-1.5667082E-1,6.6579105E-3,-7.829243E-1,1.3798282E-2,5.0732144E-4,2.7814459E-3,-4.4514933E-3],"split_indices":[74,15,24,0,137,0,22,0,0,0,0],"split_type":[0,0,0,0,0,0,0,0,0,0,0],"sum_hessian":[8.122372E2,1.8073286E2,6.3150433E2,4.2135952E1,1.3859692E2,5.94817E1,5.7202264E2,5.946963E1,7.912729E1,1.1630083E2,4.557218E2],"tree_param":{"num_deleted":"0","num_feature":"141","num_nodes":"11","size_leaf_vector":"1"}},{"base_weights":[-0E0,1.2506958E-2,-1.5954567E-2,6.582222E-2,-1.2983082E-1,-0E0,1.0685573E-2,-1.2606527E-2,-0E0],"categories":[],"categories_nodes":[],"categories_segments":[],"categories_sizes":[],"default_left":[0,0,0,0,0,0,0,0,0],"id":61,"left_children":[1,-1,3,5,7,-1,-1,-1,-1],"loss_changes":[1.1830086E1,0E0,1.0363446E1,1.2920385E1,1.2855539E1,0E0,0E0,0E0,0E0],"parents":[2147483647,0,0,2,2,3,3,4,4],"right_children":[2,-1,4,6,8,-1,-1,-1,-1],"split_conditions":[-4.4071883E-1,1.2506958E-2,3.535542E-2,1E0,1E0,-0E0,1.0685573E-2,-1.2606527E-2,-0E0],"split_indices":[21,0,61,128,128,0,0,0,0],"split_type":[0,0,0,0,0,0,0,0,0],"sum_hessian":[8.0609064E2,3.6030785E1,7.700599E2,4.130638E2,3.5699606E2,3.108228E2,1.02241E2,1.022879E2,2.5470816E2],"tree_param":{"num_deleted":"0","num_feature":"141","num_nodes":"9","size_leaf_vector":"1"}},{"base_weights":[-0E0,8.337814E-3,-2.9915912E-2,-0E0,-9.303361E-3,-3.0981875E-3,4.415527E-3],"categories":[],"categories_nodes":[],"categories_segments":[],"categories_sizes":[],"default_left":[0,0,0,0,0,0,0],"id":62,"left_children":[1,-1,3,5,-1,-1,-1],"loss_changes":[8.948143E0,0E0,9.111611E0,1.150108E1,0E0,0E0,0E0],"parents":[2147483647,0,0,2,2,3,3],"right_children":[2,-1,4,6,-1,-1,-1],"split_conditions":[-4.1555977E-1,8.337814E-3,1.0316573E0,2.88443E-1,-9.303361E-3,-3.0981875E-3,4.415527E-3],"split_indices":[39,0,48,62,0,0,0],"split_type":[0,0,0,0,0,0,0],"sum_hessian":[8.0212524E2,6.1718246E1,7.40407E2,6.6685144E2,7.355555E1,3.929729E2,2.7387857E2],"tree_param":{"num_deleted":"0","num_feature":"141","num_nodes":"7","size_leaf_vector":"1"}},{"base_weights":[2.9672259E-3,-2.5284356E-1,3.0061218E-1,-1.3642876E-1,-5.5930716E-1,4.3338898E-1,-0E0,2.1155188E-3,-7.170449E-3,-3.4392974E-3,-2.4964089E-2,1.7108899E-2,-0E0,4.288804E-3,-2.6911134E-3],"categories":[],"categories_nodes":[],"categories_segments":[],"categories_sizes":[],"default_left":[0,0,0,0,0,0,0,0,0,0,0,0,0,0,0],"id":63,"left_children":[1,3,5,7,9,11,13,-1,-1,-1,-1,-1,-1,-1,-1],"loss_changes":[7.026954E1,1.5961676E1,1.5232098E1,8.352927E0,5.6542053E0,8.058571E0,4.7399015E0,0E0,0E0,0E0,0E0,0E0,0E0,0E0,0E0],"parents":[2147483647,0,0,1,1,2,2,3,3,4,4,5,5,6,6],"right_children":[2,4,6,8,10,12,14,-1,-1,-1,-1,-1,-1,-1,-1],"split_conditions":[1E0,1E0,2.926717E-1,-8.441758E-1,-3.6558208E-1,8.65029E-2,5.103706E-1,2.1155188E-3,-7.170449E-3,-3.4392974E-3,-2.4964089E-2,1.7108899E-2,-0E0,4.288804E-3,-2.6911134E-3],"split_indices":[127,43,6,27,137,33,76,0,0,0,0,0,0,0,0],"split_type":[0,0,0,0,0,0,0,0,0,0,0,0,0,0,0],"sum_hessian":[7.9909717E2,4.1728525E2,3.8181192E2,3.2722595E2,9.00593E1,2.507502E2,1.3106174E2,6.542977E1,2.6179617E2,4.042316E1,4.9636143E1,2.0630681E2,4.4443382E1,7.351003E1,5.75517E1],"tree_param":{"num_deleted":"0","num_feature":"141","num_nodes":"15","size_leaf_vector":"1"}},{"base_weights":[1.5010053E-3,-2.273947E-1,2.709873E-1,-7.491294E-2,-4.864195E-1,2.1754358E-2,1.13188736E-1,-4.7145435E-3,3.5000634E-3,-5.5262353E-3,-2.088817E-2,8.590688E-3,-3.4465117E-4],"categories":[],"categories_nodes":[],"categories_segments":[],"categories_sizes":[],"default_left":[0,0,0,0,0,0,0,0,0,0,0,0,0],"id":64,"left_children":[1,3,5,7,9,-1,11,-1,-1,-1,-1,-1,-1],"loss_changes":[5.766619E1,1.729895E1,2.4106194E1,6.268508E0,3.9456673E0,0E0,9.212227E0,0E0,0E0,0E0,0E0,0E0,0E0],"parents":[2147483647,0,0,1,1,2,2,3,3,4,4,6,6],"right_children":[2,4,6,8,10,-1,12,-1,-1,-1,-1,-1,-1],"split_conditions":[1E0,-1.07723534E-1,-5.6316298E-2,1.0672269E0,1.0610939E-1,2.1754358E-2,1.560334E-1,-4.7145435E-3,3.5000634E-3,-5.5262353E-3,-2.088817E-2,8.590688E-3,-3.4465117E-4],"split_indices":[127,40,40,15,10,0,57,0,0,0,0,0,0],"split_type":[0,0,0,0,0,0,0,0,0,0,0,0,0],"sum_hessian":[7.985572E2,4.179162E2,3.8064102E2,2.8660876E2,1.3130743E2,9.209458E1,2.8854642E2,2.406321E2,4.5976685E1,5.9535637E1,7.1771805E1,1.5740475E2,1.3114168E2],"tree_param":{"num_deleted":"0","num_feature":"141","num_nodes":"13","size_leaf_vector":"1"}},{"base_weights":[-0E0,9.952834E-3,-3.1868715E-2,-1.4859316E-1,4.4193525E-2,-8.870934E-3,-0E0,4.997461E-3,-6.0586147E-3],"categories":[],"categories_nodes":[],"categories_segments":[],"categories_sizes":[],"default_left":[0,0,0,0,0,0,0,0,0],"id":65,"left_children":[1,-1,3,5,7,-1,-1,-1,-1],"loss_changes":[1.2301445E1,0E0,9.687124E0,7.4995136E0,1.3846455E1,0E0,0E0,0E0,0E0],"parents":[2147483647,0,0,2,2,3,3,4,4],"right_children":[2,-1,4,6,8,-1,-1,-1,-1],"split_conditions":[-4.1444868E-1,9.952834E-3,7.113553E-2,9.2111185E-2,5.031521E-1,-8.870934E-3,-0E0,4.997461E-3,-6.0586147E-3],"split_indices":[1,0,68,52,26,0,0,0,0],"split_type":[0,0,0,0,0,0,0,0,0],"sum_hessian":[8.013804E2,7.014481E1,7.3123553E2,3.2322406E2,4.080115E2,1.808444E2,1.4237964E2,3.0202283E2,1.0598868E2],"tree_param":{"num_deleted":"0","num_feature":"141","num_nodes":"9","size_leaf_vector":"1"}}]},"name":"gbtree"},"learner_model_param":{"base_score":"[5E-1]","boost_from_average":"1","num_class":"0","num_feature":"141","num_target":"1"},"objective":{"name":"binary:logistic","reg_loss_param":{"scale_pos_weight":"1.13162112"}}},"version":[3,2,0]}